FANN_FLO_2.1
num_layers=3
learning_rate=0.700000
connection_rate=1.000000
network_type=0
learning_momentum=0.000000
training_algorithm=2
train_error_function=1
train_stop_function=0
cascade_output_change_fraction=0.010000
quickprop_decay=-0.000100
quickprop_mu=1.750000
rprop_increase_factor=1.200000
rprop_decrease_factor=0.500000
rprop_delta_min=0.000000
rprop_delta_max=50.000000
rprop_delta_zero=0.100000
cascade_output_stagnation_epochs=12
cascade_candidate_change_fraction=0.010000
cascade_candidate_stagnation_epochs=12
cascade_max_out_epochs=150
cascade_min_out_epochs=50
cascade_max_cand_epochs=150
cascade_min_cand_epochs=50
cascade_num_candidate_groups=2
bit_fail_limit=3.49999994039535522461e-01
cascade_candidate_limit=1.00000000000000000000e+03
cascade_weight_multiplier=4.00000005960464477539e-01
cascade_activation_functions_count=10
cascade_activation_functions=3 5 7 8 10 11 14 15 16 17 
cascade_activation_steepnesses_count=4
cascade_activation_steepnesses=2.50000000000000000000e-01 5.00000000000000000000e-01 7.50000000000000000000e-01 1.00000000000000000000e+00 
layer_sizes=65 31 11 
scale_included=0
neurons (num_inputs, activation_function, activation_steepness)=(0, 0, 0.00000000000000000000e+00) (0, 0, 0.00000000000000000000e+00) (0, 0, 0.00000000000000000000e+00) (0, 0, 0.00000000000000000000e+00) (0, 0, 0.00000000000000000000e+00) (0, 0, 0.00000000000000000000e+00) (0, 0, 0.00000000000000000000e+00) (0, 0, 0.00000000000000000000e+00) (0, 0, 0.00000000000000000000e+00) (0, 0, 0.00000000000000000000e+00) (0, 0, 0.00000000000000000000e+00) (0, 0, 0.00000000000000000000e+00) (0, 0, 0.00000000000000000000e+00) (0, 0, 0.00000000000000000000e+00) (0, 0, 0.00000000000000000000e+00) (0, 0, 0.00000000000000000000e+00) (0, 0, 0.00000000000000000000e+00) (0, 0, 0.00000000000000000000e+00) (0, 0, 0.00000000000000000000e+00) (0, 0, 0.00000000000000000000e+00) (0, 0, 0.00000000000000000000e+00) (0, 0, 0.00000000000000000000e+00) (0, 0, 0.00000000000000000000e+00) (0, 0, 0.00000000000000000000e+00) (0, 0, 0.00000000000000000000e+00) (0, 0, 0.00000000000000000000e+00) (0, 0, 0.00000000000000000000e+00) (0, 0, 0.00000000000000000000e+00) (0, 0, 0.00000000000000000000e+00) (0, 0, 0.00000000000000000000e+00) (0, 0, 0.00000000000000000000e+00) (0, 0, 0.00000000000000000000e+00) (0, 0, 0.00000000000000000000e+00) (0, 0, 0.00000000000000000000e+00) (0, 0, 0.00000000000000000000e+00) (0, 0, 0.00000000000000000000e+00) (0, 0, 0.00000000000000000000e+00) (0, 0, 0.00000000000000000000e+00) (0, 0, 0.00000000000000000000e+00) (0, 0, 0.00000000000000000000e+00) (0, 0, 0.00000000000000000000e+00) (0, 0, 0.00000000000000000000e+00) (0, 0, 0.00000000000000000000e+00) (0, 0, 0.00000000000000000000e+00) (0, 0, 0.00000000000000000000e+00) (0, 0, 0.00000000000000000000e+00) (0, 0, 0.00000000000000000000e+00) (0, 0, 0.00000000000000000000e+00) (0, 0, 0.00000000000000000000e+00) (0, 0, 0.00000000000000000000e+00) (0, 0, 0.00000000000000000000e+00) (0, 0, 0.00000000000000000000e+00) (0, 0, 0.00000000000000000000e+00) (0, 0, 0.00000000000000000000e+00) (0, 0, 0.00000000000000000000e+00) (0, 0, 0.00000000000000000000e+00) (0, 0, 0.00000000000000000000e+00) (0, 0, 0.00000000000000000000e+00) (0, 0, 0.00000000000000000000e+00) (0, 0, 0.00000000000000000000e+00) (0, 0, 0.00000000000000000000e+00) (0, 0, 0.00000000000000000000e+00) (0, 0, 0.00000000000000000000e+00) (0, 0, 0.00000000000000000000e+00) (0, 0, 0.00000000000000000000e+00) (65, 3, 5.00000000000000000000e-01) (65, 3, 5.00000000000000000000e-01) (65, 3, 5.00000000000000000000e-01) (65, 3, 5.00000000000000000000e-01) (65, 3, 5.00000000000000000000e-01) (65, 3, 5.00000000000000000000e-01) (65, 3, 5.00000000000000000000e-01) (65, 3, 5.00000000000000000000e-01) (65, 3, 5.00000000000000000000e-01) (65, 3, 5.00000000000000000000e-01) (65, 3, 5.00000000000000000000e-01) (65, 3, 5.00000000000000000000e-01) (65, 3, 5.00000000000000000000e-01) (65, 3, 5.00000000000000000000e-01) (65, 3, 5.00000000000000000000e-01) (65, 3, 5.00000000000000000000e-01) (65, 3, 5.00000000000000000000e-01) (65, 3, 5.00000000000000000000e-01) (65, 3, 5.00000000000000000000e-01) (65, 3, 5.00000000000000000000e-01) (65, 3, 5.00000000000000000000e-01) (65, 3, 5.00000000000000000000e-01) (65, 3, 5.00000000000000000000e-01) (65, 3, 5.00000000000000000000e-01) (65, 3, 5.00000000000000000000e-01) (65, 3, 5.00000000000000000000e-01) (65, 3, 5.00000000000000000000e-01) (65, 3, 5.00000000000000000000e-01) (65, 3, 5.00000000000000000000e-01) (65, 3, 5.00000000000000000000e-01) (0, 3, 0.00000000000000000000e+00) (31, 3, 5.00000000000000000000e-01) (31, 3, 5.00000000000000000000e-01) (31, 3, 5.00000000000000000000e-01) (31, 3, 5.00000000000000000000e-01) (31, 3, 5.00000000000000000000e-01) (31, 3, 5.00000000000000000000e-01) (31, 3, 5.00000000000000000000e-01) (31, 3, 5.00000000000000000000e-01) (31, 3, 5.00000000000000000000e-01) (31, 3, 5.00000000000000000000e-01) (0, 3, 0.00000000000000000000e+00) 
connections (connected_to_neuron, weight)=(0, 1.50000000000000000000e+03) (1, 1.50000000000000000000e+03) (2, 1.38173742675781250000e+03) (3, 1.48703991699218750000e+03) (4, 1.48500000000000000000e+03) (5, -1.40371240234375000000e+03) (6, 1.50000000000000000000e+03) (7, 1.50000000000000000000e+03) (8, -1.37198974609375000000e+03) (9, 1.50000000000000000000e+03) (10, 1.37072766113281250000e+03) (11, 1.48500000000000000000e+03) (12, 1.49998522949218750000e+03) (13, -7.77062500000000000000e+02) (14, 1.50000000000000000000e+03) (15, 1.49467895507812500000e+03) (16, 1.50000000000000000000e+03) (17, -1.40293713378906250000e+03) (18, -1.43237622070312500000e+03) (19, -1.41980847167968750000e+03) (20, 1.20600878906250000000e+03) (21, 1.48500000000000000000e+03) (22, 1.50000000000000000000e+03) (23, 1.50000000000000000000e+03) (24, -8.43540283203125000000e+02) (25, -1.35879003906250000000e+03) (26, -1.46104577636718750000e+03) (27, -1.36846765136718750000e+03) (28, 1.48500000000000000000e+03) (29, 1.48500000000000000000e+03) (30, 1.50000000000000000000e+03) (31, 1.43400000000000000000e+03) (32, 1.48240380859375000000e+03) (33, 1.50000000000000000000e+03) (34, 1.48500000000000000000e+03) (35, 1.48500000000000000000e+03) (36, 1.50000000000000000000e+03) (37, 1.50000000000000000000e+03) (38, 1.50000000000000000000e+03) (39, 1.50000000000000000000e+03) (40, 1.50000000000000000000e+03) (41, 1.50000000000000000000e+03) (42, 1.50000000000000000000e+03) (43, 1.48500000000000000000e+03) (44, 1.48500000000000000000e+03) (45, 1.50000000000000000000e+03) (46, 1.50000000000000000000e+03) (47, 1.39732006835937500000e+03) (48, 1.50000000000000000000e+03) (49, 1.50000000000000000000e+03) (50, -1.27136840820312500000e+03) (51, 1.50000000000000000000e+03) (52, 1.48500000000000000000e+03) (53, 1.50000000000000000000e+03) (54, 1.50000000000000000000e+03) (55, 1.29670654296875000000e+02) (56, -1.47120593261718750000e+03) (57, 1.43400000000000000000e+03) (58, 1.48837451171875000000e+03) (59, 1.49982788085937500000e+03) (60, 1.50000000000000000000e+03) (61, 1.50000000000000000000e+03) (62, 1.49352001953125000000e+03) (63, 9.64826782226562500000e+02) (64, 1.48500000000000000000e+03) (0, 1.50000000000000000000e+03) (1, 2.91314458847045898438e+00) (2, -1.36815235018730163574e-01) (3, -2.06324830651283264160e-01) (4, 5.87358951568603515625e-01) (5, 3.68887281417846679688e+00) (6, -1.73592817783355712891e+00) (7, -2.47683238983154296875e+00) (8, 1.50000000000000000000e+03) (9, -1.77654850482940673828e+00) (10, -3.50383758544921875000e-01) (11, -2.71484434604644775391e-01) (12, -2.20155790448188781738e-01) (13, 8.51759433746337890625e-01) (14, 8.35193693637847900391e-01) (15, -9.28696727752685546875e+00) (16, 2.74497628211975097656e-01) (17, 2.60848492383956909180e-01) (18, 1.22308897972106933594e+00) (19, 3.40774321556091308594e+00) (20, -4.70620185136795043945e-01) (21, 7.37982839345932006836e-02) (22, -1.03047955036163330078e+00) (23, 8.59337615966796875000e+00) (24, 1.49110827636718750000e+03) (25, -1.00496983528137207031e+00) (26, 2.32117223739624023438e+00) (27, 2.24602222442626953125e+00) (28, -3.45251291990280151367e-01) (29, -4.27391380071640014648e-01) (30, -4.14275932312011718750e+00) (31, -1.43852001953125000000e+03) (32, -1.39477124023437500000e+03) (33, 4.47169971466064453125e+00) (34, 9.77717876434326171875e-01) (35, 1.90963566303253173828e+00) (36, 3.63979250192642211914e-01) (37, -1.47048205137252807617e-01) (38, -2.71742343902587890625e-01) (39, 1.50000000000000000000e+03) (40, 9.09886741638183593750e+00) (41, -4.22115468978881835938e+00) (42, -1.14201016724109649658e-01) (43, -2.75368547439575195312e+00) (44, 1.86307752132415771484e+00) (45, 3.67116761207580566406e+00) (46, 4.88664722442626953125e+00) (47, -1.03506774902343750000e+01) (48, -1.82744674682617187500e+01) (49, -1.96289885044097900391e+00) (50, 1.58375114202499389648e-01) (51, -2.18915915489196777344e+00) (52, -1.08220112323760986328e+00) (53, -1.02423691749572753906e+00) (54, -1.00536644458770751953e+00) (55, -1.77811682224273681641e+00) (56, -1.50000000000000000000e+03) (57, -4.90523815155029296875e+00) (58, -1.53504218906164169312e-03) (59, -1.58593505620956420898e-01) (60, -2.82857548445463180542e-02) (61, -9.63657975196838378906e-01) (62, -2.33693218231201171875e+00) (63, -1.24612462520599365234e+00) (64, -1.64372712373733520508e-01) (0, 1.50000000000000000000e+03) (1, 1.00665643310546875000e+03) (2, -2.71533355712890625000e+02) (3, -1.43028796386718750000e+03) (4, -1.43952001953125000000e+03) (5, -1.40900000000000000000e+03) (6, -1.50000000000000000000e+03) (7, 2.39231948852539062500e+02) (8, -7.82425231933593750000e+02) (9, -7.46733825683593750000e+02) (10, -1.12216955566406250000e+03) (11, -1.46408410644531250000e+03) (12, -1.43028796386718750000e+03) (13, -1.03869824218750000000e+03) (14, -1.50000000000000000000e+03) (15, 1.49953955078125000000e+03) (16, -1.50000000000000000000e+03) (17, 1.44005273437500000000e+03) (18, 6.22699035644531250000e+02) (19, 1.49005834960937500000e+03) (20, -7.76910095214843750000e+02) (21, -1.43000000000000000000e+03) (22, -1.50000000000000000000e+03) (23, -1.45957495117187500000e+03) (24, 5.00065124511718750000e+02) (25, 1.49210900878906250000e+03) (26, 1.49999731445312500000e+03) (27, 3.94203567504882812500e+01) (28, -1.42573303222656250000e+03) (29, 1.15172325134277343750e+02) (30, -1.50000000000000000000e+03) (31, -6.96724304199218750000e+02) (32, -1.33599768066406250000e+03) (33, -1.50000000000000000000e+03) (34, -1.50000000000000000000e+03) (35, -1.43028796386718750000e+03) (36, -1.50000000000000000000e+03) (37, -1.50000000000000000000e+03) (38, -1.50000000000000000000e+03) (39, 1.50000000000000000000e+03) (40, -1.41339257812500000000e+03) (41, -1.50000000000000000000e+03) (42, -1.47167102050781250000e+03) (43, -1.45938122558593750000e+03) (44, -1.46237670898437500000e+03) (45, -1.50000000000000000000e+03) (46, -1.49999084472656250000e+03) (47, -1.06078381347656250000e+03) (48, 1.49186022949218750000e+03) (49, -1.43000000000000000000e+03) (50, -1.25047338867187500000e+03) (51, -1.45938122558593750000e+03) (52, -1.50000000000000000000e+03) (53, -1.50000000000000000000e+03) (54, -1.44534619140625000000e+03) (55, -9.35853271484375000000e+02) (56, 1.50000000000000000000e+03) (57, 1.43591015625000000000e+03) (58, -1.01932989501953125000e+03) (59, -1.43028796386718750000e+03) (60, -1.50000000000000000000e+03) (61, -1.50000000000000000000e+03) (62, -4.46850769042968750000e+02) (63, 1.38141809082031250000e+03) (64, -1.43028796386718750000e+03) (0, 1.50000000000000000000e+03) (1, 1.48813928222656250000e+03) (2, -1.47106591796875000000e+03) (3, 1.48792968750000000000e+03) (4, 1.45283508300781250000e+03) (5, 1.43767956542968750000e+03) (6, 1.22469140625000000000e+03) (7, -1.50000000000000000000e+03) (8, -1.50000000000000000000e+03) (9, -1.49025329589843750000e+03) (10, 8.27824707031250000000e+02) (11, 1.33216931152343750000e+03) (12, 1.33216931152343750000e+03) (13, 9.04973449707031250000e+02) (14, -1.50000000000000000000e+03) (15, -1.49803576660156250000e+03) (16, 1.50000000000000000000e+03) (17, -1.50000000000000000000e+03) (18, -1.44800000000000000000e+03) (19, -4.67350830078125000000e+02) (20, 1.33216931152343750000e+03) (21, 7.32059020996093750000e+02) (22, -1.50000000000000000000e+03) (23, 1.43670568847656250000e+03) (24, 1.50000000000000000000e+03) (25, -9.50341064453125000000e+02) (26, -9.56802551269531250000e+02) (27, -1.37277526855468750000e+03) (28, 1.15976245117187500000e+03) (29, -7.13126342773437500000e+02) (30, -1.50000000000000000000e+03) (31, 1.19681066894531250000e+03) (32, -1.20449926757812500000e+03) (33, 9.03642883300781250000e+02) (34, -1.15660949707031250000e+03) (35, 1.23445764160156250000e+03) (36, -1.27847106933593750000e+03) (37, 1.36731774902343750000e+03) (38, -1.24844250488281250000e+03) (39, 1.50000000000000000000e+03) (40, -1.48942822265625000000e+03) (41, -1.50000000000000000000e+03) (42, -1.50000000000000000000e+03) (43, -1.39100000000000000000e+03) (44, -1.49013439941406250000e+03) (45, -3.41066711425781250000e+02) (46, -1.40256811523437500000e+03) (47, -1.35439477539062500000e+03) (48, -1.47780310058593750000e+03) (49, -1.50000000000000000000e+03) (50, -1.50000000000000000000e+03) (51, -1.06467553710937500000e+03) (52, -1.46492883300781250000e+03) (53, -1.10405871582031250000e+03) (54, 1.50000000000000000000e+03) (55, -1.07642785644531250000e+03) (56, 1.24133862304687500000e+03) (57, -2.97869472503662109375e+01) (58, -6.99807067871093750000e+02) (59, -1.32752978515625000000e+03) (60, -1.48118249511718750000e+03) (61, 1.48680371093750000000e+03) (62, 1.50000000000000000000e+03) (63, -3.81983413696289062500e+01) (64, 3.72689723968505859375e-01) (0, 1.50000000000000000000e+03) (1, 5.16305446624755859375e+00) (2, -2.76618916541337966919e-03) (3, 5.23274064064025878906e-01) (4, 4.59459215402603149414e-01) (5, 7.85854637622833251953e-01) (6, 1.00925529003143310547e+00) (7, 4.90511357784271240234e-02) (8, 6.87914306640625000000e+02) (9, 4.13031280040740966797e-01) (10, 1.36590695381164550781e+00) (11, 8.67576524615287780762e-02) (12, 6.98573589324951171875e-01) (13, 4.87831979990005493164e-01) (14, -7.68252193927764892578e-01) (15, 1.48916482925415039062e-01) (16, 1.90857708454132080078e+00) (17, 1.41592204570770263672e-01) (18, -1.13577224314212799072e-01) (19, -8.88134300708770751953e-01) (20, -6.33382856845855712891e-01) (21, 7.16180443763732910156e-01) (22, 1.16992056369781494141e-01) (23, 2.15115523338317871094e+00) (24, -1.50000000000000000000e+03) (25, -5.59358358383178710938e-01) (26, -2.82087892293930053711e-01) (27, -9.21488478779792785645e-02) (28, 6.68492615222930908203e-02) (29, 1.93112254142761230469e-01) (30, -4.40893501043319702148e-01) (31, -1.65507869720458984375e+01) (32, -1.50000000000000000000e+03) (33, -3.56391638517379760742e-01) (34, -1.48156713694334030151e-02) (35, 1.33919087238609790802e-03) (36, -6.19945287704467773438e-01) (37, -8.66072654724121093750e-01) (38, -3.33405494689941406250e-01) (39, 1.50000000000000000000e+03) (40, -1.50000000000000000000e+03) (41, -3.43037933111190795898e-01) (42, -6.65902122855186462402e-02) (43, -1.67497336864471435547e+00) (44, -5.81804037094116210938e-01) (45, 1.26369491219520568848e-01) (46, 9.51531231403350830078e-01) (47, 7.77246952056884765625e+00) (48, -2.98831085205078125000e+02) (49, 4.26027745008468627930e-01) (50, 2.18298360705375671387e-01) (51, -5.47620952129364013672e-02) (52, -2.07793518900871276855e-01) (53, 4.48744624853134155273e-01) (54, -2.90539354085922241211e-01) (55, -3.65337514877319335938e+00) (56, 1.50000000000000000000e+03) (57, -5.71838998794555664062e+00) (58, 3.36079120635986328125e-01) (59, 7.92287111282348632812e-01) (60, 9.94125232100486755371e-02) (61, -7.25565016269683837891e-01) (62, 3.58944445848464965820e-01) (63, 6.19156956672668457031e-01) (64, 4.29347753524780273438e-01) (0, 1.50000000000000000000e+03) (1, 1.47000000000000000000e+03) (2, 1.44297595214843750000e+03) (3, 1.49979846191406250000e+03) (4, 1.48500000000000000000e+03) (5, 1.50000000000000000000e+03) (6, 1.50000000000000000000e+03) (7, 1.50000000000000000000e+03) (8, -1.37198974609375000000e+03) (9, 1.48500000000000000000e+03) (10, 1.49982336425781250000e+03) (11, 1.48500000000000000000e+03) (12, 1.49736401367187500000e+03) (13, 1.49782202148437500000e+03) (14, 1.50000000000000000000e+03) (15, 5.07875442504882812500e+01) (16, 1.50000000000000000000e+03) (17, -1.38600097656250000000e+03) (18, -1.44688122558593750000e+03) (19, -1.16017651367187500000e+03) (20, 1.46371362304687500000e+03) (21, 1.12685852050781250000e+03) (22, 1.50000000000000000000e+03) (23, 1.50000000000000000000e+03) (24, -8.43540283203125000000e+02) (25, -1.44688122558593750000e+03) (26, -1.44688122558593750000e+03) (27, 1.33141442871093750000e+03) (28, 1.26263586425781250000e+03) (29, -1.39289428710937500000e+03) (30, 1.50000000000000000000e+03) (31, 1.43400000000000000000e+03) (32, 1.50000000000000000000e+03) (33, 1.50000000000000000000e+03) (34, 1.50000000000000000000e+03) (35, 1.50000000000000000000e+03) (36, 1.50000000000000000000e+03) (37, 1.49483374023437500000e+03) (38, 1.50000000000000000000e+03) (39, 1.50000000000000000000e+03) (40, 1.50000000000000000000e+03) (41, 1.50000000000000000000e+03) (42, 1.50000000000000000000e+03) (43, 1.50000000000000000000e+03) (44, 1.50000000000000000000e+03) (45, 1.50000000000000000000e+03) (46, -1.42681457519531250000e+03) (47, -1.50000000000000000000e+03) (48, 1.50000000000000000000e+03) (49, 1.50000000000000000000e+03) (50, 1.50000000000000000000e+03) (51, 1.49494238281250000000e+03) (52, 1.50000000000000000000e+03) (53, 1.50000000000000000000e+03) (54, -1.47403820800781250000e+03) (55, -1.50000000000000000000e+03) (56, -1.42623669433593750000e+03) (57, 1.43400000000000000000e+03) (58, 1.43400000000000000000e+03) (59, 1.48500000000000000000e+03) (60, 1.50000000000000000000e+03) (61, 4.03641754150390625000e+02) (62, -1.14831689453125000000e+03) (63, 1.24471458435058593750e+02) (64, 1.48501989746093750000e+03) (0, 1.50000000000000000000e+03) (1, 1.50000000000000000000e+03) (2, 1.46935754394531250000e+03) (3, 1.48703991699218750000e+03) (4, 1.48500000000000000000e+03) (5, -1.40387707519531250000e+03) (6, 1.50000000000000000000e+03) (7, 1.43400000000000000000e+03) (8, -1.37198974609375000000e+03) (9, 1.50000000000000000000e+03) (10, 1.49768859863281250000e+03) (11, 1.48703991699218750000e+03) (12, 1.49998522949218750000e+03) (13, -1.08671032714843750000e+03) (14, 1.50000000000000000000e+03) (15, -8.43123413085937500000e+02) (16, 1.50000000000000000000e+03) (17, -1.39825781250000000000e+03) (18, -1.34856127929687500000e+03) (19, -1.31993859863281250000e+03) (20, 1.36187158203125000000e+03) (21, 1.48500000000000000000e+03) (22, 1.50000000000000000000e+03) (23, 1.50000000000000000000e+03) (24, -8.43540283203125000000e+02) (25, -1.43521887207031250000e+03) (26, -1.38242077636718750000e+03) (27, -1.36895141601562500000e+03) (28, 1.48500000000000000000e+03) (29, 1.49384838867187500000e+03) (30, 1.50000000000000000000e+03) (31, 1.43400000000000000000e+03) (32, 1.48479699707031250000e+03) (33, 1.50000000000000000000e+03) (34, 1.48500000000000000000e+03) (35, 1.48500000000000000000e+03) (36, 1.50000000000000000000e+03) (37, 1.50000000000000000000e+03) (38, 1.50000000000000000000e+03) (39, 1.50000000000000000000e+03) (40, 1.50000000000000000000e+03) (41, 1.50000000000000000000e+03) (42, 1.48500000000000000000e+03) (43, 1.48500000000000000000e+03) (44, 1.48500000000000000000e+03) (45, 1.50000000000000000000e+03) (46, 1.50000000000000000000e+03) (47, 1.39732006835937500000e+03) (48, 1.43400000000000000000e+03) (49, 1.50000000000000000000e+03) (50, -1.30185925292968750000e+03) (51, 1.50000000000000000000e+03) (52, 1.48500000000000000000e+03) (53, 1.50000000000000000000e+03) (54, 1.50000000000000000000e+03) (55, 5.29375549316406250000e+02) (56, -1.49169262695312500000e+03) (57, 1.43400000000000000000e+03) (58, 1.48837207031250000000e+03) (59, 1.49999816894531250000e+03) (60, 1.50000000000000000000e+03) (61, 1.50000000000000000000e+03) (62, 1.49352001953125000000e+03) (63, 6.77971984863281250000e+02) (64, 1.48500000000000000000e+03) (0, 1.50000000000000000000e+03) (1, 1.43400000000000000000e+03) (2, 1.24734985351562500000e+03) (3, 1.44297595214843750000e+03) (4, 1.48500000000000000000e+03) (5, -1.43368823242187500000e+03) (6, 1.50000000000000000000e+03) (7, 1.43400000000000000000e+03) (8, -1.48366076660156250000e+03) (9, 1.50000000000000000000e+03) (10, 1.49907263183593750000e+03) (11, 1.49911315917968750000e+03) (12, 1.49751452636718750000e+03) (13, -7.35872497558593750000e+02) (14, 1.50000000000000000000e+03) (15, -1.45421618652343750000e+03) (16, 1.50000000000000000000e+03) (17, -1.47500170898437500000e+03) (18, -1.30594299316406250000e+03) (19, -1.31993859863281250000e+03) (20, 9.69815063476562500000e+02) (21, 1.48500000000000000000e+03) (22, 1.50000000000000000000e+03) (23, 1.43400000000000000000e+03) (24, -1.24953857421875000000e+03) (25, -1.36699426269531250000e+03) (26, -1.38817407226562500000e+03) (27, -1.12531591796875000000e+03) (28, 1.48500000000000000000e+03) (29, 1.16890319824218750000e+03) (30, 1.50000000000000000000e+03) (31, 1.33560375976562500000e+03) (32, 1.48240380859375000000e+03) (33, 1.50000000000000000000e+03) (34, 1.50000000000000000000e+03) (35, 1.48500000000000000000e+03) (36, 1.50000000000000000000e+03) (37, 1.50000000000000000000e+03) (38, 1.50000000000000000000e+03) (39, 1.50000000000000000000e+03) (40, 1.50000000000000000000e+03) (41, 1.50000000000000000000e+03) (42, 1.50000000000000000000e+03) (43, 1.48500000000000000000e+03) (44, 1.50000000000000000000e+03) (45, 1.50000000000000000000e+03) (46, 1.50000000000000000000e+03) (47, 1.39732006835937500000e+03) (48, 1.50000000000000000000e+03) (49, 1.50000000000000000000e+03) (50, 1.90957748413085937500e+02) (51, 1.50000000000000000000e+03) (52, 1.50000000000000000000e+03) (53, 1.50000000000000000000e+03) (54, 1.50000000000000000000e+03) (55, -4.97907066345214843750e+01) (56, -1.17557409667968750000e+03) (57, 1.43400000000000000000e+03) (58, 9.29818542480468750000e+02) (59, 1.49999987792968750000e+03) (60, 1.50000000000000000000e+03) (61, 1.50000000000000000000e+03) (62, 1.49352001953125000000e+03) (63, 1.05401501464843750000e+03) (64, 1.48500000000000000000e+03) (0, 1.50000000000000000000e+03) (1, 1.50000000000000000000e+03) (2, 1.47034545898437500000e+03) (3, 1.49896020507812500000e+03) (4, 1.48500000000000000000e+03) (5, -1.35759057617187500000e+03) (6, 1.50000000000000000000e+03) (7, 1.50000000000000000000e+03) (8, -1.34196240234375000000e+03) (9, 1.50000000000000000000e+03) (10, 1.49995666503906250000e+03) (11, 1.49885046386718750000e+03) (12, 1.49870483398437500000e+03) (13, -6.99914367675781250000e+02) (14, 1.50000000000000000000e+03) (15, 1.50000000000000000000e+03) (16, 1.42778527832031250000e+03) (17, -1.30656726074218750000e+03) (18, -1.34144787597656250000e+03) (19, -1.38067736816406250000e+03) (20, -5.28849487304687500000e+02) (21, 1.49997106933593750000e+03) (22, 1.50000000000000000000e+03) (23, 1.50000000000000000000e+03) (24, -1.50000000000000000000e+03) (25, -1.05614196777343750000e+03) (26, -1.48637084960937500000e+03) (27, -1.34376550292968750000e+03) (28, 8.33745605468750000000e+02) (29, 1.50000000000000000000e+03) (30, 1.50000000000000000000e+03) (31, 1.43400000000000000000e+03) (32, 1.48240380859375000000e+03) (33, 1.50000000000000000000e+03) (34, 1.50000000000000000000e+03) (35, 1.48500000000000000000e+03) (36, 1.50000000000000000000e+03) (37, 1.50000000000000000000e+03) (38, 1.50000000000000000000e+03) (39, 1.50000000000000000000e+03) (40, 1.50000000000000000000e+03) (41, 1.50000000000000000000e+03) (42, 1.48500000000000000000e+03) (43, 1.49328161621093750000e+03) (44, 1.48500000000000000000e+03) (45, 1.50000000000000000000e+03) (46, 1.50000000000000000000e+03) (47, 1.50000000000000000000e+03) (48, 1.50000000000000000000e+03) (49, 1.50000000000000000000e+03) (50, -1.45099218750000000000e+03) (51, 1.50000000000000000000e+03) (52, 1.48500000000000000000e+03) (53, 8.08824096679687500000e+02) (54, 1.50000000000000000000e+03) (55, -1.14414379882812500000e+03) (56, -1.42623669433593750000e+03) (57, 1.43400000000000000000e+03) (58, 1.01356622314453125000e+03) (59, 1.49703210449218750000e+03) (60, 1.50000000000000000000e+03) (61, 1.50000000000000000000e+03) (62, 1.06918298339843750000e+03) (63, -1.50000000000000000000e+03) (64, 1.48500000000000000000e+03) (0, 1.50000000000000000000e+03) (1, -1.50000000000000000000e+03) (2, -1.50000000000000000000e+03) (3, -1.00456707763671875000e+03) (4, -1.46514196777343750000e+03) (5, -1.50000000000000000000e+03) (6, -1.30493823242187500000e+03) (7, -1.50000000000000000000e+03) (8, 1.50000000000000000000e+03) (9, -1.50000000000000000000e+03) (10, 1.24199682617187500000e+03) (11, -1.40373632812500000000e+03) (12, -1.50000000000000000000e+03) (13, 1.42033520507812500000e+03) (14, 1.50000000000000000000e+03) (15, 1.10894274902343750000e+03) (16, -1.47500000000000000000e+03) (17, -1.24080004882812500000e+03) (18, 1.50000000000000000000e+03) (19, 1.50000000000000000000e+03) (20, -1.50000000000000000000e+03) (21, 1.50000000000000000000e+03) (22, 1.50000000000000000000e+03) (23, 2.85014282226562500000e+02) (24, -1.50000000000000000000e+03) (25, 1.50000000000000000000e+03) (26, 1.50000000000000000000e+03) (27, -1.09271691894531250000e+03) (28, -1.50000000000000000000e+03) (29, 1.01054821777343750000e+03) (30, -1.50000000000000000000e+03) (31, -1.50000000000000000000e+03) (32, 1.49606018066406250000e+03) (33, 6.47880187988281250000e+02) (34, -9.31425048828125000000e+02) (35, -1.50000000000000000000e+03) (36, -1.20540234375000000000e+03) (37, -1.49546569824218750000e+03) (38, -1.50000000000000000000e+03) (39, 1.50000000000000000000e+03) (40, 1.50000000000000000000e+03) (41, -3.13767280578613281250e+01) (42, 1.50000000000000000000e+03) (43, -1.50000000000000000000e+03) (44, -1.16176208496093750000e+03) (45, 1.50000000000000000000e+03) (46, 1.50000000000000000000e+03) (47, 1.50000000000000000000e+03) (48, 1.50000000000000000000e+03) (49, 1.50000000000000000000e+03) (50, 1.50000000000000000000e+03) (51, -1.17441247558593750000e+03) (52, 1.50000000000000000000e+03) (53, 1.50000000000000000000e+03) (54, 1.50000000000000000000e+03) (55, 1.50000000000000000000e+03) (56, -1.50000000000000000000e+03) (57, -1.50000000000000000000e+03) (58, -8.59474853515625000000e+02) (59, 1.50000000000000000000e+03) (60, 1.50000000000000000000e+03) (61, 1.50000000000000000000e+03) (62, 1.50000000000000000000e+03) (63, 1.50000000000000000000e+03) (64, 7.51969665288925170898e-02) (0, 1.50000000000000000000e+03) (1, 1.50000000000000000000e+03) (2, 1.41643896484375000000e+03) (3, 1.48764294433593750000e+03) (4, -8.83340576171875000000e+02) (5, -1.44669323730468750000e+03) (6, 1.48500000000000000000e+03) (7, 1.43400000000000000000e+03) (8, -1.42969799804687500000e+03) (9, 1.50000000000000000000e+03) (10, 1.49999963378906250000e+03) (11, 1.49994030761718750000e+03) (12, 1.08964440917968750000e+03) (13, -1.34703833007812500000e+03) (14, 1.50000000000000000000e+03) (15, 1.33001538085937500000e+03) (16, -1.50000000000000000000e+03) (17, -1.46818054199218750000e+03) (18, -1.46182043457031250000e+03) (19, -1.23604028320312500000e+03) (20, -1.50000000000000000000e+03) (21, 1.50000000000000000000e+03) (22, 1.50000000000000000000e+03) (23, 1.43400000000000000000e+03) (24, -1.48200000000000000000e+03) (25, -1.46916027832031250000e+03) (26, -1.48148596191406250000e+03) (27, 1.49999011230468750000e+03) (28, 1.48760119628906250000e+03) (29, -5.79504272460937500000e+02) (30, 1.50000000000000000000e+03) (31, 1.23059680175781250000e+03) (32, 1.48240380859375000000e+03) (33, 1.50000000000000000000e+03) (34, 1.50000000000000000000e+03) (35, 1.50000000000000000000e+03) (36, 1.50000000000000000000e+03) (37, 1.50000000000000000000e+03) (38, 1.48500000000000000000e+03) (39, 1.50000000000000000000e+03) (40, 1.50000000000000000000e+03) (41, 1.50000000000000000000e+03) (42, 1.50000000000000000000e+03) (43, 1.50000000000000000000e+03) (44, 1.50000000000000000000e+03) (45, 1.50000000000000000000e+03) (46, 1.49736096191406250000e+03) (47, 1.47088513183593750000e+03) (48, 1.50000000000000000000e+03) (49, 1.50000000000000000000e+03) (50, 1.50000000000000000000e+03) (51, 1.50000000000000000000e+03) (52, 1.50000000000000000000e+03) (53, 1.50000000000000000000e+03) (54, 1.46001281738281250000e+03) (55, 7.60009216308593750000e+02) (56, 1.42164892578125000000e+03) (57, 1.50000000000000000000e+03) (58, 1.34115783691406250000e+03) (59, 1.50000000000000000000e+03) (60, 1.50000000000000000000e+03) (61, 1.50000000000000000000e+03) (62, 1.47966137695312500000e+03) (63, 1.09126135253906250000e+03) (64, 1.48500000000000000000e+03) (0, 1.50000000000000000000e+03) (1, -6.32213989257812500000e+02) (2, 1.20223974609375000000e+03) (3, 1.49101464843750000000e+03) (4, 1.50000000000000000000e+03) (5, 1.50000000000000000000e+03) (6, 1.50000000000000000000e+03) (7, 3.71180633544921875000e+02) (8, 1.50000000000000000000e+03) (9, 9.98860351562500000000e+02) (10, 4.50357757568359375000e+02) (11, -1.41637512207031250000e+03) (12, -1.35124841308593750000e+03) (13, 1.50000000000000000000e+03) (14, 1.50000000000000000000e+03) (15, 1.50000000000000000000e+03) (16, 8.77314819335937500000e+02) (17, -8.56587341308593750000e+02) (18, 1.47369421386718750000e+03) (19, -1.32540832519531250000e+02) (20, -1.50000000000000000000e+03) (21, -1.47029003906250000000e+03) (22, -5.92142517089843750000e+02) (23, 1.50000000000000000000e+03) (24, -1.50000000000000000000e+03) (25, -5.46478820800781250000e+02) (26, 1.49983068847656250000e+03) (27, 1.50000000000000000000e+03) (28, 1.50000000000000000000e+03) (29, -1.37508776855468750000e+03) (30, -1.28036254882812500000e+03) (31, 1.50000000000000000000e+03) (32, 1.46711621093750000000e+03) (33, -1.50000000000000000000e+03) (34, -1.49595715332031250000e+03) (35, 1.50000000000000000000e+03) (36, 1.50000000000000000000e+03) (37, 1.37009667968750000000e+03) (38, -1.36292077636718750000e+03) (39, 1.50000000000000000000e+03) (40, 1.50000000000000000000e+03) (41, -1.50000000000000000000e+03) (42, -1.50000000000000000000e+03) (43, 1.50000000000000000000e+03) (44, 1.50000000000000000000e+03) (45, -1.39058093261718750000e+03) (46, -1.41633459472656250000e+03) (47, 1.32169189453125000000e+03) (48, 1.50000000000000000000e+03) (49, -1.50000000000000000000e+03) (50, -1.50000000000000000000e+03) (51, -1.47746691894531250000e+03) (52, -1.11442834472656250000e+03) (53, -1.23254345703125000000e+03) (54, 6.48798095703125000000e+02) (55, 6.91012756347656250000e+02) (56, 1.50000000000000000000e+03) (57, -1.50000000000000000000e+03) (58, 1.41970617675781250000e+03) (59, 9.44855041503906250000e+02) (60, -1.40786279296875000000e+03) (61, 1.09091540527343750000e+03) (62, 1.50000000000000000000e+03) (63, 1.50000000000000000000e+03) (64, 3.31592082977294921875e+00) (0, 1.50000000000000000000e+03) (1, 1.50000000000000000000e+03) (2, 1.44589941406250000000e+03) (3, 1.48703991699218750000e+03) (4, 1.48500000000000000000e+03) (5, -1.40145666503906250000e+03) (6, 1.50000000000000000000e+03) (7, 1.48500000000000000000e+03) (8, -1.40108532714843750000e+03) (9, 1.50000000000000000000e+03) (10, 1.49849926757812500000e+03) (11, 1.48629321289062500000e+03) (12, 1.49972375488281250000e+03) (13, -5.89122253417968750000e+02) (14, 1.50000000000000000000e+03) (15, 7.57049072265625000000e+02) (16, 1.50000000000000000000e+03) (17, -1.38197033691406250000e+03) (18, -1.39463415527343750000e+03) (19, -1.31993859863281250000e+03) (20, 1.36977172851562500000e+03) (21, 1.48500000000000000000e+03) (22, 1.50000000000000000000e+03) (23, 1.50000000000000000000e+03) (24, -8.43540283203125000000e+02) (25, -1.46402209472656250000e+03) (26, -1.39919030761718750000e+03) (27, -1.36914062500000000000e+03) (28, 1.48500000000000000000e+03) (29, 1.48500000000000000000e+03) (30, 1.50000000000000000000e+03) (31, 1.43400000000000000000e+03) (32, 1.48479699707031250000e+03) (33, 1.50000000000000000000e+03) (34, 1.48500000000000000000e+03) (35, 1.48500000000000000000e+03) (36, 1.50000000000000000000e+03) (37, 1.50000000000000000000e+03) (38, 1.50000000000000000000e+03) (39, 1.50000000000000000000e+03) (40, 1.50000000000000000000e+03) (41, 1.50000000000000000000e+03) (42, 1.48500000000000000000e+03) (43, 1.48500000000000000000e+03) (44, 1.48500000000000000000e+03) (45, 1.50000000000000000000e+03) (46, 1.50000000000000000000e+03) (47, 1.39732006835937500000e+03) (48, 1.43400000000000000000e+03) (49, 1.50000000000000000000e+03) (50, -1.30689599609375000000e+03) (51, 1.50000000000000000000e+03) (52, 1.48500000000000000000e+03) (53, 1.50000000000000000000e+03) (54, 1.50000000000000000000e+03) (55, 4.35087005615234375000e+02) (56, -1.49169262695312500000e+03) (57, 1.43400000000000000000e+03) (58, 1.48627734375000000000e+03) (59, 1.49999816894531250000e+03) (60, 1.50000000000000000000e+03) (61, 1.50000000000000000000e+03) (62, 1.49352001953125000000e+03) (63, 7.94155700683593750000e+02) (64, 1.48500000000000000000e+03) (0, 1.50000000000000000000e+03) (1, -1.50000000000000000000e+03) (2, -5.67023559570312500000e+02) (3, 9.14847314357757568359e-01) (4, -9.60735839843750000000e+02) (5, 1.48313745117187500000e+03) (6, 1.28042480468750000000e+03) (7, 1.49969030761718750000e+03) (8, 1.49952001953125000000e+03) (9, -3.44242340087890625000e+02) (10, 6.70312957763671875000e+01) (11, -4.81051025390625000000e+02) (12, 9.46681762695312500000e+02) (13, 6.51712646484375000000e+02) (14, -3.34631683349609375000e+02) (15, 1.49986120605468750000e+03) (16, 1.49952001953125000000e+03) (17, -1.50000000000000000000e+03) (18, -1.30572509765625000000e+03) (19, 1.48269653320312500000e+03) (20, -5.06205535888671875000e+02) (21, 1.47657983398437500000e+03) (22, 1.49819372558593750000e+03) (23, -1.44664416503906250000e+03) (24, -1.47500000000000000000e+03) (25, -9.24558227539062500000e+02) (26, 1.43832006835937500000e+03) (27, 1.36580004882812500000e+03) (28, -5.17049438476562500000e+02) (29, 1.47434167480468750000e+03) (30, 1.49952001953125000000e+03) (31, 5.90875305175781250000e+02) (32, 1.10225244140625000000e+03) (33, 1.49952001953125000000e+03) (34, 1.49952001953125000000e+03) (35, 1.06551025390625000000e+03) (36, -5.01740608215332031250e+01) (37, 1.49969030761718750000e+03) (38, 1.49969030761718750000e+03) (39, 1.50000000000000000000e+03) (40, 1.49952001953125000000e+03) (41, 1.49952001953125000000e+03) (42, 1.11615063476562500000e+03) (43, -9.44231750488281250000e+02) (44, -1.04642309570312500000e+03) (45, 1.49952001953125000000e+03) (46, 1.42246765136718750000e+03) (47, 1.49952001953125000000e+03) (48, 1.01038055419921875000e+03) (49, -1.25197656250000000000e+03) (50, -1.41117651367187500000e+03) (51, -1.44921826171875000000e+03) (52, -1.46062438964843750000e+03) (53, -1.20551635742187500000e+03) (54, 7.60043579101562500000e+02) (55, -8.65746459960937500000e+02) (56, -1.44688122558593750000e+03) (57, -1.50000000000000000000e+03) (58, 6.40754882812500000000e+02) (59, -1.38400122070312500000e+03) (60, -1.19126489257812500000e+03) (61, -1.40715222167968750000e+03) (62, -1.50000000000000000000e+03) (63, -1.50000000000000000000e+03) (64, 1.49014508724212646484e+00) (0, 1.50000000000000000000e+03) (1, 1.50000000000000000000e+03) (2, 1.50000000000000000000e+03) (3, 1.49850378417968750000e+03) (4, 1.45954443359375000000e+03) (5, 1.50000000000000000000e+03) (6, 1.50000000000000000000e+03) (7, 1.50000000000000000000e+03) (8, -1.98596248626708984375e+01) (9, -4.53449897766113281250e+01) (10, 1.13760070800781250000e+03) (11, 6.31072998046875000000e+02) (12, 1.49389550781250000000e+03) (13, 1.47213720703125000000e+03) (14, 1.38505480957031250000e+03) (15, 1.50000000000000000000e+03) (16, 1.50000000000000000000e+03) (17, -1.36151049804687500000e+03) (18, -1.19505871582031250000e+03) (19, -1.47529467773437500000e+03) (20, 1.10413537597656250000e+03) (21, 1.49849169921875000000e+03) (22, -1.46317187500000000000e+03) (23, -1.29216992187500000000e+03) (24, 8.03159545898437500000e+02) (25, -1.18132324218750000000e+03) (26, -1.98370018005371093750e+01) (27, -1.47705273437500000000e+03) (28, -1.47705273437500000000e+03) (29, 1.43908300781250000000e+03) (30, 1.50000000000000000000e+03) (31, -2.63005676269531250000e+02) (32, -1.19044165039062500000e+03) (33, 1.16851440429687500000e+03) (34, -1.23005090332031250000e+03) (35, -1.47705273437500000000e+03) (36, -1.34531604003906250000e+03) (37, 1.49862573242187500000e+03) (38, 1.50000000000000000000e+03) (39, 1.50000000000000000000e+03) (40, 1.50000000000000000000e+03) (41, 1.50000000000000000000e+03) (42, -1.43852001953125000000e+03) (43, -1.50000000000000000000e+03) (44, 5.41287597656250000000e+02) (45, 1.34358972167968750000e+03) (46, -1.43947546386718750000e+03) (47, -1.42915100097656250000e+03) (48, 1.50000000000000000000e+03) (49, 1.50000000000000000000e+03) (50, -9.15333374023437500000e+02) (51, -9.11582397460937500000e+02) (52, 1.32625512695312500000e+03) (53, -1.08431152343750000000e+03) (54, -1.50000000000000000000e+03) (55, -1.50000000000000000000e+03) (56, -1.50000000000000000000e+03) (57, 1.50000000000000000000e+03) (58, 1.50000000000000000000e+03) (59, -1.22023327636718750000e+03) (60, -1.47705273437500000000e+03) (61, -1.48465502929687500000e+03) (62, -1.50000000000000000000e+03) (63, -1.50000000000000000000e+03) (64, -7.20509052276611328125e+00) (0, 1.50000000000000000000e+03) (1, -1.50000000000000000000e+03) (2, -1.50000000000000000000e+03) (3, -5.30776306152343750000e+02) (4, 1.50000000000000000000e+03) (5, 1.50000000000000000000e+03) (6, -1.44516442871093750000e+03) (7, -1.23970434570312500000e+03) (8, 1.50000000000000000000e+03) (9, -1.50000000000000000000e+03) (10, -5.51514465332031250000e+02) (11, -1.43852001953125000000e+03) (12, -1.43852001953125000000e+03) (13, 7.93742492675781250000e+02) (14, -1.45671350097656250000e+03) (15, -1.50000000000000000000e+03) (16, -1.46250842285156250000e+03) (17, 1.50000000000000000000e+03) (18, 1.50000000000000000000e+03) (19, 1.44955517578125000000e+03) (20, 1.42748669433593750000e+03) (21, -1.43852001953125000000e+03) (22, -1.50000000000000000000e+03) (23, 7.46091064453125000000e+02) (24, -1.50000000000000000000e+03) (25, 1.50000000000000000000e+03) (26, 1.50000000000000000000e+03) (27, 1.49697753906250000000e+03) (28, -1.03820812988281250000e+03) (29, -2.65782562255859375000e+02) (30, 1.48082263183593750000e+03) (31, -3.91463775634765625000e+02) (32, -3.89646179199218750000e+02) (33, 1.50000000000000000000e+03) (34, 1.50000000000000000000e+03) (35, 1.50000000000000000000e+03) (36, -1.47872216796875000000e+03) (37, -1.46959997558593750000e+03) (38, 1.50000000000000000000e+03) (39, 1.50000000000000000000e+03) (40, 8.09617858886718750000e+02) (41, 1.50000000000000000000e+03) (42, 1.50000000000000000000e+03) (43, 1.50000000000000000000e+03) (44, 1.50000000000000000000e+03) (45, -1.46959997558593750000e+03) (46, -1.50000000000000000000e+03) (47, 4.92460205078125000000e+02) (48, 1.32558557128906250000e+03) (49, 1.50000000000000000000e+03) (50, 1.50000000000000000000e+03) (51, 1.50000000000000000000e+03) (52, -1.50000000000000000000e+03) (53, -1.50000000000000000000e+03) (54, -1.50000000000000000000e+03) (55, -1.81965576171875000000e+02) (56, -1.50000000000000000000e+03) (57, -1.50000000000000000000e+03) (58, -1.50000000000000000000e+03) (59, -1.45074548339843750000e+03) (60, -1.46959997558593750000e+03) (61, -1.34420007324218750000e+03) (62, -4.04581375122070312500e+01) (63, 1.50000000000000000000e+03) (64, 4.47777837514877319336e-01) (0, 1.50000000000000000000e+03) (1, -5.25047588348388671875e+00) (2, 1.25480628013610839844e+00) (3, -2.78129398822784423828e-01) (4, -2.08464890718460083008e-01) (5, 2.38515567779541015625e+00) (6, 6.96791887283325195312e+00) (7, 6.22746038436889648438e+00) (8, 2.32346916198730468750e+01) (9, -1.69298362731933593750e+00) (10, 7.38184392452239990234e-01) (11, 5.86968183517456054688e-01) (12, 2.77960985898971557617e-01) (13, -1.12619638442993164062e+00) (14, -1.38244450092315673828e+00) (15, -7.38500976562500000000e+00) (16, 1.18461446762084960938e+01) (17, -2.67820000648498535156e-01) (18, 2.70152354240417480469e+00) (19, 1.51491582393646240234e+00) (20, -3.83396124839782714844e+00) (21, -7.58131742477416992188e+00) (22, -1.09988822937011718750e+01) (23, 6.94008016586303710938e+00) (24, -1.96056060791015625000e+01) (25, 4.56202459335327148438e+00) (26, 3.23797178268432617188e+00) (27, -2.42753338813781738281e+00) (28, -4.85555696487426757812e+00) (29, -1.23685371875762939453e+00) (30, 3.11325597763061523438e+00) (31, -1.52118576049804687500e+02) (32, 3.34948364257812500000e+02) (33, 9.79552078247070312500e+00) (34, 1.64794945716857910156e+00) (35, -2.39142060279846191406e+00) (36, -3.41726922988891601562e+00) (37, -3.76640766859054565430e-01) (38, 5.28331136703491210938e+00) (39, 1.50000000000000000000e+03) (40, -2.84049926757812500000e+02) (41, -4.92823123931884765625e-01) (42, -3.16335868835449218750e+00) (43, 2.19116425514221191406e+00) (44, -6.33775174617767333984e-01) (45, 1.84395536780357360840e-01) (46, -8.40572357177734375000e-01) (47, 2.58299884796142578125e+01) (48, 1.13871618652343750000e+03) (49, -3.44716215133666992188e+00) (50, 5.47835707664489746094e-01) (51, 3.63731122016906738281e+00) (52, 1.92718505859375000000e+00) (53, 1.04137861728668212891e+00) (54, -2.72954416275024414062e+00) (55, 8.37957763671875000000e+00) (56, -1.50000000000000000000e+03) (57, -7.45220327377319335938e+00) (58, 1.95902156829833984375e+00) (59, 1.83862656354904174805e-01) (60, -8.54620561003684997559e-02) (61, 6.52974426746368408203e-01) (62, 3.28006815910339355469e+00) (63, 1.65244057774543762207e-01) (64, -2.60711554437875747681e-02) (0, 1.50000000000000000000e+03) (1, -1.46818054199218750000e+03) (2, 1.09165087890625000000e+03) (3, 1.47465148925781250000e+03) (4, 1.19584753417968750000e+03) (5, 1.46935095214843750000e+03) (6, 1.50000000000000000000e+03) (7, 1.31284899902343750000e+03) (8, -1.13300451660156250000e+03) (9, -1.07897705078125000000e+03) (10, -3.01380348205566406250e+01) (11, 1.49986535644531250000e+03) (12, 7.36765930175781250000e+02) (13, 1.46935095214843750000e+03) (14, 1.50000000000000000000e+03) (15, -8.87414245605468750000e+02) (16, 1.50000000000000000000e+03) (17, -1.47792651367187500000e+03) (18, 8.74544250488281250000e+02) (19, 8.91217346191406250000e+02) (20, 9.55602050781250000000e+02) (21, 1.46935095214843750000e+03) (22, 1.50000000000000000000e+03) (23, 1.42501257324218750000e+03) (24, 1.50000000000000000000e+03) (25, -1.42970849609375000000e+03) (26, -1.37658105468750000000e+03) (27, 4.24639190673828125000e+02) (28, 1.49993920898437500000e+03) (29, 1.49901501464843750000e+03) (30, -2.37711883544921875000e+02) (31, 1.43400000000000000000e+03) (32, 1.50000000000000000000e+03) (33, 1.50000000000000000000e+03) (34, 1.50000000000000000000e+03) (35, 1.48328234863281250000e+03) (36, 1.46935095214843750000e+03) (37, 1.50000000000000000000e+03) (38, 6.94809387207031250000e+02) (39, 1.50000000000000000000e+03) (40, 1.50000000000000000000e+03) (41, 1.50000000000000000000e+03) (42, 1.50000000000000000000e+03) (43, 1.50000000000000000000e+03) (44, 1.50000000000000000000e+03) (45, 1.50000000000000000000e+03) (46, -1.35891296386718750000e+03) (47, -1.49552001953125000000e+03) (48, 1.50000000000000000000e+03) (49, 1.50000000000000000000e+03) (50, 1.50000000000000000000e+03) (51, 1.46935095214843750000e+03) (52, 1.50000000000000000000e+03) (53, 1.50000000000000000000e+03) (54, 1.32104565429687500000e+03) (55, 4.48729492187500000000e+02) (56, -1.50000000000000000000e+03) (57, -1.46818054199218750000e+03) (58, 1.16406982421875000000e+03) (59, 1.16520117187500000000e+03) (60, 1.50000000000000000000e+03) (61, 1.50000000000000000000e+03) (62, 1.23815478515625000000e+03) (63, 1.50000000000000000000e+03) (64, 1.49889331054687500000e+03) (0, 1.50000000000000000000e+03) (1, -4.45468008518218994141e-01) (2, -2.28310693055391311646e-02) (3, 2.06744112074375152588e-02) (4, -1.42112374305725097656e+00) (5, -1.88333725929260253906e+00) (6, 1.57923805713653564453e+00) (7, 3.30375194549560546875e+00) (8, 1.31364212036132812500e+02) (9, -1.40474784374237060547e+00) (10, 7.36361518502235412598e-02) (11, -6.94331586360931396484e-01) (12, 4.44285839796066284180e-01) (13, 5.22678434848785400391e-01) (14, -3.46570992469787597656e+00) (15, -4.05405158996582031250e+01) (16, -3.57814559936523437500e+01) (17, 8.65362524986267089844e-01) (18, 2.49425125122070312500e+00) (19, 2.45215821266174316406e+00) (20, 2.80671548843383789062e+00) (21, 5.46656084060668945312e+00) (22, 7.03953790664672851562e+00) (23, 2.48083999633789062500e+02) (24, 1.50000000000000000000e+03) (25, 1.95997560024261474609e+00) (26, 2.49198222160339355469e+00) (27, -2.03374270349740982056e-02) (28, 3.12703669071197509766e-01) (29, 1.93973743915557861328e+00) (30, 4.10194826126098632812e+00) (31, -7.76162414550781250000e+02) (32, -3.25685668945312500000e+02) (33, 5.64212501049041748047e-01) (34, -8.03473651409149169922e-01) (35, -4.80207711458206176758e-01) (36, -3.90731878578662872314e-02) (37, -2.76370108127593994141e-01) (38, -1.96373522281646728516e+00) (39, 1.50000000000000000000e+03) (40, -8.50332336425781250000e+02) (41, 1.01722514629364013672e+00) (42, 1.09665393829345703125e+00) (43, 9.24481630325317382812e-01) (44, -1.10277450084686279297e+00) (45, -2.16794013977050781250e+00) (46, -3.64590597152709960938e+00) (47, 4.17913293838500976562e+00) (48, 5.35287590026855468750e+01) (49, 3.31893205642700195312e+00) (50, -5.20393729209899902344e-01) (51, -8.16686674952507019043e-02) (52, -1.03470122814178466797e+00) (53, -2.51112294197082519531e+00) (54, -7.04868853092193603516e-01) (55, -7.64525949954986572266e-01) (56, 1.14173986816406250000e+03) (57, -1.46239318847656250000e+01) (58, -2.71779012680053710938e+00) (59, -3.87526392936706542969e-01) (60, -6.30936324596405029297e-01) (61, -6.27057552337646484375e-02) (62, 3.77069205045700073242e-01) (63, 4.76707363128662109375e+00) (64, -2.31761127710342407227e-01) (0, 1.50000000000000000000e+03) (1, -4.41364526748657226562e+00) (2, 5.25107622146606445312e-01) (3, -8.28362330794334411621e-02) (4, 3.42302657663822174072e-02) (5, 2.87891447544097900391e-01) (6, -2.39034104347229003906e+00) (7, -1.10424607992172241211e-01) (8, -8.54296798706054687500e+01) (9, 1.36384689807891845703e+00) (10, -4.58247333765029907227e-01) (11, -6.25913262367248535156e-01) (12, -1.02733361721038818359e+00) (13, -1.19594383239746093750e+00) (14, 1.21596968173980712891e+00) (15, 3.58728194236755371094e+00) (16, 1.50000000000000000000e+03) (17, 2.08454155921936035156e+00) (18, 1.24433839321136474609e+00) (19, 3.25535416603088378906e+00) (20, 1.32357108592987060547e+00) (21, -3.49547117948532104492e-01) (22, -2.10202121734619140625e+00) (23, -1.29468667507171630859e+00) (24, -8.51805877685546875000e+01) (25, 4.74311225116252899170e-02) (26, 1.07851636409759521484e+00) (27, 1.54035961627960205078e+00) (28, 6.55010759830474853516e-01) (29, 3.62961888313293457031e-01) (30, -1.41724300384521484375e+00) (31, 9.05893421173095703125e+00) (32, 1.49952001953125000000e+03) (33, 4.98946905136108398438e-01) (34, -2.25197017192840576172e-01) (35, -6.49703025817871093750e-01) (36, -6.80696964263916015625e-01) (37, 8.08001160621643066406e-01) (38, 7.24172055721282958984e-01) (39, 1.50000000000000000000e+03) (40, 1.50000000000000000000e+03) (41, 1.16116559505462646484e+00) (42, -4.09091234207153320312e+00) (43, -5.17655074596405029297e-01) (44, 8.35268557071685791016e-01) (45, -2.44359016418457031250e-01) (46, -1.92152798175811767578e+00) (47, -7.26903820037841796875e+00) (48, 1.50000000000000000000e+03) (49, 4.69666194915771484375e+00) (50, -2.02356576919555664062e+00) (51, -1.02805578708648681641e+00) (52, 1.79677879810333251953e+00) (53, -1.40151485800743103027e-01) (54, -1.42215490341186523438e-01) (55, -4.96779537200927734375e+00) (56, 1.50000000000000000000e+03) (57, -5.05973696708679199219e-01) (58, 4.33451384305953979492e-01) (59, -9.44948792457580566406e-02) (60, 7.68694758415222167969e-01) (61, -7.96775579452514648438e-01) (62, 1.32319378852844238281e+00) (63, 2.23976516723632812500e+00) (64, 3.34109306335449218750e-01) (0, 1.50000000000000000000e+03) (1, 1.50000000000000000000e+03) (2, 1.76381973266601562500e+02) (3, 7.02553649902343750000e+02) (4, 1.39184765625000000000e+03) (5, -1.40908679199218750000e+03) (6, 1.50000000000000000000e+03) (7, 1.50000000000000000000e+03) (8, 1.49689343261718750000e+03) (9, 1.50000000000000000000e+03) (10, -2.14580669403076171875e+01) (11, 1.38899670410156250000e+03) (12, -1.48702441406250000000e+03) (13, -1.45316687011718750000e+03) (14, 1.30017407226562500000e+03) (15, 1.50000000000000000000e+03) (16, 1.50000000000000000000e+03) (17, 1.50000000000000000000e+03) (18, 1.40439404296875000000e+03) (19, -1.42881909179687500000e+03) (20, -1.38648815917968750000e+03) (21, 1.50000000000000000000e+03) (22, 1.41789245605468750000e+03) (23, 1.48950415039062500000e+03) (24, -1.50000000000000000000e+03) (25, 1.50000000000000000000e+03) (26, 1.50000000000000000000e+03) (27, -1.46309973144531250000e+03) (28, -1.46759118652343750000e+03) (29, 1.50000000000000000000e+03) (30, 1.50000000000000000000e+03) (31, 6.05011108398437500000e+02) (32, 1.50000000000000000000e+03) (33, -1.27307861328125000000e+03) (34, -1.45868920898437500000e+03) (35, -1.45868920898437500000e+03) (36, -1.46309973144531250000e+03) (37, 1.50000000000000000000e+03) (38, 1.50000000000000000000e+03) (39, 1.50000000000000000000e+03) (40, 1.50000000000000000000e+03) (41, -1.27835241699218750000e+03) (42, -1.44688122558593750000e+03) (43, -1.44688122558593750000e+03) (44, -1.45868920898437500000e+03) (45, 8.01207885742187500000e+02) (46, 1.50000000000000000000e+03) (47, 1.50000000000000000000e+03) (48, 1.50000000000000000000e+03) (49, -1.34115039062500000000e+03) (50, -1.45868920898437500000e+03) (51, -1.40199169921875000000e+03) (52, -1.42881909179687500000e+03) (53, -1.43140869140625000000e+03) (54, 1.50000000000000000000e+03) (55, -5.04403381347656250000e+02) (56, -1.50000000000000000000e+03) (57, 1.25370178222656250000e+03) (58, -1.00824639892578125000e+03) (59, -5.46097229003906250000e+02) (60, -3.81530487060546875000e+02) (61, 1.08750976562500000000e+03) (62, -1.17535693359375000000e+03) (63, -1.50000000000000000000e+03) (64, 1.49994494628906250000e+03) (0, 1.50000000000000000000e+03) (1, -3.05490173339843750000e+02) (2, -1.37058508300781250000e+03) (3, 1.49999926757812500000e+03) (4, 2.42127633094787597656e+00) (5, 1.49387158203125000000e+03) (6, -1.50000000000000000000e+03) (7, -1.50000000000000000000e+03) (8, -1.50000000000000000000e+03) (9, -1.50000000000000000000e+03) (10, 8.39291564941406250000e+02) (11, -1.34921240234375000000e+03) (12, 5.13087425231933593750e+01) (13, 1.49775354003906250000e+03) (14, -5.19627075195312500000e+02) (15, -1.50000000000000000000e+03) (16, -1.50000000000000000000e+03) (17, 1.36746313476562500000e+03) (18, 1.48357946777343750000e+03) (19, 1.49271862792968750000e+03) (20, 1.21894079589843750000e+03) (21, -1.42729443359375000000e+03) (22, -7.51201416015625000000e+02) (23, 1.41222058105468750000e+03) (24, 1.50000000000000000000e+03) (25, -1.36490345001220703125e+01) (26, -4.70698120117187500000e+02) (27, 1.49257006835937500000e+03) (28, 1.49850256347656250000e+03) (29, -1.44552966308593750000e+03) (30, -1.50000000000000000000e+03) (31, -1.17520812988281250000e+03) (32, -1.03373852539062500000e+03) (33, -1.50000000000000000000e+03) (34, -1.33807897949218750000e+03) (35, -1.80512908935546875000e+02) (36, -1.48023974609375000000e+03) (37, -1.50000000000000000000e+03) (38, -1.50000000000000000000e+03) (39, 1.50000000000000000000e+03) (40, -1.50000000000000000000e+03) (41, -1.50000000000000000000e+03) (42, 1.49692993164062500000e+03) (43, -1.41540795898437500000e+03) (44, -1.48111291503906250000e+03) (45, -1.48606054687500000000e+03) (46, -1.18779577636718750000e+03) (47, -4.78677825927734375000e+02) (48, -1.50000000000000000000e+03) (49, -1.50000000000000000000e+03) (50, 1.49939404296875000000e+03) (51, -1.50000000000000000000e+03) (52, 1.49271862792968750000e+03) (53, 1.49271862792968750000e+03) (54, 1.49999829101562500000e+03) (55, 9.42244079589843750000e+02) (56, 1.50000000000000000000e+03) (57, -1.35751373291015625000e+02) (58, -1.09661389160156250000e+03) (59, 1.49843090820312500000e+03) (60, 1.49271862792968750000e+03) (61, 1.49271862792968750000e+03) (62, 1.49958520507812500000e+03) (63, 1.50000000000000000000e+03) (64, -2.87323427200317382812e+00) (0, 1.50000000000000000000e+03) (1, 1.47000000000000000000e+03) (2, 1.40797851562500000000e+03) (3, 1.44297595214843750000e+03) (4, 1.48500000000000000000e+03) (5, -1.43478820800781250000e+03) (6, 1.50000000000000000000e+03) (7, 1.43400000000000000000e+03) (8, -1.46370629882812500000e+03) (9, 1.50000000000000000000e+03) (10, 1.49705541992187500000e+03) (11, 1.49980041503906250000e+03) (12, 1.49973217773437500000e+03) (13, -3.92970458984375000000e+02) (14, 1.50000000000000000000e+03) (15, -1.40314660644531250000e+03) (16, 1.50000000000000000000e+03) (17, -1.44831457519531250000e+03) (18, -1.40340942382812500000e+03) (19, -1.38833850097656250000e+03) (20, 9.31296203613281250000e+02) (21, 1.48500000000000000000e+03) (22, 1.50000000000000000000e+03) (23, 1.43400000000000000000e+03) (24, -1.10274023437500000000e+03) (25, -1.33922973632812500000e+03) (26, -1.48191821289062500000e+03) (27, -1.30477905273437500000e+03) (28, 1.48500000000000000000e+03) (29, 1.48500000000000000000e+03) (30, 1.50000000000000000000e+03) (31, 1.33560375976562500000e+03) (32, 1.48479699707031250000e+03) (33, 1.50000000000000000000e+03) (34, 1.48500000000000000000e+03) (35, 1.43400000000000000000e+03) (36, 1.50000000000000000000e+03) (37, 1.50000000000000000000e+03) (38, 1.50000000000000000000e+03) (39, 1.50000000000000000000e+03) (40, 1.50000000000000000000e+03) (41, 1.50000000000000000000e+03) (42, 1.50000000000000000000e+03) (43, 1.49328161621093750000e+03) (44, 1.48500000000000000000e+03) (45, 1.50000000000000000000e+03) (46, 1.50000000000000000000e+03) (47, 1.39732006835937500000e+03) (48, 1.50000000000000000000e+03) (49, 1.50000000000000000000e+03) (50, -4.67005889892578125000e+02) (51, 1.50000000000000000000e+03) (52, 1.48500000000000000000e+03) (53, 1.50000000000000000000e+03) (54, 1.50000000000000000000e+03) (55, 2.32294418334960937500e+02) (56, -1.49169262695312500000e+03) (57, 1.43400000000000000000e+03) (58, 9.89730102539062500000e+02) (59, 1.49999914550781250000e+03) (60, 1.50000000000000000000e+03) (61, 1.50000000000000000000e+03) (62, 1.49352001953125000000e+03) (63, 7.03799316406250000000e+02) (64, 1.48500000000000000000e+03) (0, 1.50000000000000000000e+03) (1, 1.47520434570312500000e+03) (2, 1.48112207031250000000e+03) (3, 1.44586291503906250000e+03) (4, 2.84312713623046875000e+02) (5, 8.74149108886718750000e+02) (6, -1.35684265136718750000e+03) (7, 1.50000000000000000000e+03) (8, 6.85912658691406250000e+02) (9, -1.40392883300781250000e+03) (10, 1.49562585449218750000e+03) (11, 1.49991467285156250000e+03) (12, 1.49999536132812500000e+03) (13, 1.50000000000000000000e+03) (14, -1.48033605957031250000e+03) (15, -1.40900000000000000000e+03) (16, -1.43165649414062500000e+03) (17, -1.50000000000000000000e+03) (18, -1.50000000000000000000e+03) (19, 1.49989123535156250000e+03) (20, 1.45678381347656250000e+03) (21, -1.50000000000000000000e+03) (22, -1.45372167968750000000e+03) (23, -8.34482666015625000000e+02) (24, 1.50000000000000000000e+03) (25, -1.50000000000000000000e+03) (26, -1.50000000000000000000e+03) (27, 1.48211718750000000000e+03) (28, 1.49999926757812500000e+03) (29, -1.50000000000000000000e+03) (30, -1.50000000000000000000e+03) (31, -3.37657104492187500000e+02) (32, -1.50000000000000000000e+03) (33, 1.41997558593750000000e+03) (34, 1.48553894042968750000e+03) (35, 1.50000000000000000000e+03) (36, 1.50000000000000000000e+03) (37, -1.50000000000000000000e+03) (38, -1.43850622558593750000e+03) (39, 1.50000000000000000000e+03) (40, -1.50000000000000000000e+03) (41, 1.46561755371093750000e+03) (42, 1.50000000000000000000e+03) (43, 1.50000000000000000000e+03) (44, 1.50000000000000000000e+03) (45, 1.37082055664062500000e+03) (46, -1.50000000000000000000e+03) (47, -1.50000000000000000000e+03) (48, -1.50000000000000000000e+03) (49, 1.21615466308593750000e+03) (50, 1.49995837402343750000e+03) (51, -1.33163732910156250000e+03) (52, 1.48675939941406250000e+03) (53, 1.49961193847656250000e+03) (54, -1.50000000000000000000e+03) (55, -7.03988403320312500000e+02) (56, 1.50000000000000000000e+03) (57, 1.50000000000000000000e+03) (58, 1.50000000000000000000e+03) (59, 1.49079064941406250000e+03) (60, -2.45000648498535156250e+01) (61, -1.47826586914062500000e+03) (62, 3.93903465270996093750e+01) (63, 1.50000000000000000000e+03) (64, -7.51449048519134521484e-01) (0, 1.50000000000000000000e+03) (1, 1.50000000000000000000e+03) (2, 1.38174291992187500000e+03) (3, 1.48703991699218750000e+03) (4, 1.48500000000000000000e+03) (5, -1.42033593750000000000e+03) (6, 1.50000000000000000000e+03) (7, 1.50000000000000000000e+03) (8, -1.37198974609375000000e+03) (9, 1.50000000000000000000e+03) (10, 1.49932995605468750000e+03) (11, 1.49428881835937500000e+03) (12, 1.49967382812500000000e+03) (13, -4.23406433105468750000e+02) (14, 1.50000000000000000000e+03) (15, 1.48722937011718750000e+03) (16, 1.50000000000000000000e+03) (17, -1.43671606445312500000e+03) (18, -1.39463415527343750000e+03) (19, -1.38833850097656250000e+03) (20, 1.38937109375000000000e+03) (21, 1.48500000000000000000e+03) (22, 1.50000000000000000000e+03) (23, 1.50000000000000000000e+03) (24, -1.24953857421875000000e+03) (25, -1.41186437988281250000e+03) (26, -1.38202746582031250000e+03) (27, -1.36957714843750000000e+03) (28, 1.48500000000000000000e+03) (29, 1.48500000000000000000e+03) (30, 1.50000000000000000000e+03) (31, 1.43400000000000000000e+03) (32, 1.48479699707031250000e+03) (33, 1.50000000000000000000e+03) (34, 1.48500000000000000000e+03) (35, 1.48500000000000000000e+03) (36, 1.50000000000000000000e+03) (37, 1.50000000000000000000e+03) (38, 1.50000000000000000000e+03) (39, 1.50000000000000000000e+03) (40, 1.50000000000000000000e+03) (41, 1.50000000000000000000e+03) (42, 1.48500000000000000000e+03) (43, 1.48500000000000000000e+03) (44, 1.48500000000000000000e+03) (45, 1.50000000000000000000e+03) (46, 1.50000000000000000000e+03) (47, 1.39732006835937500000e+03) (48, 1.43400000000000000000e+03) (49, 1.50000000000000000000e+03) (50, -1.04883068847656250000e+03) (51, 1.50000000000000000000e+03) (52, 1.48500000000000000000e+03) (53, 1.50000000000000000000e+03) (54, 1.50000000000000000000e+03) (55, 5.41602966308593750000e+02) (56, -1.49169262695312500000e+03) (57, 1.43400000000000000000e+03) (58, 1.46210791015625000000e+03) (59, 1.49979467773437500000e+03) (60, 1.50000000000000000000e+03) (61, 1.50000000000000000000e+03) (62, 1.49352001953125000000e+03) (63, 7.48567321777343750000e+02) (64, 1.48500000000000000000e+03) (0, 1.50000000000000000000e+03) (1, 1.49952001953125000000e+03) (2, 1.49952001953125000000e+03) (3, 1.49935253906250000000e+03) (4, 1.45246728515625000000e+03) (5, 1.49952001953125000000e+03) (6, 1.43180004882812500000e+03) (7, -1.48685595703125000000e+03) (8, -1.50000000000000000000e+03) (9, -1.38830029296875000000e+03) (10, 1.15972229003906250000e+03) (11, 1.48559484863281250000e+03) (12, 1.48559484863281250000e+03) (13, 1.49952001953125000000e+03) (14, -1.44713671875000000000e+03) (15, -1.47642175292968750000e+03) (16, 1.50000000000000000000e+03) (17, -1.44956835937500000000e+03) (18, -1.34793371582031250000e+03) (19, 1.49871862792968750000e+03) (20, 1.49952001953125000000e+03) (21, -1.32660974121093750000e+03) (22, -1.50000000000000000000e+03) (23, -1.42973376464843750000e+03) (24, 1.50000000000000000000e+03) (25, -1.50000000000000000000e+03) (26, -1.48844323730468750000e+03) (27, 1.38152026367187500000e+03) (28, 1.44118017578125000000e+03) (29, -1.33932824707031250000e+03) (30, -1.50000000000000000000e+03) (31, 1.06293579101562500000e+03) (32, -1.49270776367187500000e+03) (33, -1.49901721191406250000e+03) (34, -1.26251904296875000000e+03) (35, 1.44118017578125000000e+03) (36, 1.38152026367187500000e+03) (37, -1.41147766113281250000e+03) (38, -1.43513525390625000000e+03) (39, 1.50000000000000000000e+03) (40, -1.50000000000000000000e+03) (41, -1.50000000000000000000e+03) (42, -1.31345312500000000000e+03) (43, 1.46665429687500000000e+03) (44, 1.49976904296875000000e+03) (45, -1.30471630859375000000e+03) (46, -1.40772814941406250000e+03) (47, -1.50000000000000000000e+03) (48, -1.50000000000000000000e+03) (49, -1.50000000000000000000e+03) (50, 6.09418640136718750000e+02) (51, 1.48988171386718750000e+03) (52, 1.48968420410156250000e+03) (53, 1.48257885742187500000e+03) (54, -1.34159289550781250000e+03) (55, -6.91607910156250000000e+02) (56, 1.50000000000000000000e+03) (57, -4.74800048828125000000e+02) (58, 1.49952001953125000000e+03) (59, 1.49777954101562500000e+03) (60, -1.34519079589843750000e+03) (61, 9.99182556152343750000e+02) (62, -2.96586914062500000000e+02) (63, 1.50000000000000000000e+03) (64, -5.48367977142333984375e-01) (0, 1.50000000000000000000e+03) (1, 1.50000000000000000000e+03) (2, 1.46862268066406250000e+03) (3, 1.48887512207031250000e+03) (4, 1.48500000000000000000e+03) (5, -1.41488562011718750000e+03) (6, 1.50000000000000000000e+03) (7, 1.50000000000000000000e+03) (8, -1.49213305664062500000e+03) (9, 1.50000000000000000000e+03) (10, 1.49849719238281250000e+03) (11, 1.48724902343750000000e+03) (12, 1.49998522949218750000e+03) (13, -1.11068298339843750000e+02) (14, 1.50000000000000000000e+03) (15, 1.49467895507812500000e+03) (16, 1.50000000000000000000e+03) (17, -1.43613000488281250000e+03) (18, -1.39432751464843750000e+03) (19, -1.34895129394531250000e+03) (20, 1.08732592773437500000e+03) (21, 1.48500000000000000000e+03) (22, 1.50000000000000000000e+03) (23, 1.50000000000000000000e+03) (24, -1.24953857421875000000e+03) (25, -1.30143115234375000000e+03) (26, -1.39181201171875000000e+03) (27, -1.34041320800781250000e+03) (28, 1.48500000000000000000e+03) (29, 1.49384838867187500000e+03) (30, 1.50000000000000000000e+03) (31, 1.42118737792968750000e+03) (32, 1.48240380859375000000e+03) (33, 1.50000000000000000000e+03) (34, 1.48500000000000000000e+03) (35, 1.48500000000000000000e+03) (36, 1.50000000000000000000e+03) (37, 1.50000000000000000000e+03) (38, 1.50000000000000000000e+03) (39, 1.50000000000000000000e+03) (40, 1.50000000000000000000e+03) (41, 1.50000000000000000000e+03) (42, 1.48500000000000000000e+03) (43, 1.48500000000000000000e+03) (44, 1.48500000000000000000e+03) (45, 1.50000000000000000000e+03) (46, 1.50000000000000000000e+03) (47, 1.47500000000000000000e+03) (48, 1.43400000000000000000e+03) (49, 1.50000000000000000000e+03) (50, -8.21569335937500000000e+02) (51, 1.50000000000000000000e+03) (52, 1.48500000000000000000e+03) (53, 1.32253247070312500000e+03) (54, 1.50000000000000000000e+03) (55, 1.02196343994140625000e+03) (56, -1.42623669433593750000e+03) (57, 1.43400000000000000000e+03) (58, 1.38385681152343750000e+03) (59, 1.24215209960937500000e+03) (60, 1.50000000000000000000e+03) (61, 1.50000000000000000000e+03) (62, 1.49352001953125000000e+03) (63, 8.64826904296875000000e+02) (64, 1.48500000000000000000e+03) (0, 1.50000000000000000000e+03) (1, 2.28474121093750000000e+01) (2, 6.23797485351562500000e+02) (3, 1.47843505859375000000e+03) (4, 1.50000000000000000000e+03) (5, 1.50000000000000000000e+03) (6, 1.50000000000000000000e+03) (7, 1.12069921875000000000e+03) (8, 1.50000000000000000000e+03) (9, 1.50000000000000000000e+03) (10, -9.72082153320312500000e+02) (11, 1.49793444824218750000e+03) (12, -1.39270556640625000000e+03) (13, 1.50000000000000000000e+03) (14, 1.50000000000000000000e+03) (15, 1.50000000000000000000e+03) (16, 1.50000000000000000000e+03) (17, -1.14700732421875000000e+03) (18, -8.03474487304687500000e+02) (19, -1.44275952148437500000e+03) (20, -1.39818847656250000000e+03) (21, -1.39012683105468750000e+03) (22, -6.24564331054687500000e+02) (23, 1.50000000000000000000e+03) (24, 8.60728210449218750000e+02) (25, -6.35931701660156250000e+02) (26, -1.49848681640625000000e+03) (27, 1.50000000000000000000e+03) (28, 1.50000000000000000000e+03) (29, 8.84114196777343750000e+02) (30, -1.35632849121093750000e+03) (31, 1.50000000000000000000e+03) (32, -1.27397204589843750000e+03) (33, -1.44712683105468750000e+03) (34, -1.47161340332031250000e+03) (35, 1.50000000000000000000e+03) (36, 1.50000000000000000000e+03) (37, 1.50000000000000000000e+03) (38, -1.16311035156250000000e+03) (39, 1.50000000000000000000e+03) (40, 4.68863037109375000000e+02) (41, -1.44688122558593750000e+03) (42, -1.46456677246093750000e+03) (43, 1.50000000000000000000e+03) (44, 1.50000000000000000000e+03) (45, -1.46539013671875000000e+03) (46, -1.43015795898437500000e+03) (47, 1.42336120605468750000e+03) (48, -1.86219146728515625000e+02) (49, -1.50000000000000000000e+03) (50, -1.46943615722656250000e+03) (51, -1.43407604980468750000e+03) (52, -1.35956701660156250000e+03) (53, -1.35997583007812500000e+03) (54, 8.51469360351562500000e+02) (55, 1.47601074218750000000e+03) (56, 1.50000000000000000000e+03) (57, -1.37627172851562500000e+03) (58, 1.49913330078125000000e+03) (59, 4.18102691650390625000e+02) (60, -1.04151855468750000000e+03) (61, 9.82729431152343750000e+02) (62, 1.50000000000000000000e+03) (63, 1.50000000000000000000e+03) (64, 2.48646825551986694336e-01) (0, 1.50000000000000000000e+03) (1, 1.50000000000000000000e+03) (2, 1.37861291503906250000e+03) (3, 1.48778125000000000000e+03) (4, 1.48500000000000000000e+03) (5, -1.44151367187500000000e+03) (6, 1.50000000000000000000e+03) (7, 1.50000000000000000000e+03) (8, -1.46370629882812500000e+03) (9, 1.50000000000000000000e+03) (10, 1.27856872558593750000e+03) (11, 1.48500000000000000000e+03) (12, 1.49998522949218750000e+03) (13, -4.23599822998046875000e+02) (14, 1.50000000000000000000e+03) (15, 1.19832763671875000000e+03) (16, 1.50000000000000000000e+03) (17, -1.40328442382812500000e+03) (18, -1.38111230468750000000e+03) (19, -1.39819934082031250000e+03) (20, 1.34470312500000000000e+03) (21, 1.48500000000000000000e+03) (22, 1.50000000000000000000e+03) (23, 1.50000000000000000000e+03) (24, -8.89740295410156250000e+02) (25, -1.37006542968750000000e+03) (26, -1.42667150878906250000e+03) (27, -1.13669567871093750000e+03) (28, 1.48500000000000000000e+03) (29, 1.54911590576171875000e+02) (30, 1.50000000000000000000e+03) (31, 1.43400000000000000000e+03) (32, 1.48240380859375000000e+03) (33, 1.50000000000000000000e+03) (34, 1.50000000000000000000e+03) (35, 1.48500000000000000000e+03) (36, 1.50000000000000000000e+03) (37, 1.50000000000000000000e+03) (38, 1.50000000000000000000e+03) (39, 1.50000000000000000000e+03) (40, 1.50000000000000000000e+03) (41, 1.50000000000000000000e+03) (42, 1.50000000000000000000e+03) (43, 1.50000000000000000000e+03) (44, 1.50000000000000000000e+03) (45, 1.50000000000000000000e+03) (46, 1.49956555175781250000e+03) (47, 1.34732006835937500000e+03) (48, 1.43400000000000000000e+03) (49, 1.50000000000000000000e+03) (50, -6.54615402221679687500e+01) (51, 1.50000000000000000000e+03) (52, 1.48500000000000000000e+03) (53, 1.48595971679687500000e+03) (54, 1.50000000000000000000e+03) (55, 8.25138000488281250000e+02) (56, -1.42623669433593750000e+03) (57, 1.43400000000000000000e+03) (58, 1.49463757324218750000e+03) (59, 1.49927014160156250000e+03) (60, 1.50000000000000000000e+03) (61, 1.50000000000000000000e+03) (62, 1.49352001953125000000e+03) (63, 1.28932031250000000000e+03) (64, 1.48500000000000000000e+03) (0, 1.50000000000000000000e+03) (1, 1.42583850097656250000e+03) (2, -4.12753906250000000000e+02) (3, 1.49664855957031250000e+03) (4, 1.35516784667968750000e+03) (5, 1.47664050292968750000e+03) (6, -1.50000000000000000000e+03) (7, -1.50000000000000000000e+03) (8, -1.50000000000000000000e+03) (9, -1.50000000000000000000e+03) (10, 1.46193713378906250000e+03) (11, 1.48314880371093750000e+03) (12, 1.46237707519531250000e+03) (13, 1.24282873535156250000e+03) (14, -1.50000000000000000000e+03) (15, -1.50000000000000000000e+03) (16, 1.50000000000000000000e+03) (17, 1.04415649414062500000e+03) (18, -7.65958007812500000000e+02) (19, 1.44166723632812500000e+03) (20, 1.49985083007812500000e+03) (21, 1.49841650390625000000e+03) (22, -1.50000000000000000000e+03) (23, 1.47359497070312500000e+03) (24, 1.50000000000000000000e+03) (25, 1.48645568847656250000e+03) (26, -1.87430999755859375000e+02) (27, -7.15523437500000000000e+02) (28, 1.43454089355468750000e+03) (29, 1.21701135253906250000e+03) (30, -1.50000000000000000000e+03) (31, -1.50000000000000000000e+03) (32, -1.04980224609375000000e+03) (33, -3.18114288330078125000e+02) (34, -1.50000000000000000000e+03) (35, -1.50000000000000000000e+03) (36, -1.08419372558593750000e+03) (37, -7.60219177246093750000e+02) (38, -1.50000000000000000000e+03) (39, 1.50000000000000000000e+03) (40, -1.50000000000000000000e+03) (41, -1.50000000000000000000e+03) (42, -1.50000000000000000000e+03) (43, -1.43062463378906250000e+03) (44, -1.50000000000000000000e+03) (45, 5.86444519042968750000e+02) (46, 1.49989648437500000000e+03) (47, -4.97745025634765625000e+02) (48, -1.50000000000000000000e+03) (49, -1.50000000000000000000e+03) (50, -1.50000000000000000000e+03) (51, 1.46237707519531250000e+03) (52, -1.42467651367187500000e+03) (53, 1.47612438964843750000e+03) (54, 1.49975158691406250000e+03) (55, 1.50000000000000000000e+03) (56, 1.50000000000000000000e+03) (57, -1.45120556640625000000e+03) (58, -1.50000000000000000000e+03) (59, 1.22589355468750000000e+03) (60, 1.48251196289062500000e+03) (61, 1.41966271972656250000e+03) (62, 1.49952001953125000000e+03) (63, 1.50000000000000000000e+03) (64, 1.70720830559730529785e-01) (65, -1.84350728988647460938e+00) (66, 2.06647562980651855469e+00) (67, 1.50000000000000000000e+03) (68, -6.85318222045898437500e+01) (69, 7.12807083129882812500e+00) (70, -1.91676640510559082031e+00) (71, -1.74889910221099853516e+00) (72, -1.91414463520050048828e+00) (73, -1.83254265785217285156e+00) (74, 4.60309505462646484375e+00) (75, -1.81711602210998535156e+00) (76, -5.08676696777343750000e+02) (77, -1.81616401672363281250e+00) (78, 2.83089369535446166992e-01) (79, 1.81615900993347167969e+00) (80, 8.66103231906890869141e-01) (81, 6.67835140228271484375e+00) (82, -2.33784461021423339844e+00) (83, 9.59397125244140625000e+00) (84, -5.54241085052490234375e+00) (85, -2.53828191757202148438e+00) (86, -8.71339380741119384766e-01) (87, -1.57976675033569335938e+00) (88, 6.59030914306640625000e-01) (89, -1.84179186820983886719e+00) (90, -2.84996247291564941406e+00) (91, -1.86451709270477294922e+00) (92, -3.58487548828125000000e+01) (93, -1.91761994361877441406e+00) (94, 2.42814350128173828125e+00) (95, -1.77001643180847167969e+00) (65, -1.47215497493743896484e+00) (66, 6.88578701019287109375e+00) (67, 1.50000000000000000000e+03) (68, 1.07287740707397460938e+00) (69, -7.80249547958374023438e+00) (70, -1.38489210605621337891e+00) (71, -1.42610275745391845703e+00) (72, -1.49356782436370849609e+00) (73, -2.20260310173034667969e+00) (74, -1.67076706886291503906e+00) (75, -3.67514514923095703125e+00) (76, 5.15870749950408935547e-01) (77, -1.43282353878021240234e+00) (78, -7.62780725955963134766e-01) (79, -2.06359848380088806152e-01) (80, -2.07685112953186035156e+00) (81, -7.35074758529663085938e-01) (82, 2.83503025770187377930e-01) (83, 4.29932928085327148438e+00) (84, 2.55311322212219238281e+00) (85, -2.91260409355163574219e+00) (86, 4.93974447250366210938e+00) (87, -1.50641155242919921875e+00) (88, 1.21526348590850830078e+00) (89, -1.49685561656951904297e+00) (90, 3.86297678947448730469e+00) (91, -1.55472147464752197266e+00) (92, 3.41167241334915161133e-01) (93, -1.47956609725952148438e+00) (94, 2.06208825111389160156e+00) (95, -1.45849502086639404297e+00) (65, -4.75060284137725830078e-01) (66, -1.33422117233276367188e+01) (67, 1.50000000000000000000e+03) (68, -1.19666501879692077637e-01) (69, 6.18651723861694335938e+00) (70, -4.30799543857574462891e-01) (71, -5.10725080966949462891e-01) (72, -3.49419176578521728516e-01) (73, -4.26839232444763183594e-01) (74, -1.37687599658966064453e+00) (75, -1.10072262585163116455e-01) (76, -8.06891322135925292969e-01) (77, -5.10926306247711181641e-01) (78, -6.08428878784179687500e+01) (79, -1.92621207237243652344e+00) (80, -5.53122615814208984375e+00) (81, -4.50252965092658996582e-02) (82, -1.01110732555389404297e+00) (83, 8.19795668125152587891e-01) (84, 1.07658338546752929688e+00) (85, -2.15652680397033691406e+00) (86, 9.12117195129394531250e+00) (87, -4.50268149375915527344e-01) (88, 7.42378234863281250000e-02) (89, -5.06914556026458740234e-01) (90, 1.53191101551055908203e+00) (91, -4.39442276954650878906e-01) (92, -1.03008151054382324219e+00) (93, -4.44181442260742187500e-01) (94, 7.23486900329589843750e-01) (95, -4.03803169727325439453e-01) (65, -8.97307753562927246094e-01) (66, 6.43501472473144531250e+00) (67, 1.50000000000000000000e+03) (68, 7.29454636573791503906e-01) (69, 2.67843174934387207031e+00) (70, -9.14651274681091308594e-01) (71, -8.54089260101318359375e-01) (72, -1.00066840648651123047e+00) (73, -8.26632738113403320312e-01) (74, 3.77046853303909301758e-01) (75, -9.24457430839538574219e-01) (76, -1.04575335979461669922e+00) (77, -8.09381544589996337891e-01) (78, -8.06806266307830810547e-01) (79, 1.97165763378143310547e+00) (80, -3.77256225585937500000e+02) (81, -8.38262081146240234375e+00) (82, -2.70469594001770019531e+00) (83, -8.37860298156738281250e+00) (84, 1.85483038425445556641e+00) (85, 9.51852977275848388672e-01) (86, 3.12533426284790039062e+00) (87, -9.92193341255187988281e-01) (88, 1.30056083202362060547e+00) (89, -9.43299055099487304688e-01) (90, 1.01730167865753173828e+00) (91, -9.75496292114257812500e-01) (92, 5.19837379455566406250e-01) (93, -9.66410994529724121094e-01) (94, 2.48093917965888977051e-01) (95, -8.59074950218200683594e-01) (65, -1.26069203019142150879e-01) (66, -1.92455685138702392578e+00) (67, 1.50000000000000000000e+03) (68, -3.76663452148437500000e+02) (69, -1.14604434967041015625e+01) (70, 1.14819416776299476624e-02) (71, -2.01584890484809875488e-01) (72, -1.45962998270988464355e-01) (73, -8.09566006064414978027e-02) (74, 9.57192897796630859375e-01) (75, -9.82747748494148254395e-02) (76, -9.53495740890502929688e-01) (77, -2.18730241060256958008e-01) (78, 3.01016283035278320312e+00) (79, 4.21686135232448577881e-02) (80, 3.16794252395629882812e+00) (81, 8.87166738510131835938e-01) (82, 1.35834598541259765625e+00) (83, -1.81409943103790283203e+00) (84, 9.23979282379150390625e+00) (85, 4.91435909271240234375e+00) (86, -4.48335027694702148438e+00) (87, -1.88349947333335876465e-01) (88, -1.51538538932800292969e+00) (89, -2.23117649555206298828e-01) (90, -3.01760625839233398438e+00) (91, -1.37905836105346679688e-01) (92, -1.00853967666625976562e+00) (93, -1.74006998538970947266e-01) (94, -3.17802238464355468750e+00) (95, -2.30837374925613403320e-01) (65, -2.00377917289733886719e+00) (66, 7.84276676177978515625e+00) (67, 1.50000000000000000000e+03) (68, -4.59243476390838623047e-01) (69, 6.95969724655151367188e+00) (70, -1.97846972942352294922e+00) (71, -2.00056123733520507812e+00) (72, -1.80801784992218017578e+00) (73, -1.28463482856750488281e+00) (74, -1.15059852600097656250e+00) (75, -5.44389867782592773438e+00) (76, 1.79025006294250488281e+00) (77, -1.95146787166595458984e+00) (78, -1.44568300247192382812e+00) (79, 1.08541154861450195312e+00) (80, -1.51583746075630187988e-01) (81, 9.36165142059326171875e+00) (82, -1.95748412609100341797e+00) (83, -1.76762390136718750000e+00) (84, 3.53135657310485839844e+00) (85, 1.70122671127319335938e+00) (86, 1.48022115230560302734e+00) (87, -1.92882156372070312500e+00) (88, -9.60427939891815185547e-01) (89, -1.88634502887725830078e+00) (90, 1.51561462879180908203e+00) (91, -1.97247469425201416016e+00) (92, 1.66668856143951416016e+00) (93, -1.99141323566436767578e+00) (94, 1.39206737279891967773e-01) (95, -1.95856773853302001953e+00) (65, -2.10660368204116821289e-01) (66, 4.47972393035888671875e+00) (67, 1.50000000000000000000e+03) (68, -3.57836189270019531250e+01) (69, -1.13581733703613281250e+01) (70, -1.37328013777732849121e-01) (71, -2.35773175954818725586e-01) (72, -2.57509708404541015625e-01) (73, -2.34113737940788269043e-01) (74, 3.28980278968811035156e+00) (75, -2.33270764350891113281e-01) (76, -1.10063982009887695312e+00) (77, -2.58673191070556640625e-01) (78, -4.56192374229431152344e-01) (79, -2.92911224365234375000e+01) (80, 1.54868113994598388672e+00) (81, 7.86292171478271484375e+00) (82, -1.12254226207733154297e+00) (83, -1.24977006912231445312e+01) (84, -1.61668357849121093750e+01) (85, -1.95434904098510742188e+00) (86, 2.71320295333862304688e+00) (87, -3.09795051813125610352e-01) (88, 1.19690012931823730469e+00) (89, -2.19589769840240478516e-01) (90, -1.16593039035797119141e+00) (91, -1.42566949129104614258e-01) (92, -1.41991662979125976562e+00) (93, -1.24254658818244934082e-01) (94, 6.77862226963043212891e-01) (95, -2.61978238821029663086e-01) (65, -5.29553353786468505859e-01) (66, -1.23829793930053710938e+00) (67, 1.50000000000000000000e+03) (68, 2.37985014915466308594e+00) (69, 4.43774223327636718750e-01) (70, -4.34269934892654418945e-01) (71, -6.42683565616607666016e-01) (72, -8.98612260818481445312e-01) (73, -6.31802976131439208984e-01) (74, -6.98155822753906250000e+02) (75, -1.95781493186950683594e+00) (76, 4.80872869491577148438e-01) (77, -5.80085277557373046875e-01) (78, 9.74461853504180908203e-01) (79, 4.79244518280029296875e+00) (80, 1.58974444866180419922e+00) (81, -1.61946845054626464844e+00) (82, -2.69975209236145019531e+00) (83, 1.91884589195251464844e+00) (84, -5.48248481750488281250e+00) (85, -8.85088145732879638672e-01) (86, -4.75799131393432617188e+00) (87, -7.86985158920288085938e-01) (88, 2.83453321456909179688e+00) (89, -4.67710971832275390625e-01) (90, 1.96056759357452392578e+00) (91, -5.25306165218353271484e-01) (92, 2.84042000770568847656e+00) (93, -4.67503845691680908203e-01) (94, -2.76804685592651367188e-01) (95, -7.62948751449584960938e-01) (65, -1.48115670680999755859e+00) (66, 7.09748649597167968750e+00) (67, 1.50000000000000000000e+03) (68, -2.82539200782775878906e+00) (69, 6.09257841110229492188e+00) (70, -1.45164203643798828125e+00) (71, -1.43867337703704833984e+00) (72, -1.37842512130737304688e+00) (73, -1.40514373779296875000e+00) (74, 1.44061994552612304688e+00) (75, -7.47404038906097412109e-01) (76, 1.32733511924743652344e+00) (77, -1.44867944717407226562e+00) (78, -4.03520405292510986328e-01) (79, -3.62002968788146972656e+00) (80, 1.79919815063476562500e+00) (81, -6.03891944885253906250e+00) (82, -1.63177752494812011719e+00) (83, 3.13721251487731933594e+00) (84, -1.39979267120361328125e+00) (85, -4.15020132064819335938e+00) (86, 2.73731780052185058594e+00) (87, -1.45030140876770019531e+00) (88, 1.72488009929656982422e+00) (89, -1.50672197341918945312e+00) (90, 1.68303668498992919922e-01) (91, -1.45192265510559082031e+00) (92, -1.41360491514205932617e-01) (93, -1.34709155559539794922e+00) (94, -9.70297455787658691406e-01) (95, -1.48175787925720214844e+00) (65, -1.30106925964355468750e+00) (66, 4.54117727279663085938e+00) (67, 1.50000000000000000000e+03) (68, -4.85855311155319213867e-01) (69, 6.78050994873046875000e+00) (70, -3.93915557861328125000e+00) (71, -1.22049510478973388672e+00) (72, -1.24414145946502685547e+00) (73, -1.16051101684570312500e+00) (74, -3.10039192438125610352e-01) (75, -2.19987964630126953125e+00) (76, -6.05434477329254150391e-01) (77, -1.27351617813110351562e+00) (78, 9.99214947223663330078e-01) (79, 2.07370233535766601562e+00) (80, -1.05687522888183593750e+00) (81, -7.24298715591430664062e+00) (82, -2.21422243118286132812e+00) (83, 6.29727077484130859375e+00) (84, 3.24186396598815917969e+00) (85, 3.42427110671997070312e+00) (86, 7.85335063934326171875e-01) (87, -1.16165816783905029297e+00) (88, -1.19734442234039306641e+00) (89, -1.26949441432952880859e+00) (90, -7.87529945373535156250e-01) (91, -1.20065999031066894531e+00) (92, -2.35796868801116943359e-01) (93, -1.34086632728576660156e+00) (94, 5.52625060081481933594e-01) (95, -1.30826568603515625000e+00) 
