FANN_FLO_2.1
num_layers=3
learning_rate=0.050000
connection_rate=1.000000
network_type=0
learning_momentum=0.000000
training_algorithm=0
train_error_function=1
train_stop_function=0
cascade_output_change_fraction=0.010000
quickprop_decay=-0.000100
quickprop_mu=1.750000
rprop_increase_factor=1.200000
rprop_decrease_factor=0.500000
rprop_delta_min=0.000000
rprop_delta_max=50.000000
rprop_delta_zero=0.100000
cascade_output_stagnation_epochs=12
cascade_candidate_change_fraction=0.010000
cascade_candidate_stagnation_epochs=12
cascade_max_out_epochs=150
cascade_min_out_epochs=50
cascade_max_cand_epochs=150
cascade_min_cand_epochs=50
cascade_num_candidate_groups=2
bit_fail_limit=3.49999994039535522461e-01
cascade_candidate_limit=1.00000000000000000000e+03
cascade_weight_multiplier=4.00000005960464477539e-01
cascade_activation_functions_count=10
cascade_activation_functions=3 5 7 8 10 11 14 15 16 17 
cascade_activation_steepnesses_count=4
cascade_activation_steepnesses=2.50000000000000000000e-01 5.00000000000000000000e-01 7.50000000000000000000e-01 1.00000000000000000000e+00 
layer_sizes=65 121 11 
scale_included=0
neurons (num_inputs, activation_function, activation_steepness)=(0, 0, 0.00000000000000000000e+00) (0, 0, 0.00000000000000000000e+00) (0, 0, 0.00000000000000000000e+00) (0, 0, 0.00000000000000000000e+00) (0, 0, 0.00000000000000000000e+00) (0, 0, 0.00000000000000000000e+00) (0, 0, 0.00000000000000000000e+00) (0, 0, 0.00000000000000000000e+00) (0, 0, 0.00000000000000000000e+00) (0, 0, 0.00000000000000000000e+00) (0, 0, 0.00000000000000000000e+00) (0, 0, 0.00000000000000000000e+00) (0, 0, 0.00000000000000000000e+00) (0, 0, 0.00000000000000000000e+00) (0, 0, 0.00000000000000000000e+00) (0, 0, 0.00000000000000000000e+00) (0, 0, 0.00000000000000000000e+00) (0, 0, 0.00000000000000000000e+00) (0, 0, 0.00000000000000000000e+00) (0, 0, 0.00000000000000000000e+00) (0, 0, 0.00000000000000000000e+00) (0, 0, 0.00000000000000000000e+00) (0, 0, 0.00000000000000000000e+00) (0, 0, 0.00000000000000000000e+00) (0, 0, 0.00000000000000000000e+00) (0, 0, 0.00000000000000000000e+00) (0, 0, 0.00000000000000000000e+00) (0, 0, 0.00000000000000000000e+00) (0, 0, 0.00000000000000000000e+00) (0, 0, 0.00000000000000000000e+00) (0, 0, 0.00000000000000000000e+00) (0, 0, 0.00000000000000000000e+00) (0, 0, 0.00000000000000000000e+00) (0, 0, 0.00000000000000000000e+00) (0, 0, 0.00000000000000000000e+00) (0, 0, 0.00000000000000000000e+00) (0, 0, 0.00000000000000000000e+00) (0, 0, 0.00000000000000000000e+00) (0, 0, 0.00000000000000000000e+00) (0, 0, 0.00000000000000000000e+00) (0, 0, 0.00000000000000000000e+00) (0, 0, 0.00000000000000000000e+00) (0, 0, 0.00000000000000000000e+00) (0, 0, 0.00000000000000000000e+00) (0, 0, 0.00000000000000000000e+00) (0, 0, 0.00000000000000000000e+00) (0, 0, 0.00000000000000000000e+00) (0, 0, 0.00000000000000000000e+00) (0, 0, 0.00000000000000000000e+00) (0, 0, 0.00000000000000000000e+00) (0, 0, 0.00000000000000000000e+00) (0, 0, 0.00000000000000000000e+00) (0, 0, 0.00000000000000000000e+00) (0, 0, 0.00000000000000000000e+00) (0, 0, 0.00000000000000000000e+00) (0, 0, 0.00000000000000000000e+00) (0, 0, 0.00000000000000000000e+00) (0, 0, 0.00000000000000000000e+00) (0, 0, 0.00000000000000000000e+00) (0, 0, 0.00000000000000000000e+00) (0, 0, 0.00000000000000000000e+00) (0, 0, 0.00000000000000000000e+00) (0, 0, 0.00000000000000000000e+00) (0, 0, 0.00000000000000000000e+00) (0, 0, 0.00000000000000000000e+00) (65, 3, 5.00000000000000000000e-01) (65, 3, 5.00000000000000000000e-01) (65, 3, 5.00000000000000000000e-01) (65, 3, 5.00000000000000000000e-01) (65, 3, 5.00000000000000000000e-01) (65, 3, 5.00000000000000000000e-01) (65, 3, 5.00000000000000000000e-01) (65, 3, 5.00000000000000000000e-01) (65, 3, 5.00000000000000000000e-01) (65, 3, 5.00000000000000000000e-01) (65, 3, 5.00000000000000000000e-01) (65, 3, 5.00000000000000000000e-01) (65, 3, 5.00000000000000000000e-01) (65, 3, 5.00000000000000000000e-01) (65, 3, 5.00000000000000000000e-01) (65, 3, 5.00000000000000000000e-01) (65, 3, 5.00000000000000000000e-01) (65, 3, 5.00000000000000000000e-01) (65, 3, 5.00000000000000000000e-01) (65, 3, 5.00000000000000000000e-01) (65, 3, 5.00000000000000000000e-01) (65, 3, 5.00000000000000000000e-01) (65, 3, 5.00000000000000000000e-01) (65, 3, 5.00000000000000000000e-01) (65, 3, 5.00000000000000000000e-01) (65, 3, 5.00000000000000000000e-01) (65, 3, 5.00000000000000000000e-01) (65, 3, 5.00000000000000000000e-01) (65, 3, 5.00000000000000000000e-01) (65, 3, 5.00000000000000000000e-01) (65, 3, 5.00000000000000000000e-01) (65, 3, 5.00000000000000000000e-01) (65, 3, 5.00000000000000000000e-01) (65, 3, 5.00000000000000000000e-01) (65, 3, 5.00000000000000000000e-01) (65, 3, 5.00000000000000000000e-01) (65, 3, 5.00000000000000000000e-01) (65, 3, 5.00000000000000000000e-01) (65, 3, 5.00000000000000000000e-01) (65, 3, 5.00000000000000000000e-01) (65, 3, 5.00000000000000000000e-01) (65, 3, 5.00000000000000000000e-01) (65, 3, 5.00000000000000000000e-01) (65, 3, 5.00000000000000000000e-01) (65, 3, 5.00000000000000000000e-01) (65, 3, 5.00000000000000000000e-01) (65, 3, 5.00000000000000000000e-01) (65, 3, 5.00000000000000000000e-01) (65, 3, 5.00000000000000000000e-01) (65, 3, 5.00000000000000000000e-01) (65, 3, 5.00000000000000000000e-01) (65, 3, 5.00000000000000000000e-01) (65, 3, 5.00000000000000000000e-01) (65, 3, 5.00000000000000000000e-01) (65, 3, 5.00000000000000000000e-01) (65, 3, 5.00000000000000000000e-01) (65, 3, 5.00000000000000000000e-01) (65, 3, 5.00000000000000000000e-01) (65, 3, 5.00000000000000000000e-01) (65, 3, 5.00000000000000000000e-01) (65, 3, 5.00000000000000000000e-01) (65, 3, 5.00000000000000000000e-01) (65, 3, 5.00000000000000000000e-01) (65, 3, 5.00000000000000000000e-01) (65, 3, 5.00000000000000000000e-01) (65, 3, 5.00000000000000000000e-01) (65, 3, 5.00000000000000000000e-01) (65, 3, 5.00000000000000000000e-01) (65, 3, 5.00000000000000000000e-01) (65, 3, 5.00000000000000000000e-01) (65, 3, 5.00000000000000000000e-01) (65, 3, 5.00000000000000000000e-01) (65, 3, 5.00000000000000000000e-01) (65, 3, 5.00000000000000000000e-01) (65, 3, 5.00000000000000000000e-01) (65, 3, 5.00000000000000000000e-01) (65, 3, 5.00000000000000000000e-01) (65, 3, 5.00000000000000000000e-01) (65, 3, 5.00000000000000000000e-01) (65, 3, 5.00000000000000000000e-01) (65, 3, 5.00000000000000000000e-01) (65, 3, 5.00000000000000000000e-01) (65, 3, 5.00000000000000000000e-01) (65, 3, 5.00000000000000000000e-01) (65, 3, 5.00000000000000000000e-01) (65, 3, 5.00000000000000000000e-01) (65, 3, 5.00000000000000000000e-01) (65, 3, 5.00000000000000000000e-01) (65, 3, 5.00000000000000000000e-01) (65, 3, 5.00000000000000000000e-01) (65, 3, 5.00000000000000000000e-01) (65, 3, 5.00000000000000000000e-01) (65, 3, 5.00000000000000000000e-01) (65, 3, 5.00000000000000000000e-01) (65, 3, 5.00000000000000000000e-01) (65, 3, 5.00000000000000000000e-01) (65, 3, 5.00000000000000000000e-01) (65, 3, 5.00000000000000000000e-01) (65, 3, 5.00000000000000000000e-01) (65, 3, 5.00000000000000000000e-01) (65, 3, 5.00000000000000000000e-01) (65, 3, 5.00000000000000000000e-01) (65, 3, 5.00000000000000000000e-01) (65, 3, 5.00000000000000000000e-01) (65, 3, 5.00000000000000000000e-01) (65, 3, 5.00000000000000000000e-01) (65, 3, 5.00000000000000000000e-01) (65, 3, 5.00000000000000000000e-01) (65, 3, 5.00000000000000000000e-01) (65, 3, 5.00000000000000000000e-01) (65, 3, 5.00000000000000000000e-01) (65, 3, 5.00000000000000000000e-01) (65, 3, 5.00000000000000000000e-01) (65, 3, 5.00000000000000000000e-01) (65, 3, 5.00000000000000000000e-01) (65, 3, 5.00000000000000000000e-01) (65, 3, 5.00000000000000000000e-01) (65, 3, 5.00000000000000000000e-01) (65, 3, 5.00000000000000000000e-01) (65, 3, 5.00000000000000000000e-01) (0, 3, 0.00000000000000000000e+00) (121, 3, 5.00000000000000000000e-01) (121, 3, 5.00000000000000000000e-01) (121, 3, 5.00000000000000000000e-01) (121, 3, 5.00000000000000000000e-01) (121, 3, 5.00000000000000000000e-01) (121, 3, 5.00000000000000000000e-01) (121, 3, 5.00000000000000000000e-01) (121, 3, 5.00000000000000000000e-01) (121, 3, 5.00000000000000000000e-01) (121, 3, 5.00000000000000000000e-01) (0, 3, 0.00000000000000000000e+00) 
connections (connected_to_neuron, weight)=(0, -9.02799516916275024414e-03) (1, 2.33981385827064514160e-02) (2, -3.42608183622360229492e-01) (3, -4.17792081832885742188e-01) (4, -3.99094164371490478516e-01) (5, -4.18212652206420898438e-01) (6, -4.63819392025470733643e-02) (7, 2.19905301928520202637e-01) (8, -3.47044542431831359863e-02) (9, -1.04727052152156829834e-01) (10, -2.98771023750305175781e-01) (11, -5.44516205787658691406e-01) (12, -5.96625328063964843750e-01) (13, -3.79261255264282226562e-01) (14, 2.00925506651401519775e-02) (15, 2.12177876383066177368e-02) (16, -4.17092256247997283936e-02) (17, -2.77089537121355533600e-03) (18, -1.07797712087631225586e-01) (19, -8.76465916633605957031e-01) (20, -6.25684618949890136719e-01) (21, 1.80366709828376770020e-01) (22, -8.14954563975334167480e-02) (23, 7.09458440542221069336e-02) (24, 6.14025071263313293457e-02) (25, 9.92628633975982666016e-02) (26, -3.04864645004272460938e-01) (27, -1.58921808004379272461e-01) (28, -3.82081180810928344727e-01) (29, -1.54621928930282592773e-01) (30, 4.89406436681747436523e-01) (31, -8.04608222097158432007e-03) (32, 3.01863923668861389160e-02) (33, -3.42343971133232116699e-02) (34, 2.15772256255149841309e-01) (35, -3.64549577236175537109e-01) (36, 5.47538395039737224579e-04) (37, -4.40845251083374023438e-01) (38, -1.19099617004394531250e-02) (39, 9.14454385638236999512e-02) (40, -3.96021381020545959473e-02) (41, 2.33810365200042724609e-01) (42, 1.41333293914794921875e+00) (43, 8.26031029224395751953e-01) (44, -4.14117753505706787109e-01) (45, -4.66357380151748657227e-01) (46, -5.52157878875732421875e-01) (47, -1.04805856943130493164e-01) (48, 6.65537491440773010254e-02) (49, 8.95587280392646789551e-02) (50, 1.59977465867996215820e-01) (51, 1.20364591479301452637e-01) (52, -4.53431755304336547852e-01) (53, -4.20609116554260253906e-01) (54, -2.24175304174423217773e-01) (55, -9.48633030056953430176e-02) (56, 1.31900254637002944946e-02) (57, -9.12001505494117736816e-02) (58, -4.13860023021697998047e-01) (59, -4.05665487051010131836e-01) (60, -5.20832836627960205078e-01) (61, -2.65533387660980224609e-01) (62, 9.05278995633125305176e-02) (63, 3.84132675826549530029e-02) (64, -5.62667893245816230774e-03) (0, 3.31509336829185485840e-02) (1, -1.01850237697362899780e-02) (2, -3.52588444948196411133e-01) (3, 3.18398177623748779297e-01) (4, -4.91821140050888061523e-01) (5, -4.67121988534927368164e-01) (6, -6.89683705568313598633e-02) (7, -1.26943558454513549805e-01) (8, -7.28177651762962341309e-02) (9, 1.59000322222709655762e-01) (10, 8.56794834136962890625e-01) (11, 7.20460653305053710938e-01) (12, 1.70927733182907104492e-01) (13, 1.24310567975044250488e-01) (14, 4.06999796628952026367e-01) (15, 1.56127780675888061523e-01) (16, -1.81683506816625595093e-02) (17, -6.00679256021976470947e-02) (18, 2.86853969097137451172e-01) (19, -6.17324292659759521484e-01) (20, -4.81550544500350952148e-01) (21, 1.34287941455841064453e+00) (22, 1.15256679058074951172e+00) (23, 1.42587840557098388672e-01) (24, -3.39502096176147460938e-02) (25, -4.50585752725601196289e-01) (26, -1.80154785513877868652e-01) (27, -6.66410148143768310547e-01) (28, 7.77329728007316589355e-02) (29, -2.51696025952696800232e-03) (30, -1.82484447956085205078e-01) (31, -7.65671627596020698547e-03) (32, 2.28225067257881164551e-03) (33, -4.00063931941986083984e-01) (34, 4.35730330646038055420e-02) (35, 4.63957816362380981445e-01) (36, 2.88765370845794677734e-01) (37, -2.53556638956069946289e-01) (38, -7.62427628040313720703e-01) (39, 9.89642068743705749512e-02) (40, -1.10339067876338958740e-01) (41, -4.66746956110000610352e-01) (42, 4.93858665227890014648e-01) (43, 7.09259986877441406250e-01) (44, -3.62614899873733520508e-01) (45, -3.59960198402404785156e-01) (46, -6.51849627494812011719e-01) (47, 9.11773592233657836914e-02) (48, 2.02980451285839080811e-02) (49, -4.51431900262832641602e-01) (50, -3.30984413623809814453e-01) (51, 6.00311636924743652344e-01) (52, -1.38931706547737121582e-01) (53, -8.37557911872863769531e-02) (54, -1.61306947469711303711e-01) (55, 2.50781443901360034943e-03) (56, 1.21001098304986953735e-02) (57, 3.08717992156744003296e-02) (58, -3.86163979768753051758e-01) (59, 5.66494405269622802734e-01) (60, 6.10183477401733398438e-01) (61, 8.53581801056861877441e-02) (62, 3.46085391938686370850e-02) (63, -1.95400118827819824219e-01) (64, -9.37612950801849365234e-02) (0, -8.46143215894699096680e-02) (1, 1.22107394039630889893e-01) (2, 3.29586684703826904297e-01) (3, 1.01621520519256591797e+00) (4, 3.50729465484619140625e-01) (5, 1.20654940605163574219e+00) (6, 4.58754211664199829102e-01) (7, -1.86885789036750793457e-01) (8, 9.76330321282148361206e-03) (9, 4.92394804954528808594e-01) (10, 6.68048858642578125000e-01) (11, 1.94707587361335754395e-01) (12, 8.09780299663543701172e-01) (13, 8.18665385246276855469e-01) (14, -5.52092730998992919922e-01) (15, -6.66431561112403869629e-02) (16, -9.02081932872533798218e-03) (17, 2.99258649349212646484e-01) (18, -1.36214733123779296875e-01) (19, -9.26574040204286575317e-03) (20, 8.33845317363739013672e-01) (21, -6.68321490287780761719e-01) (22, 3.91166508197784423828e-01) (23, 1.56821444630622863770e-01) (24, -1.14832725375890731812e-02) (25, -1.07573831081390380859e+00) (26, -5.31505346298217773438e-01) (27, -7.04971328377723693848e-02) (28, 8.58556449413299560547e-01) (29, 3.75040352344512939453e-01) (30, -1.64583563804626464844e+00) (31, 9.53710302710533142090e-02) (32, -2.17430572956800460815e-02) (33, -5.28303384780883789062e-01) (34, -1.08595776557922363281e+00) (35, 9.75249469280242919922e-01) (36, 4.83983643352985382080e-02) (37, -7.34958589076995849609e-01) (38, -1.58669805526733398438e+00) (39, -5.56368008255958557129e-02) (40, -1.10628306865692138672e-01) (41, -5.69033265113830566406e-01) (42, -1.27998650074005126953e+00) (43, 4.24074620008468627930e-01) (44, -8.26060712337493896484e-01) (45, -2.11614951491355895996e-01) (46, -1.67339950799942016602e-01) (47, -5.51635362207889556885e-02) (48, 6.20334595441818237305e-02) (49, -8.58587324619293212891e-02) (50, -1.29603907465934753418e-01) (51, -3.47287327051162719727e-01) (52, -2.95370608568191528320e-01) (53, 2.35551968216896057129e-02) (54, 2.58980870246887207031e-01) (55, -4.77819107472896575928e-02) (56, -6.00508674979209899902e-02) (57, -7.83345550298690795898e-02) (58, -9.57181379199028015137e-02) (59, 1.09997439384460449219e+00) (60, -2.33857795596122741699e-01) (61, 1.63813441991806030273e-01) (62, 4.32656973600387573242e-01) (63, -2.74140629917383193970e-02) (64, 1.50233069434762001038e-02) (0, -1.01487785577774047852e-02) (1, 5.39537705481052398682e-02) (2, 4.82550263404846191406e-02) (3, 1.04045927524566650391e-01) (4, 2.28331610560417175293e-03) (5, 6.91480860114097595215e-02) (6, -4.14522252976894378662e-02) (7, -6.92539513111114501953e-02) (8, 8.10828283429145812988e-02) (9, -6.23881518840789794922e-02) (10, -1.40984103083610534668e-01) (11, 2.74079799652099609375e-01) (12, 3.21264594793319702148e-01) (13, 5.94604462385177612305e-02) (14, 1.26098962500691413879e-02) (15, 1.08885494992136955261e-02) (16, 8.60766395926475524902e-02) (17, -5.50834648311138153076e-02) (18, 1.19292996823787689209e-01) (19, 2.11198240518569946289e-01) (20, 1.11888512969017028809e-01) (21, 2.89320468902587890625e-01) (22, 7.09716379642486572266e-02) (23, 3.81339564919471740723e-02) (24, -6.71899691224098205566e-02) (25, -1.57604932785034179688e-01) (26, 6.06652572751045227051e-02) (27, 2.05550476908683776855e-01) (28, -1.22864684090018272400e-02) (29, 2.02476888895034790039e-01) (30, 9.68795493245124816895e-02) (31, 8.79528746008872985840e-02) (32, -6.00167140364646911621e-02) (33, -4.97172512114048004150e-02) (34, -1.31007665768265724182e-02) (35, 2.15417258441448211670e-02) (36, -1.71962007880210876465e-01) (37, -9.73808094859123229980e-02) (38, 8.84187668561935424805e-02) (39, -5.06893731653690338135e-02) (40, -1.15483347326517105103e-03) (41, 6.54651895165443420410e-02) (42, -1.43765658140182495117e-01) (43, -2.87431664764881134033e-02) (44, -6.26326948404312133789e-02) (45, -3.89782898128032684326e-02) (46, 3.87798659503459930420e-02) (47, -7.21449181437492370605e-02) (48, 8.39060321450233459473e-02) (49, 1.08546696603298187256e-01) (50, -2.40430887788534164429e-02) (51, -8.93684327602386474609e-02) (52, -3.77694293856620788574e-02) (53, -7.13464319705963134766e-02) (54, 2.80594378709793090820e-01) (55, 2.32790447771549224854e-02) (56, 7.19411596655845642090e-02) (57, -9.78480726480484008789e-02) (58, -1.04459580034017562866e-02) (59, -9.71666872501373291016e-02) (60, 1.03954255580902099609e-01) (61, 1.26045629382133483887e-01) (62, 8.96923020482063293457e-02) (63, -1.25157861039042472839e-02) (64, 4.13621254265308380127e-02) (0, -1.74127519130706787109e-02) (1, 7.30786249041557312012e-02) (2, -1.09801016747951507568e-01) (3, -7.96746928244829177856e-03) (4, -2.48023867607116699219e-02) (5, -4.37816083431243896484e-02) (6, -4.22883778810501098633e-02) (7, -5.45500665903091430664e-02) (8, -4.72421571612358093262e-02) (9, -1.83078879490494728088e-03) (10, -7.17708021402359008789e-02) (11, 5.50618469715118408203e-02) (12, -2.28437855839729309082e-02) (13, -2.23669782280921936035e-02) (14, 7.79998227953910827637e-02) (15, -8.02651420235633850098e-02) (16, 5.40556050837039947510e-02) (17, -1.22731134295463562012e-01) (18, -2.67657302320003509521e-02) (19, -5.49542456865310668945e-02) (20, 5.89898079633712768555e-02) (21, -1.65777057409286499023e-01) (22, -1.12740822136402130127e-01) (23, 9.68749299645423889160e-02) (24, 9.90872830152511596680e-02) (25, -1.40128340572118759155e-02) (26, -1.81543100625276565552e-02) (27, -1.12739071249961853027e-01) (28, 3.93319651484489440918e-02) (29, 3.55457812547683715820e-02) (30, 1.55076505616307258606e-02) (31, -6.71507120132446289062e-02) (32, 6.56580477952957153320e-02) (33, 6.61712959408760070801e-02) (34, 7.78473243117332458496e-02) (35, -4.08262498676776885986e-02) (36, -8.91392305493354797363e-02) (37, -7.52903819084167480469e-02) (38, 8.28536227345466613770e-03) (39, -3.69248315691947937012e-02) (40, 2.53641586750745773315e-02) (41, 5.76928034424781799316e-02) (42, -1.34599432349205017090e-01) (43, -1.04796946048736572266e-01) (44, -1.78932435810565948486e-02) (45, -8.71586054563522338867e-02) (46, -2.41713076829910278320e-02) (47, -4.87002730369567871094e-02) (48, -6.43921196460723876953e-02) (49, 1.79546140134334564209e-02) (50, -4.53458055853843688965e-02) (51, -1.12277805805206298828e-01) (52, 3.16791683435440063477e-02) (53, -2.09424104541540145874e-02) (54, -8.27103406190872192383e-02) (55, 7.54907876253128051758e-02) (56, -8.72471705079078674316e-02) (57, -1.28756202757358551025e-02) (58, 7.24952071905136108398e-02) (59, 1.16288065910339355469e-02) (60, -4.31912094354629516602e-02) (61, 2.98307593911886215210e-02) (62, 6.76458328962326049805e-02) (63, -7.51245692372322082520e-02) (64, -1.49836475029587745667e-02) (0, 7.17757269740104675293e-02) (1, -4.85613495111465454102e-02) (2, -2.99258321523666381836e-01) (3, -1.65327951312065124512e-01) (4, -3.08745980262756347656e-01) (5, -1.76668211817741394043e-01) (6, -2.02509790658950805664e-01) (7, 1.43788978457450866699e-01) (8, -1.16095811128616333008e-01) (9, -2.57312715053558349609e-01) (10, -7.00306892395019531250e-01) (11, -3.46290916204452514648e-01) (12, 4.60038453340530395508e-01) (13, -2.87070006132125854492e-01) (14, -2.72383660078048706055e-01) (15, 9.34138596057891845703e-02) (16, -5.77659383416175842285e-02) (17, 1.34291023015975952148e-01) (18, -7.35247880220413208008e-02) (19, 8.40334072709083557129e-02) (20, 1.83749631047248840332e-01) (21, -2.84922212362289428711e-01) (22, 2.69928723573684692383e-01) (23, 1.01305030286312103271e-01) (24, -2.08042119629681110382e-03) (25, 6.59304484724998474121e-02) (26, -2.89507180452346801758e-01) (27, -2.92590260505676269531e-01) (28, -4.57188695669174194336e-01) (29, 4.62555140256881713867e-02) (30, 2.24536478519439697266e-01) (31, -1.44530786201357841492e-02) (32, 8.79755914211273193359e-02) (33, -1.96907788515090942383e-01) (34, -2.31046587228775024414e-01) (35, -6.31076395511627197266e-01) (36, -1.55295759439468383789e-01) (37, 2.27427393198013305664e-01) (38, -2.53233760595321655273e-01) (39, 6.55255094170570373535e-02) (40, 1.85980051755905151367e-02) (41, 6.46878927946090698242e-02) (42, 1.01625239849090576172e+00) (43, 9.11874830722808837891e-01) (44, 5.02338945865631103516e-01) (45, -1.29827514290809631348e-01) (46, -4.46494489908218383789e-01) (47, 8.20548236370086669922e-02) (48, 1.68205741792917251587e-02) (49, 1.60302102565765380859e-01) (50, -2.44794979691505432129e-01) (51, 5.62629103660583496094e-01) (52, 8.29711556434631347656e-01) (53, 3.48957270383834838867e-01) (54, 8.33458174020051956177e-03) (55, 1.17927521467208862305e-01) (56, -9.63795930147171020508e-02) (57, -7.19565823674201965332e-02) (58, -3.47798436880111694336e-01) (59, -1.49434939026832580566e-01) (60, -9.89378765225410461426e-02) (61, 4.90889728069305419922e-01) (62, 5.59479296207427978516e-01) (63, 3.24330300092697143555e-01) (64, -1.29893757402896881104e-02) (0, -2.44123339653015136719e-02) (1, -9.97820571064949035645e-02) (2, -1.20373584330081939697e-01) (3, -2.24560257047414779663e-02) (4, -3.58500182628631591797e-01) (5, -5.77866137027740478516e-01) (6, -6.63191005587577819824e-02) (7, -4.83908839523792266846e-02) (8, -2.49826714396476745605e-01) (9, -5.14121472835540771484e-01) (10, -3.65815758705139160156e-01) (11, 1.09335459768772125244e-01) (12, -1.17775440216064453125e-01) (13, -4.57642108201980590820e-01) (14, -1.47950798273086547852e-01) (15, 5.42752854526042938232e-02) (16, 8.39992091059684753418e-02) (17, -1.00862726569175720215e-01) (18, -1.59439817070960998535e-01) (19, 4.66657578945159912109e-01) (20, -3.37499119341373443604e-02) (21, -9.57526981830596923828e-01) (22, -3.46501111984252929688e-01) (23, -7.06371292471885681152e-02) (24, -4.41718548536300659180e-02) (25, 2.01791360974311828613e-01) (26, 2.69298076629638671875e-01) (27, -8.72367322444915771484e-02) (28, -1.52272447943687438965e-01) (29, -4.22136336565017700195e-01) (30, -5.51655530929565429688e-01) (31, -3.73962335288524627686e-02) (32, 9.30183157324790954590e-02) (33, -1.37266274541616439819e-02) (34, -1.67655751109123229980e-01) (35, -3.17393355071544647217e-02) (36, 6.38593882322311401367e-02) (37, 1.79634511470794677734e-01) (38, -7.98848643898963928223e-02) (39, 8.92666950821876525879e-02) (40, 8.92963409423828125000e-02) (41, -4.71017926931381225586e-01) (42, -4.94504928588867187500e-01) (43, -1.43926784396171569824e-01) (44, 4.22742739319801330566e-02) (45, 2.54444390535354614258e-01) (46, 6.30632817745208740234e-01) (47, -1.60091407597064971924e-02) (48, -6.03082776069641113281e-02) (49, -5.89405655860900878906e-01) (50, -4.32582527399063110352e-01) (51, -1.30021169781684875488e-01) (52, -3.80717664957046508789e-01) (53, 2.49596446752548217773e-01) (54, 3.23482006788253784180e-01) (55, 1.45861208438873291016e-01) (56, 5.72611987590789794922e-02) (57, -8.20519030094146728516e-02) (58, 5.06723448634147644043e-02) (59, 2.30586573481559753418e-01) (60, 5.86747407913208007812e-01) (61, 4.51622635126113891602e-01) (62, 2.33123288489878177643e-03) (63, 9.06669721007347106934e-02) (64, -5.34537173807621002197e-02) (0, 2.27727442979812622070e-02) (1, -2.20004562288522720337e-02) (2, -1.23451203107833862305e-01) (3, 1.86381965875625610352e-01) (4, -1.71751558780670166016e-01) (5, -9.83827561140060424805e-02) (6, -2.49370589852333068848e-01) (7, -4.38003577291965484619e-02) (8, -6.57004043459892272949e-02) (9, -2.57631808519363403320e-01) (10, -3.83056133985519409180e-01) (11, 1.78151458501815795898e-01) (12, 1.66322141885757446289e-01) (13, -6.47679418325424194336e-02) (14, -8.18710550665855407715e-02) (15, -6.55970573425292968750e-02) (16, -8.82865116000175476074e-02) (17, -8.52097943425178527832e-02) (18, 3.92168074846267700195e-01) (19, 1.04070198535919189453e+00) (20, 3.49502712488174438477e-01) (21, -4.47859838604927062988e-02) (22, 2.66549978405237197876e-02) (23, -1.00132813677191734314e-02) (24, 9.80859994888305664062e-02) (25, 2.47543290257453918457e-01) (26, 8.40893745422363281250e-01) (27, 3.09831380844116210938e-01) (28, -8.08318257331848144531e-02) (29, 2.44470283389091491699e-01) (30, -4.56328764557838439941e-02) (31, -9.06591340899467468262e-02) (32, -1.76375694572925567627e-02) (33, -2.79642380774021148682e-02) (34, 3.07613939046859741211e-01) (35, 8.41341987252235412598e-02) (36, -6.15622922778129577637e-02) (37, -1.77687764167785644531e-01) (38, -1.26854911446571350098e-01) (39, 8.24076309800148010254e-02) (40, -7.45492503046989440918e-02) (41, -1.73684731125831604004e-01) (42, 1.13539427518844604492e-01) (43, 5.27281165122985839844e-01) (44, 1.63937538862228393555e-01) (45, -3.90744537115097045898e-01) (46, -4.04119253158569335938e-01) (47, 1.23386504128575325012e-02) (48, -1.94798354059457778931e-02) (49, -5.85819520056247711182e-02) (50, -1.66634395718574523926e-01) (51, 2.04511880874633789062e-01) (52, 5.38013502955436706543e-03) (53, -3.36503624916076660156e-01) (54, -2.06429630517959594727e-01) (55, -6.39236196875572204590e-02) (56, 1.75017658621072769165e-02) (57, -8.26583951711654663086e-02) (58, -6.26111552119255065918e-02) (59, -8.37840884923934936523e-02) (60, 1.01119726896286010742e-01) (61, 2.96868652105331420898e-01) (62, 2.89716683328151702881e-02) (63, 8.01657438278198242188e-02) (64, -1.06523364782333374023e-01) (0, -5.81777095794677734375e-02) (1, -5.66126080229878425598e-03) (2, 8.81285220384597778320e-03) (3, 7.91389308869838714600e-03) (4, 1.01683378219604492188e-01) (5, 2.49439254403114318848e-01) (6, 1.25422507524490356445e-01) (7, -3.97037453949451446533e-02) (8, -7.45796933770179748535e-02) (9, 1.44044443964958190918e-01) (10, 2.80806601047515869141e-01) (11, -9.61042717099189758301e-02) (12, -1.07005223631858825684e-01) (13, 1.30703598260879516602e-01) (14, 2.45491135865449905396e-02) (15, -4.29883077740669250488e-02) (16, 9.09452065825462341309e-02) (17, 1.08707405626773834229e-01) (18, -1.23284049332141876221e-01) (19, -4.82248693704605102539e-01) (20, -2.83359825611114501953e-01) (21, 2.30397600680589675903e-02) (22, 9.56853255629539489746e-02) (23, -6.34285584092140197754e-02) (24, -6.21242858469486236572e-02) (25, -1.35918483138084411621e-01) (26, -1.89254060387611389160e-01) (27, 2.84433620981872081757e-03) (28, -4.73975613713264465332e-02) (29, -6.57137557864189147949e-02) (30, -2.15493321418762207031e-01) (31, -9.07341688871383666992e-02) (32, -6.00181100890040397644e-03) (33, -1.94672033190727233887e-01) (34, -3.28865975141525268555e-01) (35, 1.32809624075889587402e-01) (36, -2.16106548905372619629e-01) (37, -2.52406924962997436523e-01) (38, -9.36439167708158493042e-03) (39, -8.03132057189941406250e-02) (40, -1.84845868498086929321e-02) (41, 3.97287420928478240967e-02) (42, -3.52862566709518432617e-01) (43, -4.49662238359451293945e-01) (44, -3.16950947046279907227e-01) (45, -9.59684699773788452148e-03) (46, 5.92596605420112609863e-02) (47, -4.06034365296363830566e-02) (48, -8.11018347740173339844e-02) (49, 1.45876318216323852539e-01) (50, -1.25914767384529113770e-01) (51, -4.23214405775070190430e-01) (52, -4.52240288257598876953e-01) (53, -2.86040544509887695312e-01) (54, -4.93309134617447853088e-03) (55, 2.26835906505584716797e-02) (56, 8.94408747553825378418e-02) (57, -1.08639180660247802734e-01) (58, -4.06550541520118713379e-02) (59, 9.46222990751266479492e-02) (60, -2.21450507640838623047e-01) (61, -2.58952200412750244141e-01) (62, -2.45261508971452713013e-02) (63, -3.36712673306465148926e-02) (64, -4.01223488152027130127e-02) (0, -3.92725281417369842529e-02) (1, -1.15044929087162017822e-01) (2, -2.38298624753952026367e-01) (3, 4.74378973245620727539e-01) (4, -3.65478992462158203125e-01) (5, -5.68906903266906738281e-01) (6, -3.33368033170700073242e-01) (7, -2.40745022892951965332e-01) (8, -8.38557928800582885742e-02) (9, -1.44363775849342346191e-01) (10, -3.42833846807479858398e-01) (11, -4.26873207092285156250e-01) (12, -2.98794418573379516602e-01) (13, 1.28915473818778991699e-01) (14, 5.01977466046810150146e-02) (15, -9.78861078619956970215e-02) (16, -4.94121834635734558105e-02) (17, 2.57744431495666503906e-01) (18, 1.38754796981811523438e+00) (19, 1.15305900573730468750e+00) (20, 4.79128956794738769531e-01) (21, 1.25666320323944091797e+00) (22, 4.27194505929946899414e-01) (23, 5.39738610386848449707e-02) (24, -3.43055762350559234619e-02) (25, 2.27056205272674560547e-01) (26, 9.83431577682495117188e-01) (27, 4.78242278099060058594e-01) (28, 2.49801397323608398438e-01) (29, 7.87496924400329589844e-01) (30, 1.77863866090774536133e-01) (31, -4.95895780622959136963e-02) (32, 7.67429620027542114258e-02) (33, -5.68801499903202056885e-02) (34, 2.22621977329254150391e-01) (35, -8.32819268107414245605e-02) (36, -3.89833897352218627930e-02) (37, 1.17363221943378448486e-01) (38, -3.14015269279479980469e-01) (39, -3.18329632282257080078e-02) (40, -3.28851155936717987061e-02) (41, 1.63053959608078002930e-01) (42, 5.51263332366943359375e-01) (43, 2.76819199323654174805e-01) (44, 2.58066803216934204102e-01) (45, 2.79107362031936645508e-01) (46, -2.78915494680404663086e-01) (47, 5.29021583497524261475e-02) (48, -9.83911231160163879395e-02) (49, -3.94925959408283233643e-02) (50, 1.19353041052818298340e-01) (51, -1.16871491074562072754e-01) (52, -3.52538973093032836914e-01) (53, -2.17307046055793762207e-01) (54, 2.26097032427787780762e-01) (55, 4.21559810638427734375e-03) (56, 2.26862542331218719482e-02) (57, -1.55129298567771911621e-01) (58, -3.23977082967758178711e-01) (59, -3.89541275799274444580e-02) (60, 5.21924674510955810547e-01) (61, 2.86315202713012695312e-01) (62, 1.98660850524902343750e-01) (63, 1.41260221600532531738e-01) (64, -3.63341625779867172241e-03) (0, -1.28048509359359741211e-02) (1, 2.19811245799064636230e-01) (2, 9.13662388920783996582e-02) (3, 2.06507891416549682617e-01) (4, -2.26937636733055114746e-01) (5, -1.22247326374053955078e+00) (6, 6.35413289070129394531e-01) (7, 5.07394015789031982422e-01) (8, 1.33177608251571655273e-01) (9, 2.46349021792411804199e-01) (10, 9.72357928752899169922e-01) (11, 1.01364159584045410156e+00) (12, -9.35235619544982910156e-02) (13, -1.38527774810791015625e+00) (14, 4.57193076610565185547e-01) (15, 2.15991228818893432617e-01) (16, 2.91546434164047241211e-02) (17, -3.17702442407608032227e-01) (18, -4.63449180126190185547e-01) (19, -2.56821894645690917969e+00) (20, -6.21259808540344238281e-01) (21, 3.67884069681167602539e-01) (22, 5.64849376678466796875e-01) (23, -1.09488546848297119141e-01) (24, 5.81977982074022293091e-03) (25, 1.90891891717910766602e-01) (26, -9.66116130352020263672e-01) (27, -1.11578631401062011719e+00) (28, -6.83078825473785400391e-01) (29, -6.98665380477905273438e-02) (30, 2.29033541679382324219e+00) (31, 4.22972217202186584473e-02) (32, 4.42050844430923461914e-02) (33, 3.80164653062820434570e-01) (34, 1.77166059613227844238e-01) (35, -7.34483957290649414062e-01) (36, 2.72001206874847412109e-01) (37, -2.03306213021278381348e-01) (38, 5.04319548606872558594e-01) (39, 2.18881666660308837891e-03) (40, 3.49600836634635925293e-02) (41, 8.53099286556243896484e-01) (42, 1.64458692073822021484e+00) (43, 1.93922317028045654297e+00) (44, 1.38447210192680358887e-01) (45, -6.91201031208038330078e-01) (46, -1.22559762001037597656e+00) (47, -9.89793464541435241699e-02) (48, 6.73541948199272155762e-02) (49, 8.52766454219818115234e-01) (50, -3.92282783985137939453e-01) (51, 1.38724148273468017578e+00) (52, 4.71146941184997558594e-01) (53, 4.56562414765357971191e-02) (54, -1.39548838138580322266e-01) (55, -1.27569198608398437500e-01) (56, 5.69769255816936492920e-02) (57, -2.48563662171363830566e-02) (58, -1.17069799453020095825e-02) (59, 2.12348416447639465332e-01) (60, -5.63112974166870117188e-01) (61, 1.59295424818992614746e-01) (62, 1.34450423717498779297e+00) (63, 4.35979366302490234375e-01) (64, 1.79621025919914245605e-01) (0, -5.54080232977867126465e-02) (1, 7.69439488649368286133e-02) (2, -2.28389248251914978027e-01) (3, 3.54460299015045166016e-01) (4, 8.28228443861007690430e-02) (5, 1.73539862036705017090e-01) (6, -1.09799176454544067383e-01) (7, -9.71191003918647766113e-02) (8, 1.28734156489372253418e-01) (9, 1.70673519372940063477e-01) (10, 4.74085092544555664062e-01) (11, -1.74661546945571899414e-01) (12, -2.29375481605529785156e-01) (13, 3.42234462499618530273e-01) (14, -1.73956587910652160645e-01) (15, 4.44370955228805541992e-02) (16, -4.12154383957386016846e-02) (17, 4.06049966812133789062e-01) (18, 9.26568746566772460938e-01) (19, -4.79729235172271728516e-01) (20, -6.20035350322723388672e-01) (21, 2.14203849434852600098e-01) (22, 1.23462885618209838867e-01) (23, 9.29464325308799743652e-02) (24, 1.69407837092876434326e-02) (25, 1.29060059785842895508e-01) (26, 8.40495109558105468750e-01) (27, 2.93452531099319458008e-01) (28, 1.35420233011245727539e-01) (29, 3.42958390712738037109e-01) (30, -9.99512057751417160034e-03) (31, -2.42577660828828811646e-02) (32, 1.50748379528522491455e-02) (33, -1.80889785289764404297e-01) (34, 8.76065939664840698242e-02) (35, 3.09267491102218627930e-01) (36, 1.42108082771301269531e-01) (37, -3.79052758216857910156e-01) (38, -9.12089794874191284180e-02) (39, 4.84948828816413879395e-02) (40, -9.67972055077552795410e-02) (41, -1.34946435689926147461e-01) (42, 4.16186064481735229492e-01) (43, -1.28564655780792236328e-01) (44, -1.52738511562347412109e-01) (45, 3.12898963689804077148e-01) (46, 2.47487947344779968262e-01) (47, -1.36498212814331054688e-02) (48, 7.67358168959617614746e-02) (49, -2.13468626141548156738e-01) (50, 4.88786697387695312500e-01) (51, -2.15126916766166687012e-01) (52, -1.58990740776062011719e-01) (53, 1.79975345730781555176e-01) (54, 2.56356924772262573242e-01) (55, -2.83752214163541793823e-02) (56, 5.77957071363925933838e-02) (57, -1.86131253838539123535e-01) (58, -3.26144695281982421875e-01) (59, 4.88754570484161376953e-01) (60, 4.23410356044769287109e-01) (61, -2.34892860054969787598e-01) (62, -1.00110322237014770508e-01) (63, -3.61410230398178100586e-02) (64, -5.91950193047523498535e-02) (0, 1.05502977967262268066e-02) (1, -6.78934603929519653320e-02) (2, -1.73551335930824279785e-01) (3, 2.90603563189506530762e-03) (4, 8.52387472987174987793e-02) (5, 2.08775028586387634277e-01) (6, -1.00777015089988708496e-01) (7, -1.47102130576968193054e-02) (8, 4.84596118330955505371e-02) (9, -5.13349138200283050537e-02) (10, -3.70857641100883483887e-02) (11, -3.36639620363712310791e-02) (12, 1.64517283439636230469e-01) (13, 1.09702453017234802246e-01) (14, -2.60938890278339385986e-02) (15, -8.32161679863929748535e-02) (16, 4.11089882254600524902e-02) (17, -5.45327030122280120850e-02) (18, -1.43626093864440917969e-01) (19, -1.43163546919822692871e-01) (20, 2.72575598210096359253e-02) (21, 1.00771978497505187988e-01) (22, -6.98195723816752433777e-03) (23, 5.46243935823440551758e-02) (24, 4.10009324550628662109e-02) (25, 1.83831363916397094727e-01) (26, -6.18862621486186981201e-02) (27, 7.96659812331199645996e-02) (28, 6.89566805958747863770e-02) (29, 2.52580910921096801758e-01) (30, 2.01644122600555419922e-01) (31, 5.18539436161518096924e-02) (32, -8.89921113848686218262e-02) (33, 1.28198996186256408691e-01) (34, 7.64974877238273620605e-02) (35, -8.20860713720321655273e-02) (36, 1.63497388362884521484e-01) (37, 5.48663921654224395752e-02) (38, 7.20947310328483581543e-02) (39, -4.33959066867828369141e-04) (40, 1.47237833589315414429e-02) (41, 2.98087745904922485352e-02) (42, -1.04637432377785444260e-03) (43, 1.33530244231224060059e-01) (44, 9.29059162735939025879e-02) (45, 4.40127961337566375732e-02) (46, 4.24638688564300537109e-02) (47, -7.97088667750358581543e-02) (48, 4.11292575299739837646e-02) (49, -1.24892473220825195312e-01) (50, -1.57424122095108032227e-01) (51, -1.06869013980031013489e-02) (52, -2.66759041696786880493e-02) (53, -1.05066545307636260986e-01) (54, -1.56724378466606140137e-01) (55, -1.09876524657011032104e-02) (56, 8.69539156556129455566e-02) (57, -1.19017973542213439941e-01) (58, -1.32799714803695678711e-01) (59, 7.20690935850143432617e-02) (60, 1.50448307394981384277e-01) (61, 7.67819136381149291992e-02) (62, 1.02196767926216125488e-01) (63, 1.42881676554679870605e-01) (64, -9.09766256809234619141e-02) (0, 6.69044777750968933105e-02) (1, -1.24309770762920379639e-01) (2, 3.09988409280776977539e-01) (3, 3.83620224893093109131e-02) (4, 5.86619190871715545654e-02) (5, 3.34711909294128417969e-01) (6, 3.17007362842559814453e-01) (7, 1.20883863419294357300e-02) (8, -5.53074926137924194336e-02) (9, -1.28102749586105346680e-01) (10, 1.16555981338024139404e-01) (11, 3.20620119571685791016e-01) (12, 1.29190981388092041016e-01) (13, 7.19250366091728210449e-02) (14, 7.55074024200439453125e-02) (15, 3.56992357410490512848e-03) (16, 4.42947149276733398438e-02) (17, -1.24891839921474456787e-01) (18, 1.20013594627380371094e-01) (19, -7.28840753436088562012e-02) (20, -2.84845322370529174805e-01) (21, -3.84887129068374633789e-01) (22, -1.44900426268577575684e-01) (23, -7.45259448885917663574e-02) (24, 8.12543705105781555176e-02) (25, 2.30642467737197875977e-01) (26, 2.11332842707633972168e-01) (27, -4.12578105926513671875e-01) (28, -4.17648144066333770752e-02) (29, -1.08854904770851135254e-01) (30, -1.93078234791755676270e-01) (31, 2.33563836663961410522e-02) (32, -6.48635402321815490723e-02) (33, 2.37007379531860351562e-01) (34, 8.35301131010055541992e-02) (35, -2.44798555970191955566e-01) (36, -1.96215882897377014160e-01) (37, -6.66539818048477172852e-02) (38, 1.11895069479942321777e-01) (39, -3.07439267635345458984e-02) (40, 5.34480661153793334961e-02) (41, -3.40653210878372192383e-01) (42, 1.34918645024299621582e-01) (43, 1.58149287104606628418e-01) (44, -1.69651806354522705078e-01) (45, -3.53342927992343902588e-02) (46, -6.35533768218010663986e-04) (47, -7.51111097633838653564e-03) (48, 5.90008236467838287354e-02) (49, -2.23827749490737915039e-01) (50, 9.00796055793762207031e-02) (51, 4.78847563266754150391e-01) (52, 4.72113698720932006836e-01) (53, 4.27679985761642456055e-01) (54, -4.69069778919219970703e-02) (55, -2.07058489322662353516e-02) (56, 6.46173954010009765625e-02) (57, -5.02602383494377136230e-02) (58, 2.50709205865859985352e-01) (59, 3.37302446365356445312e-01) (60, 1.77722200751304626465e-01) (61, 3.20378988981246948242e-01) (62, 2.43014544248580932617e-01) (63, 4.48966696858406066895e-02) (64, 9.73229557275772094727e-02) (0, 6.36666193604469299316e-02) (1, -8.03232938051223754883e-02) (2, 7.13742449879646301270e-02) (3, 1.93384364247322082520e-01) (4, -1.64094775915145874023e-01) (5, -3.17170798778533935547e-01) (6, -1.14584580063819885254e-01) (7, 7.29094520211219787598e-02) (8, 2.60745435953140258789e-02) (9, 1.71731323003768920898e-01) (10, 7.11270719766616821289e-02) (11, -3.57546545565128326416e-02) (12, 2.82025933265686035156e-01) (13, -7.83428773283958435059e-02) (14, -1.46457029040902853012e-03) (15, 2.78706401586532592773e-02) (16, -1.02322280406951904297e-01) (17, 6.20224364101886749268e-02) (18, 3.88605028390884399414e-01) (19, 1.69598311185836791992e-01) (20, 2.96254336833953857422e-01) (21, 1.17770659923553466797e+00) (22, 5.13745665550231933594e-01) (23, 3.50151304155588150024e-03) (24, 5.79199790954589843750e-02) (25, -3.62802669405937194824e-02) (26, 3.89793694019317626953e-01) (27, 6.00431203842163085938e-01) (28, 1.89487263560295104980e-02) (29, 5.82403421401977539062e-01) (30, 8.23160707950592041016e-01) (31, -2.11120676249265670776e-02) (32, -2.71444804966449737549e-02) (33, 6.92886561155319213867e-02) (34, 4.59117919206619262695e-01) (35, -1.57171621918678283691e-01) (36, 1.53997555375099182129e-01) (37, 3.45087170600891113281e-01) (38, 3.28714251518249511719e-01) (39, 6.57490640878677368164e-03) (40, 7.96739012002944946289e-02) (41, 5.76437592506408691406e-01) (42, 6.12389028072357177734e-01) (43, 6.28021135926246643066e-02) (44, 3.07863980531692504883e-01) (45, 1.68399557471275329590e-01) (46, -4.27085906267166137695e-01) (47, -8.71116071939468383789e-02) (48, -3.62784489989280700684e-02) (49, 5.83707749843597412109e-01) (50, 4.47522215545177459717e-02) (51, -2.77452230453491210938e-01) (52, -2.24920615553855895996e-01) (53, -2.95782506465911865234e-01) (54, 1.25546470284461975098e-01) (55, -8.55617895722389221191e-02) (56, -5.75754269957542419434e-02) (57, -5.67195899784564971924e-02) (58, -2.26850390434265136719e-01) (59, -3.04701089859008789062e-01) (60, -1.05575859546661376953e-01) (61, 7.39435404539108276367e-02) (62, -1.07734069228172302246e-01) (63, -6.10154904425144195557e-02) (64, 6.20352737605571746826e-02) (0, 1.15670561790466308594e-02) (1, 7.51856043934822082520e-02) (2, -4.54535633325576782227e-01) (3, -1.02070301771163940430e-01) (4, -4.35742914676666259766e-01) (5, -7.53501057624816894531e-01) (6, -6.91220402717590332031e-01) (7, -3.78817319869995117188e-01) (8, -1.80320125073194503784e-02) (9, 3.39197874069213867188e-01) (10, 1.01549379527568817139e-01) (11, -7.48795509338378906250e-01) (12, 1.55798658728599548340e-01) (13, 2.61929810047149658203e-01) (14, -1.48961246013641357422e-01) (15, -5.70804178714752197266e-02) (16, 9.02413129806518554688e-02) (17, -1.06751441955566406250e-01) (18, -7.03517973423004150391e-01) (19, -4.37956631183624267578e-01) (20, 5.83793044090270996094e-01) (21, 1.48015153408050537109e+00) (22, 6.87001883983612060547e-01) (23, 7.85536319017410278320e-02) (24, -5.80881685018539428711e-02) (25, -3.75116229057312011719e-01) (26, -3.79081040620803833008e-01) (27, -9.89245101809501647949e-02) (28, -6.01732254028320312500e-01) (29, -4.67347353696823120117e-01) (30, -1.10059931874275207520e-01) (31, 2.21276357769966125488e-02) (32, 5.98221756517887115479e-02) (33, 5.81633951514959335327e-03) (34, 2.71404266357421875000e-01) (35, 2.76882290840148925781e-01) (36, -4.56391543149948120117e-01) (37, -2.39592552185058593750e-01) (38, -1.49536386132240295410e-01) (39, 6.48754164576530456543e-02) (40, -5.90934082865715026855e-02) (41, 6.78587332367897033691e-02) (42, 2.98149377107620239258e-01) (43, -1.42159867286682128906e+00) (44, -5.55795073509216308594e-01) (45, 5.80575168132781982422e-01) (46, 3.41455250978469848633e-01) (47, -9.83939617872238159180e-02) (48, -1.04564361274242401123e-01) (49, -4.00508530437946319580e-02) (50, 2.00036272406578063965e-01) (51, -9.32175815105438232422e-01) (52, -8.91132116317749023438e-01) (53, 2.65641301870346069336e-01) (54, -4.33683581650257110596e-02) (55, -1.05801291763782501221e-01) (56, 6.46655410528182983398e-02) (57, 1.29781126976013183594e-01) (58, -3.01077425479888916016e-01) (59, -2.16080352663993835449e-01) (60, -2.83673983067274093628e-02) (61, -6.71507477760314941406e-01) (62, -6.10690653324127197266e-01) (63, -3.12991976737976074219e-01) (64, -1.54452342540025711060e-02) (0, 7.09622576832771301270e-02) (1, 4.21165488660335540771e-02) (2, -3.20445477962493896484e-01) (3, -1.13614335656166076660e-01) (4, -1.75370186567306518555e-01) (5, -7.16136038303375244141e-01) (6, -4.75509315729141235352e-01) (7, -1.00035868585109710693e-01) (8, -3.28023731708526611328e-02) (9, 2.70572423934936523438e-01) (10, -2.14572891592979431152e-01) (11, -7.67958104610443115234e-01) (12, -2.97587305307388305664e-01) (13, 9.44393128156661987305e-02) (14, 8.85158106684684753418e-02) (15, -3.14424117095768451691e-03) (16, 6.48322552442550659180e-02) (17, 1.73150435090065002441e-01) (18, -7.19763338565826416016e-01) (19, -1.28477260470390319824e-01) (20, 3.39022338390350341797e-01) (21, 7.86726593971252441406e-01) (22, 2.88671821355819702148e-01) (23, 1.68990772217512130737e-02) (24, 5.00488020479679107666e-02) (25, -7.61764869093894958496e-03) (26, -3.61703604459762573242e-01) (27, 4.37065899372100830078e-01) (28, -1.07415042817592620850e-01) (29, -6.82688295841217041016e-01) (30, -1.77507847547531127930e-01) (31, 7.77414515614509582520e-02) (32, -1.54500885400921106339e-03) (33, 4.43727858364582061768e-02) (34, -9.26403626799583435059e-02) (35, -2.64406114816665649414e-01) (36, -1.38577863574028015137e-01) (37, -6.19682930409908294678e-02) (38, -1.68903857469558715820e-01) (39, 3.32517400383949279785e-02) (40, -3.38276438415050506592e-02) (41, 3.26325625181198120117e-01) (42, 2.69447922706604003906e-01) (43, -7.14495956897735595703e-01) (44, 1.09627796337008476257e-02) (45, 5.04655659198760986328e-01) (46, 3.69693458080291748047e-01) (47, 3.38871777057647705078e-02) (48, -6.38191178441047668457e-02) (49, -1.26175228506326675415e-02) (50, 1.24042898416519165039e-01) (51, -2.41954118013381958008e-01) (52, -5.02039529383182525635e-02) (53, 4.29287016391754150391e-01) (54, -6.24473914504051208496e-02) (55, -8.38054865598678588867e-02) (56, 3.46363559365272521973e-02) (57, 1.66521444916725158691e-01) (58, -4.73513826727867126465e-02) (59, 3.51731441915035247803e-02) (60, -5.63600249588489532471e-02) (61, -2.76093989610671997070e-01) (62, -2.29878887534141540527e-01) (63, -5.74136152863502502441e-03) (64, 5.47208189964294433594e-02) (0, -4.86292243003845214844e-02) (1, 9.12695676088333129883e-02) (2, -2.08746880292892456055e-01) (3, 6.62508159875869750977e-02) (4, 2.81566381454467773438e-01) (5, 2.37988352775573730469e-01) (6, -1.44718289375305175781e-01) (7, -8.93731694668531417847e-03) (8, 5.67079856991767883301e-02) (9, -7.49053359031677246094e-02) (10, -1.89426183700561523438e-01) (11, -1.77237391471862792969e-01) (12, 7.73353502154350280762e-02) (13, 3.17766633816063404083e-03) (14, 1.17265088483691215515e-02) (15, 8.54424312710762023926e-02) (16, 6.92496374249458312988e-02) (17, 1.31760807707905769348e-02) (18, -5.55983662605285644531e-01) (19, -3.84916007518768310547e-01) (20, 2.67367631196975708008e-01) (21, 5.51018454134464263916e-02) (22, 2.16246053576469421387e-01) (23, 1.44008332863450050354e-02) (24, 6.97783082723617553711e-02) (25, -6.98240548372268676758e-02) (26, -4.05568659305572509766e-01) (27, 3.00009083002805709839e-03) (28, 2.72186577320098876953e-01) (29, -2.74887233972549438477e-01) (30, -1.46725952625274658203e-01) (31, -4.42225635051727294922e-02) (32, 6.08498044312000274658e-02) (33, -1.20782256126403808594e-01) (34, -2.23443880677223205566e-01) (35, 7.11513832211494445801e-02) (36, 1.60687938332557678223e-01) (37, 1.17951676249504089355e-01) (38, -1.78833410143852233887e-01) (39, -8.92939344048500061035e-02) (40, 5.22796204313635826111e-03) (41, -2.10514175705611705780e-03) (42, 5.96122145652770996094e-01) (43, 2.09706425666809082031e-02) (44, 1.30738377571105957031e-01) (45, 2.93073356151580810547e-01) (46, 1.53545498847961425781e-01) (47, -8.51250216364860534668e-02) (48, 5.04321604967117309570e-02) (49, -2.42840079590678215027e-03) (50, 4.65990155935287475586e-02) (51, 2.39865239709615707397e-02) (52, 2.88841217756271362305e-01) (53, 5.79562842845916748047e-01) (54, 1.97627425193786621094e-01) (55, -1.39842620119452476501e-02) (56, -7.13355541229248046875e-02) (57, -1.40135455876588821411e-02) (58, -6.20830282568931579590e-02) (59, 2.50546466559171676636e-02) (60, 1.88539162278175354004e-01) (61, 2.24296480417251586914e-01) (62, 1.86486527323722839355e-01) (63, 5.13454861938953399658e-02) (64, 7.63445198535919189453e-02) (0, 1.84847712516784667969e-02) (1, 1.37236684560775756836e-01) (2, 3.68256509304046630859e-01) (3, 3.20091724395751953125e-01) (4, -5.10540068149566650391e-01) (5, -4.18032765388488769531e-01) (6, -3.49156111478805541992e-01) (7, -3.48772197961807250977e-01) (8, -1.40349090099334716797e-01) (9, 1.76595091819763183594e-01) (10, 2.14775621891021728516e-01) (11, 8.26190710067749023438e-02) (12, 3.47408592700958251953e-01) (13, -3.19286286830902099609e-01) (14, 2.66735702753067016602e-01) (15, 1.26074962317943572998e-02) (16, -2.25851535797119140625e-02) (17, -1.77673384547233581543e-01) (18, -4.95118886232376098633e-01) (19, 4.28296059370040893555e-01) (20, 1.29572451114654541016e+00) (21, 5.53079470992088317871e-02) (22, 1.22867099940776824951e-01) (23, -2.96931378543376922607e-02) (24, -5.58209866285324096680e-02) (25, 6.53348341584205627441e-02) (26, -4.97984290122985839844e-01) (27, -1.70264095067977905273e-01) (28, 3.90855193138122558594e-01) (29, -3.02515953779220581055e-01) (30, -3.59396845102310180664e-01) (31, -2.03987061977386474609e-02) (32, -9.16768088936805725098e-02) (33, -6.95230364799499511719e-02) (34, -2.40565404295921325684e-01) (35, -1.92928627133369445801e-01) (36, 5.32551407814025878906e-01) (37, 6.40629351139068603516e-01) (38, -5.02673208713531494141e-01) (39, 9.62671265006065368652e-02) (40, 2.35130544751882553101e-02) (41, -3.55810642242431640625e-01) (42, -5.63109993934631347656e-01) (43, 1.46146953105926513672e-01) (44, 5.33194243907928466797e-01) (45, -6.07413984835147857666e-02) (46, -2.28222072124481201172e-01) (47, 8.12226757407188415527e-02) (48, -7.48407933861017227173e-03) (49, -1.00400865077972412109e-01) (50, -3.56837719678878784180e-01) (51, 5.06237268447875976562e-01) (52, 1.25111401081085205078e+00) (53, 1.12502145767211914062e+00) (54, 6.86041861772537231445e-02) (55, 1.11300311982631683350e-01) (56, 1.49183413013815879822e-02) (57, 2.51700907945632934570e-01) (58, 7.56865739822387695312e-01) (59, 2.26822718977928161621e-01) (60, 5.75297117233276367188e-01) (61, 1.14701020717620849609e+00) (62, 5.57659149169921875000e-01) (63, 7.78662115335464477539e-02) (64, 7.44913145899772644043e-02) (0, -8.28111469745635986328e-02) (1, -1.20734810829162597656e-01) (2, 1.11221596598625183105e-01) (3, -9.84256744384765625000e-01) (4, -4.64885056018829345703e-01) (5, -1.07637441158294677734e+00) (6, -4.07693892717361450195e-01) (7, 2.36864194273948669434e-01) (8, 2.87849232554435729980e-02) (9, -2.35371306538581848145e-01) (10, -9.46826338768005371094e-01) (11, -5.62285304069519042969e-01) (12, -1.39804041385650634766e+00) (13, -7.52283453941345214844e-01) (14, 1.02772104740142822266e+00) (15, -6.15110546350479125977e-02) (16, -2.07407809793949127197e-02) (17, -7.67284706234931945801e-02) (18, 7.49922871589660644531e-01) (19, -1.09812142327427864075e-02) (20, -4.29335147142410278320e-01) (21, 1.74975022673606872559e-01) (22, -1.13754522800445556641e+00) (23, -1.60982266068458557129e-01) (24, 1.12480521202087402344e-02) (25, 7.36858844757080078125e-01) (26, 4.17668282985687255859e-01) (27, 8.98162364959716796875e-01) (28, 1.06280386447906494141e-01) (29, -2.12316997349262237549e-02) (30, 8.85183393955230712891e-01) (31, -9.82435233891010284424e-03) (32, 9.18942317366600036621e-02) (33, 6.04024648666381835938e-01) (34, 7.20265746116638183594e-01) (35, -8.16462710499763488770e-02) (36, 6.21705710887908935547e-01) (37, 5.69692790508270263672e-01) (38, 9.11353230476379394531e-01) (39, -7.25169628858566284180e-02) (40, -2.22367164678871631622e-03) (41, 1.29814040660858154297e+00) (42, -5.60625493526458740234e-01) (43, 4.51648652553558349609e-01) (44, 1.24388813972473144531e+00) (45, -5.91261871159076690674e-02) (46, -6.50530397891998291016e-01) (47, -2.08804272115230560303e-02) (48, 1.30278915166854858398e-01) (49, 1.03880774974822998047e+00) (50, -1.98265269398689270020e-01) (51, 4.22569870948791503906e-01) (52, 4.14574652910232543945e-01) (53, -6.94614529609680175781e-01) (54, -3.88309746980667114258e-01) (55, -9.07306522130966186523e-02) (56, 7.63624161481857299805e-02) (57, 6.84283077716827392578e-02) (58, 4.08390909433364868164e-01) (59, -1.63107037544250488281e+00) (60, -7.55900442600250244141e-01) (61, -7.52409219741821289062e-01) (62, -9.22840759158134460449e-02) (63, 1.19521073997020721436e-01) (64, -1.48203773424029350281e-02) (0, 9.80077162384986877441e-02) (1, 3.12605053186416625977e-01) (2, 8.36289003491401672363e-02) (3, 7.78798699378967285156e-01) (4, 1.72013366222381591797e+00) (5, 1.16328239440917968750e+00) (6, 4.29257780313491821289e-01) (7, -8.60077366232872009277e-02) (8, 2.29099005460739135742e-01) (9, 1.18667578697204589844e+00) (10, 2.96502280235290527344e+00) (11, 7.76177883148193359375e-01) (12, -4.72299993038177490234e-01) (13, 1.74978983402252197266e+00) (14, 1.01024948060512542725e-01) (15, 1.35509118437767028809e-01) (16, -3.18657420575618743896e-02) (17, 9.55104649066925048828e-01) (18, -5.96345737576484680176e-02) (19, -2.88337349891662597656e+00) (20, -1.01522934436798095703e+00) (21, 1.97687566280364990234e+00) (22, 9.30363655090332031250e-01) (23, 1.93386495113372802734e-01) (24, -8.89384672045707702637e-02) (25, -2.65263199806213378906e-01) (26, -2.96701878309249877930e-01) (27, -2.85447407513856887817e-02) (28, 3.22179228067398071289e-01) (29, -1.54611140489578247070e-01) (30, -6.04928173124790191650e-02) (31, 6.55514299869537353516e-02) (32, -9.86472442746162414551e-02) (33, -5.66760003566741943359e-01) (34, -5.18421351909637451172e-01) (35, -2.55425542593002319336e-01) (36, -7.44892060756683349609e-01) (37, -1.65624523162841796875e+00) (38, -3.54058533906936645508e-01) (39, -5.33746257424354553223e-02) (40, -3.18497382104396820068e-02) (41, -7.75948213413357734680e-03) (42, -2.70357221364974975586e-01) (43, -2.62178230285644531250e+00) (44, -2.03771877288818359375e+00) (45, 4.37852680683135986328e-01) (46, 2.03275442123413085938e-01) (47, 3.68040353059768676758e-02) (48, 9.93823911994695663452e-03) (49, 3.91425751149654388428e-02) (50, 9.15689766407012939453e-01) (51, -8.40960502624511718750e-01) (52, -3.96712958812713623047e-01) (53, 1.05261802673339843750e+00) (54, 1.00232407450675964355e-01) (55, -1.56942231114953756332e-03) (56, 7.65273869037628173828e-02) (57, -1.65407210588455200195e-01) (58, -1.58291980624198913574e-01) (59, 1.67239463329315185547e+00) (60, 4.51504856348037719727e-01) (61, -1.16168093681335449219e+00) (62, -3.53189438581466674805e-01) (63, -4.38725471496582031250e-01) (64, 4.70380820333957672119e-02) (0, -4.76645119488239288330e-02) (1, 1.29017114639282226562e-01) (2, 3.47292900085449218750e-01) (3, -1.19190074503421783447e-01) (4, 2.79409945011138916016e-01) (5, 4.23066467046737670898e-02) (6, 8.42776522040367126465e-02) (7, 1.22101448476314544678e-01) (8, 4.60096597671508789062e-02) (9, 4.38302516937255859375e-01) (10, 3.55443090200424194336e-01) (11, -2.93302804231643676758e-01) (12, 4.82251435518264770508e-01) (13, 8.13353955745697021484e-02) (14, 7.78615698218345642090e-02) (15, 5.82410618662834167480e-02) (16, 6.85250386595726013184e-02) (17, -3.37347805500030517578e-01) (18, -1.51026558876037597656e+00) (19, -7.34600245952606201172e-01) (20, 4.11857068538665771484e-01) (21, -1.69499367475509643555e-01) (22, -1.47110596299171447754e-01) (23, -3.77677083015441894531e-02) (24, 9.39685404300689697266e-02) (25, -3.78898322582244873047e-01) (26, -1.03072655200958251953e+00) (27, -1.56941398978233337402e-01) (28, 3.08345973491668701172e-01) (29, -2.79486268758773803711e-01) (30, -4.05734121799468994141e-01) (31, -7.79811367392539978027e-02) (32, -7.71278887987136840820e-02) (33, -1.17291249334812164307e-01) (34, -4.11597192287445068359e-01) (35, -1.60755038261413574219e-01) (36, 2.89108175784349441528e-02) (37, 1.64980143308639526367e-02) (38, -1.86492815613746643066e-01) (39, 9.28954780101776123047e-03) (40, -3.71726788580417633057e-03) (41, 1.41360573470592498779e-02) (42, 1.66616335511207580566e-01) (43, 9.43490862846374511719e-02) (44, -1.14363707602024078369e-01) (45, 3.09011619538068771362e-02) (46, -4.53510880470275878906e-02) (47, 3.89542169868946075439e-02) (48, 1.25097036361694335938e-02) (49, 2.18309894204139709473e-01) (50, 3.26087087392807006836e-01) (51, 7.41418659687042236328e-01) (52, 9.42965745925903320312e-01) (53, 1.44930624961853027344e+00) (54, 2.09923058748245239258e-01) (55, -7.48199447989463806152e-02) (56, -6.24709613621234893799e-02) (57, 3.43146651983261108398e-01) (58, 7.54160463809967041016e-01) (59, 5.27156710624694824219e-01) (60, 4.51076060533523559570e-01) (61, 8.66407334804534912109e-01) (62, 2.37461805343627929688e-01) (63, -2.76963897049427032471e-02) (64, -4.29346263408660888672e-02) (0, -4.05407212674617767334e-02) (1, -1.14933736622333526611e-01) (2, 2.82161772251129150391e-01) (3, 1.65392030030488967896e-02) (4, 9.19200778007507324219e-02) (5, 1.07196819782257080078e+00) (6, 3.39365452527999877930e-01) (7, 4.29470717906951904297e-01) (8, 1.54120191931724548340e-01) (9, -8.10954988002777099609e-01) (10, 1.20963891968131065369e-02) (11, 4.10009592771530151367e-01) (12, -1.18739187717437744141e+00) (13, 1.11417723819613456726e-02) (14, -1.12014293670654296875e+00) (15, -1.52525633573532104492e-01) (16, -3.54297980666160583496e-02) (17, 5.85129797458648681641e-01) (18, 2.08462715148925781250e+00) (19, 4.28405791521072387695e-01) (20, -2.27134871482849121094e+00) (21, -1.99732506275177001953e+00) (22, -9.78453218936920166016e-01) (23, -6.66170641779899597168e-02) (24, -5.69349415600299835205e-02) (25, 3.85244995355606079102e-01) (26, 3.12111824750900268555e-01) (27, -5.04340767860412597656e-01) (28, -1.32160925865173339844e+00) (29, -5.07803142070770263672e-01) (30, -6.99961543083190917969e-01) (31, 7.08651319146156311035e-02) (32, -2.98110730946063995361e-02) (33, -4.76081445813179016113e-02) (34, 1.16891600191593170166e-01) (35, -8.33145201206207275391e-01) (36, -7.45622515678405761719e-01) (37, -1.86829304695129394531e+00) (38, -8.86150300502777099609e-01) (39, -4.18373942375183105469e-02) (40, -9.14553478360176086426e-02) (41, 2.63120770454406738281e-01) (42, 2.75532650947570800781e+00) (43, 1.58558082580566406250e+00) (44, -1.11283862590789794922e+00) (45, -8.24832618236541748047e-01) (46, -2.18276560306549072266e-01) (47, -3.03138582967221736908e-03) (48, 7.52668529748916625977e-02) (49, 2.91216284036636352539e-01) (50, 1.11230349540710449219e+00) (51, 4.35590147972106933594e-01) (52, 1.71986579895019531250e+00) (53, 7.98405945301055908203e-01) (54, 3.11703383922576904297e-02) (55, 1.20420744642615318298e-02) (56, 3.70010919868946075439e-02) (57, -3.48815172910690307617e-01) (58, -3.53948950767517089844e-01) (59, 1.30385792255401611328e+00) (60, 7.09913790225982666016e-01) (61, -3.31111028790473937988e-02) (62, 1.16237425804138183594e+00) (63, 5.89580893516540527344e-01) (64, 1.21360853314399719238e-01) (0, 7.01663866639137268066e-02) (1, -2.00966512784361839294e-03) (2, 1.46326458454132080078e+00) (3, 5.46279311180114746094e-01) (4, 6.98334097862243652344e-01) (5, 9.59007441997528076172e-01) (6, 9.22385513782501220703e-01) (7, 1.76642030477523803711e-01) (8, -3.42684417963027954102e-01) (9, -2.26321324706077575684e-01) (10, 5.65407514572143554688e-01) (11, 1.46761596202850341797e+00) (12, 1.33511185646057128906e+00) (13, 2.27872490882873535156e-01) (14, -1.02842651307582855225e-01) (15, -1.15799352526664733887e-01) (16, -1.02608188986778259277e-01) (17, -7.04775214195251464844e-01) (18, -1.41987144947052001953e+00) (19, 6.19045794010162353516e-01) (20, 1.05588746070861816406e+00) (21, -1.43617784976959228516e+00) (22, -8.06530773639678955078e-01) (23, -9.28028896450996398926e-02) (24, 4.67761419713497161865e-02) (25, -4.65769946575164794922e-01) (26, -8.14908683300018310547e-01) (27, -1.09192645549774169922e+00) (28, -3.21326941251754760742e-01) (29, -3.65027159452438354492e-01) (30, -8.82109701633453369141e-01) (31, -6.46490231156349182129e-02) (32, 3.17752584815025329590e-02) (33, -8.02681818604469299316e-02) (34, -2.59748071432113647461e-01) (35, -5.05362272262573242188e-01) (36, 4.82148416340351104736e-02) (37, -1.27519518136978149414e-01) (38, -9.71317738294601440430e-02) (39, -9.87888798117637634277e-02) (40, -5.34961633384227752686e-02) (41, -9.13311541080474853516e-01) (42, -2.17511630058288574219e+00) (43, -5.39891660213470458984e-01) (44, -4.26988452672958374023e-02) (45, -9.66953516006469726562e-01) (46, -1.76207721233367919922e-01) (47, -2.60959509760141372681e-02) (48, -3.07076238095760345459e-02) (49, 6.24426454305648803711e-03) (50, -6.14392101764678955078e-01) (51, 6.46744072437286376953e-02) (52, 9.92421090602874755859e-01) (53, -3.16473305225372314453e-01) (54, -6.65146946907043457031e-01) (55, 8.40298309922218322754e-02) (56, 7.74092823266983032227e-02) (57, 3.77056449651718139648e-01) (58, 1.43199670314788818359e+00) (59, 5.86977839469909667969e-01) (60, -2.21447899937629699707e-01) (61, 4.65530961751937866211e-01) (62, 1.05861008167266845703e-01) (63, 5.29235601425170898438e-02) (64, 8.92688403837382793427e-04) (0, 2.66816467046737670898e-03) (1, 1.14336930215358734131e-01) (2, 2.06951290369033813477e-01) (3, 6.37606233358383178711e-02) (4, -8.44878628849983215332e-02) (5, -1.15444540977478027344e-01) (6, -2.91858404874801635742e-01) (7, -9.78018343448638916016e-02) (8, 8.44362601637840270996e-02) (9, -5.01964204013347625732e-02) (10, -2.82135158777236938477e-02) (11, -2.43036672472953796387e-01) (12, -4.28345263004302978516e-01) (13, 2.53302335739135742188e-01) (14, -8.99712741374969482422e-02) (15, -1.67388711124658584595e-02) (16, -2.95446533709764480591e-02) (17, -1.72953039407730102539e-01) (18, -8.22667255997657775879e-02) (19, 7.64374792575836181641e-01) (20, -5.71779049932956695557e-02) (21, 4.71348822116851806641e-01) (22, 4.05503362417221069336e-01) (23, 5.85732907056808471680e-02) (24, -7.15794786810874938965e-02) (25, -2.33454227447509765625e-01) (26, -6.37085258960723876953e-01) (27, 6.25091850757598876953e-01) (28, -2.49229729175567626953e-01) (29, -3.40090602636337280273e-01) (30, -2.80386582016944885254e-02) (31, 6.43797144293785095215e-02) (32, 9.15330424904823303223e-02) (33, 8.58639329671859741211e-02) (34, 6.29924118518829345703e-01) (35, -5.26376605033874511719e-01) (36, -2.69524872303009033203e-01) (37, -3.76933634281158447266e-01) (38, -2.73864388465881347656e-01) (39, 9.18147787451744079590e-02) (40, -7.24243298172950744629e-02) (41, 7.11478114128112792969e-01) (42, 7.25907504558563232422e-01) (43, -8.99935722351074218750e-01) (44, 3.06413441896438598633e-01) (45, 2.14535593986511230469e-01) (46, -1.54997497797012329102e-01) (47, 4.17469106614589691162e-02) (48, 7.48633295297622680664e-02) (49, 3.06093722581863403320e-01) (50, 5.29214143753051757812e-01) (51, -4.64821696281433105469e-01) (52, 5.88241890072822570801e-02) (53, -2.04891994595527648926e-01) (54, -1.41418166458606719971e-02) (55, -1.39596853405237197876e-02) (56, -4.39605675637722015381e-03) (57, -1.14222988486289978027e-01) (58, -5.51562756299972534180e-02) (59, 1.63785424083471298218e-02) (60, -3.30404669046401977539e-01) (61, -3.40406328439712524414e-01) (62, 3.14817368984222412109e-01) (63, 1.92931458353996276855e-01) (64, 7.29467123746871948242e-02) (0, -6.42438977956771850586e-02) (1, 8.64760354161262512207e-02) (2, 4.00839149951934814453e-01) (3, 5.39970770478248596191e-02) (4, 5.44433832168579101562e-01) (5, 3.07658582925796508789e-01) (6, 3.79187256097793579102e-01) (7, 1.99148908257484436035e-01) (8, -6.57518580555915832520e-02) (9, 1.34143289178609848022e-02) (10, 2.69840925931930541992e-01) (11, 1.06827400624752044678e-01) (12, 1.02452076971530914307e-01) (13, -1.75125703215599060059e-01) (14, 1.34920537471771240234e-01) (15, 2.41687431931495666504e-01) (16, -1.02505506947636604309e-02) (17, -4.75563198328018188477e-01) (18, -4.16536480188369750977e-01) (19, -5.07017076015472412109e-01) (20, -4.13323380053043365479e-02) (21, -5.12006521224975585938e-01) (22, -3.41795861721038818359e-01) (23, -1.29575943574309349060e-02) (24, 8.37938115000724792480e-03) (25, -3.03487069904804229736e-02) (26, 1.30042910575866699219e-01) (27, 2.62819379568099975586e-01) (28, -1.60182046238332986832e-03) (29, -6.19692087173461914062e-01) (30, -1.70494422316551208496e-01) (31, -8.30250903964042663574e-02) (32, -2.85101793706417083740e-02) (33, 4.29242521524429321289e-01) (34, 4.60753828287124633789e-01) (35, -5.20355850458145141602e-02) (36, 5.00679947435855865479e-02) (37, 1.00806370377540588379e-01) (38, 7.27292001247406005859e-01) (39, 8.38063657283782958984e-03) (40, 4.96932119131088256836e-02) (41, 6.83924406766891479492e-02) (42, -3.46071226522326469421e-03) (43, -2.00772825628519058228e-02) (44, 2.14178636670112609863e-01) (45, 2.53906369209289550781e-01) (46, 6.84182107448577880859e-01) (47, -3.50176058709621429443e-02) (48, 2.19857189804315567017e-02) (49, -3.10938388109207153320e-01) (50, 2.86986440420150756836e-01) (51, 4.28651303052902221680e-01) (52, -3.55033623054623603821e-03) (53, -6.00083768367767333984e-02) (54, 1.63795053958892822266e-01) (55, 3.78473452292382717133e-03) (56, -9.50982719659805297852e-02) (57, 7.10040628910064697266e-02) (58, 3.58230262994766235352e-01) (59, 3.72126609086990356445e-01) (60, 8.66422802209854125977e-03) (61, -2.16903045773506164551e-01) (62, -2.97300428152084350586e-01) (63, -1.89051851630210876465e-01) (64, 2.41334140300750732422e-02) (0, 7.47820511460304260254e-02) (1, 2.14070066809654235840e-01) (2, -5.48057675361633300781e-01) (3, 3.60340505838394165039e-01) (4, -1.38765603303909301758e-01) (5, -2.46365442872047424316e-01) (6, -4.99710977077484130859e-01) (7, -4.08614456653594970703e-01) (8, 1.28506407141685485840e-01) (9, 5.83054840564727783203e-01) (10, 9.83647406101226806641e-01) (11, -3.70264768600463867188e-01) (12, -1.48058548569679260254e-01) (13, 1.56726121902465820312e+00) (14, 3.94663661718368530273e-01) (15, 1.23827204108238220215e-01) (16, -6.63865506649017333984e-02) (17, 3.26724350452423095703e-01) (18, 1.23232394456863403320e-01) (19, -1.04998946189880371094e+00) (20, 4.73141402006149291992e-01) (21, 3.19453692436218261719e+00) (22, 2.01279973983764648438e+00) (23, 7.00068324804306030273e-02) (24, -8.15379917621612548828e-02) (25, -5.94784200191497802734e-01) (26, -1.15637910366058349609e+00) (27, -2.08723116666078567505e-02) (28, 4.14621561765670776367e-01) (29, 6.90988421440124511719e-01) (30, 3.97823035717010498047e-01) (31, 5.20331859588623046875e-02) (32, 1.93983931094408035278e-02) (33, -4.68770533800125122070e-01) (34, 1.67597681283950805664e-01) (35, 6.56238019466400146484e-01) (36, -2.43681252002716064453e-01) (37, -1.09662972390651702881e-01) (38, -4.99123573303222656250e-01) (39, -6.99802264571189880371e-02) (40, 1.48958694189786911011e-02) (41, 5.04314422607421875000e-01) (42, 1.50737297534942626953e+00) (43, -5.40204167366027832031e-01) (44, -1.02213788032531738281e+00) (45, 4.41313646733760833740e-02) (46, -9.25010293722152709961e-02) (47, 2.47803796082735061646e-02) (48, -9.49237421154975891113e-02) (49, 2.32478380203247070312e-01) (50, 1.66833594441413879395e-01) (51, -1.07992112636566162109e+00) (52, -1.49608278274536132812e+00) (53, 1.19655337184667587280e-02) (54, -1.38701438903808593750e-01) (55, 5.48404678702354431152e-02) (56, -6.54255924746394157410e-03) (57, -1.20716936886310577393e-01) (58, -5.58204710483551025391e-01) (59, 1.15150637924671173096e-01) (60, -1.76441997289657592773e-01) (61, -1.04453504085540771484e+00) (62, -6.46828711032867431641e-01) (63, -2.18516647815704345703e-01) (64, -1.41652738675475120544e-02) (0, 1.29259973764419555664e-02) (1, 3.21655124425888061523e-02) (2, 4.29929107427597045898e-01) (3, 1.12049579620361328125e-01) (4, 4.66470658779144287109e-01) (5, 8.73360633850097656250e-01) (6, 7.58534610271453857422e-01) (7, 2.85234153270721435547e-01) (8, -2.32020076364278793335e-02) (9, -1.57725200057029724121e-01) (10, 6.67951330542564392090e-02) (11, 1.52798458933830261230e-01) (12, -2.38787177950143814087e-02) (13, 1.50703564286231994629e-01) (14, -1.12409129738807678223e-01) (15, -9.47946310043334960938e-02) (16, 5.13465851545333862305e-02) (17, -2.14552044868469238281e-01) (18, 5.35748898983001708984e-01) (19, 6.17829859256744384766e-01) (20, 1.53310745954513549805e-01) (21, -1.09015250205993652344e+00) (22, -7.52639949321746826172e-01) (23, 2.13567502796649932861e-02) (24, 3.60488262958824634552e-03) (25, 1.67904183268547058105e-01) (26, 5.51030516624450683594e-01) (27, 3.26274573802947998047e-01) (28, 3.28498721122741699219e-01) (29, 5.59742748737335205078e-01) (30, -1.15549460053443908691e-01) (31, 8.50690379738807678223e-02) (32, -7.62586295604705810547e-02) (33, 5.30103966593742370605e-02) (34, -1.44209682941436767578e-01) (35, -2.19838008284568786621e-01) (36, -4.65451627969741821289e-01) (37, -1.17444366216659545898e-01) (38, 2.92663395404815673828e-01) (39, -1.95026174187660217285e-02) (40, 8.48425999283790588379e-02) (41, -2.80718445777893066406e-01) (42, -3.97687494754791259766e-01) (43, -2.78048872947692871094e-01) (44, -3.61865758895874023438e-01) (45, 1.87624752521514892578e-01) (46, 4.29390519857406616211e-01) (47, 9.01307538151741027832e-02) (48, 9.42993909120559692383e-02) (49, -1.63126215338706970215e-01) (50, 1.57131329178810119629e-01) (51, 3.44599962234497070312e-01) (52, 2.62150287628173828125e-01) (53, -7.88610056042671203613e-02) (54, 7.68943428993225097656e-02) (55, 5.18871955573558807373e-02) (56, -6.23436644673347473145e-02) (57, -1.04669734835624694824e-01) (58, 2.68085002899169921875e-01) (59, 4.35033172369003295898e-01) (60, -2.56713896989822387695e-01) (61, -9.82072204351425170898e-02) (62, -1.23845949769020080566e-01) (63, -8.68484228849411010742e-02) (64, -8.55747684836387634277e-02) (0, 4.36873808503150939941e-02) (1, -9.32286977767944335938e-02) (2, -5.55100664496421813965e-02) (3, -6.99507653713226318359e-01) (4, -5.04847466945648193359e-01) (5, -6.38227045536041259766e-01) (6, -3.13377708196640014648e-01) (7, 1.66754052042961120605e-02) (8, 4.83223609626293182373e-02) (9, -5.64209342002868652344e-01) (10, -7.08659410476684570312e-01) (11, -2.20940113067626953125e-01) (12, 3.39906215667724609375e-01) (13, -7.24580526351928710938e-01) (14, -4.08511944115161895752e-02) (15, -9.85670909285545349121e-02) (16, 7.47574195265769958496e-02) (17, -6.96589112281799316406e-01) (18, -5.98410606384277343750e-01) (19, -9.01111781597137451172e-01) (20, -5.17362654209136962891e-01) (21, -3.85117530822753906250e-01) (22, 5.24295447394251823425e-03) (23, -9.26000252366065979004e-02) (24, -3.66613082587718963623e-02) (25, 2.06077486276626586914e-01) (26, 2.04188659787178039551e-01) (27, -7.28513002395629882812e-01) (28, -6.68103337287902832031e-01) (29, -6.30910158157348632812e-01) (30, 2.16008469462394714355e-01) (31, 7.86659196019172668457e-02) (32, -2.24836524575948715210e-02) (33, 2.37802803516387939453e-01) (34, 6.25754058361053466797e-01) (35, -5.07071733474731445312e-01) (36, -1.02614974975585937500e+00) (37, -5.40514439344406127930e-02) (38, 5.87200701236724853516e-01) (39, -1.37566849589347839355e-02) (40, 4.30406108498573303223e-02) (41, -1.80121868848800659180e-01) (42, 2.07464742660522460938e+00) (43, 6.03342950344085693359e-02) (44, -7.23628997802734375000e-01) (45, 4.64592188596725463867e-01) (46, 6.76824033260345458984e-01) (47, 7.85462856292724609375e-02) (48, -1.19810858741402626038e-02) (49, -3.84637326002120971680e-01) (50, 7.39549160003662109375e-01) (51, 9.28475499153137207031e-01) (52, 9.80097234249114990234e-01) (53, 1.01595604419708251953e+00) (54, 1.43898218870162963867e-01) (55, 1.02048322558403015137e-01) (56, -3.16013284027576446533e-02) (57, 1.85530930757522583008e-02) (58, 8.45118053257465362549e-03) (59, -7.62598454952239990234e-01) (60, 2.15516850352287292480e-01) (61, 8.02338898181915283203e-01) (62, -7.94205963611602783203e-02) (63, -8.46499130129814147949e-02) (64, 5.66461011767387390137e-02) (0, -5.72733022272586822510e-02) (1, -7.48342275619506835938e-02) (2, 2.33967185020446777344e-01) (3, -1.02210432291030883789e-01) (4, 9.10291969776153564453e-02) (5, 3.30769419670104980469e-01) (6, 3.17445576190948486328e-01) (7, 2.62855496257543563843e-02) (8, 9.95969399809837341309e-04) (9, 4.37642484903335571289e-02) (10, 2.50539835542440414429e-02) (11, 3.44692707061767578125e-01) (12, 2.55120038986206054688e-01) (13, 6.19081184267997741699e-02) (14, 9.22564193606376647949e-02) (15, 7.66518265008926391602e-02) (16, -6.05859048664569854736e-02) (17, -2.38894015550613403320e-01) (18, -2.18857228755950927734e-01) (19, -5.01480549573898315430e-02) (20, -2.18971576541662216187e-02) (21, -1.48089885711669921875e-01) (22, 3.42900678515434265137e-02) (23, 1.14522501826286315918e-01) (24, 3.15517373383045196533e-02) (25, -4.80996333062648773193e-02) (26, 1.51660531759262084961e-01) (27, -3.05805355310440063477e-01) (28, -3.65685433149337768555e-01) (29, -5.06037753075361251831e-03) (30, 2.98759937286376953125e-01) (31, -3.02930306643247604370e-02) (32, -5.69238252937793731689e-02) (33, 1.73077300190925598145e-01) (34, 1.69719457626342773438e-01) (35, -1.62038639187812805176e-01) (36, -8.69191139936447143555e-02) (37, 2.06090942025184631348e-01) (38, 5.11794328689575195312e-01) (39, -1.22319161891937255859e-03) (40, -8.15797224640846252441e-02) (41, 7.19405198469758033752e-03) (42, -6.91751003265380859375e-01) (43, -6.28994584083557128906e-01) (44, -2.66463667154312133789e-01) (45, 4.88434769213199615479e-02) (46, 2.16384902596473693848e-01) (47, -8.93807783722877502441e-02) (48, -1.40105430036783218384e-02) (49, 4.32909764349460601807e-02) (50, -1.51277258992195129395e-01) (51, -3.39761167764663696289e-01) (52, -5.31464338302612304688e-01) (53, -6.74131155014038085938e-01) (54, -2.10531607270240783691e-01) (55, 3.96113879978656768799e-02) (56, 5.06632179021835327148e-02) (57, -4.73642461001873016357e-02) (58, 7.34973177313804626465e-02) (59, -2.77253180742263793945e-01) (60, -3.73349010944366455078e-01) (61, -3.88459503650665283203e-01) (62, -5.24822354316711425781e-01) (63, -1.67909294366836547852e-01) (64, -5.66947050392627716064e-02) (0, -2.32290849089622497559e-02) (1, -3.06760496459901332855e-03) (2, 1.22383296489715576172e-01) (3, 7.21265971660614013672e-02) (4, 2.32327699661254882812e-01) (5, 1.76054716110229492188e-01) (6, 8.17871317267417907715e-02) (7, 1.60320386290550231934e-01) (8, 1.05960920453071594238e-01) (9, -1.19420416653156280518e-01) (10, 1.89065784215927124023e-02) (11, 1.48285791277885437012e-01) (12, -3.11437368392944335938e-01) (13, 7.90776684880256652832e-02) (14, 7.16957747936248779297e-02) (15, -5.46270981431007385254e-02) (16, -6.08990937471389770508e-02) (17, 1.23858146369457244873e-01) (18, 4.69033151865005493164e-01) (19, 1.98605701327323913574e-01) (20, -5.07844686508178710938e-01) (21, -3.17456245422363281250e-01) (22, -3.64134132862091064453e-01) (23, -1.13948537036776542664e-02) (24, -9.61624979972839355469e-02) (25, 3.97565037012100219727e-01) (26, 2.61612832546234130859e-01) (27, 1.60944927483797073364e-02) (28, -1.31469011306762695312e-01) (29, -8.93038976937532424927e-03) (30, 1.93759858608245849609e-01) (31, 3.80298495292663574219e-03) (32, 5.78622445464134216309e-02) (33, 7.13248327374458312988e-02) (34, -1.92979555577039718628e-02) (35, -3.33574652671813964844e-01) (36, -1.18313699960708618164e-01) (37, -1.50842353701591491699e-01) (38, 1.63782909512519836426e-01) (39, 7.42320194840431213379e-02) (40, -6.05077669024467468262e-02) (41, 1.97559833526611328125e-01) (42, 3.45267742872238159180e-01) (43, 3.11545610427856445312e-01) (44, 3.93865890800952911377e-02) (45, -8.59665498137474060059e-02) (46, -1.71452611684799194336e-01) (47, 7.39693827927112579346e-03) (48, -9.17026773095130920410e-02) (49, 1.31909802556037902832e-01) (50, 3.23739200830459594727e-01) (51, 2.47905343770980834961e-01) (52, 5.35104334354400634766e-01) (53, 2.57212281227111816406e-01) (54, -6.11667968332767486572e-02) (55, 6.35468438267707824707e-02) (56, 4.41893935203552246094e-02) (57, 1.73897519707679748535e-02) (58, 2.30982884764671325684e-01) (59, 5.55594384670257568359e-01) (60, 8.07531327009201049805e-02) (61, 1.09776854515075683594e-01) (62, 2.13150605559349060059e-01) (63, 1.99634745717048645020e-01) (64, -5.93934487551450729370e-03) (0, -8.97615477442741394043e-02) (1, 1.25618830323219299316e-01) (2, 4.11820858716964721680e-01) (3, -4.94736254215240478516e-01) (4, 1.03483486175537109375e+00) (5, 1.34894549846649169922e+00) (6, 1.15115237236022949219e+00) (7, 5.70893585681915283203e-01) (8, -1.98942143470048904419e-02) (9, 1.92378327250480651855e-01) (10, 7.31903195381164550781e-01) (11, 1.06374752521514892578e+00) (12, 7.00259268283843994141e-01) (13, 9.09573316574096679688e-01) (14, 4.97879832983016967773e-01) (15, 4.53631460666656494141e-01) (16, -1.04975802823901176453e-02) (17, -3.98159146308898925781e-01) (18, -6.76290750503540039062e-01) (19, -1.11560690402984619141e+00) (20, -1.02504193782806396484e+00) (21, -1.76253473758697509766e+00) (22, -1.15876662731170654297e+00) (23, -4.18466031551361083984e-02) (24, -7.47554972767829895020e-02) (25, -1.14002339541912078857e-02) (26, -7.64721691608428955078e-01) (27, -3.05144816637039184570e-01) (28, -8.26744586229324340820e-02) (29, -1.31734383106231689453e+00) (30, -1.14584207534790039062e+00) (31, -4.56454381346702575684e-02) (32, 1.37171009555459022522e-02) (33, 3.67718756198883056641e-01) (34, -5.20756065845489501953e-01) (35, 3.75708146020770072937e-03) (36, -4.33671534061431884766e-01) (37, 1.10437218099832534790e-02) (38, 4.74946737289428710938e-01) (39, -2.58615761995315551758e-02) (40, 8.86638313531875610352e-02) (41, -7.11567878723144531250e-01) (42, -2.60250091552734375000e+00) (43, -1.72625529766082763672e+00) (44, 1.18162892758846282959e-01) (45, 5.91074824333190917969e-01) (46, 1.12515068054199218750e+00) (47, -9.00297053158283233643e-03) (48, -5.94102256000041961670e-02) (49, -5.09943127632141113281e-01) (50, -7.40714222192764282227e-02) (51, -1.89970642328262329102e-01) (52, -2.20799788832664489746e-01) (53, 8.80152285099029541016e-01) (54, -2.00383111834526062012e-01) (55, -3.65431308746337890625e-02) (56, 2.01430567540228366852e-03) (57, 3.17134946584701538086e-01) (58, 8.83122801780700683594e-01) (59, 3.51102441549301147461e-01) (60, -3.25686186552047729492e-01) (61, -2.63846635818481445312e-01) (62, -9.36732292175292968750e-01) (63, -4.32431280612945556641e-01) (64, -3.05349081754684448242e-02) (0, -5.16133271157741546631e-02) (1, -1.16779409348964691162e-01) (2, -2.58407771587371826172e-01) (3, -1.17635764181613922119e-01) (4, 3.69282692670822143555e-01) (5, 4.45636838674545288086e-01) (6, 4.97012555599212646484e-01) (7, 5.64464256167411804199e-02) (8, -2.34999135136604309082e-02) (9, -2.14295387268066406250e-01) (10, -5.57041585445404052734e-01) (11, 1.31451964378356933594e-01) (12, 2.98557370901107788086e-01) (13, -1.16821020841598510742e-01) (14, 4.78360533714294433594e-01) (15, 1.19994521141052246094e-01) (16, -3.31608019769191741943e-02) (17, 9.17070358991622924805e-02) (18, 5.12070000171661376953e-01) (19, 3.21049243211746215820e-01) (20, -1.96375429630279541016e-01) (21, -6.28821253776550292969e-01) (22, -1.34101197123527526855e-01) (23, 8.68202373385429382324e-02) (24, 5.96928410232067108154e-02) (25, 3.26928406953811645508e-01) (26, 7.18644201755523681641e-01) (27, -4.48796242475509643555e-01) (28, 1.48930132389068603516e-01) (29, 2.45177194476127624512e-01) (30, 9.94256362318992614746e-02) (31, -1.15466881543397903442e-02) (32, -1.69928260147571563721e-02) (33, 3.92353206872940063477e-01) (34, 2.82106101512908935547e-02) (35, -2.25579425692558288574e-01) (36, 6.72755658626556396484e-01) (37, 6.92251026630401611328e-01) (38, 3.25368225574493408203e-01) (39, 8.52987095713615417480e-02) (40, -4.45220023393630981445e-02) (41, -2.16235205531120300293e-01) (42, -8.59513700008392333984e-01) (43, 5.58574736118316650391e-01) (44, 9.12151113152503967285e-02) (45, 2.73900091648101806641e-01) (46, -1.10631689429283142090e-01) (47, -6.87702894210815429688e-02) (48, -2.84123956225812435150e-03) (49, -5.76115667819976806641e-01) (50, -7.70465135574340820312e-01) (51, 1.51105985045433044434e-01) (52, -6.58530473709106445312e-01) (53, 3.02993529476225376129e-03) (54, -1.68129391968250274658e-02) (55, 1.27011433243751525879e-01) (56, 5.79122379422187805176e-02) (57, -4.93275932967662811279e-02) (58, -4.75281089544296264648e-01) (59, -2.82586663961410522461e-01) (60, 5.92824339866638183594e-01) (61, 8.78588795661926269531e-01) (62, 1.48319020867347717285e-01) (63, 7.81290885061025619507e-03) (64, 2.74735763669013977051e-02) (0, -2.75672972202301025391e-03) (1, 1.32259204983711242676e-01) (2, 1.38090386986732482910e-01) (3, -1.92566739860922098160e-03) (4, 7.30590701103210449219e-01) (5, 5.76219201087951660156e-01) (6, 2.33400627970695495605e-01) (7, 2.07986339926719665527e-01) (8, -4.38550598919391632080e-02) (9, 1.01473145186901092529e-01) (10, 3.02446130663156509399e-02) (11, 2.20959290862083435059e-01) (12, 4.84685987234115600586e-01) (13, 2.33129248023033142090e-01) (14, 2.12207138538360595703e-02) (15, -2.83580906689167022705e-02) (16, -9.28557366132736206055e-02) (17, -2.06803888082504272461e-01) (18, -4.95542615652084350586e-01) (19, -1.27982452511787414551e-01) (20, -1.36347785592079162598e-01) (21, -6.54264748096466064453e-01) (22, -3.79296481609344482422e-01) (23, 1.25825107097625732422e-02) (24, 5.26960333809256553650e-03) (25, -1.00380973890423774719e-02) (26, -9.31589379906654357910e-02) (27, -1.18199782446026802063e-02) (28, 2.02445968985557556152e-01) (29, -3.22229057550430297852e-01) (30, -2.33901843428611755371e-01) (31, -4.93390038609504699707e-02) (32, -8.33391696214675903320e-02) (33, 6.83074956759810447693e-03) (34, 7.13417632505297660828e-03) (35, 7.39120990037918090820e-02) (36, 2.71835386753082275391e-01) (37, 2.33047634363174438477e-01) (38, 2.98280179500579833984e-01) (39, -6.51179403066635131836e-02) (40, -1.13987438380718231201e-01) (41, -2.49817937612533569336e-01) (42, -2.19254776835441589355e-01) (43, 1.24279670417308807373e-01) (44, -6.93393871188163757324e-02) (45, 6.06049373745918273926e-02) (46, 3.82191389799118041992e-01) (47, 5.66632747650146484375e-02) (48, 5.44585324823856353760e-02) (49, -2.74511635303497314453e-01) (50, -3.22075821459293365479e-02) (51, 1.49384289979934692383e-01) (52, 9.66049358248710632324e-02) (53, 1.15648634731769561768e-01) (54, 2.55387872457504272461e-01) (55, 2.83495127223432064056e-03) (56, -9.39213931560516357422e-02) (57, -1.78416799753904342651e-02) (58, 2.81074017286300659180e-01) (59, 1.75935566425323486328e-01) (60, 6.47259131073951721191e-02) (61, 4.18391108512878417969e-01) (62, 2.66551021486520767212e-02) (63, -5.08757606148719787598e-02) (64, 9.35077592730522155762e-02) (0, -1.31173133850097656250e-02) (1, 3.28972414135932922363e-02) (2, 2.32145213522017002106e-03) (3, -2.92323619127273559570e-01) (4, 1.84309810400009155273e-01) (5, 5.21170794963836669922e-01) (6, 1.58282175660133361816e-01) (7, 1.78493440151214599609e-01) (8, -1.19479349814355373383e-03) (9, -3.03619541227817535400e-03) (10, 2.59060040116310119629e-02) (11, -1.32076412439346313477e-01) (12, -4.77012544870376586914e-01) (13, -6.38811662793159484863e-02) (14, -5.14511577785015106201e-02) (15, 1.02416366338729858398e-01) (16, 1.73291210085153579712e-02) (17, -1.40034005045890808105e-01) (18, -6.02732717990875244141e-01) (19, -7.15330600738525390625e-01) (20, -5.59387505054473876953e-01) (21, -1.26718628406524658203e+00) (22, -4.97114628553390502930e-01) (23, -8.07809904217720031738e-02) (24, 7.10995718836784362793e-02) (25, -1.36759102344512939453e-01) (26, -5.09134888648986816406e-01) (27, -3.05802971124649047852e-01) (28, -3.53186354041099548340e-02) (29, -1.05332410335540771484e+00) (30, -6.30674123764038085938e-01) (31, 1.21057145297527313232e-02) (32, -6.24960288405418395996e-03) (33, -2.46919561177492141724e-02) (34, -2.64249026775360107422e-01) (35, 1.89333066344261169434e-01) (36, -9.28118973970413208008e-02) (37, -5.10858476161956787109e-01) (38, -1.02615103125572204590e-01) (39, 4.17641922831535339355e-02) (40, -7.54650756716728210449e-02) (41, -4.90143507719039916992e-01) (42, -8.30004662275314331055e-02) (43, -1.20176166296005249023e-01) (44, -2.14812815189361572266e-01) (45, 2.29409313760697841644e-03) (46, 5.33239245414733886719e-01) (47, -3.50312739610671997070e-02) (48, -4.81337234377861022949e-02) (49, -5.56231796741485595703e-01) (50, 1.15966666489839553833e-02) (51, -1.30948036909103393555e-01) (52, -1.70912176370620727539e-01) (53, 2.22297549247741699219e-01) (54, 2.12294548749923706055e-01) (55, 1.04839287698268890381e-01) (56, 7.15672075748443603516e-02) (57, -6.89070224761962890625e-02) (58, 2.11327299475669860840e-01) (59, 3.32755833864212036133e-01) (60, -2.47930601239204406738e-01) (61, -7.56073147058486938477e-02) (62, 2.64202635735273361206e-02) (63, -2.26778797805309295654e-02) (64, 1.04383863508701324463e-02) (0, -3.06284278631210327148e-02) (1, -8.04380998015403747559e-02) (2, 1.21852368116378784180e-01) (3, 1.91897839307785034180e-01) (4, -2.34993517398834228516e-01) (5, -1.21913723647594451904e-01) (6, -2.12721750140190124512e-02) (7, -4.80332784354686737061e-02) (8, -1.26557573676109313965e-01) (9, -1.93028554320335388184e-01) (10, -3.63017380237579345703e-01) (11, 2.59716331958770751953e-01) (12, 2.16738536953926086426e-01) (13, -6.50983005762100219727e-02) (14, 4.91891056299209594727e-03) (15, -1.87342800199985504150e-02) (16, 5.76032958924770355225e-02) (17, 6.22712261974811553955e-02) (18, 3.23225557804107666016e-01) (19, 8.09411764144897460938e-01) (20, 5.82689762115478515625e-01) (21, 4.57674831151962280273e-01) (22, 1.69590458273887634277e-01) (23, -7.43459090590476989746e-02) (24, -5.05051463842391967773e-02) (25, 7.61979520320892333984e-02) (26, 4.69295173883438110352e-01) (27, 3.68668794631958007812e-01) (28, 2.47163191437721252441e-01) (29, 5.59314727783203125000e-01) (30, 2.99255013465881347656e-01) (31, -4.65868897736072540283e-02) (32, -5.52436225116252899170e-02) (33, 2.07192003726959228516e-01) (34, 4.25811380147933959961e-01) (35, 3.37215662002563476562e-02) (36, 2.13998615741729736328e-01) (37, 2.48990193009376525879e-01) (38, 2.25138023495674133301e-01) (39, 9.98462736606597900391e-03) (40, -1.59400179982185363770e-02) (41, 2.64549970626831054688e-01) (42, -1.41930758953094482422e-01) (43, 1.62464827299118041992e-01) (44, 3.26450735330581665039e-01) (45, -4.32531461119651794434e-02) (46, -2.50598043203353881836e-01) (47, 5.82061000168323516846e-02) (48, -4.10666950047016143799e-02) (49, 1.74904480576515197754e-01) (50, -1.65522471070289611816e-01) (51, -1.02117128670215606689e-01) (52, -4.06633615493774414062e-02) (53, -3.38796317577362060547e-01) (54, -1.13788768649101257324e-01) (55, 3.37753705680370330811e-02) (56, -6.54558911919593811035e-02) (57, -1.45717412233352661133e-02) (58, -1.47047057747840881348e-01) (59, -2.89293795824050903320e-01) (60, 5.09810820221900939941e-02) (61, 3.43177318572998046875e-02) (62, 4.71053421497344970703e-02) (63, 1.37420669198036193848e-01) (64, -6.27851784229278564453e-02) (0, -9.18588861823081970215e-02) (1, -7.51795768737792968750e-02) (2, -9.35678243637084960938e-01) (3, -2.48931467533111572266e-01) (4, -5.36405742168426513672e-01) (5, -9.53292131423950195312e-01) (6, -9.52142536640167236328e-01) (7, -3.85859683156013488770e-02) (8, 1.06053218245506286621e-01) (9, -7.12875723838806152344e-01) (10, -8.41187119483947753906e-01) (11, -1.41339302062988281250e+00) (12, -7.71967053413391113281e-01) (13, 4.63401049375534057617e-01) (14, 1.32007762789726257324e-01) (15, -2.22940787672996520996e-01) (16, 9.02717560529708862305e-02) (17, 8.91277730464935302734e-01) (18, 2.06760764122009277344e+00) (19, 1.43849349021911621094e+00) (20, 4.34284247457981109619e-02) (21, 1.13366115093231201172e+00) (22, 1.46986365318298339844e-01) (23, -1.01352594792842864990e-01) (24, 3.86159420013427734375e-02) (25, 5.94288349151611328125e-01) (26, 2.53248453140258789062e-01) (27, 8.97547364234924316406e-01) (28, -8.30419510602951049805e-02) (29, 2.20274686813354492188e-01) (30, 5.41871249675750732422e-01) (31, -3.77009287476539611816e-02) (32, 9.45058986544609069824e-02) (33, -1.64764016866683959961e-01) (34, 3.88131034560501575470e-03) (35, -6.89990743994712829590e-02) (36, 7.25663959980010986328e-01) (37, 4.04549151659011840820e-01) (38, -1.09727942943572998047e+00) (39, 4.60667088627815246582e-02) (40, 7.76309296488761901855e-02) (41, 8.21492969989776611328e-01) (42, 3.77321672439575195312e+00) (43, 2.33933544158935546875e+00) (44, 7.25154355168342590332e-02) (45, -3.03576916456222534180e-01) (46, -1.13356423377990722656e+00) (47, -1.44373953342437744141e-01) (48, -9.32259932160377502441e-02) (49, 6.30594789981842041016e-01) (50, 1.07470881938934326172e+00) (51, 5.21381795406341552734e-01) (52, 1.61828911304473876953e+00) (53, 9.59760010242462158203e-01) (54, 5.19397556781768798828e-02) (55, -5.97961284220218658447e-02) (56, -2.13324967771768569946e-02) (57, -2.47194454073905944824e-01) (58, -2.24519297480583190918e-01) (59, 2.85129070281982421875e-01) (60, 1.25225305557250976562e+00) (61, 1.49425053596496582031e+00) (62, 1.48899769783020019531e+00) (63, 8.31932365894317626953e-01) (64, -5.45095354318618774414e-02) (0, 2.11178287863731384277e-02) (1, -5.25240302085876464844e-02) (2, -1.40363737940788269043e-01) (3, 7.68736973404884338379e-02) (4, 4.67726029455661773682e-03) (5, 1.85023367404937744141e-01) (6, 6.86314702033996582031e-02) (7, -5.84780015051364898682e-02) (8, -9.60430800914764404297e-02) (9, -1.28166139125823974609e-01) (10, -2.69034445285797119141e-01) (11, -1.72204431146383285522e-02) (12, -4.14036586880683898926e-02) (13, -4.43853735923767089844e-02) (14, -1.18176616728305816650e-01) (15, -7.64945000410079956055e-02) (16, -2.14182194322347640991e-02) (17, -7.39002078771591186523e-02) (18, 2.40351378917694091797e-01) (19, 1.12772651016712188721e-01) (20, -4.91867333650588989258e-01) (21, -1.95176422595977783203e-01) (22, 1.85219585895538330078e-01) (23, 1.04697659611701965332e-01) (24, 6.60633370280265808105e-02) (25, 1.72412887215614318848e-01) (26, 2.80329138040542602539e-01) (27, -4.76683139801025390625e-01) (28, -1.66255965828895568848e-01) (29, -1.96532130241394042969e-01) (30, -2.96252351254224777222e-02) (31, 1.00491661578416824341e-02) (32, 7.34062269330024719238e-02) (33, 2.19181805849075317383e-01) (34, 4.47393923997879028320e-01) (35, 1.48751422762870788574e-01) (36, -1.27626642584800720215e-01) (37, -1.72730490565299987793e-01) (38, -3.04858610033988952637e-02) (39, -4.43528182804584503174e-02) (40, 6.84182271361351013184e-02) (41, 6.85785487294197082520e-02) (42, 2.03169569373130798340e-01) (43, 1.10848993062973022461e-01) (44, -1.06519214808940887451e-01) (45, -2.23080962896347045898e-02) (46, 1.05447664856910705566e-01) (47, 4.99858818948268890381e-02) (48, -8.06857645511627197266e-02) (49, -6.44084066152572631836e-02) (50, -1.09879322350025177002e-01) (51, -2.48315006494522094727e-01) (52, -3.65795105695724487305e-01) (53, -1.61216214299201965332e-01) (54, 1.09385542571544647217e-01) (55, 1.47700339555740356445e-01) (56, 7.07128345966339111328e-02) (57, -3.96827906370162963867e-02) (58, -1.22475259006023406982e-01) (59, 2.49519217759370803833e-02) (60, 2.10278183221817016602e-01) (61, -9.19036269187927246094e-02) (62, -7.59871900081634521484e-02) (63, 6.52851164340972900391e-02) (64, 8.34460780024528503418e-02) (0, 6.92695453763008117676e-02) (1, -8.50742831826210021973e-02) (2, 4.08686041831970214844e-01) (3, 1.41658455133438110352e-01) (4, 9.11713019013404846191e-02) (5, 2.64053463935852050781e-01) (6, 2.43802815675735473633e-01) (7, 2.96402052044868469238e-02) (8, 1.69194228947162628174e-02) (9, 2.30091549456119537354e-02) (10, 2.06681668758392333984e-01) (11, 2.97258913516998291016e-01) (12, 2.49186411499977111816e-01) (13, 1.12893849611282348633e-01) (14, 1.48926958441734313965e-01) (15, -1.13434061408042907715e-01) (16, -2.78545003384351730347e-02) (17, -4.14668828248977661133e-01) (18, -5.27342446148395538330e-02) (19, -1.50237873196601867676e-01) (20, 1.34020969271659851074e-01) (21, -9.05806347727775573730e-02) (22, -2.97029137611389160156e-01) (23, 8.13126787543296813965e-02) (24, -3.19889821112155914307e-02) (25, 1.56462833285331726074e-01) (26, 2.34304308891296386719e-01) (27, -4.18246924877166748047e-01) (28, -4.79848235845565795898e-01) (29, -9.79636535048484802246e-02) (30, -3.76907549798488616943e-02) (31, -7.93511644005775451660e-02) (32, -8.30569639801979064941e-02) (33, 2.26393237709999084473e-01) (34, -1.78670793771743774414e-01) (35, -3.17521929740905761719e-01) (36, -7.09796309471130371094e-01) (37, 1.63741726428270339966e-02) (38, 3.84470880031585693359e-01) (39, -9.71983671188354492188e-02) (40, 9.35712605714797973633e-02) (41, -3.23826044797897338867e-01) (42, -1.54847407341003417969e+00) (43, -9.01354014873504638672e-01) (44, -1.64969339966773986816e-01) (45, 3.77083152532577514648e-01) (46, 4.10345159471035003662e-02) (47, 2.43078917264938354492e-03) (48, -8.45012739300727844238e-02) (49, -1.53669968247413635254e-01) (50, -3.04951667785644531250e-02) (51, -1.99406947940587997437e-02) (52, 2.99337029457092285156e-01) (53, 2.57339775562286376953e-01) (54, -7.85491541028022766113e-02) (55, -7.43645429611206054688e-02) (56, 6.23166821897029876709e-02) (57, 3.82442623376846313477e-02) (58, 6.25527203083038330078e-01) (59, 1.83684438467025756836e-01) (60, 2.34295263886451721191e-01) (61, 2.81284928321838378906e-01) (62, -1.96756236255168914795e-02) (63, -8.78589004278182983398e-02) (64, 6.41882512718439102173e-03) (0, -9.62848961353302001953e-03) (1, 4.86312732100486755371e-02) (2, -3.36130857467651367188e-01) (3, 8.97454991936683654785e-02) (4, -3.14306616783142089844e-01) (5, -4.87193763256072998047e-01) (6, -4.58978682756423950195e-01) (7, -1.24070547521114349365e-01) (8, -3.89052294194698333740e-02) (9, 1.79915547370910644531e-01) (10, 4.39374074339866638184e-02) (11, -5.82839369773864746094e-01) (12, -2.72627770900726318359e-01) (13, 5.78835383057594299316e-02) (14, -1.45854381844401359558e-02) (15, -1.18555098772048950195e-01) (16, -3.68343442678451538086e-02) (17, 1.39461234211921691895e-01) (18, -2.43277698755264282227e-01) (19, -8.10531079769134521484e-01) (20, 2.88709223270416259766e-01) (21, 1.31749498844146728516e+00) (22, 6.61062896251678466797e-01) (23, 9.24380272626876831055e-02) (24, 7.37956315279006958008e-02) (25, -2.48043835163116455078e-01) (26, -4.82105731964111328125e-01) (27, -7.93624296784400939941e-02) (28, 1.18909150362014770508e-01) (29, 3.19822192192077636719e-01) (30, 1.68098807334899902344e-01) (31, 4.78078275918960571289e-02) (32, -6.06397576630115509033e-02) (33, -1.19778133928775787354e-01) (34, -1.59619972109794616699e-01) (35, -5.41785806417465209961e-02) (36, -8.86063873767852783203e-02) (37, -7.89522975683212280273e-02) (38, -2.37142026424407958984e-01) (39, 7.41048976778984069824e-02) (40, -6.02206774055957794189e-02) (41, 2.14565560221672058105e-01) (42, 2.81679391860961914062e-01) (43, -4.70968067646026611328e-01) (44, -4.13263648748397827148e-01) (45, -2.86498898640275001526e-03) (46, -1.65609315037727355957e-01) (47, 5.19572347402572631836e-02) (48, -3.40893343091011047363e-02) (49, 3.89665067195892333984e-02) (50, -2.32518419623374938965e-01) (51, -6.02423191070556640625e-01) (52, -7.52834558486938476562e-01) (53, -2.41199254989624023438e-01) (54, 7.23176151514053344727e-02) (55, -8.25197175145149230957e-02) (56, -5.21116144955158233643e-02) (57, -9.88145694136619567871e-02) (58, -3.31362575292587280273e-01) (59, -1.88792765140533447266e-01) (60, -9.97161939740180969238e-02) (61, -2.45917215943336486816e-01) (62, -1.12030752003192901611e-01) (63, -7.44344964623451232910e-02) (64, 3.67685854434967041016e-02) (0, 5.21923527121543884277e-02) (1, 3.28620523214340209961e-02) (2, 3.73290553689002990723e-02) (3, 7.46476948261260986328e-02) (4, -5.87854571640491485596e-02) (5, -1.62229776382446289062e-01) (6, -2.43884287774562835693e-02) (7, 1.58518608659505844116e-02) (8, 7.75744318962097167969e-02) (9, -4.78066056966781616211e-02) (10, 3.02826493978500366211e-01) (11, 3.13851207494735717773e-01) (12, 2.90162920951843261719e-01) (13, 1.23850941658020019531e-01) (14, 1.67974442243576049805e-01) (15, 5.04877679049968719482e-02) (16, 9.12306234240531921387e-02) (17, -1.54102683067321777344e-01) (18, 1.34629290550947189331e-02) (19, -1.16013929247856140137e-01) (20, 2.02262505888938903809e-01) (21, 4.61294323205947875977e-01) (22, 1.60520300269126892090e-01) (23, -8.57415720820426940918e-02) (24, 7.25192725658416748047e-02) (25, 1.34205177426338195801e-01) (26, -2.65086442232131958008e-01) (27, -4.66897964477539062500e-01) (28, -2.73310631513595581055e-01) (29, 3.14239859580993652344e-02) (30, 1.74701496958732604980e-01) (31, 8.65064263343811035156e-02) (32, -5.37155270576477050781e-02) (33, 2.15679898858070373535e-01) (34, 2.42610648274421691895e-02) (35, -4.21421796083450317383e-01) (36, -2.00013428926467895508e-01) (37, -2.05742090940475463867e-01) (38, 1.99478790163993835449e-01) (39, -4.06325757503509521484e-02) (40, 4.62244451045989990234e-02) (41, -5.01973256468772888184e-02) (42, 1.85985252261161804199e-01) (43, 4.53561097383499145508e-02) (44, -2.93894886970520019531e-01) (45, -5.97675107419490814209e-02) (46, -1.88009247183799743652e-01) (47, 3.42312902212142944336e-02) (48, -6.07079418841749429703e-04) (49, 7.14237317442893981934e-02) (50, 1.56330689787864685059e-01) (51, 4.35475677251815795898e-01) (52, 4.44380044937133789062e-01) (53, 3.54895532131195068359e-01) (54, -1.80603727698326110840e-01) (55, 6.76439851522445678711e-02) (56, -7.69136622548103332520e-02) (57, 1.00402943789958953857e-02) (58, 1.41963034868240356445e-01) (59, 3.15491616725921630859e-01) (60, 4.76307660341262817383e-01) (61, 2.52775579690933227539e-01) (62, 6.55584037303924560547e-02) (63, 4.16936129331588745117e-02) (64, 1.00855432450771331787e-01) (0, -8.26155990362167358398e-02) (1, 1.15353405475616455078e-01) (2, 1.10537946224212646484e-01) (3, 3.19111883640289306641e-01) (4, 2.49728679656982421875e-01) (5, 1.59199744462966918945e-01) (6, -1.34899169206619262695e-01) (7, -3.05564612150192260742e-01) (8, -1.17654465138912200928e-01) (9, 2.43946477770805358887e-01) (10, 1.60372927784919738770e-01) (11, 2.55823940038681030273e-01) (12, 1.00459253787994384766e+00) (13, 3.60014915466308593750e-01) (14, 5.69850839674472808838e-02) (15, -7.28947073221206665039e-02) (16, 2.70796548575162887573e-02) (17, -6.50363788008689880371e-02) (18, -1.30617097020149230957e-01) (19, 1.59118339419364929199e-01) (20, 1.04610753059387207031e+00) (21, 8.13238441944122314453e-01) (22, 3.96030515432357788086e-01) (23, 7.54701942205429077148e-02) (24, -8.29827114939689636230e-02) (25, -3.57564747333526611328e-01) (26, 1.40932753682136535645e-01) (27, 1.67209669947624206543e-01) (28, 7.00724542140960693359e-01) (29, 3.05322021245956420898e-01) (30, -2.35659424215555191040e-02) (31, -1.05782300233840942383e-02) (32, -6.48816004395484924316e-02) (33, -5.26525191962718963623e-02) (34, 1.87762588262557983398e-01) (35, 3.91965299844741821289e-01) (36, 6.22636437416076660156e-01) (37, 8.65401983261108398438e-01) (38, 4.64362353086471557617e-02) (39, 8.25945213437080383301e-02) (40, -4.16529104113578796387e-02) (41, -1.12316422164440155029e-01) (42, -8.67281198501586914062e-01) (43, -4.48185473680496215820e-01) (44, 5.05393147468566894531e-01) (45, 5.24190843105316162109e-01) (46, 4.06044930219650268555e-01) (47, 2.00904365628957748413e-02) (48, -2.25186236202716827393e-02) (49, -1.75477370619773864746e-01) (50, -2.50791341066360473633e-01) (51, -3.02975419908761978149e-02) (52, -1.78060635924339294434e-01) (53, -3.15138876438140869141e-01) (54, 1.38076677918434143066e-01) (55, 7.82438218593597412109e-02) (56, -2.00052019208669662476e-02) (57, 9.95927006006240844727e-02) (58, 1.67409196496009826660e-01) (59, -1.37421622872352600098e-01) (60, 1.81909814476966857910e-01) (61, 2.74722427129745483398e-01) (62, -1.94883838295936584473e-01) (63, -2.42954164743423461914e-01) (64, -7.06785917282104492188e-02) (0, 5.21624162793159484863e-02) (1, 5.85448788478970527649e-03) (2, 1.48244768381118774414e-01) (3, -3.56299489736557006836e-01) (4, -4.21101778745651245117e-01) (5, -5.04106320440769195557e-02) (6, 1.80450528860092163086e-01) (7, 3.74919399619102478027e-02) (8, 4.13075275719165802002e-02) (9, -2.47470960021018981934e-01) (10, -9.03747022151947021484e-01) (11, -3.36748324334621429443e-02) (12, -1.98283675126731395721e-03) (13, -3.81022453308105468750e-01) (14, 1.57970517873764038086e-01) (15, 5.80244623124599456787e-02) (16, -7.90578499436378479004e-02) (17, -2.80105739831924438477e-01) (18, -4.57852929830551147461e-01) (19, 4.86951112747192382812e-01) (20, 