FANN_FLO_2.1
num_layers=3
learning_rate=0.050000
connection_rate=1.000000
network_type=0
learning_momentum=0.000000
training_algorithm=0
train_error_function=1
train_stop_function=0
cascade_output_change_fraction=0.010000
quickprop_decay=-0.000100
quickprop_mu=1.750000
rprop_increase_factor=1.200000
rprop_decrease_factor=0.500000
rprop_delta_min=0.000000
rprop_delta_max=50.000000
rprop_delta_zero=0.100000
cascade_output_stagnation_epochs=12
cascade_candidate_change_fraction=0.010000
cascade_candidate_stagnation_epochs=12
cascade_max_out_epochs=150
cascade_min_out_epochs=50
cascade_max_cand_epochs=150
cascade_min_cand_epochs=50
cascade_num_candidate_groups=2
bit_fail_limit=3.49999994039535522461e-01
cascade_candidate_limit=1.00000000000000000000e+03
cascade_weight_multiplier=4.00000005960464477539e-01
cascade_activation_functions_count=10
cascade_activation_functions=3 5 7 8 10 11 14 15 16 17 
cascade_activation_steepnesses_count=4
cascade_activation_steepnesses=2.50000000000000000000e-01 5.00000000000000000000e-01 7.50000000000000000000e-01 1.00000000000000000000e+00 
layer_sizes=65 31 11 
scale_included=0
neurons (num_inputs, activation_function, activation_steepness)=(0, 0, 0.00000000000000000000e+00) (0, 0, 0.00000000000000000000e+00) (0, 0, 0.00000000000000000000e+00) (0, 0, 0.00000000000000000000e+00) (0, 0, 0.00000000000000000000e+00) (0, 0, 0.00000000000000000000e+00) (0, 0, 0.00000000000000000000e+00) (0, 0, 0.00000000000000000000e+00) (0, 0, 0.00000000000000000000e+00) (0, 0, 0.00000000000000000000e+00) (0, 0, 0.00000000000000000000e+00) (0, 0, 0.00000000000000000000e+00) (0, 0, 0.00000000000000000000e+00) (0, 0, 0.00000000000000000000e+00) (0, 0, 0.00000000000000000000e+00) (0, 0, 0.00000000000000000000e+00) (0, 0, 0.00000000000000000000e+00) (0, 0, 0.00000000000000000000e+00) (0, 0, 0.00000000000000000000e+00) (0, 0, 0.00000000000000000000e+00) (0, 0, 0.00000000000000000000e+00) (0, 0, 0.00000000000000000000e+00) (0, 0, 0.00000000000000000000e+00) (0, 0, 0.00000000000000000000e+00) (0, 0, 0.00000000000000000000e+00) (0, 0, 0.00000000000000000000e+00) (0, 0, 0.00000000000000000000e+00) (0, 0, 0.00000000000000000000e+00) (0, 0, 0.00000000000000000000e+00) (0, 0, 0.00000000000000000000e+00) (0, 0, 0.00000000000000000000e+00) (0, 0, 0.00000000000000000000e+00) (0, 0, 0.00000000000000000000e+00) (0, 0, 0.00000000000000000000e+00) (0, 0, 0.00000000000000000000e+00) (0, 0, 0.00000000000000000000e+00) (0, 0, 0.00000000000000000000e+00) (0, 0, 0.00000000000000000000e+00) (0, 0, 0.00000000000000000000e+00) (0, 0, 0.00000000000000000000e+00) (0, 0, 0.00000000000000000000e+00) (0, 0, 0.00000000000000000000e+00) (0, 0, 0.00000000000000000000e+00) (0, 0, 0.00000000000000000000e+00) (0, 0, 0.00000000000000000000e+00) (0, 0, 0.00000000000000000000e+00) (0, 0, 0.00000000000000000000e+00) (0, 0, 0.00000000000000000000e+00) (0, 0, 0.00000000000000000000e+00) (0, 0, 0.00000000000000000000e+00) (0, 0, 0.00000000000000000000e+00) (0, 0, 0.00000000000000000000e+00) (0, 0, 0.00000000000000000000e+00) (0, 0, 0.00000000000000000000e+00) (0, 0, 0.00000000000000000000e+00) (0, 0, 0.00000000000000000000e+00) (0, 0, 0.00000000000000000000e+00) (0, 0, 0.00000000000000000000e+00) (0, 0, 0.00000000000000000000e+00) (0, 0, 0.00000000000000000000e+00) (0, 0, 0.00000000000000000000e+00) (0, 0, 0.00000000000000000000e+00) (0, 0, 0.00000000000000000000e+00) (0, 0, 0.00000000000000000000e+00) (0, 0, 0.00000000000000000000e+00) (65, 3, 5.00000000000000000000e-01) (65, 3, 5.00000000000000000000e-01) (65, 3, 5.00000000000000000000e-01) (65, 3, 5.00000000000000000000e-01) (65, 3, 5.00000000000000000000e-01) (65, 3, 5.00000000000000000000e-01) (65, 3, 5.00000000000000000000e-01) (65, 3, 5.00000000000000000000e-01) (65, 3, 5.00000000000000000000e-01) (65, 3, 5.00000000000000000000e-01) (65, 3, 5.00000000000000000000e-01) (65, 3, 5.00000000000000000000e-01) (65, 3, 5.00000000000000000000e-01) (65, 3, 5.00000000000000000000e-01) (65, 3, 5.00000000000000000000e-01) (65, 3, 5.00000000000000000000e-01) (65, 3, 5.00000000000000000000e-01) (65, 3, 5.00000000000000000000e-01) (65, 3, 5.00000000000000000000e-01) (65, 3, 5.00000000000000000000e-01) (65, 3, 5.00000000000000000000e-01) (65, 3, 5.00000000000000000000e-01) (65, 3, 5.00000000000000000000e-01) (65, 3, 5.00000000000000000000e-01) (65, 3, 5.00000000000000000000e-01) (65, 3, 5.00000000000000000000e-01) (65, 3, 5.00000000000000000000e-01) (65, 3, 5.00000000000000000000e-01) (65, 3, 5.00000000000000000000e-01) (65, 3, 5.00000000000000000000e-01) (0, 3, 0.00000000000000000000e+00) (31, 3, 5.00000000000000000000e-01) (31, 3, 5.00000000000000000000e-01) (31, 3, 5.00000000000000000000e-01) (31, 3, 5.00000000000000000000e-01) (31, 3, 5.00000000000000000000e-01) (31, 3, 5.00000000000000000000e-01) (31, 3, 5.00000000000000000000e-01) (31, 3, 5.00000000000000000000e-01) (31, 3, 5.00000000000000000000e-01) (31, 3, 5.00000000000000000000e-01) (0, 3, 0.00000000000000000000e+00) 
connections (connected_to_neuron, weight)=(0, -9.18440073728561401367e-02) (1, -1.05751359462738037109e+00) (2, 1.22329592704772949219e+00) (3, 2.50914859771728515625e+00) (4, 5.97609281539916992188e-01) (5, 3.99772119522094726562e+00) (6, 2.77044320106506347656e+00) (7, 2.45807170867919921875e-01) (8, -1.41487643122673034668e-01) (9, 8.34489583969116210938e-01) (10, 1.40430116653442382812e+00) (11, 3.02562260627746582031e+00) (12, 4.01248836517333984375e+00) (13, 1.96377646923065185547e+00) (14, -1.70030975341796875000e+00) (15, -1.16358689963817596436e-01) (16, 2.08507049828767776489e-02) (17, -5.58586359024047851562e-01) (18, 4.05633658170700073242e-01) (19, -5.00584840774536132812e-01) (20, 2.81002879142761230469e-01) (21, 2.67096072435379028320e-01) (22, -1.48870873451232910156e+00) (23, 1.41220211982727050781e-01) (24, -8.71503204107284545898e-02) (25, 8.60541090369224548340e-02) (26, 1.49227952957153320312e+00) (27, -6.97254562377929687500e+00) (28, -4.15512609481811523438e+00) (29, 2.13537287712097167969e+00) (30, -1.49268209934234619141e+00) (31, -1.16122374311089515686e-02) (32, -5.28533458709716796875e-02) (33, 2.03973725438117980957e-01) (34, -3.47686022520065307617e-01) (35, -1.76948654651641845703e+00) (36, -3.31168031692504882812e+00) (37, 1.06761348247528076172e+00) (38, 9.32003200054168701172e-01) (39, 5.60984387993812561035e-02) (40, 2.99168005585670471191e-03) (41, -2.63153862953186035156e+00) (42, -4.65937232971191406250e+00) (43, -4.12310647964477539062e+00) (44, -2.63459348678588867188e+00) (45, 1.11088144779205322266e+00) (46, -6.78646937012672424316e-02) (47, 6.40258416533470153809e-02) (48, -2.20779497176408767700e-02) (49, -1.75744760036468505859e+00) (50, -9.61044311523437500000e-01) (51, -5.29334485530853271484e-01) (52, 5.77449619770050048828e-01) (53, -7.16932058334350585938e-01) (54, -6.69775426387786865234e-01) (55, 1.69889867305755615234e-01) (56, 7.32679143548011779785e-02) (57, -3.11984926462173461914e-01) (58, -1.10244476795196533203e+00) (59, 2.40709924697875976562e+00) (60, 8.92305016517639160156e-01) (61, -1.22854435443878173828e+00) (62, -1.62582635879516601562e+00) (63, -7.19372153282165527344e-01) (64, -1.53556913137435913086e-01) (0, -5.38776405155658721924e-02) (1, -3.89332711696624755859e-01) (2, 3.25586032867431640625e+00) (3, 1.16754758358001708984e+00) (4, 1.66115820407867431641e+00) (5, -5.20541131496429443359e-01) (6, 1.35741531848907470703e+00) (7, 8.51168856024742126465e-02) (8, -1.02906249463558197021e-01) (9, 1.67496335506439208984e+00) (10, 1.99326193332672119141e+00) (11, 3.17880249023437500000e+00) (12, 1.99290001392364501953e+00) (13, 5.16594722867012023926e-02) (14, 2.41072726249694824219e+00) (15, 9.24448728561401367188e-01) (16, 5.65506145358085632324e-02) (17, -1.96114635467529296875e+00) (18, -1.49843001365661621094e+00) (19, -1.57311320304870605469e+00) (20, 1.28015375137329101562e+00) (21, -8.05110554210841655731e-04) (22, 3.90244513750076293945e-01) (23, 1.47049844264984130859e-01) (24, -6.29320964217185974121e-02) (25, 1.53931021690368652344e+00) (26, -6.60427138209342956543e-02) (27, -2.04409909248352050781e+00) (28, 1.32280492782592773438e+00) (29, -3.66163313388824462891e-01) (30, 2.48531699180603027344e+00) (31, 2.72063482552766799927e-02) (32, -6.98722153902053833008e-02) (33, 2.97764611244201660156e+00) (34, 3.61153751611709594727e-01) (35, 1.03808991611003875732e-01) (36, 2.35603839159011840820e-01) (37, 2.34441709518432617188e+00) (38, 4.38181495666503906250e+00) (39, -5.50442449748516082764e-02) (40, 1.11997798085212707520e-01) (41, -1.60653519630432128906e+00) (42, -7.23589611053466796875e+00) (43, -5.20157241821289062500e+00) (44, -6.42163097858428955078e-01) (45, 1.01950967311859130859e+00) (46, -6.39654755592346191406e-01) (47, 3.76537367701530456543e-02) (48, 1.61619886755943298340e-01) (49, -1.95094203948974609375e+00) (50, -3.63858312368392944336e-01) (51, -8.86791944503784179688e-02) (52, -3.01769161224365234375e+00) (53, -3.11897206306457519531e+00) (54, -1.40075850486755371094e+00) (55, -2.44240969419479370117e-01) (56, -7.54791870713233947754e-02) (57, 4.90709155797958374023e-01) (58, 2.05146360397338867188e+00) (59, -1.72601476311683654785e-01) (60, -7.88981139659881591797e-01) (61, -1.21376454830169677734e+00) (62, -2.94479990005493164062e+00) (63, -1.21424317359924316406e+00) (64, 2.77257293462753295898e-01) (0, 2.19413265585899353027e-02) (1, -1.57369837164878845215e-01) (2, 1.14390623569488525391e+00) (3, 2.04359793663024902344e+00) (4, 1.17546804249286651611e-01) (5, -2.97654062509536743164e-01) (6, 1.26700758934020996094e-01) (7, 2.06816807389259338379e-01) (8, 1.44806876778602600098e-01) (9, -4.62464451789855957031e-01) (10, 1.75234901905059814453e+00) (11, 4.88942921161651611328e-01) (12, 2.69358545541763305664e-01) (13, -3.71199846267700195312e-01) (14, 7.41046607494354248047e-01) (15, 8.57535004615783691406e-02) (16, 5.25986701250076293945e-02) (17, 1.43309816718101501465e-01) (18, 1.53760266304016113281e+00) (19, -4.38428759574890136719e-01) (20, -2.59904682636260986328e-01) (21, 4.23795491456985473633e-01) (22, -2.61963218450546264648e-01) (23, -7.98126906156539916992e-02) (24, -3.40806357562541961670e-02) (25, 1.18387711048126220703e+00) (26, 1.87731158733367919922e+00) (27, 3.21738451719284057617e-01) (28, 5.60050010681152343750e-01) (29, -6.43758654594421386719e-01) (30, 4.91363108158111572266e-01) (31, 9.65825375169515609741e-03) (32, 3.11078317463397979736e-02) (33, 1.12960505485534667969e+00) (34, 1.50578272342681884766e+00) (35, -3.11670154333114624023e-01) (36, 2.04709529876708984375e+00) (37, 1.54033827781677246094e+00) (38, -1.00516319274902343750e-01) (39, 7.95708969235420227051e-02) (40, 3.24724130332469940186e-02) (41, 5.67815780639648437500e-01) (42, 7.63780236244201660156e-01) (43, 1.77664375305175781250e+00) (44, 1.07781302928924560547e+00) (45, 2.01200485229492187500e+00) (46, -8.47075641155242919922e-01) (47, -1.13726064562797546387e-01) (48, 2.64306906610727310181e-02) (49, -2.79013682156801223755e-02) (50, 8.85631561279296875000e-01) (51, 1.44302868843078613281e+00) (52, 9.60288047790527343750e-01) (53, 1.92843043804168701172e+00) (54, -9.52520295977592468262e-02) (55, -1.21500790119171142578e-01) (56, -1.96035709232091903687e-02) (57, -3.00853066146373748779e-02) (58, 1.61207056045532226562e+00) (59, 9.81582164764404296875e-01) (60, 7.33414411544799804688e-01) (61, 6.69492542743682861328e-01) (62, -3.39860230684280395508e-01) (63, -2.96643897891044616699e-02) (64, 2.02168554067611694336e-01) (0, 9.78629663586616516113e-02) (1, -9.36543941497802734375e-02) (2, 1.10581088066101074219e+00) (3, 1.24415564537048339844e+00) (4, -4.75310206413269042969e-01) (5, -3.32929879426956176758e-01) (6, 6.67090564966201782227e-02) (7, 4.78435277938842773438e-01) (8, 2.00259685516357421875e-01) (9, -6.06259405612945556641e-01) (10, 1.39549553394317626953e+00) (11, 7.85337314009666442871e-02) (12, -5.33376872539520263672e-01) (13, -1.02883255481719970703e+00) (14, 7.65051364898681640625e-01) (15, -2.73545999079942703247e-02) (16, -2.54275463521480560303e-03) (17, 7.26591825485229492188e-01) (18, 2.56088376045227050781e+00) (19, -8.73301029205322265625e-01) (20, -1.80804312229156494141e+00) (21, 2.11183100938796997070e-01) (22, -2.42716297507286071777e-01) (23, 4.56927120685577392578e-02) (24, 3.72671931982040405273e-02) (25, 9.89894032478332519531e-01) (26, 1.38752532005310058594e+00) (27, 8.17541003227233886719e-01) (28, -3.78558814525604248047e-01) (29, -1.68898463249206542969e-01) (30, 1.41171884536743164062e+00) (31, 2.54401676356792449951e-02) (32, 7.31151504442095756531e-03) (33, 7.09319829940795898438e-01) (34, 9.17440593242645263672e-01) (35, -1.02640116214752197266e+00) (36, 1.82505285739898681641e+00) (37, 7.74756669998168945312e-01) (38, -2.80163049697875976562e-01) (39, -1.20170041918754577637e-02) (40, 7.50514939427375793457e-02) (41, 1.13831698894500732422e+00) (42, 2.42592072486877441406e+00) (43, 3.77553081512451171875e+00) (44, 1.44580173492431640625e+00) (45, 1.50110530853271484375e+00) (46, -1.74871408939361572266e+00) (47, -1.03119589388370513916e-01) (48, 3.17572951316833496094e-02) (49, 8.08469831943511962891e-01) (50, 1.23004508018493652344e+00) (51, 2.20206642150878906250e+00) (52, 1.47665750980377197266e+00) (53, 2.34397768974304199219e+00) (54, 2.94667571783065795898e-01) (55, 5.07005937397480010986e-02) (56, -2.78210453689098358154e-02) (57, -2.01466456055641174316e-01) (58, 1.18128025531768798828e+00) (59, 6.78866267204284667969e-01) (60, -1.51208817958831787109e-01) (61, 1.19174897670745849609e+00) (62, 1.13177299499511718750e+00) (63, 6.49079263210296630859e-01) (64, 6.31572604179382324219e-02) (0, -3.50001603364944458008e-02) (1, -1.59738436341285705566e-01) (2, -1.58777093887329101562e+00) (3, 4.25495862960815429688e+00) (4, 1.40892505645751953125e+00) (5, 3.72749924659729003906e+00) (6, 1.64246976375579833984e+00) (7, -9.12615835666656494141e-01) (8, -2.04601764678955078125e-01) (9, 5.86934149265289306641e-01) (10, 2.04211544990539550781e+00) (11, 3.83499979972839355469e+00) (12, 4.36336040496826171875e+00) (13, 2.75664091110229492188e+00) (14, -2.28608059883117675781e+00) (15, -2.40327015519142150879e-01) (16, -9.68346819281578063965e-02) (17, -8.62510561943054199219e-01) (18, -3.46880197525024414062e+00) (19, -2.08203196525573730469e+00) (20, 3.56263852119445800781e+00) (21, -2.24784240126609802246e-01) (22, 2.43062949180603027344e+00) (23, 8.63017320632934570312e-01) (24, -6.86544971540570259094e-03) (25, -1.09613895416259765625e+00) (26, 2.74962276220321655273e-01) (27, -5.63446807861328125000e+00) (28, 5.02860426902770996094e-01) (29, 1.51982367038726806641e-01) (30, -3.67773675918579101562e+00) (31, 6.51621371507644653320e-02) (32, 8.60763192176818847656e-02) (33, -2.57830858230590820312e+00) (34, -1.54960441589355468750e+00) (35, 1.16851007938385009766e+00) (36, -1.82944822311401367188e+00) (37, -1.79007899761199951172e+00) (38, -4.65486669540405273438e+00) (39, 2.63784900307655334473e-02) (40, -1.62584558129310607910e-01) (41, -4.83142089843750000000e+00) (42, 5.35375833511352539062e-01) (43, -1.82178151607513427734e+00) (44, -3.18732476234436035156e+00) (45, -5.41998267173767089844e-01) (46, 1.95058310031890869141e+00) (47, 3.05648505687713623047e-01) (48, -4.38976362347602844238e-02) (49, -5.88621044158935546875e+00) (50, 1.82867944240570068359e+00) (51, -8.28530251979827880859e-01) (52, -7.98810780048370361328e-01) (53, 1.25355052947998046875e+00) (54, 1.63901567459106445312e+00) (55, 7.93815612792968750000e-01) (56, 4.76385541260242462158e-02) (57, -1.88640460371971130371e-01) (58, -1.00580692291259765625e+00) (59, 4.61907625198364257812e+00) (60, 2.08370184898376464844e+00) (61, 7.95670509338378906250e-01) (62, 1.16964077949523925781e+00) (63, 1.40075862407684326172e-01) (64, -3.32725703716278076172e-01) (0, 6.94091394543647766113e-02) (1, 7.01992034912109375000e-01) (2, -2.27956533432006835938e+00) (3, -4.75707292556762695312e-01) (4, 2.43161225318908691406e+00) (5, -1.29091060161590576172e+00) (6, -1.53280425071716308594e+00) (7, -6.13057017326354980469e-01) (8, 9.17688906192779541016e-01) (9, 1.21663570404052734375e+00) (10, -2.39811986684799194336e-01) (11, -1.52456223964691162109e+00) (12, -2.78688669204711914062e+00) (13, 4.35320893302559852600e-03) (14, 3.96295823156833648682e-03) (15, 4.72177475690841674805e-01) (16, 9.80827119201421737671e-03) (17, 1.71488916873931884766e+00) (18, 1.01414442062377929688e+00) (19, -9.27821695804595947266e-01) (20, -2.59923315048217773438e+00) (21, 1.55970227718353271484e+00) (22, 1.40670204162597656250e+00) (23, 7.28542953729629516602e-02) (24, -7.55496546626091003418e-02) (25, 1.37892150878906250000e+00) (26, 2.82272529602050781250e+00) (27, 1.05257475376129150391e+00) (28, -7.59318172931671142578e-02) (29, -2.37969532608985900879e-01) (30, 4.39516276121139526367e-01) (31, -7.86972865462303161621e-02) (32, -7.13984668254852294922e-03) (33, 1.00927054882049560547e+00) (34, 2.42627930641174316406e+00) (35, 8.77032279968261718750e-01) (36, -5.62826931476593017578e-01) (37, 5.51956057548522949219e-01) (38, 1.98652625083923339844e+00) (39, -6.15305453538894653320e-03) (40, 2.21415847539901733398e-01) (41, 1.84324729442596435547e+00) (42, -3.61287295818328857422e-01) (43, -6.09972333908081054688e+00) (44, 3.61899286508560180664e-01) (45, 4.56780481338500976562e+00) (46, 3.93058609962463378906e+00) (47, 5.07027376443147659302e-03) (48, 1.62715420126914978027e-01) (49, -4.23508346080780029297e-01) (50, 6.40416026115417480469e-01) (51, -1.25707697868347167969e+00) (52, -2.02429533004760742188e+00) (53, 1.58813583850860595703e+00) (54, 1.02552580833435058594e+00) (55, -4.02481287717819213867e-01) (56, -1.03777840733528137207e-01) (57, -9.38938260078430175781e-01) (58, -2.20711517333984375000e+00) (59, 8.07044625282287597656e-01) (60, 3.41205859184265136719e+00) (61, -8.73297691345214843750e-01) (62, -4.08728218078613281250e+00) (63, -2.38486099243164062500e+00) (64, 3.23612481355667114258e-01) (0, -1.51707753539085388184e-02) (1, 6.46406650543212890625e-01) (2, 1.07581710815429687500e+00) (3, 1.07657659053802490234e+00) (4, 3.08935999870300292969e+00) (5, -1.22319138050079345703e+00) (6, 9.38731312751770019531e-01) (7, -5.34285092726349830627e-03) (8, 4.25318807363510131836e-01) (9, 1.64580142498016357422e+00) (10, 3.19787788391113281250e+00) (11, 1.06270134449005126953e+00) (12, 1.38668787479400634766e+00) (13, -2.16008663177490234375e-01) (14, 5.60362815856933593750e-01) (15, 3.63619893789291381836e-01) (16, -1.10019773244857788086e-01) (17, -2.42889094352722167969e+00) (18, -2.21113824844360351562e+00) (19, -1.98692274093627929688e+00) (20, -4.17872786521911621094e-01) (21, -4.12672199308872222900e-02) (22, 1.69345951080322265625e+00) (23, 3.65512430667877197266e-01) (24, -4.29732054471969604492e-02) (25, -1.34754216670989990234e+00) (26, 4.26227897405624389648e-01) (27, 7.69724905490875244141e-01) (28, 9.51331555843353271484e-01) (29, -4.01488691568374633789e-01) (30, 6.89574360847473144531e-01) (31, -7.39153698086738586426e-02) (32, 1.20975542813539505005e-02) (33, -2.62376308441162109375e-01) (34, 1.39791774749755859375e+00) (35, 8.25498580932617187500e-01) (36, 6.78031325340270996094e-01) (37, 8.60082805156707763672e-01) (38, 8.43958854675292968750e-01) (39, 2.07115262746810913086e-02) (40, 4.52821701765060424805e-02) (41, 1.13100576400756835938e+00) (42, 3.90471029281616210938e+00) (43, -5.91111361980438232422e-01) (44, -1.86368751525878906250e+00) (45, 1.29600369930267333984e+00) (46, -1.48104035854339599609e+00) (47, 6.92975288257002830505e-03) (48, 3.50670926272869110107e-02) (49, 6.59743189811706542969e-01) (50, 2.87830805778503417969e+00) (51, 1.87055051326751708984e+00) (52, -1.83143413066864013672e+00) (53, -1.56017374992370605469e+00) (54, -1.11387121677398681641e+00) (55, -3.04970234632492065430e-01) (56, 5.91280274093151092529e-02) (57, 1.20224304497241973877e-01) (58, 5.51244616508483886719e-01) (59, 3.08036386966705322266e-01) (60, -6.91126883029937744141e-01) (61, -1.94269609451293945312e+00) (62, 2.86779612302780151367e-01) (63, -1.56095254421234130859e+00) (64, 2.87235617637634277344e-01) (0, 1.94909796118736267090e-02) (1, -1.01323711872100830078e+00) (2, 1.53825175762176513672e+00) (3, 1.04104541242122650146e-01) (4, -8.05022537708282470703e-01) (5, 6.49709224700927734375e-01) (6, 2.37685084342956542969e+00) (7, 2.12193155288696289062e+00) (8, -6.27760052680969238281e-01) (9, -2.08193683624267578125e+00) (10, -1.48310136795043945312e+00) (11, 1.06009471416473388672e+00) (12, -1.20750641822814941406e+00) (13, -5.85097074508666992188e-01) (14, 1.94043338298797607422e-01) (15, 4.72333759069442749023e-01) (16, 3.09817474335432052612e-02) (17, 7.41963028907775878906e-01) (18, 4.19598770141601562500e+00) (19, 2.52737021446228027344e+00) (20, -3.22147417068481445312e+00) (21, -5.10617494583129882812e+00) (22, -4.82614374160766601562e+00) (23, -1.78642600774765014648e-01) (24, -9.40566062927246093750e-02) (25, 1.99190974235534667969e+00) (26, 2.13283371925354003906e+00) (27, -1.04483246803283691406e+00) (28, -1.86173176765441894531e+00) (29, -4.29233759641647338867e-01) (30, 9.29943978786468505859e-01) (31, -3.01219825632870197296e-03) (32, 6.59545585513114929199e-02) (33, 2.29349517822265625000e+00) (34, -7.35551357269287109375e-01) (35, -9.03326094150543212891e-01) (36, -7.07109212875366210938e-01) (37, 4.83577728271484375000e-01) (38, 1.27813994884490966797e+00) (39, -8.82482007145881652832e-02) (40, -3.15784364938735961914e-02) (41, -1.19280850887298583984e+00) (42, -3.30903530120849609375e+00) (43, 1.33241546154022216797e+00) (44, -3.34618240594863891602e-01) (45, -1.01871728897094726562e+00) (46, -8.43689084053039550781e-01) (47, 1.29118159413337707520e-01) (48, 1.96030456572771072388e-02) (49, -1.31782457232475280762e-01) (50, -5.31965553760528564453e-01) (51, 9.05892193317413330078e-01) (52, 3.05488801002502441406e+00) (53, -1.20986327528953552246e-01) (54, 9.53593254089355468750e-01) (55, 3.94706428050994873047e-01) (56, 6.05453550815582275391e-02) (57, -1.44036216661334037781e-02) (58, 8.24385583400726318359e-01) (59, -3.06699275970458984375e-01) (60, -4.55801486968994140625e-01) (61, 2.41640305519104003906e+00) (62, 3.20711541175842285156e+00) (63, 8.55039894580841064453e-01) (64, 3.03807314485311508179e-02) (0, 8.81736055016517639160e-02) (1, -1.18561692535877227783e-01) (2, 6.42920732498168945312e-01) (3, -5.11094033718109130859e-01) (4, 7.34322011470794677734e-01) (5, -2.28457856178283691406e+00) (6, -1.35072290897369384766e-01) (7, -3.58693562448024749756e-02) (8, -1.80286038666963577271e-02) (9, -4.73760187625885009766e-01) (10, 1.17753195762634277344e+00) (11, -6.70859575271606445312e-01) (12, -1.62464678287506103516e+00) (13, -2.60201525688171386719e+00) (14, -2.28852778673171997070e-01) (15, -5.38075804710388183594e-01) (16, -2.14374214410781860352e-02) (17, -1.44852745532989501953e+00) (18, -1.40939891338348388672e+00) (19, -4.53819322586059570312e+00) (20, -1.64673447608947753906e+00) (21, -1.72843372821807861328e+00) (22, -3.02710443735122680664e-01) (23, 1.04546681046485900879e-01) (24, 3.15139591693878173828e-02) (25, -1.44504964351654052734e+00) (26, -3.65903997421264648438e+00) (27, -3.20676422119140625000e+00) (28, -2.03492569923400878906e+00) (29, -1.61435115337371826172e+00) (30, -1.00353026390075683594e+00) (31, -3.23641323484480381012e-03) (32, 1.00315302610397338867e-01) (33, 3.82822990417480468750e-01) (34, -2.30226182937622070312e+00) (35, -1.87291479110717773438e+00) (36, 1.10081017017364501953e+00) (37, 1.92511722445487976074e-01) (38, -2.87739014625549316406e+00) (39, -1.27737447619438171387e-02) (40, -7.54834786057472229004e-02) (41, 6.73198178410530090332e-02) (42, 3.99719762802124023438e+00) (43, 4.71651983261108398438e+00) (44, -2.01830697059631347656e+00) (45, -1.26782321929931640625e+00) (46, -1.97328877449035644531e+00) (47, 1.60032987594604492188e-01) (48, 4.98584844172000885010e-02) (49, -1.27808415889739990234e+00) (50, -3.87868285179138183594e-02) (51, 4.66133975982666015625e+00) (52, 1.77739334106445312500e+00) (53, 1.68541622161865234375e+00) (54, 2.67763495445251464844e-01) (55, 1.08515083789825439453e+00) (56, 8.88009071350097656250e-02) (57, 1.13890260457992553711e-01) (58, 1.63993775844573974609e+00) (59, 1.55710411071777343750e+00) (60, 3.95680814981460571289e-01) (61, 3.23579096794128417969e+00) (62, 3.66648459434509277344e+00) (63, 9.90256488323211669922e-01) (64, -5.02478256821632385254e-02) (0, 9.66481640934944152832e-02) (1, 1.62198722362518310547e-01) (2, -3.85252982378005981445e-01) (3, -2.28076670318841934204e-02) (4, 7.62236058712005615234e-01) (5, 2.78934407234191894531e+00) (6, 7.22190916538238525391e-01) (7, 5.16691386699676513672e-01) (8, 6.60692691802978515625e-01) (9, 4.45585101842880249023e-01) (10, 4.59898561239242553711e-01) (11, 4.46704238653182983398e-01) (12, 1.54589021205902099609e+00) (13, -2.42103651165962219238e-01) (14, -2.17264819145202636719e+00) (15, -2.02728733420372009277e-01) (16, 9.44274142384529113770e-02) (17, 1.19147253036499023438e+00) (18, 1.77692818641662597656e+00) (19, 7.46960714459419250488e-02) (20, -3.58468747138977050781e+00) (21, -1.00758600234985351562e+00) (22, -1.20857238769531250000e+00) (23, -2.25658059120178222656e-01) (24, 5.63626773655414581299e-02) (25, -8.86341333389282226562e-01) (26, 7.32376158237457275391e-01) (27, 5.13605952262878417969e-01) (28, -1.31341361999511718750e+00) (29, -1.18713648989796638489e-02) (30, 4.51879143714904785156e-01) (31, -1.76938285585492849350e-03) (32, -3.16564925014972686768e-02) (33, -1.09286689758300781250e+00) (34, -5.51134347915649414062e-01) (35, 1.18335044384002685547e+00) (36, -2.06357383728027343750e+00) (37, -3.70752143859863281250e+00) (38, -1.57282841205596923828e+00) (39, 4.78452071547508239746e-02) (40, 3.05894315242767333984e-02) (41, 1.03149819374084472656e+00) (42, 3.47674632072448730469e+00) (43, 2.61677217483520507812e+00) (44, -2.39131069183349609375e+00) (45, -4.16427284479141235352e-01) (46, 9.41212654113769531250e-01) (47, 1.13473363220691680908e-01) (48, 3.38599011301994323730e-02) (49, -3.56158554553985595703e-01) (50, 1.96961140632629394531e+00) (51, -5.27410566806793212891e-01) (52, -9.70248639583587646484e-01) (53, 1.55303552746772766113e-01) (54, 8.54862853884696960449e-02) (55, 2.50769183039665222168e-02) (56, 6.19130432605743408203e-02) (57, -9.76036727428436279297e-01) (58, -1.58330857753753662109e+00) (59, 1.91843008995056152344e+00) (60, 2.09119632840156555176e-01) (61, -9.95278775691986083984e-01) (62, -1.98817715048789978027e-01) (63, -1.41058608889579772949e-01) (64, 2.08585355430841445923e-02) (0, -6.44446760416030883789e-02) (1, -2.42139354348182678223e-01) (2, 1.24708557128906250000e+00) (3, 2.20921897888183593750e+00) (4, 1.40550583600997924805e-01) (5, -1.88916385173797607422e-01) (6, 1.82793021202087402344e-01) (7, 6.69277831912040710449e-02) (8, 7.08571746945381164551e-02) (9, -3.92494380474090576172e-01) (10, 1.92590892314910888672e+00) (11, 6.38301789760589599609e-01) (12, 3.26233446598052978516e-01) (13, -4.05203342437744140625e-01) (14, 8.11458408832550048828e-01) (15, 9.55277234315872192383e-02) (16, -6.15043751895427703857e-03) (17, 1.62731841206550598145e-01) (18, 1.42505025863647460938e+00) (19, -3.11269700527191162109e-01) (20, -1.38651251792907714844e-01) (21, 3.63150507211685180664e-01) (22, -3.07824909687042236328e-01) (23, 1.31057733669877052307e-02) (24, -7.69100934267044067383e-02) (25, 1.17166519165039062500e+00) (26, 1.94755208492279052734e+00) (27, 2.74608045816421508789e-01) (28, 6.56094014644622802734e-01) (29, -6.78222715854644775391e-01) (30, 3.28516244888305664062e-01) (31, 6.76371529698371887207e-02) (32, 8.26994180679321289062e-02) (33, 1.09318590164184570312e+00) (34, 1.35343313217163085938e+00) (35, -2.47055277228355407715e-01) (36, 2.01509094238281250000e+00) (37, 1.62451422214508056641e+00) (38, -9.02707204222679138184e-02) (39, -8.72274413704872131348e-02) (40, -7.52411112189292907715e-02) (41, 4.50956523418426513672e-01) (42, 7.44683027267456054688e-01) (43, 1.80606865882873535156e+00) (44, 1.00815296173095703125e+00) (45, 2.02424931526184082031e+00) (46, -1.00055837631225585938e+00) (47, 2.23929830826818943024e-03) (48, 1.12064108252525329590e-01) (49, -1.51613757014274597168e-01) (50, 8.84382009506225585938e-01) (51, 1.62847352027893066406e+00) (52, 8.81732881069183349609e-01) (53, 1.93916010856628417969e+00) (54, -4.62496280670166015625e-02) (55, -5.21450638771057128906e-02) (56, -2.64972299337387084961e-02) (57, -1.00109830498695373535e-01) (58, 1.75975680351257324219e+00) (59, 1.17861247062683105469e+00) (60, 9.11286294460296630859e-01) (61, 7.81800329685211181641e-01) (62, -2.07617402076721191406e-01) (63, 7.42934718728065490723e-02) (64, 1.58782333135604858398e-01) (0, -7.82710388302803039551e-02) (1, 6.78075909614562988281e-01) (2, -4.22721338272094726562e+00) (3, -2.17604279518127441406e+00) (4, -6.01914405822753906250e-01) (5, -4.32683467864990234375e-01) (6, -2.07114815711975097656e+00) (7, -1.31653344631195068359e+00) (8, -2.97107219696044921875e-01) (9, -1.12024211883544921875e+00) (10, -1.34501481056213378906e+00) (11, -4.15372657775878906250e+00) (12, 5.27583897113800048828e-01) (13, 2.11994990706443786621e-01) (14, 2.93903648853302001953e-01) (15, -5.21998345851898193359e-01) (16, -9.94741395115852355957e-02) (17, 3.06621146202087402344e+00) (18, -1.71930634975433349609e+00) (19, 9.41740870475769042969e-01) (20, 1.85382437705993652344e+00) (21, -7.86580502986907958984e-01) (22, 1.58700680732727050781e+00) (23, -2.49396234750747680664e-01) (24, 1.12745746970176696777e-01) (25, 1.09076559543609619141e+00) (26, -1.96511757373809814453e+00) (27, -3.46604108810424804688e-01) (28, 5.42592465877532958984e-01) (29, -2.93835043907165527344e+00) (30, -3.79995894432067871094e+00) (31, -1.12451568245887756348e-01) (32, 8.06104615330696105957e-02) (33, -2.35583543777465820312e+00) (34, -1.66069757938385009766e+00) (35, -2.56296098232269287109e-01) (36, -4.02367055416107177734e-01) (37, 2.91707497090101242065e-02) (38, -2.80899214744567871094e+00) (39, -5.83480820059776306152e-02) (40, -1.05223715305328369141e-01) (41, -3.45839381217956542969e-01) (42, 5.85689640045166015625e+00) (43, 3.53698420524597167969e+00) (44, 1.68360424041748046875e+00) (45, 2.43227854371070861816e-01) (46, 2.72572827339172363281e+00) (47, 1.61273166537284851074e-01) (48, -4.22651357948780059814e-02) (49, -4.99621748924255371094e-01) (50, 4.39619958400726318359e-01) (51, 1.06657361984252929688e+00) (52, 1.89716589450836181641e+00) (53, 4.86167812347412109375e+00) (54, -8.59027981758117675781e-01) (55, 1.98862448334693908691e-01) (56, 2.36514434218406677246e-02) (57, 1.03586053848266601562e+00) (58, 1.44044911861419677734e+00) (59, 3.70988190174102783203e-01) (60, 2.92483139038085937500e+00) (61, 1.05162465572357177734e+00) (62, 2.14943543076515197754e-01) (63, 1.00939309597015380859e+00) (64, -2.34059423208236694336e-01) (0, -5.95134608447551727295e-02) (1, -4.04886826872825622559e-02) (2, -8.40770542621612548828e-01) (3, -1.21607244014739990234e+00) (4, 3.10571864247322082520e-02) (5, 1.05652165412902832031e+00) (6, 9.21103283762931823730e-02) (7, 6.54061973094940185547e-01) (8, -5.22695183753967285156e-01) (9, -9.81490090489387512207e-02) (10, 2.02292487025260925293e-01) (11, -4.04741811752319335938e+00) (12, 1.61900687217712402344e+00) (13, 9.40467119216918945312e-02) (14, 1.82568919658660888672e+00) (15, 1.30731379985809326172e+00) (16, -3.88405844569206237793e-02) (17, -6.88173413276672363281e-01) (18, -4.64375066757202148438e+00) (19, -4.32022523880004882812e+00) (20, 1.59004807472229003906e+00) (21, -1.51739776134490966797e+00) (22, 2.60736972093582153320e-01) (23, 5.45449815690517425537e-02) (24, 2.59121078997850418091e-02) (25, -1.54965460300445556641e+00) (26, -5.69400644302368164062e+00) (27, 1.18087224662303924561e-01) (28, 3.18190431594848632812e+00) (29, -2.50260233879089355469e+00) (30, -6.00384831428527832031e-01) (31, 6.30370453000068664551e-02) (32, -1.31670096889138221741e-02) (33, 1.55687165260314941406e+00) (34, -1.14796590805053710938e+00) (35, 2.03700470924377441406e+00) (36, 3.40540599822998046875e+00) (37, 4.38015413284301757812e+00) (38, 2.40089440345764160156e+00) (39, 9.76408943533897399902e-02) (40, -4.28462550044059753418e-02) (41, -6.94025039672851562500e-01) (42, -1.36713171005249023438e+00) (43, -5.73599219322204589844e-01) (44, 2.95776295661926269531e+00) (45, 1.98659491539001464844e+00) (46, 3.86298227310180664062e+00) (47, 3.40374261140823364258e-02) (48, 1.74412038177251815796e-02) (49, -1.11741459369659423828e+00) (50, -2.10440349578857421875e+00) (51, -1.18039929866790771484e+00) (52, -5.24239182472229003906e-01) (53, 7.82482922077178955078e-01) (54, 5.23799598217010498047e-01) (55, -1.48963510990142822266e-01) (56, -9.31855365633964538574e-02) (57, 6.21404826641082763672e-01) (58, 1.23503744602203369141e+00) (59, -1.78993630409240722656e+00) (60, -1.37097644805908203125e+00) (61, 1.27302575111389160156e+00) (62, -3.02323627471923828125e+00) (63, -4.57588106393814086914e-01) (64, -3.62500667572021484375e-01) (0, 4.65541556477546691895e-02) (1, -1.37159025669097900391e+00) (2, 6.49062275886535644531e-01) (3, -2.68469333648681640625e+00) (4, -3.99742531776428222656e+00) (5, -3.41239619255065917969e+00) (6, -1.42702960968017578125e+00) (7, 3.14097195863723754883e-01) (8, -4.51754540205001831055e-01) (9, -2.16557955741882324219e+00) (10, -5.08499670028686523438e+00) (11, -1.55049407482147216797e+00) (12, -1.40795159339904785156e+00) (13, -4.02018356323242187500e+00) (14, 2.58924150466918945312e+00) (15, 4.15822416543960571289e-02) (16, 4.13645394146442413330e-02) (17, 1.73393833637237548828e+00) (18, 1.74194622039794921875e+00) (19, 2.17409420013427734375e+00) (20, 4.40968751907348632812e+00) (21, -1.50969409942626953125e+00) (22, -1.43271875381469726562e+00) (23, -1.44552469253540039062e-01) (24, -6.87442123889923095703e-02) (25, 8.63498091697692871094e-01) (26, 7.11604626849293708801e-03) (27, -3.33702653646469116211e-01) (28, 1.15142650902271270752e-01) (29, 1.17965364456176757812e+00) (30, 4.51454830169677734375e+00) (31, 4.56671603024005889893e-02) (32, 1.25419124960899353027e-02) (33, -1.12174518406391143799e-01) (34, 8.31854268908500671387e-02) (35, -3.50608658790588378906e+00) (36, 2.24940156936645507812e+00) (37, 6.95862591266632080078e-01) (38, 1.16401660442352294922e+00) (39, -1.61764919757843017578e-02) (40, -2.46845521032810211182e-02) (41, 1.57099410891532897949e-01) (42, -1.10234510898590087891e+00) (43, 7.89433288574218750000e+00) (44, 4.67016649246215820312e+00) (45, -3.18195056915283203125e+00) (46, -4.04589843750000000000e+00) (47, -2.72918403148651123047e-01) (48, 3.39223481714725494385e-02) (49, 3.43600893020629882812e+00) (50, -1.53084230422973632812e+00) (51, 2.05607652664184570312e+00) (52, 4.88025379180908203125e+00) (53, -7.78991162776947021484e-01) (54, 2.87753868103027343750e+00) (55, 7.02183187007904052734e-01) (56, -5.51725812256336212158e-02) (57, 5.70260107517242431641e-01) (58, 6.98072135448455810547e-01) (59, -3.78203701972961425781e+00) (60, -9.88739848136901855469e-01) (61, 2.84922742843627929688e+00) (62, 4.17253303527832031250e+00) (63, 2.53721928596496582031e+00) (64, -1.17379337549209594727e-01) (0, -1.54463201761245727539e-03) (1, 1.26688492298126220703e+00) (2, -5.35207867622375488281e-01) (3, -3.26950758695602416992e-01) (4, -1.72525393962860107422e+00) (5, -1.11923468112945556641e+00) (6, 1.11607395112514495850e-01) (7, 3.95312786102294921875e-01) (8, 3.03744375705718994141e-01) (9, -8.85776877403259277344e-01) (10, 3.74787926673889160156e+00) (11, -1.76380470395088195801e-01) (12, -8.06223273277282714844e-01) (13, -7.60934889316558837891e-01) (14, 3.82427155971527099609e-01) (15, 4.66234654188156127930e-01) (16, 5.79165294766426086426e-02) (17, 1.15667328238487243652e-01) (18, -2.71976649761199951172e-01) (19, -5.64038515090942382812e+00) (20, -1.92601001262664794922e+00) (21, 3.52901959419250488281e+00) (22, 2.74513316154479980469e+00) (23, 1.05461701750755310059e-01) (24, -7.81370028853416442871e-02) (25, -6.86120271682739257812e-01) (26, -3.67223000526428222656e+00) (27, -8.03960263729095458984e-01) (28, -8.59097659587860107422e-01) (29, -1.86704707145690917969e+00) (30, 1.44617870450019836426e-01) (31, 4.13191281259059906006e-02) (32, -6.93419054150581359863e-02) (33, -8.69489967823028564453e-01) (34, -1.05456030368804931641e+00) (35, -1.48408567905426025391e+00) (36, -7.20553815364837646484e-01) (37, -3.31328511238098144531e+00) (38, -1.75376176834106445312e+00) (39, -7.42755830287933349609e-04) (40, 2.31757927685976028442e-02) (41, 1.64539229869842529297e+00) (42, 5.40816831588745117188e+00) (43, 2.85818785429000854492e-01) (44, 9.18986618518829345703e-01) (45, 9.20931696891784667969e-01) (46, -1.14016079902648925781e+00) (47, -9.19982641935348510742e-02) (48, -1.48542933166027069092e-02) (49, 1.16437304019927978516e+00) (50, 7.48945772647857666016e-01) (51, 1.47442376613616943359e+00) (52, 2.08500051498413085938e+00) (53, 1.85203564167022705078e+00) (54, -1.04146003723144531250e+00) (55, -8.48834440112113952637e-02) (56, -5.33254556357860565186e-02) (57, 6.32613718509674072266e-01) (58, 1.54875636100769042969e+00) (59, 1.00556743144989013672e+00) (60, 2.59038776159286499023e-01) (61, 3.89888077974319458008e-01) (62, 1.66858625411987304688e+00) (63, 2.24523827433586120605e-01) (64, 2.01963141560554504395e-01) (0, 1.92883610725402832031e-02) (1, -1.40575385093688964844e+00) (2, 8.58819365501403808594e-01) (3, -8.41938108205795288086e-02) (4, 5.18717706203460693359e-01) (5, 9.62198436260223388672e-01) (6, 1.03367710113525390625e+00) (7, 9.96466726064682006836e-02) (8, -6.89524054527282714844e-01) (9, -8.14097881317138671875e-01) (10, -2.37947654724121093750e+00) (11, 1.55737078189849853516e+00) (12, 6.47344768047332763672e-01) (13, -2.46427726745605468750e+00) (14, 2.68614935874938964844e+00) (15, 6.32708370685577392578e-02) (16, 5.83761297166347503662e-02) (17, -1.90103995800018310547e+00) (18, -5.13879895210266113281e-01) (19, 3.07588648796081542969e+00) (20, 3.49010491371154785156e+00) (21, -1.55153703689575195312e+00) (22, -3.60836982727050781250e-01) (23, 2.24887475371360778809e-01) (24, -4.43595368415117263794e-03) (25, 1.55141949653625488281e-02) (26, 8.62757384777069091797e-01) (27, 1.86399564146995544434e-01) (28, 1.38503074645996093750e+00) (29, 1.59647858142852783203e+00) (30, 2.13135981559753417969e+00) (31, -8.71994271874427795410e-02) (32, -7.23668411374092102051e-02) (33, 2.58343005180358886719e+00) (34, 2.67187452316284179688e+00) (35, -1.62620806694030761719e+00) (36, 1.65651047229766845703e+00) (37, 4.71797418594360351562e+00) (38, 8.91309916973114013672e-01) (39, -3.85004170238971710205e-02) (40, 9.50356274843215942383e-02) (41, 1.65126132965087890625e+00) (42, -3.01133751869201660156e+00) (43, 4.25681114196777343750e+00) (44, 3.19182324409484863281e+00) (45, -1.72813022136688232422e+00) (46, -3.76490855216979980469e+00) (47, -2.31586366891860961914e-01) (48, 5.81394843757152557373e-02) (49, 2.35678744316101074219e+00) (50, -1.49810540676116943359e+00) (51, -2.65016973018646240234e-01) (52, -1.56368196010589599609e+00) (53, -4.35903978347778320312e+00) (54, -9.88515377044677734375e-01) (55, -3.62692177295684814453e-01) (56, 1.74555331468582153320e-02) (57, 2.13855803012847900391e-01) (58, -8.28889548778533935547e-01) (59, -6.53549432754516601562e+00) (60, -2.37588095664978027344e+00) (61, -1.19072043895721435547e+00) (62, -1.79581367969512939453e+00) (63, 4.26685273647308349609e-01) (64, -6.82935193181037902832e-02) (0, 8.25268104672431945801e-02) (1, 1.60872161388397216797e-01) (2, 1.48081028461456298828e+00) (3, -9.19405281543731689453e-01) (4, 4.14938718080520629883e-01) (5, -3.12704443931579589844e+00) (6, -9.98600184917449951172e-01) (7, 9.94766414165496826172e-01) (8, 2.75739192962646484375e-01) (9, -1.09786462783813476562e+00) (10, -7.43582010269165039062e-01) (11, -6.85683786869049072266e-02) (12, 3.46514433622360229492e-01) (13, -6.81617915630340576172e-01) (14, 5.87891042232513427734e-01) (15, 1.49717062711715698242e-01) (16, -2.22130808979272842407e-02) (17, 2.93300867080688476562e-01) (18, -7.63977244496345520020e-02) (19, -1.61256682872772216797e+00) (20, 1.84040576219558715820e-01) (21, 3.58111619949340820312e+00) (22, -9.09762740135192871094e-01) (23, -1.76002085208892822266e-01) (24, -4.74032461643218994141e-02) (25, 3.95897179841995239258e-01) (26, -1.44525729119777679443e-02) (27, 1.89778983592987060547e+00) (28, -4.19899177551269531250e+00) (29, -4.32544797658920288086e-01) (30, 5.84568071365356445312e+00) (31, -4.75414432585239410400e-02) (32, 2.43110377341508865356e-02) (33, 1.46258878707885742188e+00) (34, 3.66340804100036621094e+00) (35, -2.21611642837524414062e+00) (36, 7.69249379634857177734e-01) (37, -9.10818457603454589844e-01) (38, 4.80500125885009765625e+00) (39, 9.54978987574577331543e-02) (40, 1.83897390961647033691e-01) (41, 3.46984791755676269531e+00) (42, 2.11669898033142089844e+00) (43, -5.41042268276214599609e-01) (44, 1.37192261219024658203e+00) (45, -1.21757411956787109375e+00) (46, -2.10697197914123535156e+00) (47, -1.15841992199420928955e-01) (48, 5.63609153032302856445e-02) (49, 3.10733938217163085938e+00) (50, 1.80791401863098144531e+00) (51, 1.08544003963470458984e+00) (52, 7.53757536411285400391e-01) (53, -4.59674112498760223389e-02) (54, -4.10328865051269531250e-01) (55, -5.39007008075714111328e-01) (56, -8.57622176408767700195e-02) (57, -3.53387206792831420898e-01) (58, -8.36263298988342285156e-01) (59, -4.53075647354125976562e+00) (60, -3.34240198135375976562e+00) (61, -2.26371717453002929688e+00) (62, -1.21811425685882568359e+00) (63, -2.50227674841880798340e-02) (64, 3.49532514810562133789e-01) (0, -9.43657383322715759277e-02) (1, 1.60906016826629638672e-01) (2, -9.12511885166168212891e-01) (3, 2.00536298751831054688e+00) (4, -1.81171786785125732422e+00) (5, -2.82712626457214355469e+00) (6, -2.08451962471008300781e+00) (7, -1.04276895523071289062e+00) (8, 1.04033932089805603027e-01) (9, 2.59993493556976318359e-01) (10, -5.90115785598754882812e-01) (11, -1.76326620578765869141e+00) (12, -3.23498070240020751953e-01) (13, 2.93237954378128051758e-01) (14, 1.62197545170783996582e-01) (15, -4.43391859531402587891e-01) (16, -3.27460542321205139160e-02) (17, -1.07130122184753417969e+00) (18, 1.91978406906127929688e+00) (19, 4.73862648010253906250e-01) (20, 4.01757210493087768555e-01) (21, 4.54729747772216796875e+00) (22, 5.43155860900878906250e+00) (23, 3.07356387376785278320e-01) (24, 6.12086197361350059509e-03) (25, 3.15101563930511474609e-01) (26, 7.83705770969390869141e-01) (27, -1.20737105607986450195e-01) (28, 8.70895028114318847656e-01) (29, 2.41215491294860839844e+00) (30, 2.98387289047241210938e+00) (31, -2.74295862764120101929e-02) (32, -2.18357741832733154297e-02) (33, -4.52679879963397979736e-02) (34, 2.50372916460037231445e-01) (35, -4.66685533523559570312e-01) (36, 1.76784169673919677734e+00) (37, 1.52262103557586669922e+00) (38, -1.78406167030334472656e+00) (39, 7.98287242650985717773e-03) (40, -1.12106889486312866211e-01) (41, 1.39114940166473388672e+00) (42, 5.04172515869140625000e+00) (43, 2.95328617095947265625e+00) (44, 6.54369115829467773438e-01) (45, -6.12884581089019775391e-01) (46, -2.07913875579833984375e+00) (47, 4.83455285429954528809e-02) (48, -6.43693283200263977051e-02) (49, -1.30894207954406738281e+00) (50, -4.87962663173675537109e-01) (51, -4.10362482070922851562e-01) (52, -2.22026109695434570312e+00) (53, -2.61933970451354980469e+00) (54, -1.81122732162475585938e+00) (55, 2.98825830221176147461e-01) (56, -6.51604607701301574707e-02) (57, -7.37037539482116699219e-01) (58, -2.44220542907714843750e+00) (59, -1.12723064422607421875e+00) (60, 8.98312211036682128906e-01) (61, 7.06166550517082214355e-02) (62, 7.04748630523681640625e-01) (63, 1.88453078269958496094e-01) (64, -8.36383551359176635742e-03) (0, 1.06025785207748413086e-02) (1, -5.41616022586822509766e-01) (2, 2.53389775753021240234e-01) (3, 1.41056084632873535156e+00) (4, -7.30835080146789550781e-01) (5, -1.07857502996921539307e-01) (6, -2.52661991119384765625e+00) (7, -7.54314482212066650391e-01) (8, 7.29905143380165100098e-02) (9, -3.73773157596588134766e-01) (10, -1.15262830257415771484e+00) (11, -3.07178473472595214844e+00) (12, -7.09461748600006103516e-01) (13, 9.20059502124786376953e-01) (14, -6.21418356895446777344e-01) (15, 1.32609575986862182617e-01) (16, -1.62494909018278121948e-02) (17, 2.00563645362854003906e+00) (18, 1.01806569099426269531e+00) (19, 4.43841218948364257812e+00) (20, 1.63293302059173583984e+00) (21, 1.21813166141510009766e+00) (22, 6.24835371971130371094e-01) (23, 1.54593922197818756104e-02) (24, 7.94369801878929138184e-02) (25, -1.45866525173187255859e+00) (26, 5.39477169513702392578e-01) (27, 4.86303853988647460938e+00) (28, 2.16650867462158203125e+00) (29, 2.11261200904846191406e+00) (30, -5.61293661594390869141e-01) (31, 1.03429190814495086670e-01) (32, -9.86585766077041625977e-03) (33, -9.42971289157867431641e-01) (34, 1.51326727867126464844e+00) (35, 4.96232604980468750000e+00) (36, -1.90666934940963983536e-03) (37, -2.16647893190383911133e-01) (38, -2.03193950653076171875e+00) (39, 9.13363695144653320312e-03) (40, 1.75970211625099182129e-01) (41, 1.70060265064239501953e+00) (42, -5.55355215072631835938e+00) (43, -2.82070517539978027344e+00) (44, 3.99226069450378417969e+00) (45, 1.59889316558837890625e+00) (46, -1.20354926586151123047e+00) (47, -3.21294248104095458984e-01) (48, 1.24392479658126831055e-01) (49, 1.26027441024780273438e+00) (50, 8.21687281131744384766e-01) (51, -4.22635412216186523438e+00) (52, -1.31426155567169189453e+00) (53, -1.62459135055541992188e+00) (54, 2.08546805381774902344e+00) (55, -3.80525797605514526367e-01) (56, -5.69068454205989837646e-02) (57, -9.08901631832122802734e-01) (58, -1.83572387695312500000e+00) (59, -1.95083904266357421875e+00) (60, -8.19833815097808837891e-01) (61, -2.79544663429260253906e+00) (62, -1.92966425418853759766e+00) (63, 2.29607433080673217773e-01) (64, 1.06365650892257690430e-01) (0, 6.57184198498725891113e-02) (1, 3.70907276868820190430e-01) (2, 1.45825946331024169922e+00) (3, 2.50561740249395370483e-02) (4, 5.22993862628936767578e-01) (5, 2.14581346511840820312e+00) (6, 3.62353014945983886719e+00) (7, 1.32490468025207519531e+00) (8, -3.44579257071018218994e-02) (9, 6.11472666263580322266e-01) (10, 4.28398895263671875000e+00) (11, 3.77160096168518066406e+00) (12, 4.46890926361083984375e+00) (13, -8.29403221607208251953e-01) (14, -4.78167295455932617188e-01) (15, 7.66083538532257080078e-01) (16, 1.28483520820736885071e-02) (17, -1.48041570186614990234e+00) (18, -5.18664979934692382812e+00) (19, -5.15555238723754882812e+00) (20, -1.12013077735900878906e+00) (21, -1.94779098033905029297e+00) (22, -2.31397032737731933594e+00) (23, -4.18487899005413055420e-02) (24, 3.16839925944805145264e-02) (25, 4.11106348037719726562e-01) (26, -2.75800371170043945312e+00) (27, -3.49019670486450195312e+00) (28, -6.69255852699279785156e-02) (29, -2.25059795379638671875e+00) (30, -7.97157287597656250000e-01) (31, 5.74398413300514221191e-02) (32, -5.94318658113479614258e-02) (33, 1.79658031463623046875e+00) (34, -6.84224143624305725098e-02) (35, -1.52743220329284667969e+00) (36, 1.86515998840332031250e+00) (37, 5.31452715396881103516e-01) (38, 1.26176550984382629395e-01) (39, -6.72036781907081604004e-02) (40, 5.99397392943501472473e-03) (41, -1.73397827148437500000e+00) (42, -3.19632411003112792969e+00) (43, -6.94025754928588867188e-02) (44, -8.99588704109191894531e-01) (45, -1.72171577811241149902e-01) (46, -1.54372906684875488281e+00) (47, 1.30820289254188537598e-01) (48, 4.61152149364352226257e-03) (49, 7.98812985420227050781e-01) (50, -9.08827900886535644531e-01) (51, 1.30640983581542968750e+00) (52, 7.32395276427268981934e-02) (53, 5.44625937938690185547e-01) (54, -1.44684505462646484375e+00) (55, 1.24647095799446105957e-01) (56, 5.77372033149003982544e-03) (57, 1.46320903301239013672e+00) (58, 2.53092908859252929688e+00) (59, 1.82181274890899658203e+00) (60, -1.69004309177398681641e+00) (61, -4.62391600012779235840e-03) (62, 5.16295731067657470703e-01) (63, -4.18413251638412475586e-01) (64, -1.46786253899335861206e-02) (0, -2.72685736417770385742e-02) (1, 1.02832663059234619141e+00) (2, -1.84188914299011230469e+00) (3, -8.05724978446960449219e-01) (4, 1.73320186138153076172e+00) (5, 1.56427693367004394531e+00) (6, 3.02397102117538452148e-01) (7, 3.12559217214584350586e-01) (8, 3.36580336093902587891e-01) (9, 3.01616519689559936523e-01) (10, 2.07826042175292968750e+00) (11, -6.37556016445159912109e-01) (12, -8.22629570960998535156e-01) (13, 9.30084586143493652344e-01) (14, -6.08026921749114990234e-01) (15, 3.75376343727111816406e-01) (16, -5.63516803085803985596e-02) (17, -5.48463284969329833984e-01) (18, -2.45943140983581542969e+00) (19, -1.36626136302947998047e+00) (20, -4.27171897888183593750e+00) (21, -4.96605348587036132812e+00) (22, -2.33845567703247070312e+00) (23, -1.02462656795978546143e-01) (24, -7.06947594881057739258e-02) (25, 3.63193033263087272644e-03) (26, -2.76954889297485351562e+00) (27, -1.49644181132316589355e-01) (28, 1.96308791637420654297e+00) (29, -2.85439896583557128906e+00) (30, -3.74930167198181152344e+00) (31, 1.10879912972450256348e-02) (32, 9.02967825531959533691e-02) (33, -9.25158321857452392578e-01) (34, -1.17222297191619873047e+00) (35, 1.78343343734741210938e+00) (36, -1.60475790500640869141e-01) (37, -6.97946131229400634766e-01) (38, -2.77827501296997070312e-01) (39, -7.63311237096786499023e-03) (40, -9.82948988676071166992e-02) (41, -7.56436288356781005859e-01) (42, 1.03093385696411132812e+00) (43, -9.66025233268737792969e-01) (44, 9.92229700088500976562e-01) (45, 1.30940401554107666016e+00) (46, 4.50359153747558593750e+00) (47, 4.19548094272613525391e-01) (48, 4.31395247578620910645e-02) (49, -2.65837907791137695312e+00) (50, 1.05880945920944213867e-01) (51, 4.12232309579849243164e-01) (52, -2.98617005348205566406e-01) (53, 2.06090688705444335938e+00) (54, -7.39313423633575439453e-01) (55, 4.37515377998352050781e-01) (56, 4.00171950459480285645e-02) (57, 2.29135319590568542480e-01) (58, 1.91447997093200683594e+00) (59, 3.58918404579162597656e+00) (60, 1.28874611854553222656e+00) (61, -5.93622803688049316406e-01) (62, -1.71218204498291015625e+00) (63, -5.72755575180053710938e-01) (64, 1.98750346899032592773e-01) (0, 6.10315278172492980957e-02) (1, 8.14137160778045654297e-01) (2, -2.00560763478279113770e-01) (3, 1.24643313884735107422e+00) (4, -8.44059646129608154297e-01) (5, -2.62269616127014160156e+00) (6, -1.83199214935302734375e+00) (7, -1.20458304882049560547e+00) (8, 8.12559425830841064453e-02) (9, 7.59196817874908447266e-01) (10, 2.11197996139526367188e+00) (11, -7.86677122116088867188e-01) (12, 6.56521201133728027344e-01) (13, 3.18638056516647338867e-01) (14, -2.61270195245742797852e-01) (15, -6.08680129051208496094e-01) (16, 5.28445132076740264893e-02) (17, 3.32029014825820922852e-01) (18, -1.52366304397583007812e+00) (19, -1.75959777832031250000e+00) (20, 1.40928816795349121094e+00) (21, 3.84055614471435546875e+00) (22, 3.13110852241516113281e+00) (23, 3.87565195560455322266e-02) (24, 5.87758347392082214355e-02) (25, -5.58915078639984130859e-01) (26, -2.54262638092041015625e+00) (27, -1.27291846275329589844e+00) (28, -4.34244602918624877930e-01) (29, -7.11719393730163574219e-01) (30, 4.59976911544799804688e-01) (31, -4.51415916904807090759e-03) (32, -9.49317812919616699219e-02) (33, -8.79209399223327636719e-01) (34, -5.62381923198699951172e-01) (35, -3.27399802207946777344e+00) (36, -1.35944640636444091797e+00) (37, -9.00746464729309082031e-01) (38, -1.44025373458862304688e+00) (39, -6.87436386942863464355e-02) (40, -9.09695103764533996582e-02) (41, -1.57342359423637390137e-01) (42, 4.10900972783565521240e-02) (43, -2.37860178947448730469e+00) (44, -1.62123656272888183594e+00) (45, 2.16307342052459716797e-02) (46, -1.81707346439361572266e+00) (47, -1.80977299809455871582e-01) (48, 1.67860183864831924438e-02) (49, 9.19769942760467529297e-01) (50, -5.27625679969787597656e-01) (51, 2.52900511026382446289e-01) (52, 9.72626030445098876953e-01) (53, 2.24127435684204101562e+00) (54, -2.41028726100921630859e-01) (55, -1.12489268183708190918e-01) (56, -1.59149784594774246216e-02) (57, 1.13176083564758300781e+00) (58, 7.53502368927001953125e-01) (59, 1.82891643047332763672e+00) (60, 1.79147183895111083984e+00) (61, 2.51814067363739013672e-01) (62, 4.96819131076335906982e-02) (63, 2.70956575870513916016e-01) (64, -1.08683519065380096436e-01) (0, -2.61741876602172851562e-03) (1, -5.95288157463073730469e-01) (2, -2.44657683372497558594e+00) (3, -1.64397060871124267578e-01) (4, -5.69171547889709472656e-01) (5, 1.68708467483520507812e+00) (6, 1.42306554317474365234e+00) (7, 2.45525002479553222656e+00) (8, 4.22813475131988525391e-01) (9, -4.24282550811767578125e-02) (10, -3.74709463119506835938e+00) (11, -1.80921328067779541016e+00) (12, -4.32286351919174194336e-01) (13, 1.04679059982299804688e+00) (14, -8.82375121116638183594e-01) (15, 8.02248537540435791016e-01) (16, 8.92533436417579650879e-02) (17, 9.66855108737945556641e-01) (18, 1.71060168743133544922e+00) (19, 2.29519203305244445801e-01) (20, -3.62836933135986328125e+00) (21, -2.61073040962219238281e+00) (22, -2.89070320129394531250e+00) (23, 6.81746378540992736816e-02) (24, 7.79869332909584045410e-02) (25, -1.47717952728271484375e-01) (26, 4.72825384140014648438e+00) (27, 3.48003816604614257812e+00) (28, 2.55848550796508789062e+00) (29, -1.51946470141410827637e-01) (30, -4.41076427698135375977e-01) (31, -2.37717442214488983154e-02) (32, -3.28207872807979583740e-02) (33, 3.90073359012603759766e-01) (34, 5.12088966369628906250e+00) (35, 4.41423368453979492188e+00) (36, 4.03612756729125976562e+00) (37, 1.06926143169403076172e+00) (38, -1.31794404983520507812e+00) (39, -2.98126265406608581543e-02) (40, -6.77238479256629943848e-02) (41, 2.58378481864929199219e+00) (42, 4.76784467697143554688e+00) (43, 2.79349422454833984375e+00) (44, 2.38399863243103027344e+00) (45, 1.09286260604858398438e+00) (46, 6.71087026596069335938e-01) (47, 7.08200037479400634766e-02) (48, -1.56101047992706298828e-01) (49, -1.84127259254455566406e+00) (50, 1.62221968173980712891e-01) (51, -1.94273161888122558594e+00) (52, -3.97672796249389648438e+00) (53, -4.48234128952026367188e+00) (54, 8.23401987552642822266e-01) (55, 1.16891972720623016357e-01) (56, 3.90136800706386566162e-02) (57, -2.52195239067077636719e+00) (58, -2.90802836418151855469e+00) (59, -2.20336532592773437500e+00) (60, -4.21421003341674804688e+00) (61, -2.65866327285766601562e+00) (62, -1.32308304309844970703e+00) (63, 1.87661066651344299316e-01) (64, 3.18951457738876342773e-01) (0, 2.15859040617942810059e-02) (1, 2.06240683794021606445e-01) (2, 1.11698603630065917969e+00) (3, 3.78757536411285400391e-01) (4, 1.30082452297210693359e+00) (5, 3.33511734008789062500e+00) (6, 2.29415249824523925781e+00) (7, 1.28059995174407958984e+00) (8, 1.37209266424179077148e-01) (9, 5.46238601207733154297e-01) (10, 5.77545166015625000000e-01) (11, 3.40396809577941894531e+00) (12, 4.30713367462158203125e+00) (13, -1.56587541103363037109e+00) (14, -2.73720765113830566406e+00) (15, -2.74062901735305786133e-02) (16, -5.78996092081069946289e-02) (17, -1.80135476589202880859e+00) (18, -3.36118245124816894531e+00) (19, -6.27109861373901367188e+00) (20, -1.91850221157073974609e+00) (21, -1.45575058460235595703e+00) (22, -2.10995173454284667969e+00) (23, -3.07374931871891021729e-02) (24, -2.68371892161667346954e-04) (25, -1.12223255634307861328e+00) (26, -5.21588101983070373535e-02) (27, -2.29307889938354492188e+00) (28, -5.28014659881591796875e-01) (29, -1.59051313996315002441e-01) (30, 2.26145529747009277344e+00) (31, 5.23764714598655700684e-02) (32, 7.38732442259788513184e-02) (33, 2.09750190377235412598e-01) (34, -7.46540725231170654297e-02) (35, 9.14915185421705245972e-03) (36, 3.18061995506286621094e+00) (37, 1.92133593559265136719e+00) (38, 2.05503344535827636719e+00) (39, -6.61058723926544189453e-03) (40, 3.46560552716255187988e-02) (41, -2.90106952190399169922e-01) (42, -6.39950260519981384277e-02) (43, 4.07813549041748046875e+00) (44, 9.49944317340850830078e-01) (45, -3.83480608463287353516e-01) (46, 6.67701959609985351562e-01) (47, 6.85378760099411010742e-02) (48, -1.39412982389330863953e-02) (49, -1.78643465042114257812e+00) (50, -1.97756290435791015625e+00) (51, -8.05303990840911865234e-01) (52, -2.77062964439392089844e+00) (53, -3.44403767585754394531e+00) (54, -9.79424595832824707031e-01) (55, 6.51643872261047363281e-02) (56, -6.51507675647735595703e-02) (57, -8.37021827697753906250e-01) (58, -7.90535926818847656250e-01) (59, -3.00236129760742187500e+00) (60, -4.89019966125488281250e+00) (61, -1.67836117744445800781e+00) (62, -1.39178538322448730469e+00) (63, 2.59421262890100479126e-02) (64, -1.91363431513309478760e-02) (0, -4.99978177249431610107e-02) (1, 4.00688722729682922363e-02) (2, -8.96816700696945190430e-02) (3, -2.42343574762344360352e-01) (4, -8.83696749806404113770e-02) (5, 1.42213582992553710938e-01) (6, 1.18878804147243499756e-01) (7, 4.44819731637835502625e-03) (8, 5.01854419708251953125e-02) (9, 5.15131205320358276367e-02) (10, -1.73109054565429687500e-01) (11, -1.10499918460845947266e-01) (12, -1.49285644292831420898e-01) (13, -5.54016977548599243164e-02) (14, 5.09599149227142333984e-02) (15, -3.03836353123188018799e-02) (16, -5.81890530884265899658e-02) (17, -4.52908826991915702820e-03) (18, 1.42913954332470893860e-02) (19, -4.11059521138668060303e-02) (20, 1.29676805809140205383e-02) (21, -2.46227338910102844238e-01) (22, -5.66095374524593353271e-02) (23, 1.97279267013072967529e-02) (24, -5.48787154257297515869e-02) (25, -1.63744613528251647949e-02) (26, -1.17928788065910339355e-01) (27, -1.56672596931457519531e-02) (28, 1.47068696096539497375e-02) (29, -1.20291942730545997620e-02) (30, 5.49029149115085601807e-02) (31, -8.65431800484657287598e-02) (32, -5.29001206159591674805e-02) (33, -9.62419956922531127930e-02) (34, -2.05222070217132568359e-01) (35, 1.55945345759391784668e-02) (36, -1.04269012808799743652e-01) (37, -2.02174291014671325684e-01) (38, -1.33369460701942443848e-01) (39, -9.57809984683990478516e-02) (40, -9.98584181070327758789e-02) (41, -3.08005381375551223755e-02) (42, -7.23032653331756591797e-02) (43, 2.28766053915023803711e-02) (44, -1.21477492153644561768e-01) (45, -2.21948221325874328613e-01) (46, -4.08581132069230079651e-03) (47, -5.57569004595279693604e-02) (48, 7.42338895797729492188e-02) (49, 2.94383112341165542603e-02) (50, -9.51357260346412658691e-02) (51, -2.20110062509775161743e-02) (52, -6.88721686601638793945e-02) (53, -5.00671118497848510742e-02) (54, -2.17296406626701354980e-02) (55, 7.11457207798957824707e-02) (56, 5.50168380141258239746e-02) (57, 8.55276584625244140625e-02) (58, -1.50260567665100097656e-01) (59, -1.12030453979969024658e-01) (60, -1.35636448860168457031e-01) (61, -6.13970011472702026367e-02) (62, 1.20270356535911560059e-01) (63, 5.94459511339664459229e-02) (64, -1.05579504743218421936e-02) (0, 6.25958368182182312012e-02) (1, -2.05836385488510131836e-01) (2, 1.37766742706298828125e+00) (3, 2.07365059852600097656e+00) (4, 2.76628620922565460205e-02) (5, -1.50600746273994445801e-01) (6, 3.15197110176086425781e-01) (7, 2.37010538578033447266e-01) (8, -8.26787762343883514404e-03) (9, -4.11844819784164428711e-01) (10, 1.95305335521697998047e+00) (11, 4.73492562770843505859e-01) (12, 3.37875276803970336914e-01) (13, -2.77228891849517822266e-01) (14, 6.81371092796325683594e-01) (15, 8.85725915431976318359e-02) (16, 1.46057885140180587769e-02) (17, 3.52725148200988769531e-01) (18, 1.48183345794677734375e+00) (19, -4.76727247238159179688e-01) (20, -3.94720494747161865234e-01) (21, 3.31954777240753173828e-01) (22, -3.01347732543945312500e-01) (23, -1.00100852549076080322e-01) (24, 8.13653469085693359375e-02) (25, 1.11549973487854003906e+00) (26, 1.73982608318328857422e+00) (27, 3.29638987779617309570e-01) (28, 4.15484398603439331055e-01) (29, -8.80828797817230224609e-01) (30, 4.63619887828826904297e-01) (31, -3.03628537803888320923e-02) (32, 1.80392491165548563004e-03) (33, 9.59114313125610351562e-01) (34, 1.28251457214355468750e+00) (35, -3.40444415807723999023e-01) (36, 1.85976076126098632812e+00) (37, 1.38738465309143066406e+00) (38, -1.46952271461486816406e-01) (39, -5.89897781610488891602e-02) (40, 3.54344560764729976654e-03) (41, 4.80877041816711425781e-01) (42, 7.27368772029876708984e-01) (43, 1.65032374858856201172e+00) (44, 1.17850100994110107422e+00) (45, 2.04575586318969726562e+00) (46, -1.07907938957214355469e+00) (47, 4.46059554815292358398e-02) (48, 5.19419126212596893311e-02) (49, -1.32698137313127517700e-02) (50, 8.86934161186218261719e-01) (51, 1.55087745189666748047e+00) (52, 1.13044142723083496094e+00) (53, 1.90607476234436035156e+00) (54, -5.17929084599018096924e-02) (55, 2.40146219730377197266e-02) (56, -5.88248949497938156128e-03) (57, -6.90149608999490737915e-03) (58, 1.79268491268157958984e+00) (59, 1.15399742126464843750e+00) (60, 6.72924458980560302734e-01) (61, 6.29174590110778808594e-01) (62, -4.00086432695388793945e-01) (63, -1.06077978853136301041e-03) (64, 1.89396113157272338867e-01) (0, 2.20633000135421752930e-02) (1, 9.75040376186370849609e-01) (2, 2.55555891990661621094e+00) (3, 2.32245326042175292969e+00) (4, 1.27043437957763671875e+00) (5, 5.76951265335083007812e+00) (6, 2.51245951652526855469e+00) (7, -4.78475749492645263672e-01) (8, -4.19277921319007873535e-02) (9, 3.46504855155944824219e+00) (10, 3.82105851173400878906e+00) (11, 1.70916223526000976562e+00) (12, 1.96237099170684814453e+00) (13, 2.57743096351623535156e+00) (14, -5.29610693454742431641e-01) (15, -2.72340625524520874023e-01) (16, -2.21043378114700317383e-02) (17, 3.23921251296997070312e+00) (18, 1.25419998168945312500e+00) (19, 2.22412681579589843750e+00) (20, 2.90568709373474121094e+00) (21, 1.84243977069854736328e+00) (22, 1.06457531452178955078e+00) (23, 2.17442408204078674316e-01) (24, 6.36074095964431762695e-02) (25, -2.05965971946716308594e+00) (26, -2.20005679130554199219e+00) (27, 3.26472353935241699219e+00) (28, 3.07580137252807617188e+00) (29, 1.75249433517456054688e+00) (30, -8.86683702468872070312e-01) (31, -1.33380631450563669205e-03) (32, 5.14010377228260040283e-02) (33, -3.76739859580993652344e+00) (34, -3.99269485473632812500e+00) (35, 1.72799026966094970703e+00) (36, 3.20127940177917480469e+00) (37, -3.66086292266845703125e+00) (38, -4.21678066253662109375e+00) (39, 7.53123536705970764160e-02) (40, -3.01234070211648941040e-02) (41, -1.18739795684814453125e+00) (42, -5.90586996078491210938e+00) (43, -2.31365576386451721191e-01) (44, 3.76335352659225463867e-01) (45, -3.17019772529602050781e+00) (46, -2.08511853218078613281e+00) (47, -1.62123367190361022949e-01) (48, -5.42018637061119079590e-02) (49, 2.56195640563964843750e+00) (50, -1.93335628509521484375e+00) (51, -5.07696342468261718750e+00) (52, -2.04707527160644531250e+00) (53, -2.75743174552917480469e+00) (54, 8.72817277908325195312e-01) (55, -1.25041648745536804199e-01) (56, 2.58006285876035690308e-02) (57, 6.52192115783691406250e-01) (58, 2.33739876747131347656e+00) (59, 3.09859323501586914062e+00) (60, -1.34049081802368164062e+00) (61, -1.94631874561309814453e+00) (62, 2.53868842124938964844e+00) (63, 1.32215237617492675781e+00) (64, -1.10241159796714782715e-01) (0, -3.43047007918357849121e-02) (1, -7.54107594490051269531e-01) (2, 1.00542318820953369141e+00) (3, -2.15208005905151367188e+00) (4, -2.11689662933349609375e+00) (5, 4.01824045181274414062e+00) (6, 4.35323190689086914062e+00) (7, 3.39748692512512207031e+00) (8, -3.82540076971054077148e-01) (9, -3.95313620567321777344e+00) (10, -1.14573955535888671875e+00) (11, 4.97499555349349975586e-01) (12, 4.28335279226303100586e-01) (13, 1.11738193035125732422e+00) (14, -1.98557460308074951172e+00) (15, 6.46719485521316528320e-02) (16, 1.29556125029921531677e-02) (17, -6.23855330049991607666e-02) (18, 3.09776496887207031250e+00) (19, 2.38649249076843261719e+00) (20, -3.79206180572509765625e+00) (21, -8.36049079895019531250e+00) (22, -8.87318134307861328125e+00) (23, -1.05631661415100097656e+00) (24, 9.26730688661336898804e-03) (25, 1.94595873355865478516e+00) (26, 2.42653298377990722656e+00) (27, 5.17291784286499023438e-01) (28, -5.56727266311645507812e+00) (29, -9.67717409133911132812e-01) (30, 2.21787780523300170898e-01) (31, 9.10968258976936340332e-02) (32, -2.70347297191619873047e-03) (33, 2.43360567092895507812e+00) (34, 1.10999810695648193359e+00) (35, -2.73421144485473632812e+00) (36, -5.32646417617797851562e+00) (37, -2.75959730148315429688e+00) (38, 3.12070345878601074219e+00) (39, -4.57414202392101287842e-02) (40, -8.30054134130477905273e-02) (41, 3.99540007114410400391e-01) (42, 2.59672617912292480469e+00) (43, 4.48776531219482421875e+00) (44, -8.22234451770782470703e-01) (45, 1.38114595413208007812e+00) (46, 3.38726490736007690430e-01) (47, 1.12275160849094390869e-01) (48, 4.82755167467985302210e-05) (49, 9.15168225765228271484e-01) (50, -9.28952991962432861328e-02) (51, 2.90759801864624023438e+00) (52, 4.70739698410034179688e+00) (53, 1.02628457546234130859e+00) (54, -5.68083859980106353760e-02) (55, 9.19998288154602050781e-02) (56, 8.84548649191856384277e-02) (57, 2.15266481041908264160e-01) (58, 9.30454671382904052734e-01) (59, 2.33363461494445800781e+00) (60, -4.81246411800384521484e-01) (61, 1.00189030170440673828e+00) (62, 1.16862308979034423828e+00) (63, 3.63890200853347778320e-01) (64, -1.69636726379394531250e-01) (0, -2.49928832054138183594e-02) (1, -4.21938776969909667969e-01) (2, 7.79186308383941650391e-01) (3, 1.82217693328857421875e+00) (4, -1.33394610881805419922e+00) (5, 1.45001280307769775391e+00) (6, 5.57754933834075927734e-01) (7, -8.01333785057067871094e-01) (8, -1.36442840099334716797e-01) (9, 2.44384676218032836914e-01) (10, -3.03196627646684646606e-02) (11, 8.62597644329071044922e-01) (12, -3.35047394037246704102e-01) (13, -1.48024260997772216797e-01) (14, -1.82122468948364257812e+00) (15, -9.87663388252258300781e-01) (16, -4.03022626414895057678e-03) (17, 5.11095523834228515625e-01) (18, -3.92283558845520019531e-01) (19, 2.64038205146789550781e+00) (20, 2.04451417922973632812e+00) (21, -2.27440401911735534668e-01) (22, -1.47359237074851989746e-01) (23, 9.81641039252281188965e-02) (24, 7.47686028480529785156e-02) (25, -3.77508968114852905273e-01) (26, 3.79690617322921752930e-01) (27, -3.37664812803268432617e-01) (28, -5.40805459022521972656e-02) (29, 1.14287269115447998047e+00) (30, -2.24049615859985351562e+00) (31, -5.68051710724830627441e-02) (32, 9.18715968728065490723e-02) (33, -3.76821666955947875977e-01) (34, -1.37514591217041015625e+00) (35, -9.87653374671936035156e-01) (36, -2.38453435897827148438e+00) (37, -2.16808509826660156250e+00) (38, -2.57864713668823242188e+00) (39, -1.52979791164398193359e-02) (40, -9.00037512183189392090e-02) (41, -1.50077903270721435547e+00) (42, -3.69831204414367675781e+00) (43, -1.35328650474548339844e+00) (44, 2.93993443250656127930e-01) (45, -1.79360485076904296875e+00) (46, -2.22827577590942382812e+00) (47, -4.74864318966865539551e-02) (48, -8.60796570777893066406e-02) (49, 1.73343986272811889648e-01) (50, -8.72596442699432373047e-01) (51, -2.18748760223388671875e+00) (52, 1.83621001243591308594e+00) (53, -1.53021168708801269531e+00) (54, -3.90997827053070068359e-02) (55, 3.62775862216949462891e-01) (56, -6.56300112605094909668e-02) (57, 2.63812959194183349609e-01) (58, 6.66323661804199218750e-01) (59, 2.09200191497802734375e+00) (60, 1.18183183670043945312e+00) (61, 7.82609164714813232422e-01) (62, 2.08075332641601562500e+00) (63, 5.05053281784057617188e-01) (64, -1.85031145811080932617e-01) (0, -3.86028736829757690430e-03) (1, -1.65988957881927490234e+00) (2, -2.30856800079345703125e+00) (3, -1.87909495830535888672e+00) (4, -1.76592898368835449219e+00) (5, -4.89266693592071533203e-01) (6, -1.30280685424804687500e+00) (7, -7.71438658237457275391e-01) (8, -4.18114393949508666992e-01) (9, -3.45278358459472656250e+00) (10, -7.51009178161621093750e+00) (11, -4.21082115173339843750e+00) (12, -1.06585419178009033203e+00) (13, -2.37188315391540527344e+00) (14, -1.96377322077751159668e-01) (15, -6.31625726819038391113e-02) (16, -7.77500728145241737366e-03) (17, -1.32749485969543457031e+00) (18, -7.70879328250885009766e-01) (19, 6.84224462509155273438e+00) (20, 1.12790262699127197266e+00) (21, -6.14516210556030273438e+00) (22, -2.33306503295898437500e+00) (23, -4.31049823760986328125e-01) (24, 5.82359880208969116211e-02) (25, 1.26944696903228759766e+00) (26, 1.51772010326385498047e+00) (27, 9.12093639373779296875e-01) (28, 7.65458762645721435547e-01) (29, -2.46203970909118652344e+00) (30, -1.39716112613677978516e+00) (31, -5.84343671798706054688e-02) (32, 1.99342109262943267822e-02) (33, 3.15885019302368164062e+00) (34, 1.61515760421752929688e+00) (35, 5.27318835258483886719e-01) (36, 2.47421407699584960938e+00) (37, 4.28141880035400390625e+00) (38, 1.44801151752471923828e+00) (39, 5.36974146962165832520e-02) (40, 5.95982943195849657059e-04) (41, 1.36668115854263305664e-01) (42, 1.73453617095947265625e+00) (43, 3.38732504844665527344e+00) (44, 4.47739696502685546875e+00) (45, 6.76664113998413085938e-01) (46, 1.14824557304382324219e+00) (47, -1.20571721345186233521e-02) (48, 8.93894303590059280396e-03) (49, -2.15958929061889648438e+00) (50, -9.92982029914855957031e-01) (51, 8.83309006690979003906e-01) (52, 2.26352497935295104980e-01) (53, -1.68686509132385253906e+00) (54, -4.56787526607513427734e-01) (55, 1.16127938032150268555e-01) (56, -3.09788119047880172729e-02) (57, -1.78602322936058044434e-01) (58, 6.25732302665710449219e-01) (59, -3.63507914543151855469e+00) (60, 3.34103083610534667969e+00) (61, 2.55152463912963867188e+00) (62, -1.14812386035919189453e+00) (63, -1.14700578153133392334e-01) (64, -2.27879047393798828125e-01) (65, 2.61595153808593750000e+00) (66, -7.16954112052917480469e-01) (67, -1.13649320602416992188e+00) (68, -1.15239953994750976562e+00) (69, 3.48422908782958984375e+00) (70, 1.49016892910003662109e+00) (71, -9.88106071949005126953e-01) (72, -1.75046443939208984375e+00) (73, -2.45053195953369140625e+00) (74, 4.35430228710174560547e-01) (75, -1.27014517784118652344e+00) (76, 3.27076852321624755859e-01) (77, -8.72973501682281494141e-01) (78, -2.20293208956718444824e-01) (79, 3.76907527446746826172e-01) (80, -1.31064736843109130859e+00) (81, 3.03128838539123535156e+00) (82, 7.72157669067382812500e-01) (83, -1.93600785732269287109e+00) (84, -6.70860707759857177734e-01) (85, -2.26657366752624511719e+00) (86, 1.18089246749877929688e+00) (87, -2.55899548530578613281e+00) (88, -7.64941096305847167969e-01) (89, -2.13481802493333816528e-02) (90, -1.26645612716674804688e+00) (91, -4.99440050125122070312e+00) (92, 3.90602660179138183594e+00) (93, -2.20502328872680664062e+00) (94, -2.28737664222717285156e+00) (95, -1.16330337524414062500e+00) (65, -6.21152818202972412109e-01) (66, -1.44738471508026123047e+00) (67, -2.37059903144836425781e+00) (68, -2.14331269264221191406e+00) (69, 2.74688720703125000000e+00) (70, -3.26446890830993652344e+00) (71, -5.86400651931762695312e+00) (72, 1.03493952751159667969e+00) (73, -2.74417066574096679688e+00) (74, -1.47867059707641601562e+00) (75, -2.35070633888244628906e+00) (76, 5.37169075012207031250e+00) (77, 2.56940579414367675781e+00) (78, 2.87425994873046875000e+00) (79, -2.74985933303833007812e+00) (80, 1.84242713451385498047e+00) (81, -1.94675564765930175781e+00) (82, 1.56379535794258117676e-01) (83, 3.14263439178466796875e+00) (84, -3.50942683219909667969e+00) (85, -1.57893753051757812500e+00) (86, 1.39448195695877075195e-01) (87, -2.04288220405578613281e+00) (88, -3.05946302413940429688e+00) (89, 9.25928726792335510254e-02) (90, -2.41333413124084472656e+00) (91, 5.68819236755371093750e+00) (92, 6.39071404933929443359e-01) (93, 1.99708372354507446289e-01) (94, 3.67552208900451660156e+00) (95, -2.39881730079650878906e+00) (65, -1.61725234985351562500e+00) (66, -8.48950624465942382812e-01) (67, -1.06121373176574707031e+00) (68, -8.45670029520988464355e-02) (69, -1.78486943244934082031e+00) (70, -3.50771498680114746094e+00) (71, 1.60070490837097167969e+00) (72, 1.89538514614105224609e+00) (73, 3.18120479583740234375e+00) (74, -1.19006848335266113281e+00) (75, -9.23158824443817138672e-01) (76, 6.11566230654716491699e-02) (77, -2.79151630401611328125e+00) (78, 1.55766415596008300781e+00) (79, 2.55414819717407226562e+00) (80, -2.53629183769226074219e+00) (81, -3.72362399101257324219e+00) (82, 6.52392327785491943359e-01) (83, -4.95565080642700195312e+00) (84, 9.22613978385925292969e-01) (85, -4.70484405755996704102e-01) (86, 2.56558370590209960938e+00) (87, -3.99320125579833984375e+00) (88, -1.78833460807800292969e+00) (89, 7.49942436814308166504e-02) (90, -9.31699693202972412109e-01) (91, 2.23404335975646972656e+00) (92, 4.57567274570465087891e-01) (93, 8.45916450023651123047e-01) (94, -4.27649116516113281250e+00) (95, -1.04355239868164062500e+00) (65, -9.84222590923309326172e-01) (66, 3.18689084053039550781e+00) (67, -1.32408714294433593750e+00) (68, -2.09421992301940917969e+00) (69, -9.46883916854858398438e-01) (70, 2.10446286201477050781e+00) (71, 7.34191954135894775391e-01) (72, -1.45452308654785156250e+00) (73, -3.95661711692810058594e+00) (74, -2.60626745223999023438e+00) (75, -1.30525493621826171875e+00) (76, 2.40194463729858398438e+00) (77, 3.25216841697692871094e+00) (78, -4.24415731430053710938e+00) (79, 1.42106246948242187500e+00) (80, -1.68861877918243408203e+00) (81, -1.71339964866638183594e+00) (82, -3.42539548873901367188e+00) (83, 5.09483367204666137695e-02) (84, 2.05465102195739746094e+00) (85, 3.26761460304260253906e+00) (86, 1.03640615940093994141e+00) (87, -3.77975177764892578125e+00) (88, -3.84934830665588378906e+00) (89, -4.85263392329216003418e-03) (90, -1.21860384941101074219e+00) (91, -1.45774692296981811523e-01) (92, -2.68490982055664062500e+00) (93, -1.89350628852844238281e+00) (94, 3.34283685684204101562e+00) (95, -1.32282638549804687500e+00) (65, -2.49159264564514160156e+00) (66, 2.19783115386962890625e+00) (67, -5.74533581733703613281e-01) (68, -1.91268309950828552246e-01) (69, -5.28431701660156250000e+00) (70, 8.68043065071105957031e-01) (71, 1.09381151199340820312e+00) (72, 1.77617681026458740234e+00) (73, -7.98083782196044921875e-01) (74, -1.55954504013061523438e+00) (75, -6.69894695281982421875e-01) (76, -4.40982580184936523438e+00) (77, -5.49441993236541748047e-01) (78, 3.31847143173217773438e+00) (79, -3.46784889698028564453e-01) (80, 3.29564261436462402344e+00) (81, 2.67984986305236816406e+00) (82, -1.41682684421539306641e+00) (83, 2.26100778579711914062e+00) (84, -2.63480281829833984375e+00) (85, -2.23388147354125976562e+00) (86, -9.61346149444580078125e-01) (87, 9.11424517631530761719e-01) (88, -1.68542075157165527344e+00) (89, 4.57198433578014373779e-02) (90, -6.37889623641967773438e-01) (91, -5.64432907104492187500e+00) (92, 1.11486947536468505859e+00) (93, -2.49430847167968750000e+00) (94, 5.06250143051147460938e-01) (95, -6.61304116249084472656e-01) (65, 3.58085417747497558594e+00) (66, 5.71475267410278320312e-01) (67, -2.14932084083557128906e+00) (68, -2.21024584770202636719e+00) (69, -8.14003765583038330078e-01) (70, -1.22315250337123870850e-01) (71, -5.35265505313873291016e-01) (72, 3.62140417098999023438e+00) (73, -2.63375830650329589844e+00) (74, 2.77438879013061523438e+00) (75, -2.09479260444641113281e+00) (76, -2.85501265525817871094e+00) (77, -1.37176954746246337891e+00) (78, -2.19749283790588378906e+00) (79, -2.21941304206848144531e+00) (80, -4.51595097780227661133e-01) (81, -2.34723806381225585938e+00) (82, -3.29507851600646972656e+00) (83, 9.85364496707916259766e-01) (84, 2.03603458404541015625e+00) (85, 4.77210313081741333008e-01) (86, -2.46609258651733398438e+00) (87, 1.03807604312896728516e+00) (88, -7.12276399135589599609e-01) (89, 6.42187148332595825195e-02) (90, -2.07912945747375488281e+00) (91, 1.91131901741027832031e+00) (92, 5.34872198104858398438e+00) (93, 1.87376570701599121094e+00) (94, -2.85460186004638671875e+00) (95, -2.17033791542053222656e+00) (65, -1.78663456439971923828e+00) (66, -2.43069219589233398438e+00) (67, -1.56577706336975097656e+00) (68, -1.28057765960693359375e+00) (69, 2.41097760200500488281e+00) (70, -9.60880458354949951172e-01) (71, -1.03701567649841308594e+00) (72, 1.42153263092041015625e+00) (73, 2.84915161132812500000e+00) (74, 8.33716467022895812988e-02) (75, -1.52263545989990234375e+00) (76, 4.57092337310314178467e-02) (77, 1.01218819618225097656e+00) (78, -3.69668930768966674805e-01) (79, -7.02993273735046386719e-01) (80, -2.15311145782470703125e+00) (81, -4.12678384780883789062e+00) (82, 2.05762481689453125000e+00) (83, -2.82065534591674804688e+00) (84, -2.33781504631042480469e+00) (85, 2.95445632934570312500e+00) (86, -1.62617683410644531250e+00) (87, 2.58122563362121582031e+00) (88, -3.78702163696289062500e-01) (89, 7.30404332280158996582e-02) (90, -1.67747592926025390625e+00) (91, -5.47141408920288085938e+00) (92, 1.08538150787353515625e+00) (93, -1.80967855453491210938e+00) (94, 3.46635341644287109375e+00) (95, -1.50069928169250488281e+00) (65, -8.36763322353363037109e-01) (66, 1.41397809982299804688e+00) (67, -1.79619288444519042969e+00) (68, -1.32376050949096679688e+00) (69, 1.54682743549346923828e+00) (70, -1.54538965225219726562e+00) (71, -1.12575232982635498047e+00) (72, -2.05232596397399902344e+00) (73, -4.84226375818252563477e-01) (74, -1.99876487255096435547e-01) (75, -1.91869211196899414062e+00) (76, -1.50780749320983886719e+00) (77, 2.53575491905212402344e+00) (78, -1.66545176506042480469e+00) (79, 8.02310645580291748047e-01) (80, 2.61927676200866699219e+00) (81, 8.82976710796356201172e-01) (82, 2.23302984237670898438e+00) (83, -1.79832828044891357422e+00) (84, 2.74098896980285644531e+00) (85, -1.91620635986328125000e+00) (86, -1.75389647483825683594e+00) (87, 6.02585732936859130859e-01) (88, 5.85960388183593750000e+00) (89, 9.06945616006851196289e-02) (90, -1.73536562919616699219e+00) (91, 4.11341845989227294922e-01) (92, -2.36665987968444824219e+00) (93, -1.70081818103790283203e+00) (94, -1.18310475349426269531e+00) (95, -1.80019712448120117188e+00) (65, -4.85621595382690429688e+00) (66, -5.41653442382812500000e+00) (67, -2.44842672348022460938e+00) (68, -1.43706691265106201172e+00) (69, -1.04743158817291259766e+00) (70, 3.21017217636108398438e+00) (71, -4.74469989538192749023e-01) (72, -1.74849462509155273438e+00) (73, -2.18736577033996582031e+00) (74, 2.42331433296203613281e+00) (75, -2.51909065246582031250e+00) (76, 2.14642310142517089844e+00) (77, -2.43646955490112304688e+00) (78, -2.74323225021362304688e+00) (79, 2.66066575050354003906e+00) (80, -3.02335238456726074219e+00) (81, 1.59875178337097167969e+00) (82, 1.23321378231048583984e+00) (83, 2.89860343933105468750e+00) (84, -3.88575434684753417969e+00) (85, 9.80655133724212646484e-01) (86, -1.39510822296142578125e+00) (87, 3.34822559356689453125e+00) (88, -1.21428132057189941406e+00) (89, 6.44307360053062438965e-02) (90, -2.36804962158203125000e+00) (91, 6.51798963546752929688e+00) (92, -2.26673507690429687500e+00) (93, -1.27299845218658447266e+00) (94, -3.79711198806762695312e+00) (95, -2.49089241027832031250e+00) (65, 2.55965566635131835938e+00) (66, 3.35883426666259765625e+00) (67, -2.57824683189392089844e+00) (68, -3.30359721183776855469e+00) (69, 3.84438991546630859375e+00) (70, -6.71096742153167724609e-01) (71, 4.87804317474365234375e+00) (72, -2.25443267822265625000e+00) (73, -2.21303701400756835938e+00) (74, -1.26785922050476074219e+00) (75, -2.53212666511535644531e+00) (76, -3.20379185676574707031e+00) (77, -3.94290113449096679688e+00) (78, -2.50946807861328125000e+00) (79, -3.17494273185729980469e+00) (80, -5.74570782482624053955e-02) (81, -2.13457870483398437500e+00) (82, 2.86764335632324218750e+00) (83, 1.36881101131439208984e+00) (84, -2.88651752471923828125e+00) (85, -2.98333811759948730469e+00) (86, 1.01610910892486572266e+00) (87, -3.93718481063842773438e-01) (88, -5.61349725723266601562e+00) (89, 7.93148018419742584229e-03) (90, -2.68293213844299316406e+00) (91, 2.07345914840698242188e+00) (92, -7.55262422561645507812e+00) (93, 1.62806653976440429688e+00) (94, -1.41100430488586425781e+00) (95, -2.64364027976989746094e+00) 
