FANN_FLO_2.1
num_layers=3
learning_rate=0.050000
connection_rate=1.000000
network_type=0
learning_momentum=0.000000
training_algorithm=0
train_error_function=1
train_stop_function=0
cascade_output_change_fraction=0.010000
quickprop_decay=-0.000100
quickprop_mu=1.750000
rprop_increase_factor=1.200000
rprop_decrease_factor=0.500000
rprop_delta_min=0.000000
rprop_delta_max=50.000000
rprop_delta_zero=0.100000
cascade_output_stagnation_epochs=12
cascade_candidate_change_fraction=0.010000
cascade_candidate_stagnation_epochs=12
cascade_max_out_epochs=150
cascade_min_out_epochs=50
cascade_max_cand_epochs=150
cascade_min_cand_epochs=50
cascade_num_candidate_groups=2
bit_fail_limit=3.49999994039535522461e-01
cascade_candidate_limit=1.00000000000000000000e+03
cascade_weight_multiplier=4.00000005960464477539e-01
cascade_activation_functions_count=10
cascade_activation_functions=3 5 7 8 10 11 14 15 16 17 
cascade_activation_steepnesses_count=4
cascade_activation_steepnesses=2.50000000000000000000e-01 5.00000000000000000000e-01 7.50000000000000000000e-01 1.00000000000000000000e+00 
layer_sizes=65 41 11 
scale_included=0
neurons (num_inputs, activation_function, activation_steepness)=(0, 0, 0.00000000000000000000e+00) (0, 0, 0.00000000000000000000e+00) (0, 0, 0.00000000000000000000e+00) (0, 0, 0.00000000000000000000e+00) (0, 0, 0.00000000000000000000e+00) (0, 0, 0.00000000000000000000e+00) (0, 0, 0.00000000000000000000e+00) (0, 0, 0.00000000000000000000e+00) (0, 0, 0.00000000000000000000e+00) (0, 0, 0.00000000000000000000e+00) (0, 0, 0.00000000000000000000e+00) (0, 0, 0.00000000000000000000e+00) (0, 0, 0.00000000000000000000e+00) (0, 0, 0.00000000000000000000e+00) (0, 0, 0.00000000000000000000e+00) (0, 0, 0.00000000000000000000e+00) (0, 0, 0.00000000000000000000e+00) (0, 0, 0.00000000000000000000e+00) (0, 0, 0.00000000000000000000e+00) (0, 0, 0.00000000000000000000e+00) (0, 0, 0.00000000000000000000e+00) (0, 0, 0.00000000000000000000e+00) (0, 0, 0.00000000000000000000e+00) (0, 0, 0.00000000000000000000e+00) (0, 0, 0.00000000000000000000e+00) (0, 0, 0.00000000000000000000e+00) (0, 0, 0.00000000000000000000e+00) (0, 0, 0.00000000000000000000e+00) (0, 0, 0.00000000000000000000e+00) (0, 0, 0.00000000000000000000e+00) (0, 0, 0.00000000000000000000e+00) (0, 0, 0.00000000000000000000e+00) (0, 0, 0.00000000000000000000e+00) (0, 0, 0.00000000000000000000e+00) (0, 0, 0.00000000000000000000e+00) (0, 0, 0.00000000000000000000e+00) (0, 0, 0.00000000000000000000e+00) (0, 0, 0.00000000000000000000e+00) (0, 0, 0.00000000000000000000e+00) (0, 0, 0.00000000000000000000e+00) (0, 0, 0.00000000000000000000e+00) (0, 0, 0.00000000000000000000e+00) (0, 0, 0.00000000000000000000e+00) (0, 0, 0.00000000000000000000e+00) (0, 0, 0.00000000000000000000e+00) (0, 0, 0.00000000000000000000e+00) (0, 0, 0.00000000000000000000e+00) (0, 0, 0.00000000000000000000e+00) (0, 0, 0.00000000000000000000e+00) (0, 0, 0.00000000000000000000e+00) (0, 0, 0.00000000000000000000e+00) (0, 0, 0.00000000000000000000e+00) (0, 0, 0.00000000000000000000e+00) (0, 0, 0.00000000000000000000e+00) (0, 0, 0.00000000000000000000e+00) (0, 0, 0.00000000000000000000e+00) (0, 0, 0.00000000000000000000e+00) (0, 0, 0.00000000000000000000e+00) (0, 0, 0.00000000000000000000e+00) (0, 0, 0.00000000000000000000e+00) (0, 0, 0.00000000000000000000e+00) (0, 0, 0.00000000000000000000e+00) (0, 0, 0.00000000000000000000e+00) (0, 0, 0.00000000000000000000e+00) (0, 0, 0.00000000000000000000e+00) (65, 3, 5.00000000000000000000e-01) (65, 3, 5.00000000000000000000e-01) (65, 3, 5.00000000000000000000e-01) (65, 3, 5.00000000000000000000e-01) (65, 3, 5.00000000000000000000e-01) (65, 3, 5.00000000000000000000e-01) (65, 3, 5.00000000000000000000e-01) (65, 3, 5.00000000000000000000e-01) (65, 3, 5.00000000000000000000e-01) (65, 3, 5.00000000000000000000e-01) (65, 3, 5.00000000000000000000e-01) (65, 3, 5.00000000000000000000e-01) (65, 3, 5.00000000000000000000e-01) (65, 3, 5.00000000000000000000e-01) (65, 3, 5.00000000000000000000e-01) (65, 3, 5.00000000000000000000e-01) (65, 3, 5.00000000000000000000e-01) (65, 3, 5.00000000000000000000e-01) (65, 3, 5.00000000000000000000e-01) (65, 3, 5.00000000000000000000e-01) (65, 3, 5.00000000000000000000e-01) (65, 3, 5.00000000000000000000e-01) (65, 3, 5.00000000000000000000e-01) (65, 3, 5.00000000000000000000e-01) (65, 3, 5.00000000000000000000e-01) (65, 3, 5.00000000000000000000e-01) (65, 3, 5.00000000000000000000e-01) (65, 3, 5.00000000000000000000e-01) (65, 3, 5.00000000000000000000e-01) (65, 3, 5.00000000000000000000e-01) (65, 3, 5.00000000000000000000e-01) (65, 3, 5.00000000000000000000e-01) (65, 3, 5.00000000000000000000e-01) (65, 3, 5.00000000000000000000e-01) (65, 3, 5.00000000000000000000e-01) (65, 3, 5.00000000000000000000e-01) (65, 3, 5.00000000000000000000e-01) (65, 3, 5.00000000000000000000e-01) (65, 3, 5.00000000000000000000e-01) (65, 3, 5.00000000000000000000e-01) (0, 3, 0.00000000000000000000e+00) (41, 3, 5.00000000000000000000e-01) (41, 3, 5.00000000000000000000e-01) (41, 3, 5.00000000000000000000e-01) (41, 3, 5.00000000000000000000e-01) (41, 3, 5.00000000000000000000e-01) (41, 3, 5.00000000000000000000e-01) (41, 3, 5.00000000000000000000e-01) (41, 3, 5.00000000000000000000e-01) (41, 3, 5.00000000000000000000e-01) (41, 3, 5.00000000000000000000e-01) (0, 3, 0.00000000000000000000e+00) 
connections (connected_to_neuron, weight)=(0, -5.09573742747306823730e-02) (1, 1.37991547584533691406e-01) (2, -2.68655329942703247070e-01) (3, 7.53367960453033447266e-01) (4, 9.48333591222763061523e-02) (5, 4.22892302274703979492e-01) (6, -1.39277398586273193359e-01) (7, -1.66802152991294860840e-01) (8, -1.38724073767662048340e-01) (9, -8.84817615151405334473e-02) (10, -5.30733950436115264893e-02) (11, 4.52708452939987182617e-01) (12, 6.69941902160644531250e-01) (13, 7.71431028842926025391e-01) (14, -3.57116490602493286133e-01) (15, -7.56386341527104377747e-03) (16, -8.59741270542144775391e-02) (17, -2.21728608012199401855e-01) (18, -3.96587014198303222656e-01) (19, 2.67259657382965087891e-01) (20, 9.52056825160980224609e-01) (21, 9.04565453529357910156e-01) (22, 7.63717949390411376953e-01) (23, 1.63907438516616821289e-01) (24, -4.34451065957546234131e-02) (25, -4.47284847497940063477e-01) (26, -1.90056905150413513184e-01) (27, -4.59251463413238525391e-01) (28, 2.00512573122978210449e-01) (29, 5.38956165313720703125e-01) (30, -3.31615447998046875000e-01) (31, 3.00419274717569351196e-02) (32, -5.23865874856710433960e-03) (33, -1.73630982637405395508e-01) (34, -6.04819133877754211426e-03) (35, 5.55048763751983642578e-01) (36, 2.48539000749588012695e-01) (37, 5.50092399120330810547e-01) (38, -3.98794353008270263672e-01) (39, -1.34305283427238464355e-02) (40, 1.84978730976581573486e-02) (41, -7.38821923732757568359e-01) (42, 5.31603656709194183350e-02) (43, -2.65591144561767578125e-01) (44, 3.17667931318283081055e-01) (45, 7.29286849498748779297e-01) (46, 2.58030772209167480469e-01) (47, 5.57277388870716094971e-02) (48, 5.10514862835407257080e-02) (49, -7.90774583816528320312e-01) (50, -3.52739602327346801758e-01) (51, -3.89372020959854125977e-01) (52, 3.70380908250808715820e-01) (53, 2.70807117223739624023e-01) (54, -1.91316232085227966309e-01) (55, -1.31849557161331176758e-01) (56, 9.18075665831565856934e-02) (57, -1.59682799130678176880e-02) (58, -2.74343490600585937500e-01) (59, 4.93299812078475952148e-01) (60, -1.98430627584457397461e-01) (61, -7.69598186016082763672e-01) (62, -5.40053427219390869141e-01) (63, -1.67320445179939270020e-01) (64, 2.25003734230995178223e-02) (0, 2.40322723984718322754e-02) (1, -1.09929025173187255859e-01) (2, 9.07234489917755126953e-01) (3, 5.99041819572448730469e-01) (4, -3.83398234844207763672e-01) (5, -1.95835113525390625000e-01) (6, 1.52249231934547424316e-01) (7, -7.20984339714050292969e-02) (8, -2.78556328266859054565e-02) (9, -2.04885527491569519043e-01) (10, 1.57620590180158615112e-02) (11, 2.25386813282966613770e-01) (12, 5.87278604507446289062e-01) (13, 2.52143263816833496094e-01) (14, -8.82241278886795043945e-02) (15, 7.35020488500595092773e-02) (16, 2.05562096089124679565e-02) (17, -4.36956316232681274414e-01) (18, -5.34055769443511962891e-01) (19, 8.96533429622650146484e-01) (20, 1.19921278953552246094e+00) (21, -3.37605029344558715820e-01) (22, -4.64677035808563232422e-01) (23, 4.64016646146774291992e-02) (24, -8.28990861773490905762e-02) (25, -1.71482235193252563477e-01) (26, -3.74903053045272827148e-01) (27, -2.17957645654678344727e-01) (28, 1.97218447923660278320e-01) (29, 2.84507364034652709961e-01) (30, -5.78183233737945556641e-01) (31, -7.95944780111312866211e-02) (32, 4.12319563329219818115e-02) (33, 5.39858005940914154053e-02) (34, -7.85650312900543212891e-02) (35, -8.29288244247436523438e-01) (36, 1.74182113260030746460e-02) (37, 2.44969263672828674316e-01) (38, -4.35481548309326171875e-01) (39, -1.43688246607780456543e-02) (40, -7.00539201498031616211e-02) (41, -6.56168699264526367188e-01) (42, -9.80022192001342773438e-01) (43, 4.60499107837677001953e-01) (44, 4.75080728530883789062e-01) (45, -1.20398414134979248047e+00) (46, -5.33786356449127197266e-01) (47, -7.92051106691360473633e-02) (48, -4.67874631285667419434e-02) (49, -2.66671121120452880859e-01) (50, -3.71749937534332275391e-01) (51, 3.27504575252532958984e-01) (52, 7.02579200267791748047e-01) (53, -1.56302642822265625000e+00) (54, 2.40272611379623413086e-01) (55, 1.97179213166236877441e-01) (56, 4.93154712021350860596e-02) (57, 1.27788662910461425781e-01) (58, 7.13013172149658203125e-01) (59, -1.51783078908920288086e-01) (60, -9.40515518188476562500e-01) (61, -1.15238793194293975830e-01) (62, 4.81770873069763183594e-01) (63, 1.01448528468608856201e-01) (64, -4.67494241893291473389e-02) (0, -6.30433484911918640137e-02) (1, -3.05808693170547485352e-01) (2, 7.07657158374786376953e-01) (3, -5.96082568168640136719e-01) (4, -3.78309845924377441406e-01) (5, 1.78385579586029052734e+00) (6, 1.86488735675811767578e+00) (7, 5.59105873107910156250e-01) (8, -5.04366829991340637207e-02) (9, -1.71169209480285644531e+00) (10, -7.70096540451049804688e-01) (11, 7.20335066318511962891e-01) (12, 2.03176170587539672852e-01) (13, 2.93776810169219970703e-01) (14, -1.36202383041381835938e+00) (15, -2.57942736148834228516e-01) (16, -3.00937704741954803467e-02) (17, -4.57575246691703796387e-02) (18, 2.42133641242980957031e+00) (19, 8.83840501308441162109e-01) (20, -1.42821156978607177734e+00) (21, -4.12903547286987304688e+00) (22, -3.04980635643005371094e+00) (23, -3.63148212432861328125e-01) (24, -3.45590747892856597900e-02) (25, 1.35236930847167968750e+00) (26, 1.64606380462646484375e+00) (27, -2.94412398338317871094e+00) (28, -1.38273501396179199219e+00) (29, 9.41477157175540924072e-03) (30, -4.89053204655647277832e-02) (31, -7.30837807059288024902e-02) (32, 9.34478640556335449219e-02) (33, 1.40340328216552734375e+00) (34, -1.76340445876121520996e-01) (35, -1.82706487178802490234e+00) (36, -1.66716873645782470703e+00) (37, -9.06371831893920898438e-01) (38, 1.47203981876373291016e+00) (39, -4.35823760926723480225e-02) (40, -9.23453494906425476074e-02) (41, -1.88637661933898925781e+00) (42, 4.24254029989242553711e-01) (43, 1.99733722209930419922e+00) (44, -1.88748562335968017578e+00) (45, -3.30311417579650878906e-01) (46, -2.34552368521690368652e-01) (47, 3.24946083128452301025e-02) (48, -2.70547419786453247070e-02) (49, -1.52855670452117919922e+00) (50, 4.34395492076873779297e-01) (51, 1.97574388980865478516e+00) (52, 2.94270062446594238281e+00) (53, 8.70556235313415527344e-01) (54, 3.23208153247833251953e-01) (55, 5.07533431053161621094e-01) (56, -7.69977942109107971191e-02) (57, 2.10354626178741455078e-02) (58, 5.95293164253234863281e-01) (59, 7.40439236164093017578e-01) (60, 3.18389385938644409180e-02) (61, 1.25664806365966796875e+00) (62, 1.64714813232421875000e+00) (63, 5.79416990280151367188e-01) (64, -1.53087973594665527344e-01) (0, 4.89946380257606506348e-02) (1, 2.22733169794082641602e-02) (2, -8.51231515407562255859e-01) (3, 6.59380972385406494141e-01) (4, -3.10001939535140991211e-01) (5, -6.31779491901397705078e-01) (6, -1.13476490974426269531e+00) (7, -4.47438806295394897461e-01) (8, -9.68125537037849426270e-02) (9, -2.53413587808609008789e-01) (10, -4.98764915391802787781e-03) (11, -1.67040133476257324219e+00) (12, -6.49646341800689697266e-01) (13, -1.63460392504930496216e-02) (14, -1.40048968791961669922e+00) (15, -2.71764218807220458984e-01) (16, 1.13464966416358947754e-01) (17, 7.44538903236389160156e-02) (18, -9.18604612350463867188e-01) (19, -1.71218439936637878418e-01) (20, 9.40638542175292968750e-01) (21, -1.30435264110565185547e+00) (22, -7.22083821892738342285e-02) (23, -2.15569399297237396240e-02) (24, 1.35919572785496711731e-02) (25, -2.17738643288612365723e-01) (26, -1.08880364894866943359e+00) (27, -6.01771950721740722656e-01) (28, 1.64491367340087890625e+00) (29, -1.65314376354217529297e+00) (30, -1.49424040317535400391e+00) (31, -8.02688598632812500000e-02) (32, 4.78821285068988800049e-02) (33, -8.97671461105346679688e-01) (34, -1.31133389472961425781e+00) (35, 9.98741984367370605469e-01) (36, 1.38600957393646240234e+00) (37, -7.21329092979431152344e-01) (38, -2.03411531448364257812e+00) (39, 9.66959968209266662598e-02) (40, -6.99437186121940612793e-02) (41, -1.79165768623352050781e+00) (42, 2.05481171607971191406e+00) (43, 7.88845300674438476562e-01) (44, -6.85166567564010620117e-02) (45, -8.09400200843811035156e-01) (46, 2.93472617864608764648e-01) (47, 6.86270184814929962158e-04) (48, -4.96221855282783508301e-02) (49, -8.03159415721893310547e-01) (50, 7.25200712680816650391e-01) (51, 7.58637070655822753906e-01) (52, -2.06570446491241455078e-01) (53, 1.36605525016784667969e+00) (54, 8.55818450450897216797e-01) (55, 2.12205126881599426270e-01) (56, -4.31984141469001770020e-02) (57, 1.19345471262931823730e-01) (58, 9.77796763181686401367e-02) (59, 1.21400868892669677734e+00) (60, 9.86756622791290283203e-01) (61, 1.21355485916137695312e+00) (62, 1.31458699703216552734e-01) (63, 1.51319190859794616699e-01) (64, -1.23353339731693267822e-01) (0, 9.13135781884193420410e-02) (1, -6.18356168270111083984e-01) (2, 3.31506021320819854736e-02) (3, -1.52940690517425537109e+00) (4, -1.30961370468139648438e+00) (5, -2.08706665039062500000e+00) (6, -1.33088874816894531250e+00) (7, 1.32425591349601745605e-01) (8, -5.00964999198913574219e-01) (9, -1.86489152908325195312e+00) (10, -3.97850084304809570312e+00) (11, -1.47398018836975097656e+00) (12, -1.48616111278533935547e+00) (13, -1.31713247299194335938e+00) (14, 4.26775664091110229492e-01) (15, -4.27222177386283874512e-02) (16, 1.98108762502670288086e-01) (17, -6.24412357807159423828e-01) (18, 6.74212217330932617188e-01) (19, 3.05718469619750976562e+00) (20, 7.77649343013763427734e-01) (21, -2.45775222778320312500e+00) (22, -1.85644805431365966797e+00) (23, -2.75803238153457641602e-01) (24, 1.21641829609870910645e-01) (25, 1.12031710147857666016e+00) (26, 1.70016944408416748047e+00) (27, 7.29486048221588134766e-01) (28, 5.72884619235992431641e-01) (29, -2.83192902803421020508e-01) (30, -2.01259091496467590332e-01) (31, 1.68468877673149108887e-02) (32, 8.11389386653900146484e-02) (33, 9.86416995525360107422e-01) (34, 9.69529926776885986328e-01) (35, 7.89793804287910461426e-02) (36, 1.87484908103942871094e+00) (37, 3.42624187469482421875e+00) (38, 6.69199109077453613281e-01) (39, 2.86082252860069274902e-02) (40, -2.58756894618272781372e-02) (41, -7.48421847820281982422e-02) (42, 5.30906878411769866943e-02) (43, 3.72542643547058105469e+00) (44, 2.26233768463134765625e+00) (45, 3.93959343433380126953e-01) (46, 7.95361101627349853516e-02) (47, 6.82478174567222595215e-02) (48, 9.86188352108001708984e-02) (49, -6.87720954418182373047e-01) (50, -9.60258841514587402344e-01) (51, 1.07257473468780517578e+00) (52, -7.24678039550781250000e-02) (53, -1.40186905860900878906e+00) (54, -4.71034228801727294922e-01) (55, 1.14543147385120391846e-01) (56, -9.05171930789947509766e-02) (57, 4.91558611392974853516e-02) (58, 3.40829789638519287109e-01) (59, -3.15463495254516601562e+00) (60, -2.12230414152145385742e-01) (61, 1.36790657043457031250e+00) (62, -6.08806535601615905762e-02) (63, 3.66616010665893554688e-01) (64, -3.24679017066955566406e-02) (0, -1.75503641366958618164e-02) (1, -1.25264525413513183594e-01) (2, -4.73656237125396728516e-01) (3, -1.59301233291625976562e+00) (4, -1.69991576671600341797e+00) (5, -2.10526013374328613281e+00) (6, -1.31228280067443847656e+00) (7, 3.56671452522277832031e-01) (8, 1.05506904423236846924e-01) (9, -6.51925086975097656250e-01) (10, -7.53995716571807861328e-01) (11, -1.92813646793365478516e+00) (12, -1.77919626235961914062e+00) (13, -1.35809779167175292969e+00) (14, 7.83071517944335937500e-01) (15, 1.20953656733036041260e-01) (16, -1.07308037579059600830e-01) (17, 6.43879354000091552734e-01) (18, 7.23840355873107910156e-01) (19, -1.77107945084571838379e-01) (20, 2.32421621680259704590e-01) (21, 2.33357882499694824219e+00) (22, -7.26778328418731689453e-01) (23, -1.71153441071510314941e-01) (24, -2.29427237063646316528e-02) (25, 2.00763750076293945312e+00) (26, 8.32015097141265869141e-01) (27, 1.95815968513488769531e+00) (28, -9.16176140308380126953e-01) (29, -2.43666037917137145996e-01) (30, 2.71927690505981445312e+00) (31, 6.61285221576690673828e-03) (32, 9.78395193815231323242e-02) (33, 1.39416122436523437500e+00) (34, 1.63148260116577148438e+00) (35, -1.74891662597656250000e+00) (36, -7.61175632476806640625e-01) (37, -5.29372453689575195312e-01) (38, 3.43623423576354980469e+00) (39, 1.53690576553344726562e-03) (40, 1.41643490642309188843e-02) (41, 2.45392107963562011719e+00) (42, 1.28035128116607666016e+00) (43, -6.89581573009490966797e-01) (44, 9.77215468883514404297e-01) (45, 1.01272165775299072266e+00) (46, -7.77062356472015380859e-01) (47, -1.13589659333229064941e-01) (48, 2.05683037638664245605e-02) (49, 1.98712348937988281250e+00) (50, 9.58441853523254394531e-01) (51, 9.26180362701416015625e-01) (52, 7.92609691619873046875e-01) (53, 6.87173306941986083984e-01) (54, -1.99701392650604248047e+00) (55, -2.55746811628341674805e-01) (56, 1.08601814135909080505e-02) (57, -2.49770909547805786133e-01) (58, 4.03139472007751464844e-01) (59, -1.07936573028564453125e+00) (60, -5.14882981777191162109e-01) (61, -1.44534957408905029297e+00) (62, -2.05885195732116699219e+00) (63, -9.05323922634124755859e-02) (64, 2.36593231558799743652e-01) (0, -9.49802249670028686523e-03) (1, -2.77412921190261840820e-01) (2, -9.71353590488433837891e-01) (3, -1.79664671421051025391e-01) (4, 2.66471892595291137695e-01) (5, 2.48140025138854980469e+00) (6, 6.85392975807189941406e-01) (7, 3.59442710876464843750e-01) (8, -1.35389238595962524414e-01) (9, -6.88769757747650146484e-01) (10, -2.83355927467346191406e+00) (11, -1.77900516986846923828e+00) (12, -3.33884537220001220703e-01) (13, 2.98052579164505004883e-01) (14, -6.59904599189758300781e-01) (15, 2.61597841978073120117e-01) (16, 1.43334791064262390137e-01) (17, 5.16061067581176757812e-01) (18, -2.79936522245407104492e-01) (19, 1.75517487525939941406e+00) (20, -1.47414863109588623047e+00) (21, -1.81932866573333740234e+00) (22, -1.05185616016387939453e+00) (23, -1.16641260683536529541e-01) (24, 8.09568539261817932129e-02) (25, 3.08659285306930541992e-01) (26, 1.48953413963317871094e+00) (27, 1.55079555511474609375e+00) (28, -5.79290211200714111328e-01) (29, -1.00253231823444366455e-01) (30, -2.60067433118820190430e-01) (31, -2.20868177711963653564e-03) (32, 7.87944495677947998047e-02) (33, -4.72941547632217407227e-02) (34, 8.84844541549682617188e-01) (35, 2.40493392944335937500e+00) (36, 6.22956097126007080078e-01) (37, 9.54693734645843505859e-01) (38, 4.21125292778015136719e-02) (39, -9.49447304010391235352e-02) (40, 1.62780506070703268051e-03) (41, 1.31524637341499328613e-01) (42, 2.00295400619506835938e+00) (43, 1.66756296157836914062e+00) (44, 2.88082981109619140625e+00) (45, 2.07091927528381347656e+00) (46, 1.37250900268554687500e+00) (47, 9.50596556067466735840e-02) (48, -9.84693318605422973633e-02) (49, -8.45769524574279785156e-01) (50, -5.70681333541870117188e-01) (51, -2.01546430587768554688e+00) (52, 2.86471962928771972656e-01) (53, 3.88742312788963317871e-02) (54, 5.96225082874298095703e-01) (55, 1.83103889226913452148e-01) (56, 9.87408775836229324341e-03) (57, -8.02702188491821289062e-01) (58, -8.55733752250671386719e-01) (59, -1.19006812572479248047e+00) (60, 8.27172160148620605469e-01) (61, -6.79836273193359375000e-01) (62, -6.14888131618499755859e-01) (63, 5.90647041797637939453e-01) (64, 3.35084199905395507812e-02) (0, 2.67552509903907775879e-02) (1, 5.34682534635066986084e-02) (2, 1.69512599706649780273e-01) (3, 6.08837679028511047363e-02) (4, 4.00266230106353759766e-01) (5, 3.22490483522415161133e-01) (6, 1.90328419208526611328e-01) (7, 2.43407443165779113770e-01) (8, 8.56437608599662780762e-02) (9, 5.74525967240333557129e-02) (10, 1.76647320389747619629e-01) (11, -3.27040910720825195312e-01) (12, 1.44348978996276855469e-01) (13, 3.30670595169067382812e-01) (14, 1.03490509092807769775e-01) (15, 9.20042991638183593750e-02) (16, -4.10557575523853302002e-02) (17, -1.91018842160701751709e-02) (18, -1.32851183414459228516e-01) (19, -8.77518713474273681641e-01) (20, -8.23768600821495056152e-03) (21, 2.36222058534622192383e-01) (22, 2.10346877574920654297e-01) (23, 7.34781175851821899414e-02) (24, -5.89440129697322845459e-02) (25, -1.78326010704040527344e-01) (26, -2.18107581138610839844e-01) (27, -2.85626560449600219727e-01) (28, 6.36238396167755126953e-01) (29, 1.47297754883766174316e-01) (30, 2.28288337588310241699e-01) (31, -1.97558416402898728848e-04) (32, 1.14403618499636650085e-02) (33, -1.16582652553915977478e-02) (34, 2.39473164081573486328e-01) (35, -2.97509729862213134766e-01) (36, 2.27227479219436645508e-01) (37, 5.45458912849426269531e-01) (38, 1.63930147886276245117e-01) (39, 6.47405460476875305176e-02) (40, 6.98958709836006164551e-02) (41, 3.89777608215808868408e-02) (42, 8.16036462783813476562e-01) (43, 4.94466982781887054443e-02) (44, -4.17846441268920898438e-02) (45, 2.24374026060104370117e-01) (46, 3.35251271724700927734e-01) (47, -3.38818542659282684326e-02) (48, -3.97656075656414031982e-02) (49, -8.19431319832801818848e-02) (50, 2.44113430380821228027e-01) (51, 5.55065050721168518066e-02) (52, 9.39543917775154113770e-02) (53, -1.37778639793395996094e-01) (54, -2.10017144680023193359e-01) (55, 6.92893937230110168457e-02) (56, -9.49415713548660278320e-02) (57, -1.64551600813865661621e-01) (58, 4.06703539192676544189e-02) (59, 4.39660400152206420898e-02) (60, 6.30972683429718017578e-02) (61, 1.08612403273582458496e-01) (62, -3.21375250816345214844e-01) (63, 6.39264881610870361328e-02) (64, -5.90260811150074005127e-02) (0, -9.20097455382347106934e-02) (1, -2.84339457750320434570e-01) (2, 3.55334639549255371094e-01) (3, -2.87815928459167480469e-01) (4, -3.71530532836914062500e-01) (5, 1.31781190633773803711e-01) (6, 7.33918622136116027832e-02) (7, -9.81167480349540710449e-02) (8, 4.52774018049240112305e-03) (9, -8.46923470497131347656e-01) (10, -1.85571357607841491699e-01) (11, 6.45313382148742675781e-01) (12, 3.24891328811645507812e-01) (13, -5.38259804248809814453e-01) (14, -4.64836537837982177734e-01) (15, -2.09606718271970748901e-03) (16, 2.62874662876129150391e-02) (17, -1.55831837654113769531e+00) (18, 1.77138745784759521484e+00) (19, 2.81816124916076660156e-01) (20, -2.46925279498100280762e-01) (21, -5.88700771331787109375e-01) (22, 1.66540980339050292969e-01) (23, 6.84001222252845764160e-02) (24, 6.59261271357536315918e-02) (25, 8.89195621013641357422e-01) (26, 1.75553727149963378906e+00) (27, -4.45478558540344238281e-01) (28, -8.19509863853454589844e-01) (29, 1.55787885189056396484e-01) (30, 1.22697937488555908203e+00) (31, -5.45770414173603057861e-02) (32, -2.04255320131778717041e-02) (33, 1.22289395332336425781e+00) (34, 1.30842971801757812500e+00) (35, -2.09575697779655456543e-01) (36, -1.41448533535003662109e+00) (37, 9.47623968124389648438e-01) (38, 1.14141499996185302734e+00) (39, 3.06320860981941223145e-02) (40, -8.86174216866493225098e-02) (41, -4.67591315507888793945e-01) (42, -1.14341044425964355469e+00) (43, -1.60041737556457519531e+00) (44, -1.29788708686828613281e+00) (45, 1.52035236358642578125e+00) (46, 1.19252407550811767578e+00) (47, -2.60665379464626312256e-02) (48, 2.91349422186613082886e-02) (49, -1.33227658271789550781e+00) (50, -7.72986292839050292969e-01) (51, -7.33118057250976562500e-01) (52, -6.81027770042419433594e-01) (53, -7.29935944080352783203e-01) (54, 2.79249191284179687500e-01) (55, 7.78835937380790710449e-02) (56, 5.11006750166416168213e-02) (57, -4.16581481695175170898e-01) (58, -9.63439941406250000000e-01) (59, -2.90930330753326416016e-01) (60, 1.44374597072601318359e+00) (61, -1.23496763408184051514e-01) (62, -9.39778149127960205078e-01) (63, -9.08319115638732910156e-01) (64, 1.48273095488548278809e-01) (0, 8.51396098732948303223e-02) (1, 1.08309194445610046387e-01) (2, 3.92359107732772827148e-01) (3, 3.50576639175415039062e-01) (4, 2.77956545352935791016e-01) (5, 4.07075621187686920166e-02) (6, 1.85695439577102661133e-01) (7, 1.55116870999336242676e-01) (8, 9.55150369554758071899e-03) (9, -2.40056999027729034424e-02) (10, 1.27539351582527160645e-01) (11, -2.54248499870300292969e-01) (12, 1.69529914855957031250e-01) (13, 1.44509091973304748535e-01) (14, -2.24731266498565673828e-02) (15, 5.28171705082058906555e-03) (16, -4.44123558700084686279e-02) (17, 2.33220662921667098999e-02) (18, -1.13037891685962677002e-01) (19, -3.61132502555847167969e-01) (20, -2.81009264290332794189e-02) (21, 3.03325831890106201172e-01) (22, 1.91605448722839355469e-01) (23, 8.85494649410247802734e-02) (24, 8.54321718215942382812e-02) (25, 1.70356199145317077637e-01) (26, 3.41492265462875366211e-01) (27, -1.29643410444259643555e-01) (28, 1.64231836795806884766e-01) (29, -4.39642518758773803711e-02) (30, 2.13932275772094726562e-01) (31, -8.23406353592872619629e-02) (32, 1.15769519470632076263e-03) (33, 2.88414597511291503906e-01) (34, 4.28264051675796508789e-01) (35, -1.17488235235214233398e-01) (36, 4.06246721744537353516e-01) (37, 5.46852588653564453125e-01) (38, 2.35834032297134399414e-01) (39, 4.65820506215095520020e-02) (40, -5.16183748841285705566e-02) (41, -2.30203140527009963989e-02) (42, 2.39601016044616699219e-01) (43, -5.10811842978000640869e-02) (44, 1.95537269115447998047e-01) (45, 3.67424666881561279297e-01) (46, 7.19775557518005371094e-02) (47, 1.81253142654895782471e-02) (48, 5.14023005962371826172e-02) (49, -1.90545514225959777832e-01) (50, -5.52307292819023132324e-02) (51, 8.75863581895828247070e-02) (52, 3.43869328498840332031e-01) (53, 2.44706019759178161621e-01) (54, 8.60975682735443115234e-02) (55, 9.23660248517990112305e-02) (56, 3.60427685081958770752e-02) (57, 5.62218092381954193115e-02) (58, 3.19687455892562866211e-01) (59, 2.93292701244354248047e-01) (60, 1.06417544186115264893e-01) (61, 1.96181967854499816895e-01) (62, -6.13271147012710571289e-02) (63, 6.82589709758758544922e-02) (64, 1.43644222989678382874e-02) (0, 7.82575085759162902832e-02) (1, 4.43158373236656188965e-02) (2, 1.04239642620086669922e+00) (3, 1.66765108704566955566e-01) (4, 3.17587971687316894531e-01) (5, -2.06079259514808654785e-01) (6, 5.08800804615020751953e-01) (7, 3.61562520265579223633e-01) (8, 2.20647126436233520508e-01) (9, 7.50452637672424316406e-01) (10, 1.33051407337188720703e+00) (11, 1.58176207542419433594e+00) (12, -5.19016206264495849609e-01) (13, -5.66203176975250244141e-01) (14, -8.13416123390197753906e-01) (15, 1.52618318796157836914e-01) (16, -1.05077937245368957520e-01) (17, -4.10822719335556030273e-01) (18, 1.74445188045501708984e+00) (19, 8.96337509155273437500e-01) (20, -8.95921289920806884766e-01) (21, -1.17354601621627807617e-01) (22, -7.52219140529632568359e-01) (23, 1.61211490631103515625e-02) (24, -8.26202891767024993896e-03) (25, -7.61299610137939453125e-01) (26, 1.60765683650970458984e+00) (27, 1.27718770503997802734e+00) (28, -1.07035768032073974609e+00) (29, 6.92461848258972167969e-01) (30, 1.20600700378417968750e+00) (31, -6.00814074277877807617e-02) (32, 8.74452590942382812500e-02) (33, 2.11758211255073547363e-01) (34, 1.23003983497619628906e+00) (35, 6.75803482532501220703e-01) (36, -9.36211407184600830078e-01) (37, -1.27392545342445373535e-01) (38, 5.11490523815155029297e-01) (39, -3.10193821787834167480e-02) (40, -2.12059374898672103882e-02) (41, 1.48547601699829101562e+00) (42, 6.81871771812438964844e-01) (43, 6.04548811912536621094e-01) (44, -2.44525820016860961914e-01) (45, -7.63888657093048095703e-02) (46, -1.85553383827209472656e+00) (47, -8.94013717770576477051e-02) (48, 8.05088132619857788086e-02) (49, 8.63232910633087158203e-01) (50, 1.08241641521453857422e+00) (51, 8.66886258125305175781e-01) (52, -1.05315160751342773438e+00) (53, -1.62180340290069580078e+00) (54, -3.44676852226257324219e-01) (55, 9.56269055604934692383e-02) (56, 9.75062102079391479492e-02) (57, -2.08492219448089599609e-01) (58, 3.18194746971130371094e-01) (59, -3.10459107160568237305e-01) (60, -8.24846506118774414062e-01) (61, -8.88353526592254638672e-01) (62, 6.42204105854034423828e-01) (63, 4.76221680641174316406e-01) (64, 2.00093805789947509766e-01) (0, 5.73754310607910156250e-04) (1, -2.54095762968063354492e-01) (2, 1.15435385704040527344e+00) (3, 6.13333165645599365234e-01) (4, -1.39661118388175964355e-01) (5, 8.90212774276733398438e-01) (6, 4.24877911806106567383e-01) (7, 7.76084810495376586914e-02) (8, -2.25765481591224670410e-01) (9, -4.93611365556716918945e-01) (10, -2.76215553283691406250e-01) (11, 6.22007668018341064453e-01) (12, 6.72802150249481201172e-01) (13, 8.05346071720123291016e-01) (14, -7.22922861576080322266e-01) (15, -1.45826816558837890625e-01) (16, 5.11994026601314544678e-02) (17, -1.54105633497238159180e-01) (18, 1.53719574213027954102e-01) (19, 1.71586990356445312500e+00) (20, 9.26951348781585693359e-01) (21, -4.11349087953567504883e-01) (22, -9.59013164043426513672e-01) (23, 5.36405146121978759766e-02) (24, -3.42013873159885406494e-02) (25, -1.87350869178771972656e-01) (26, 1.76755487918853759766e-02) (27, -4.05544072389602661133e-01) (28, -5.63720092177391052246e-02) (29, 7.88274824619293212891e-01) (30, -6.65289759635925292969e-01) (31, 1.32200941443443298340e-02) (32, 1.41974342986941337585e-02) (33, -7.58675113320350646973e-02) (34, -3.34004431962966918945e-01) (35, -7.58750259876251220703e-01) (36, -6.29129648208618164062e-01) (37, -5.08299767971038818359e-01) (38, -7.61368036270141601562e-01) (39, -9.76011902093887329102e-02) (40, 1.02232828736305236816e-01) (41, -4.45727944374084472656e-01) (42, -1.64827036857604980469e+00) (43, 7.30896294116973876953e-01) (44, -1.97890236973762512207e-01) (45, -1.76866555213928222656e+00) (46, -1.38114547729492187500e+00) (47, -3.68176959455013275146e-02) (48, -8.29630717635154724121e-02) (49, 1.52432680130004882812e-01) (50, -8.10346528887748718262e-02) (51, -7.19410413876175880432e-03) (52, 3.99441152811050415039e-01) (53, -1.50524199008941650391e+00) (54, 1.17952227592468261719e-02) (55, 2.12852135300636291504e-01) (56, -7.26859504356980323792e-03) (57, -1.63604877889156341553e-02) (58, 3.46747457981109619141e-01) (59, -1.56145915389060974121e-01) (60, 1.69656947255134582520e-01) (61, 7.07228779792785644531e-01) (62, 8.46694052219390869141e-01) (63, 2.30313003063201904297e-01) (64, -8.81058629602193832397e-03) (0, -5.93037009239196777344e-02) (1, -3.51953245699405670166e-02) (2, -4.45043385028839111328e-01) (3, 5.82985997200012207031e-01) (4, 6.39258176088333129883e-02) (5, -6.27219855785369873047e-01) (6, -1.05340071022510528564e-01) (7, -1.65384545922279357910e-01) (8, 1.81364744901657104492e-01) (9, 4.32446479797363281250e-01) (10, 7.01440751552581787109e-01) (11, -7.25953057408332824707e-02) (12, 3.75672131776809692383e-02) (13, 4.69968616962432861328e-01) (14, 1.60851567983627319336e-01) (15, 5.79968653619289398193e-02) (16, 2.97238724306225776672e-03) (17, 1.42957672476768493652e-01) (18, 7.94215619564056396484e-01) (19, -1.07300293445587158203e+00) (20, -5.72076857089996337891e-01) (21, 1.67617857456207275391e+00) (22, 1.18818533420562744141e+00) (23, 1.12806208431720733643e-01) (24, -8.53430330753326416016e-02) (25, -2.22726494073867797852e-01) (26, 2.82908715307712554932e-02) (27, -2.47625127434730529785e-01) (28, 2.92367339134216308594e-01) (29, -2.26717293262481689453e-01) (30, 5.36171272397041320801e-02) (31, 4.31129708886146545410e-02) (32, -7.43030384182929992676e-02) (33, -1.54308632016181945801e-01) (34, 3.05591285228729248047e-01) (35, 7.92625844478607177734e-01) (36, 5.46202063560485839844e-01) (37, -2.67782900482416152954e-02) (38, -4.42085593938827514648e-01) (39, 9.15758088231086730957e-02) (40, -7.94453918933868408203e-02) (41, -2.21716776490211486816e-01) (42, 1.35046446323394775391e+00) (43, -3.81179928779602050781e-01) (44, -3.94338607788085937500e-01) (45, 7.88830220699310302734e-01) (46, 7.20172703266143798828e-01) (47, 8.86967703700065612793e-02) (48, -1.23364813625812530518e-01) (49, -8.23697566986083984375e-01) (50, 4.49842810630798339844e-02) (51, -1.69363841414451599121e-02) (52, -7.07005679607391357422e-01) (53, 3.45223635435104370117e-01) (54, 5.37926316261291503906e-01) (55, -1.79298706352710723877e-02) (56, 3.34820188581943511963e-02) (57, -2.80890673398971557617e-01) (58, -4.29376840591430664062e-01) (59, 7.81166374683380126953e-01) (60, 7.50740289688110351562e-01) (61, 1.47043988108634948730e-01) (62, -1.26994922757148742676e-01) (63, -1.75790876150131225586e-01) (64, -1.23155936598777770996e-02) (0, 3.14252302050590515137e-02) (1, 2.15425044298171997070e-01) (2, 9.56306219100952148438e-01) (3, 3.40583436191082000732e-02) (4, -9.93546564131975173950e-03) (5, -1.12863874435424804688e+00) (6, -3.16524207592010498047e-01) (7, -2.96443551778793334961e-01) (8, -1.69981777667999267578e-01) (9, -9.60765406489372253418e-02) (10, 8.80632340908050537109e-01) (11, 1.53695896267890930176e-01) (12, 9.24577534198760986328e-01) (13, -1.12137265503406524658e-01) (14, 5.66013634204864501953e-01) (15, -1.59599334001541137695e-01) (16, -5.73451928794384002686e-02) (17, -1.18797767162322998047e+00) (18, -1.74392235279083251953e+00) (19, -2.21423864364624023438e+00) (20, 1.16015219688415527344e+00) (21, 1.40363574028015136719e+00) (22, 3.78000229597091674805e-01) (23, 4.58893831819295883179e-03) (24, -1.48736340925097465515e-02) (25, -6.01132750511169433594e-01) (26, -1.15807485580444335938e+00) (27, -1.61368298530578613281e+00) (28, -1.43413615226745605469e+00) (29, -1.14628732204437255859e-01) (30, 3.94396156072616577148e-01) (31, 9.36738997697830200195e-02) (32, -7.20978304743766784668e-02) (33, 4.87440347671508789062e-01) (34, -5.66217660903930664062e-01) (35, -6.10165476799011230469e-01) (36, -1.57148337364196777344e+00) (37, 3.21825295686721801758e-01) (38, 1.21603620052337646484e+00) (39, -3.55302616953849792480e-02) (40, -5.82376234233379364014e-02) (41, -8.48992049694061279297e-01) (42, -1.89461255073547363281e+00) (43, -1.61255311965942382812e+00) (44, -2.21074414253234863281e+00) (45, -5.86794793605804443359e-01) (46, -2.45681703090667724609e-01) (47, -6.06062747538089752197e-02) (48, 1.55581563711166381836e-01) (49, 1.99467595666646957397e-02) (50, -2.09370553493499755859e-01) (51, 1.59975445270538330078e+00) (52, 9.64976668357849121094e-01) (53, 1.82477104663848876953e+00) (54, -1.09485590457916259766e+00) (55, -1.52859210968017578125e-01) (56, -9.75034851580858230591e-03) (57, 8.64440917968750000000e-01) (58, 1.14086365699768066406e+00) (59, 1.00993859767913818359e+00) (60, 1.92609918117523193359e+00) (61, 1.52893209457397460938e+00) (62, 1.30423866212368011475e-02) (63, -2.90698498487472534180e-01) (64, 3.47862504422664642334e-02) (0, 8.50687697529792785645e-02) (1, 1.10924430191516876221e-01) (2, 1.33784437179565429688e+00) (3, 2.77782797813415527344e-01) (4, -7.15579017996788024902e-02) (5, -2.52408385276794433594e-01) (6, 7.14793384075164794922e-01) (7, 4.32208359241485595703e-01) (8, 4.61897924542427062988e-02) (9, 1.46006137132644653320e-01) (10, 1.42828297615051269531e+00) (11, 8.85947883129119873047e-01) (12, 5.22159755229949951172e-01) (13, -1.45627409219741821289e-01) (14, 3.87284845113754272461e-01) (15, 2.69483298063278198242e-01) (16, -1.06785960495471954346e-01) (17, -1.10325202345848083496e-01) (18, -1.06189794838428497314e-01) (19, -1.79514300823211669922e+00) (20, -3.38716387748718261719e-01) (21, 1.20681667327880859375e+00) (22, 5.69347918033599853516e-01) (23, 9.55023318529129028320e-02) (24, -5.75005486607551574707e-02) (25, 1.96445763111114501953e-01) (26, -5.89323461055755615234e-01) (27, -6.83181524276733398438e-01) (28, 3.79429608583450317383e-01) (29, 1.06548404693603515625e+00) (30, 2.12410020828247070312e+00) (31, 1.18487458676099777222e-02) (32, -9.88889336585998535156e-02) (33, 1.24704428017139434814e-01) (34, -5.91468274593353271484e-01) (35, -6.67178392410278320312e-01) (36, 6.49705708026885986328e-01) (37, 4.15699839591979980469e-01) (38, 7.07141816616058349609e-01) (39, 2.21677795052528381348e-02) (40, -9.16374921798706054688e-02) (41, 5.23887723684310913086e-02) (42, 1.06603431701660156250e+00) (43, 1.94013881683349609375e+00) (44, -1.75134271383285522461e-01) (45, -6.93898439407348632812e-01) (46, -2.00384712219238281250e+00) (47, 2.42479853332042694092e-02) (48, 7.16918632388114929199e-02) (49, 5.29506623744964599609e-01) (50, -1.39533758163452148438e-01) (51, 1.83689677715301513672e+00) (52, 8.35061609745025634766e-01) (53, 5.38717865943908691406e-01) (54, 2.05807816237211227417e-02) (55, 2.53261417150497436523e-01) (56, -8.26593860983848571777e-02) (57, 2.01362028717994689941e-01) (58, 8.99770796298980712891e-01) (59, 6.58358454704284667969e-01) (60, -1.07768154144287109375e+00) (61, 8.15426766872406005859e-01) (62, 1.77224612236022949219e+00) (63, 8.89202833175659179688e-01) (64, 9.52574834227561950684e-02) (0, -7.44958966970443725586e-03) (1, 3.05367588996887207031e-01) (2, 1.02350258827209472656e+00) (3, 1.71535229682922363281e+00) (4, 7.16901183128356933594e-01) (5, 1.99959516525268554688e+00) (6, 1.18258082866668701172e+00) (7, 6.90700113773345947266e-02) (8, 6.55879005789756774902e-02) (9, 1.17642319202423095703e+00) (10, 9.87535953521728515625e-01) (11, 1.02002717554569244385e-01) (12, 2.15726882219314575195e-01) (13, 1.30397558212280273438e+00) (14, 1.44142329692840576172e-01) (15, 1.52313988655805587769e-02) (16, 1.00247427821159362793e-01) (17, 1.36751186847686767578e+00) (18, 3.45783591270446777344e-01) (19, 1.46395862102508544922e+00) (20, 1.12293159961700439453e+00) (21, -3.35872203111648559570e-01) (22, -4.09600548446178436279e-02) (23, 3.20285744965076446533e-02) (24, -4.31989654898643493652e-02) (25, -8.86152029037475585938e-01) (26, -7.30244755744934082031e-01) (27, 1.55404055118560791016e+00) (28, 1.13721561431884765625e+00) (29, 1.16560614109039306641e+00) (30, -5.71883559226989746094e-01) (31, -1.23358359560370445251e-02) (32, 4.26506847143173217773e-02) (33, -1.57408893108367919922e+00) (34, -1.65360915660858154297e+00) (35, 6.67329490184783935547e-01) (36, 1.49571120738983154297e+00) (37, -6.62427306175231933594e-01) (38, -2.08101654052734375000e+00) (39, 5.43129965662956237793e-02) (40, 5.87114654481410980225e-02) (41, 1.71080783009529113770e-01) (42, -2.92197704315185546875e+00) (43, -2.65807598829269409180e-01) (44, 7.17137530446052551270e-02) (45, -1.82145965099334716797e+00) (46, -1.22382032871246337891e+00) (47, -1.10052376985549926758e-02) (48, -2.18772590160369873047e-02) (49, 1.05846464633941650391e+00) (50, 3.10065120458602905273e-01) (51, -1.66260480880737304688e+00) (52, -1.02037358283996582031e+00) (53, -1.15197193622589111328e+00) (54, 1.63030296564102172852e-01) (55, -1.38107627630233764648e-01) (56, 6.71987235546112060547e-03) (57, 4.45949174463748931885e-02) (58, 8.15405488014221191406e-01) (59, 7.00441479682922363281e-01) (60, -6.04510828852653503418e-02) (61, -8.33240687847137451172e-01) (62, 3.70820671319961547852e-01) (63, 2.90279150009155273438e-01) (64, -8.72610211372375488281e-02) (0, 8.80428478121757507324e-02) (1, 3.03631667047739028931e-02) (2, 2.13959574699401855469e-01) (3, 2.33791708946228027344e-01) (4, 3.23831021785736083984e-01) (5, 1.31238790345378220081e-04) (6, 8.77603739500045776367e-02) (7, 4.36162464320659637451e-02) (8, -7.94734582304954528809e-02) (9, -7.43510648608207702637e-02) (10, 1.67434066534042358398e-01) (11, -3.25078308582305908203e-01) (12, 1.86162520549260079861e-04) (13, 1.62063077092170715332e-01) (14, 6.18787966668605804443e-02) (15, 1.17915600538253784180e-01) (16, -2.03196741640567779541e-02) (17, -1.03007163852453231812e-02) (18, 1.00029453635215759277e-01) (19, -3.11318576335906982422e-01) (20, 1.34658208116888999939e-02) (21, 1.65652871131896972656e-01) (22, 9.15431901812553405762e-02) (23, 1.01520650088787078857e-01) (24, 4.04235087335109710693e-02) (25, 6.44453093409538269043e-02) (26, 4.13031518459320068359e-01) (27, -1.77018627524375915527e-01) (28, 1.59572288393974304199e-01) (29, -1.66746199131011962891e-01) (30, 1.19367174804210662842e-01) (31, -8.18265303969383239746e-02) (32, 6.66654929518699645996e-02) (33, 3.11218559741973876953e-01) (34, 4.74125355482101440430e-01) (35, -1.03488266468048095703e-01) (36, 4.67620253562927246094e-01) (37, 4.01575595140457153320e-01) (38, 2.60566890239715576172e-01) (39, 6.68730810284614562988e-02) (40, -4.94513101875782012939e-02) (41, 1.29540517926216125488e-01) (42, 1.72482699155807495117e-01) (43, 9.25286579877138137817e-03) (44, 1.80554226040840148926e-01) (45, 4.72179800271987915039e-01) (46, 1.73956379294395446777e-01) (47, 4.29346412420272827148e-02) (48, 6.17373436689376831055e-02) (49, -2.70533949136734008789e-01) (50, -5.66920489072799682617e-02) (51, -5.44775687158107757568e-02) (52, 1.85546040534973144531e-01) (53, 1.50532573461532592773e-01) (54, 6.59825876355171203613e-02) (55, -9.26751270890235900879e-03) (56, 6.75432831048965454102e-02) (57, -7.31747224926948547363e-02) (58, 1.67627006769180297852e-01) (59, 2.48299986124038696289e-01) (60, 1.12162731587886810303e-01) (61, 1.89649567008018493652e-01) (62, -2.93721288442611694336e-01) (63, -6.56681284308433532715e-02) (64, 5.48464618623256683350e-02) (0, 5.83269670605659484863e-02) (1, 1.89565062522888183594e-01) (2, 5.92407166957855224609e-01) (3, -5.40661096572875976562e-01) (4, 1.90140891075134277344e+00) (5, 1.87114179134368896484e+00) (6, 8.25771391391754150391e-01) (7, -3.56327146291732788086e-02) (8, -5.52175156772136688232e-02) (9, 6.75557032227516174316e-02) (10, 9.26009058952331542969e-01) (11, 8.14455971121788024902e-02) (12, -7.33700454235076904297e-01) (13, -3.80310654640197753906e-01) (14, -8.70927646756172180176e-02) (15, -6.50664120912551879883e-02) (16, 7.80787914991378784180e-02) (17, -1.71474516391754150391e-01) (18, -1.08488118648529052734e+00) (19, -1.11900556087493896484e+00) (20, -1.32455992698669433594e+00) (21, -3.00657153129577636719e+00) (22, -1.69352829456329345703e+00) (23, -1.93382501602172851562e-01) (24, 9.48663353919982910156e-02) (25, -3.09235811233520507812e-01) (26, -1.36489605903625488281e+00) (27, 5.43439313769340515137e-02) (28, 3.68401199579238891602e-01) (29, -1.58401381969451904297e+00) (30, -1.95853042602539062500e+00) (31, -4.00052405893802642822e-02) (32, 1.64585318416357040405e-02) (33, -4.21318709850311279297e-01) (34, -1.38893425464630126953e+00) (35, -1.24268606305122375488e-01) (36, -6.69175744056701660156e-01) (37, -6.40846371650695800781e-01) (38, 1.45695298910140991211e-01) (39, 7.16789066791534423828e-03) (40, -6.77065923810005187988e-02) (41, -7.41760671138763427734e-01) (42, -2.62307929992675781250e+00) (43, -1.82464146614074707031e+00) (44, 2.61673957109451293945e-01) (45, -9.47112202644348144531e-01) (46, 5.51070928573608398438e-01) (47, 2.25022379308938980103e-02) (48, 9.26254466176033020020e-02) (49, 4.83464360237121582031e-01) (50, 5.60497164726257324219e-01) (51, 1.03812325000762939453e+00) (52, 2.08467459678649902344e+00) (53, 2.44096660614013671875e+00) (54, 1.86413794755935668945e-01) (55, 8.71821418404579162598e-02) (56, -6.13876581192016601562e-02) (57, 4.96247529983520507812e-01) (58, 1.20426213741302490234e+00) (59, 1.24987018108367919922e+00) (60, 8.26019346714019775391e-01) (61, 6.18281900882720947266e-01) (62, 4.73632395267486572266e-01) (63, 2.40717843174934387207e-01) (64, 4.59675975143909454346e-02) (0, -8.48339423537254333496e-02) (1, 5.36527931690216064453e-01) (2, -8.90443980693817138672e-01) (3, 7.79928326606750488281e-01) (4, 6.92493736743927001953e-01) (5, 5.57716079056262969971e-02) (6, -4.91019666194915771484e-01) (7, -3.84027808904647827148e-01) (8, 5.80076813697814941406e-01) (9, 1.13280868530273437500e+00) (10, 1.87091755867004394531e+00) (11, -5.58059930801391601562e-01) (12, -9.36573326587677001953e-01) (13, 6.17489993572235107422e-01) (14, -1.02051103115081787109e+00) (15, -1.98629871010780334473e-01) (16, -9.06270369887351989746e-02) (17, 9.83746826648712158203e-01) (18, 1.02598893642425537109e+00) (19, -2.14846730232238769531e+00) (20, -2.79881310462951660156e+00) (21, 1.57937490940093994141e+00) (22, 4.91595208644866943359e-01) (23, 2.20129415392875671387e-02) (24, 2.53937207162380218506e-02) (25, -3.26541095972061157227e-01) (26, -7.61197924613952636719e-01) (27, 1.23791098594665527344e+00) (28, -7.94258952140808105469e-01) (29, -9.20935451984405517578e-01) (30, -8.98793220520019531250e-01) (31, -8.61497595906257629395e-02) (32, 8.45602080225944519043e-02) (33, -7.30594754219055175781e-01) (34, -1.77632904052734375000e+00) (35, 1.77188742160797119141e+00) (36, -2.67281699180603027344e+00) (37, -3.35749912261962890625e+00) (38, -2.22339823842048645020e-01) (39, -4.31170649826526641846e-02) (40, -2.25672144442796707153e-02) (41, -8.96591663360595703125e-01) (42, 2.31795573234558105469e+00) (43, -2.25521492958068847656e+00) (44, -3.26160168647766113281e+00) (45, 5.36560058593750000000e-01) (46, 2.49878835678100585938e+00) (47, 2.08172753453254699707e-01) (48, -1.83341111987829208374e-02) (49, -1.15241885185241699219e+00) (50, 1.96423888206481933594e+00) (51, 1.48957043886184692383e-01) (52, 4.46997642517089843750e-01) (53, 3.13221812248229980469e+00) (54, 2.06013178825378417969e+00) (55, 2.07922056317329406738e-01) (56, 6.93999156355857849121e-02) (57, -3.50005142390727996826e-02) (58, 6.62887513637542724609e-01) (59, 4.34662532806396484375e+00) (60, 1.22596359252929687500e+00) (61, 9.44054484367370605469e-01) (62, 1.16315650939941406250e+00) (63, -3.27007472515106201172e-01) (64, 2.25587829947471618652e-01) (0, -2.16617435216903686523e-02) (1, 1.25433877110481262207e-01) (2, -6.95891320705413818359e-01) (3, -2.54664808511734008789e-01) (4, -4.06782746315002441406e-01) (5, -3.46219688653945922852e-01) (6, -8.22181940078735351562e-01) (7, 5.57084321975708007812e-01) (8, 1.49051383137702941895e-01) (9, 5.36532521247863769531e-01) (10, -5.34432649612426757812e-01) (11, 6.40127575024962425232e-03) (12, 2.02758267521858215332e-01) (13, -6.31571650505065917969e-01) (14, -7.90194928646087646484e-01) (15, -1.94589868187904357910e-02) (16, 1.67856328189373016357e-02) (17, 2.74362057447433471680e-01) (18, 4.82098370790481567383e-01) (19, -1.13582849502563476562e+00) (20, -8.10008570551872253418e-02) (21, 4.58899319171905517578e-01) (22, 1.20866797864437103271e-01) (23, 1.74180120229721069336e-02) (24, 4.85390536487102508545e-02) (25, 3.45589876174926757812e-01) (26, 8.01324024796485900879e-02) (27, -5.17397940158843994141e-01) (28, 7.67462790012359619141e-01) (29, 2.06717606633901596069e-02) (30, 1.93185210227966308594e+00) (31, 1.79086513817310333252e-02) (32, 1.57947298139333724976e-02) (33, 2.57672041654586791992e-01) (34, 6.41859591007232666016e-01) (35, -1.40616571903228759766e+00) (36, 1.27168869972229003906e+00) (37, -5.46948611736297607422e-01) (38, -9.16590094566345214844e-02) (39, -6.35114610195159912109e-02) (40, -2.91942656040191650391e-02) (41, 1.44960367679595947266e+00) (42, 4.55809926986694335938e+00) (43, 3.61032438278198242188e+00) (44, 2.76498168706893920898e-01) (45, -1.30384242534637451172e+00) (46, -1.41977727413177490234e+00) (47, -5.44512607157230377197e-02) (48, 2.09509059786796569824e-02) (49, 5.46771407127380371094e-01) (50, 1.82128757238388061523e-01) (51, 1.26801753044128417969e+00) (52, 3.16017061471939086914e-01) (53, -6.93060219287872314453e-01) (54, 2.40201458334922790527e-01) (55, 3.32195162773132324219e-01) (56, 2.06174682825803756714e-02) (57, -3.90786439180374145508e-01) (58, -1.40537345409393310547e+00) (59, -4.60900664329528808594e-01) (60, -6.24199211597442626953e-02) (61, -1.21922917664051055908e-01) (62, 8.78378748893737792969e-01) (63, 7.60065495967864990234e-01) (64, -1.53053542599081993103e-02) (0, -7.58978649973869323730e-02) (1, -4.17292974889278411865e-02) (2, -2.80760340392589569092e-02) (3, -3.48723158240318298340e-02) (4, -1.75934880971908569336e-01) (5, 2.85021886229515075684e-02) (6, -7.60286673903465270996e-02) (7, -1.29431840032339096069e-02) (8, 5.02913780510425567627e-02) (9, -1.22389882802963256836e-01) (10, -1.34397253394126892090e-01) (11, -8.49949419498443603516e-02) (12, -1.42093658447265625000e-01) (13, -5.88333606719970703125e-03) (14, 6.16292878985404968262e-02) (15, 4.77707944810390472412e-02) (16, 6.55427649617195129395e-02) (17, 6.10407330095767974854e-02) (18, -3.25412712991237640381e-02) (19, -7.52396583557128906250e-02) (20, -1.55952304601669311523e-01) (21, -2.11489479988813400269e-02) (22, 1.35026155039668083191e-02) (23, 4.68899644911289215088e-02) (24, 7.82174542546272277832e-02) (25, 2.29275245219469070435e-02) (26, -1.03465981781482696533e-01) (27, -4.21413034200668334961e-02) (28, 1.24997494276612997055e-03) (29, -1.19908854365348815918e-01) (30, 5.03872819244861602783e-02) (31, -9.62516441941261291504e-02) (32, 1.17644788697361946106e-02) (33, -3.48769985139369964600e-02) (34, 9.64060146361589431763e-03) (35, 1.02736875414848327637e-02) (36, -1.34042590856552124023e-01) (37, -3.88808697462081909180e-02) (38, 8.07039141654968261719e-02) (39, 9.62096825242042541504e-02) (40, -9.58914533257484436035e-02) (41, -7.66947641968727111816e-02) (42, -1.90123338252305984497e-02) (43, -1.72320883721113204956e-02) (44, 4.70815226435661315918e-02) (45, -1.43409579992294311523e-01) (46, 4.28265258669853210449e-02) (47, 6.24055117368698120117e-02) (48, -8.15901160240173339844e-02) (49, -4.96966727077960968018e-02) (50, -9.37017127871513366699e-02) (51, -8.41342210769653320312e-02) (52, -1.44822761416435241699e-01) (53, 3.04109100252389907837e-02) (54, 5.56048564612865447998e-02) (55, -9.77427214384078979492e-02) (56, -1.09472926706075668335e-02) (57, -8.70831757783889770508e-02) (58, -6.73065334558486938477e-02) (59, -1.15015141665935516357e-01) (60, -9.94719713926315307617e-02) (61, -6.81927725672721862793e-02) (62, -1.98799464851617813110e-02) (63, 8.64882096648216247559e-02) (64, 2.23215185105800628662e-02) (0, -6.81772530078887939453e-02) (1, 2.43479683995246887207e-01) (2, -6.52738869190216064453e-01) (3, -4.58963632583618164062e-01) (4, -5.98976552486419677734e-01) (5, -8.25113058090209960938e-01) (6, -7.38496482372283935547e-01) (7, 5.73584064841270446777e-02) (8, 8.31227526068687438965e-02) (9, 3.48084688186645507812e-01) (10, 3.11707019805908203125e-01) (11, -2.09926652908325195312e+00) (12, -1.15827286243438720703e+00) (13, 8.08144733309745788574e-02) (14, -7.12882131338119506836e-02) (15, 1.09544262290000915527e-01) (16, 1.16953309625387191772e-02) (17, 5.72564005851745605469e-01) (18, 2.01411079615354537964e-02) (19, -1.44539105892181396484e+00) (20, -1.13282656669616699219e+00) (21, 7.89400517940521240234e-01) (22, 5.65342426300048828125e-01) (23, 2.75629814714193344116e-02) (24, 9.08911749720573425293e-02) (25, 4.24683801829814910889e-02) (26, 5.97629308700561523438e-01) (27, 1.41160583496093750000e+00) (28, -6.13869786262512207031e-01) (29, -4.02992635965347290039e-01) (30, 8.97904157638549804688e-01) (31, 4.44550849497318267822e-02) (32, -1.99782680720090866089e-02) (33, 8.77084583044052124023e-02) (34, 1.01297783851623535156e+00) (35, -2.44223535060882568359e-01) (36, -8.64577353000640869141e-01) (37, -6.44300282001495361328e-02) (38, 9.21108126640319824219e-01) (39, 4.86059263348579406738e-02) (40, 1.24496072530746459961e-02) (41, 1.44539666175842285156e+00) (42, 2.60587692260742187500e-01) (43, -3.49327516555786132812e+00) (44, -6.49003446102142333984e-01) (45, 2.16178297996520996094e+00) (46, 1.43679308891296386719e+00) (47, -4.64273467659950256348e-02) (48, -5.14148473739624023438e-02) (49, 6.54056489467620849609e-01) (50, 2.61671841144561767578e-01) (51, -2.02633500099182128906e+00) (52, -1.56726253032684326172e+00) (53, 1.17328500747680664062e+00) (54, -6.99286043643951416016e-01) (55, -3.07757496833801269531e-01) (56, 6.46030828356742858887e-02) (57, -1.26296535134315490723e-01) (58, -5.82112193107604980469e-01) (59, -6.45362198352813720703e-01) (60, -1.24249780178070068359e+00) (61, -2.10156750679016113281e+00) (62, -2.38859629631042480469e+00) (63, -4.84977245330810546875e-01) (64, 9.27073806524276733398e-02) (0, 9.35913398861885070801e-02) (1, 5.11075198650360107422e-01) (2, -1.47114968299865722656e+00) (3, 2.59873718023300170898e-01) (4, -6.95967823266983032227e-02) (5, -4.34370458126068115234e-01) (6, -1.68866991996765136719e+00) (7, -7.82762050628662109375e-01) (8, 1.91624969244003295898e-01) (9, 8.19046437740325927734e-01) (10, 1.56106793880462646484e+00) (11, -3.09710711240768432617e-01) (12, 1.15585708618164062500e+00) (13, 1.78074514865875244141e+00) (14, 4.37680035829544067383e-01) (15, 1.08575634658336639404e-01) (16, 2.41288337856531143188e-02) (17, 6.28419637680053710938e-01) (18, -6.48152828216552734375e-01) (19, -1.78026211261749267578e+00) (20, 1.51778888702392578125e+00) (21, 4.51550626754760742188e+00) (22, 2.79433751106262207031e+00) (23, 1.21313631534576416016e-01) (24, 6.16375878453254699707e-02) (25, -9.12970840930938720703e-01) (26, -1.38964200019836425781e+00) (27, 7.42186784744262695312e-01) (28, 1.65682747960090637207e-01) (29, 7.28805124759674072266e-01) (30, 8.21907877922058105469e-01) (31, -1.04859145358204841614e-02) (32, 1.02233448997139930725e-02) (33, -7.82017171382904052734e-01) (34, 8.50462019443511962891e-01) (35, 7.94246494770050048828e-01) (36, -1.64115577936172485352e-01) (37, 3.62260639667510986328e-02) (38, -7.13887393474578857422e-01) (39, -3.34878861904144287109e-02) (40, -2.91630346328020095825e-02) (41, 1.25240969657897949219e+00) (42, 1.18858325481414794922e+00) (43, -1.15889525413513183594e+00) (44, 2.04692691564559936523e-01) (45, 6.67371034622192382812e-01) (46, 5.56758522987365722656e-01) (47, -2.59768348187208175659e-02) (48, 3.79920005798339843750e-02) (49, 7.95533537864685058594e-01) (50, -4.25345540046691894531e-01) (51, -1.03489685058593750000e+00) (52, -1.93419373035430908203e+00) (53, 5.58728501200675964355e-02) (54, -5.46484112739562988281e-01) (55, -1.14997938275337219238e-01) (56, -8.76912325620651245117e-02) (57, 3.51998955011367797852e-02) (58, -2.01767146587371826172e-01) (59, -3.61122012138366699219e-01) (60, -9.56809148192405700684e-02) (61, -1.36628973484039306641e+00) (62, -2.48852968215942382812e+00) (63, -5.01561701297760009766e-01) (64, 9.01851430535316467285e-02) (0, 2.67516076564788818359e-03) (1, 8.41916650533676147461e-02) (2, 2.52268612384796142578e-01) (3, -2.51195073127746582031e-01) (4, 3.48661392927169799805e-01) (5, -8.33120763301849365234e-01) (6, -1.21319603919982910156e+00) (7, -4.66285705566406250000e-01) (8, -5.01520670950412750244e-02) (9, -3.17162305116653442383e-01) (10, -6.82565033435821533203e-01) (11, -1.09572398662567138672e+00) (12, 4.50462609529495239258e-01) (13, -6.06708407402038574219e-01) (14, 4.60779666900634765625e-01) (15, -9.25287529826164245605e-02) (16, 9.76114198565483093262e-02) (17, 1.34620890021324157715e-01) (18, -1.48319518566131591797e+00) (19, 1.18273735046386718750e+00) (20, 1.85333704948425292969e+00) (21, -3.04183185100555419922e-01) (22, -1.08252756297588348389e-01) (23, -9.26488116383552551270e-02) (24, -8.18791165947914123535e-02) (25, 4.58213388919830322266e-01) (26, 9.02375280857086181641e-01) (27, 2.30415034294128417969e+00) (28, 9.64964032173156738281e-01) (29, -7.48254880309104919434e-02) (30, -2.25975483655929565430e-01) (31, 5.85821270942687988281e-02) (32, 9.43221598863601684570e-02) (33, 4.86636668443679809570e-01) (34, 4.86241966485977172852e-01) (35, 3.55282351374626159668e-02) (36, 9.07879769802093505859e-01) (37, 1.79843699932098388672e+00) (38, 8.97163271903991699219e-01) (39, 9.81929674744606018066e-02) (40, 8.70681479573249816895e-02) (41, 6.12965464591979980469e-01) (42, -1.58646619319915771484e+00) (43, -9.99118834733963012695e-02) (44, 2.27852797508239746094e+00) (45, 1.85444223880767822266e+00) (46, 1.02865386009216308594e+00) (47, 5.76799223199486732483e-03) (48, 2.42354515939950942993e-02) (49, 5.62651157379150390625e-01) (50, -2.40926742553710937500e-01) (51, 2.80578851699829101562e-01) (52, 1.53897845745086669922e+00) (53, 2.18565893173217773438e+00) (54, -2.33710989356040954590e-01) (55, -1.37710288166999816895e-01) (56, -8.62022712826728820801e-02) (57, 3.35917860269546508789e-01) (58, 1.00623416900634765625e+00) (59, -8.55775415897369384766e-01) (60, 2.30804592370986938477e-01) (61, 8.17526817321777343750e-01) (62, -8.90847623348236083984e-01) (63, 1.10469654202461242676e-01) (64, -1.27114981412887573242e-01) (0, -8.90581458806991577148e-02) (1, -3.48535589873790740967e-02) (2, 1.86977291107177734375e+00) (3, -1.45133569836616516113e-01) (4, 1.54921603202819824219e+00) (5, 1.24316489696502685547e+00) (6, 2.10362839698791503906e+00) (7, 1.41917002201080322266e+00) (8, -9.66765172779560089111e-03) (9, 1.04678118228912353516e+00) (10, 6.06453061103820800781e-01) (11, 2.35088777542114257812e+00) (12, -5.35927474498748779297e-01) (13, -2.96623826026916503906e-01) (14, 7.73534655570983886719e-01) (15, 6.78536951541900634766e-01) (16, 2.98026539385318756104e-02) (17, 7.59356915950775146484e-01) (18, 1.22458016872406005859e+00) (19, -5.23083209991455078125e-01) (20, -2.73750734329223632812e+00) (21, -8.98765206336975097656e-01) (22, -8.42284083366394042969e-01) (23, 1.11371561884880065918e-01) (24, -9.40916016697883605957e-02) (25, 5.08417069911956787109e-01) (26, 2.17085766792297363281e+00) (27, 1.37826085090637207031e-01) (28, -4.00057554244995117188e-01) (29, -7.20681607723236083984e-01) (30, 2.06125020980834960938e+00) (31, -6.62581622600555419922e-02) (32, -6.89036324620246887207e-02) (33, 1.15492832660675048828e+00) (34, 1.14932990074157714844e+00) (35, -1.21587693691253662109e+00) (36, -4.38415706157684326172e-01) (37, 4.65940952301025390625e-01) (38, 2.00522136688232421875e+00) (39, -5.96622340381145477295e-02) (40, 1.43104866147041320801e-01) (41, 1.90206706523895263672e+00) (42, -3.08398246765136718750e+00) (43, -9.32274103164672851562e-01) (44, 3.90913665294647216797e-01) (45, 9.83798682689666748047e-01) (46, -7.39851534366607666016e-01) (47, 1.53074320405721664429e-03) (48, 4.21475954353809356689e-02) (49, 9.85196053981781005859e-01) (50, -6.05916738510131835938e-01) (51, -6.29198431968688964844e-01) (52, -9.74999904632568359375e-01) (53, -2.27394890785217285156e+00) (54, -7.96000123023986816406e-01) (55, -3.31525169312953948975e-02) (56, 5.71225471794605255127e-02) (57, -1.94739997386932373047e-02) (58, 4.92349386215209960938e-01) (59, -1.30364894866943359375e+00) (60, -1.89789223670959472656e+00) (61, -2.35194087028503417969e+00) (62, -1.35692739486694335938e+00) (63, -2.42740303277969360352e-01) (64, 2.04060912132263183594e-01) (0, 4.60241511464118957520e-02) (1, 3.60677428543567657471e-02) (2, 6.68585002422332763672e-01) (3, -7.21302270889282226562e-01) (4, 1.17498862743377685547e+00) (5, -1.34442687034606933594e+00) (6, 5.39160370826721191406e-01) (7, 3.25975239276885986328e-01) (8, -4.23013232648372650146e-03) (9, 4.88368198275566101074e-02) (10, 6.17933094501495361328e-01) (11, 8.55860292911529541016e-01) (12, 6.88512146472930908203e-01) (13, -1.53931212425231933594e+00) (14, 7.20730781555175781250e-01) (15, 4.26606059074401855469e-01) (16, -2.49812323600053787231e-02) (17, -8.54739189147949218750e-01) (18, -5.32139301300048828125e-01) (19, -2.92456030845642089844e+00) (20, -5.42835175991058349609e-01) (21, -3.14866334199905395508e-01) (22, 4.43572402000427246094e-01) (23, 9.25677716732025146484e-02) (24, 6.82335197925567626953e-02) (25, 1.82919800281524658203e-01) (26, -1.79908967018127441406e+00) (27, -2.92138552665710449219e+00) (28, -1.16243445873260498047e+00) (29, -1.67917180061340332031e+00) (30, 1.20219695568084716797e+00) (31, 7.90090858936309814453e-02) (32, 2.86167226731777191162e-02) (33, 5.78624904155731201172e-01) (34, -1.20250535011291503906e+00) (35, -2.61918067932128906250e+00) (36, -1.29901185631752014160e-01) (37, -6.30800008773803710938e-01) (38, 2.35882416367530822754e-01) (39, 5.63678219914436340332e-02) (40, 1.02261498570442199707e-01) (41, 4.10162717103958129883e-01) (42, 2.57632231712341308594e+00) (43, 2.61874961853027343750e+00) (44, -1.83178520202636718750e+00) (45, -7.11185812950134277344e-01) (46, -1.52411413192749023438e+00) (47, -1.12605735659599304199e-01) (48, -1.84762161225080490112e-02) (49, 7.61256292462348937988e-02) (50, -2.68849909305572509766e-01) (51, 2.32094621658325195312e+00) (52, 1.63494706153869628906e+00) (53, 6.28118813037872314453e-01) (54, -5.85367977619171142578e-02) (55, 2.22988024353981018066e-01) (56, 7.81068280339241027832e-02) (57, 1.55653238296508789062e-01) (58, 8.95496189594268798828e-01) (59, 4.97201442718505859375e-01) (60, -6.14738836884498596191e-02) (61, 1.95125043392181396484e+00) (62, 1.83110153675079345703e+00) (63, -4.63478155434131622314e-02) (64, 2.16824170202016830444e-02) (0, -2.10963115096092224121e-02) (1, 4.19638365507125854492e-01) (2, -8.71829152107238769531e-01) (3, -1.39410865306854248047e+00) (4, -2.90787965059280395508e-01) (5, -1.98279178142547607422e+00) (6, -2.48815917968750000000e+00) (7, -6.65235042572021484375e-01) (8, -4.16776873171329498291e-02) (9, -2.47223526239395141602e-01) (10, -9.14402604103088378906e-01) (11, -1.89758241176605224609e+00) (12, -1.36423254013061523438e+00) (13, -1.61225378513336181641e+00) (14, 1.09918050467967987061e-01) (15, -1.22705645859241485596e-01) (16, 7.75172039866447448730e-02) (17, -2.71130283363163471222e-03) (18, -1.45820546150207519531e+00) (19, 9.59849894046783447266e-01) (20, 1.19426310062408447266e+00) (21, -5.08148670196533203125e-01) (22, 7.93150842189788818359e-01) (23, 6.40376582741737365723e-02) (24, -3.75746227800846099854e-02) (25, -4.76936921477317810059e-02) (26, -8.49534511566162109375e-01) (27, 2.81812763214111328125e+00) (28, 2.13815164566040039062e+00) (29, -9.11498665809631347656e-01) (30, 5.33672153949737548828e-01) (31, 3.92488911747932434082e-02) (32, -8.46889913082122802734e-02) (33, -4.44789677858352661133e-01) (34, 7.61488318443298339844e-01) (35, 1.70664763450622558594e+00) (36, 1.87759530544281005859e+00) (37, 1.27613461017608642578e+00) (38, -2.60970711708068847656e-01) (39, -8.04106444120407104492e-02) (40, 4.60976026952266693115e-02) (41, 9.20305907726287841797e-01) (42, 2.91209220886230468750e+00) (43, 1.94198298454284667969e+00) (44, 1.53284335136413574219e+00) (45, -1.94029554724693298340e-01) (46, 5.72088956832885742188e-01) (47, -9.87768471240997314453e-02) (48, -5.21803013980388641357e-02) (49, 6.37975454330444335938e-01) (50, -2.54738092422485351562e-01) (51, -2.44072616100311279297e-01) (52, 2.15004935860633850098e-01) (53, 1.22368586063385009766e+00) (54, -6.25577121973037719727e-02) (55, -1.05456493794918060303e-01) (56, 4.25167381763458251953e-02) (57, 1.17407441139221191406e-01) (58, 7.28972911834716796875e-01) (59, -1.57325422763824462891e+00) (60, -2.80211061239242553711e-01) (61, -2.86323335021734237671e-02) (62, -6.51039481163024902344e-01) (63, 2.60488003492355346680e-01) (64, -1.49992224760353565216e-03) (0, 1.82089954614639282227e-02) (1, -1.29444703459739685059e-01) (2, -1.03439962863922119141e+00) (3, 1.70903921127319335938e+00) (4, -8.08531939983367919922e-01) (5, 3.74307841062545776367e-01) (6, -1.40136064146645367146e-04) (7, -1.09198367595672607422e+00) (8, -2.09563295356929302216e-03) (9, 1.97741284966468811035e-01) (10, 4.67518568038940429688e-01) (11, -3.78374993801116943359e-01) (12, 6.96507275104522705078e-01) (13, 1.95087659358978271484e+00) (14, -4.84713673591613769531e-01) (15, -6.95837616920471191406e-01) (16, -7.42569118738174438477e-02) (17, 4.01184827089309692383e-01) (18, 6.23024225234985351562e-01) (19, 2.20319032669067382812e+00) (20, 1.30840981006622314453e+00) (21, 4.89835977554321289062e-01) (22, 1.02319824695587158203e+00) (23, -5.88962482288479804993e-03) (24, -5.65091520547866821289e-02) (25, -6.04175636544823646545e-03) (26, 7.24225461483001708984e-01) (27, -9.40720975399017333984e-01) (28, -5.74538290500640869141e-01) (29, -3.16529780626296997070e-01) (30, -3.61730980873107910156e+00) (31, -5.56824579834938049316e-02) (32, 2.96769328415393829346e-02) (33, -1.95751905441284179688e-01) (34, -4.90407459437847137451e-02) (35, -6.23029410839080810547e-01) (36, -2.35348773002624511719e+00) (37, -8.22793662548065185547e-01) (38, -3.07345557212829589844e+00) (39, 8.69811847805976867676e-02) (40, -5.95157481729984283447e-02) (41, -1.95157051086425781250e+00) (42, -1.18096366524696350098e-01) (43, -2.17347049713134765625e+00) (44, -1.46100616455078125000e+00) (45, 3.96640896797180175781e-01) (46, 3.81485223770141601562e-01) (47, -5.17621971666812896729e-02) (48, -6.15284144878387451172e-02) (49, -2.02332472801208496094e+00) (50, -1.11513890326023101807e-01) (51, -3.17877739667892456055e-01) (52, 8.79540860652923583984e-01) (53, 1.17810904979705810547e+00) (54, -2.49959021806716918945e-01) (55, 5.29900752007961273193e-02) (56, 6.02065064013004302979e-02) (57, 8.22077021002769470215e-02) (58, -6.92436993122100830078e-01) (59, 2.35696578025817871094e+00) (60, 1.42957127094268798828e+00) (61, 3.85600894689559936523e-01) (62, -2.43657916784286499023e-01) (63, -1.44537508487701416016e-01) (64, -2.36626580357551574707e-01) (0, 7.55368694663047790527e-02) (1, 3.60762029886245727539e-01) (2, 9.74199533462524414062e-01) (3, -4.31878678500652313232e-02) (4, 5.72498738765716552734e-01) (5, 1.11092805862426757812e+00) (6, 1.00482475757598876953e+00) (7, 6.66543662548065185547e-01) (8, 7.52015709877014160156e-02) (9, 6.23910725116729736328e-01) (10, 4.66405898332595825195e-01) (11, 1.41904580593109130859e+00) (12, 1.98719632625579833984e+00) (13, 7.39086940884590148926e-02) (14, -1.47780847549438476562e+00) (15, 2.31584727764129638672e-01) (16, -6.06199577450752258301e-02) (17, -7.75832295417785644531e-01) (18, -1.52835679054260253906e+00) (19, -3.29544973373413085938e+00) (20, -3.89813572168350219727e-01) (21, -1.44415110349655151367e-01) (22, 1.34688541293144226074e-01) (23, 1.21615529060363769531e-01) (24, -3.80924902856349945068e-02) (25, -8.77222418785095214844e-01) (26, -7.02797055244445800781e-01) (27, -1.51808881759643554688e+00) (28, 1.08023688197135925293e-01) (29, 2.41277381777763366699e-01) (30, 1.50954103469848632812e+00) (31, -9.31855663657188415527e-02) (32, 2.49930657446384429932e-02) (33, 3.01941335201263427734e-02) (34, -3.03258802741765975952e-02) (35, 1.09470851719379425049e-01) (36, 1.34510052204132080078e+00) (37, 7.35637962818145751953e-01) (38, 1.23491001129150390625e+00) (39, -1.37405097484588623047e-02) (40, -8.94468724727630615234e-02) (41, 1.76664702594280242920e-02) (42, 6.14768564701080322266e-01) (43, 1.29728972911834716797e+00) (44, -9.50046852231025695801e-02) (45, -1.10641360282897949219e+00) (46, 2.14535862207412719727e-01) (47, 1.61049235612154006958e-02) (48, -7.17406049370765686035e-02) (49, -6.58630013465881347656e-01) (50, -1.72375190258026123047e+00) (51, -6.00297927856445312500e-01) (52, -1.51432073116302490234e+00) (53, -1.94278144836425781250e+00) (54, -5.41467189788818359375e-01) (55, 9.54637378454208374023e-02) (56, 3.20258969441056251526e-03) (57, -3.45962852239608764648e-01) (58, -5.03672957420349121094e-01) (59, -1.35747909545898437500e+00) (60, -2.49157547950744628906e+00) (61, -8.81159901618957519531e-01) (62, -2.69770532846450805664e-01) (63, 7.84827545285224914551e-02) (64, -1.86363235116004943848e-02) (0, 9.55590680241584777832e-02) (1, -5.38936495780944824219e-01) (2, 4.27278906106948852539e-01) (3, 2.77109652757644653320e-01) (4, -8.41301918029785156250e-01) (5, -2.21106338500976562500e+00) (6, -4.16955292224884033203e-01) (7, -2.34425514936447143555e-01) (8, -4.02301430702209472656e-01) (9, -1.53767549991607666016e+00) (10, -1.76361119747161865234e+00) (11, 3.75347286462783813477e-02) (12, 1.00508522987365722656e+00) (13, -1.40520036220550537109e+00) (14, 8.54166388511657714844e-01) (15, -2.17938035726547241211e-01) (16, 9.07540097832679748535e-02) (17, 4.19293254613876342773e-01) (18, 2.20600032806396484375e+00) (19, 2.45052623748779296875e+00) (20, 1.54812765121459960938e+00) (21, 3.65795278549194335938e+00) (22, 1.78161776065826416016e+00) (23, -8.17821919918060302734e-02) (24, 5.48952780663967132568e-02) (25, 2.80788600444793701172e-01) (26, 2.28516817092895507812e+00) (27, -2.88111239671707153320e-01) (28, -8.51606309413909912109e-01) (29, 3.26738619804382324219e+00) (30, 2.02088117599487304688e+00) (31, 8.13115984201431274414e-02) (32, -3.99800986051559448242e-02) (33, -5.29571995139122009277e-03) (34, 6.91172719001770019531e-01) (35, -1.60356104373931884766e+00) (36, 2.71770745515823364258e-01) (37, 4.19873207807540893555e-01) (38, -1.48047909140586853027e-01) (39, 7.24351480603218078613e-02) (40, 9.82312336564064025879e-02) (41, 1.19520175457000732422e+00) (42, -2.03612565994262695312e+00) (43, 1.09363043308258056641e+00) (44, -1.48891255259513854980e-01) (45, -2.28060221672058105469e+00) (46, -3.84594464302062988281e+00) (47, -2.46645539999008178711e-01) (48, 2.84320255741477012634e-03) (49, 1.51138329505920410156e+00) (50, -1.03769123554229736328e+00) (51, 6.34479463100433349609e-01) (52, 1.49545288085937500000e+00) (53, -1.29030787944793701172e+00) (54, -5.06355166435241699219e-01) (55, 7.85062313079833984375e-02) (56, -7.35173821449279785156e-02) (57, 1.45862266421318054199e-01) (58, -7.08576083183288574219e-01) (59, -2.04598379135131835938e+00) (60, 7.32336521148681640625e-01) (61, 6.24461770057678222656e-01) (62, 1.46396148204803466797e+00) (63, 7.86863446235656738281e-01) (64, 2.03609913587570190430e-02) (0, 7.90748819708824157715e-02) (1, -6.02226555347442626953e-01) (2, 9.17663216590881347656e-01) (3, -9.61551725864410400391e-01) (4, -2.31231975555419921875e+00) (5, -2.56598162651062011719e+00) (6, -5.47265172004699707031e-01) (7, 7.59016498923301696777e-02) (8, -4.41699385643005371094e-01) (9, -1.98781657218933105469e+00) (10, -2.23635959625244140625e+00) (11, 1.13776616752147674561e-01) (12, -6.16973578929901123047e-01) (13, -1.21424770355224609375e+00) (14, 5.72827398777008056641e-01) (15, 1.86732783913612365723e-02) (16, 1.27077564597129821777e-01) (17, 6.14443659782409667969e-01) (18, 6.82958424091339111328e-01) (19, 4.95897293090820312500e+00) (20, 3.87091755867004394531e+00) (21, -3.29716324806213378906e-01) (22, -1.17398715019226074219e+00) (23, -1.62188678979873657227e-01) (24, 2.69720982760190963745e-02) (25, 4.81753140687942504883e-01) (26, 8.47169816493988037109e-01) (27, 1.41382396221160888672e+00) (28, -4.22309666872024536133e-01) (29, 1.13079774379730224609e+00) (30, 1.08909070491790771484e+00) (31, 4.46155332028865814209e-02) (32, 7.76885226368904113770e-02) (33, 4.81196910142898559570e-01) (34, 4.30463820695877075195e-01) (35, -2.22911596298217773438e+00) (36, -7.65336275100708007812e-01) (37, 2.12725090980529785156e+00) (38, 1.10127091407775878906e+00) (39, 2.14737281203269958496e-02) (40, 8.81080254912376403809e-02) (41, 1.00338542461395263672e+00) (42, -2.33071923255920410156e+00) (43, 2.22104644775390625000e+00) (44, 1.67836177349090576172e+00) (45, -1.12575650215148925781e+00) (46, -1.52774906158447265625e+00) (47, -4.37448918819427490234e-02) (48, 1.13336041569709777832e-01) (49, 1.52755641937255859375e+00) (50, -7.54121363162994384766e-01) (51, 1.29496526718139648438e+00) (52, 7.10520207881927490234e-01) (53, -1.40312612056732177734e+00) (54, -6.51195287704467773438e-01) (55, -1.73859730362892150879e-01) (56, -3.84083017706871032715e-02) (57, 3.39431196451187133789e-01) (58, 9.00986492633819580078e-01) (59, -3.19475555419921875000e+00) (60, -1.46118414402008056641e+00) (61, 3.51045548915863037109e-01) (62, -1.16040900349617004395e-01) (63, 6.01201295852661132812e-01) (64, -1.42568096518516540527e-01) (0, 1.08964890241622924805e-02) (1, -3.53753119707107543945e-01) (2, -1.40314984321594238281e+00) (3, -1.93672692775726318359e+00) (4, 1.05142831802368164062e+00) (5, -1.28000581264495849609e+00) (6, -6.13869667053222656250e-01) (7, 3.72821331024169921875e-01) (8, 1.50490999221801757812e-01) (9, -3.14888149499893188477e-01) (10, -2.04948496818542480469e+00) (11, -1.59301519393920898438e+00) (12, -2.21182227134704589844e+00) (13, -2.56952905654907226562e+00) (14, 5.54979622364044189453e-01) (15, 2.79911398887634277344e-01) (16, -3.55412177741527557373e-02) (17, -8.65772426128387451172e-01) (18, 7.46359407901763916016e-01) (19, -7.69206523895263671875e-01) (20, -2.88822317123413085938e+00) (21, -1.99793899059295654297e+00) (22, -7.90953695774078369141e-01) (23, -1.64501249790191650391e-01) (24, -3.69167737662792205811e-02) (25, 9.71903920173645019531e-01) (26, 1.47633969783782958984e+00) (27, 1.12427353858947753906e+00) (28, 3.19945007562637329102e-01) (29, -1.56610047817230224609e+00) (30, 9.52987432479858398438e-01) (31, 3.94080914556980133057e-02) (32, 5.27649335563182830811e-02) (33, 8.91729414463043212891e-01) (34, 1.56565570831298828125e+00) (35, 4.67126905918121337891e-01) (36, 7.19902575016021728516e-01) (37, 2.03417682647705078125e+00) (38, 2.29383659362792968750e+00) (39, 2.73346528410911560059e-02) (40, 3.52943278849124908447e-02) (41, 1.13874161243438720703e+00) (42, 6.54072940349578857422e-01) (43, 8.28925311565399169922e-01) (44, 1.44351339340209960938e+00) (45, 8.13672125339508056641e-01) (46, 4.03435319662094116211e-01) (47, 3.43625284731388092041e-02) (48, 8.41752812266349792480e-02) (49, 9.44393947720527648926e-02) (50, 2.47594237327575683594e-01) (51, 1.07650804519653320312e+00) (52, -3.56440573930740356445e-01) (53, -1.00853192806243896484e+00) (54, 2.35604345798492431641e-01) (55, -1.76346808671951293945e-01) (56, 8.92344415187835693359e-02) (57, -4.29923802614212036133e-01) (58, -7.19052195549011230469e-01) (59, -1.58938193321228027344e+00) (60, -9.19438526034355163574e-02) (61, 7.82072186470031738281e-01) (62, -4.94994193315505981445e-01) (63, -5.06762802600860595703e-01) (64, 2.09389716386795043945e-01) (0, -1.22491046786308288574e-02) (1, -2.95481421053409576416e-02) (2, 3.77324372529983520508e-01) (3, 4.19901192188262939453e-01) (4, 4.25044000148773193359e-01) (5, 1.19649350643157958984e-01) (6, 8.07043313980102539062e-02) (7, 2.21712645143270492554e-02) (8, 7.40626081824302673340e-02) (9, -1.97800602763891220093e-02) (10, 8.52588117122650146484e-02) (11, -2.71045446395874023438e-01) (12, 1.70425087213516235352e-01) (13, 2.92755514383316040039e-01) (14, -8.75124931335449218750e-02) (15, 1.49640962481498718262e-01) (16, -7.49672278761863708496e-02) (17, -9.16108209639787673950e-03) (18, 6.39612553641200065613e-03) (19, -2.26159811019897460938e-01) (20, 6.43966812640428543091e-03) (21, 3.05004835128784179688e-01) (22, 1.17231093347072601318e-01) (23, -4.06126491725444793701e-03) (24, 7.78313726186752319336e-02) (25, 1.27847492694854736328e-01) (26, 3.62252384424209594727e-01) (27, -1.49926498532295227051e-01) (28, 2.90552437305450439453e-01) (29, -1.02345570921897888184e-01) (30, 1.13879196345806121826e-01) (31, 8.91509950160980224609e-02) (32, 3.64175299182534217834e-03) (33, 3.29270601272583007812e-01) (34, 4.93146628141403198242e-01) (35, -1.32142126560211181641e-01) (36, 5.03112435340881347656e-01) (37, 4.41843181848526000977e-01) (38, 1.93326056003570556641e-01) (39, -8.41584354639053344727e-02) (40, 1.62665005773305892944e-02) (41, 1.15352854132652282715e-01) (42, 3.82246404886245727539e-01) (43, 6.21360447257757186890e-03) (44, 2.25017115473747253418e-01) (45, 3.97356152534484863281e-01) (46, 6.87412992119789123535e-02) (47, -4.14024516940116882324e-02) (48, 3.76222864724695682526e-03) (49, -1.03597842156887054443e-01) (50, -1.85103982686996459961e-01) (51, 2.31501013040542602539e-02) (52, 1.69391095638275146484e-01) (53, 1.80281654000282287598e-01) (54, -2.16100439429283142090e-02) (55, -1.54965277761220932007e-02) (56, -1.63265585433691740036e-03) (57, -7.41771534085273742676e-02) (58, 3.01125913858413696289e-01) (59, 3.38887006044387817383e-01) (60, 7.49000757932662963867e-02) (61, -1.86911486089229583740e-02) (62, -1.17880426347255706787e-01) (63, 1.02952502667903900146e-01) (64, 1.15711696445941925049e-01) (0, 5.86567446589469909668e-02) (1, 3.80697965621948242188e-01) (2, 9.37000691890716552734e-01) (3, -4.90935504436492919922e-01) (4, 9.71190690994262695312e-01) (5, 1.36226654052734375000e+00) (6, 2.05380058288574218750e+00) (7, 9.61748003959655761719e-01) (8, 2.08869203925132751465e-03) (9, 1.02106142044067382812e+00) (10, 2.07564473152160644531e+00) (11, 1.95755648612976074219e+00) (12, 2.78258442878723144531e+00) (13, 9.03194025158882141113e-02) (14, -2.93717347085475921631e-03) (15, 7.26059198379516601562e-01) (16, -8.18230491131544113159e-03) (17, -7.95194923877716064453e-01) (18, -3.59573101997375488281e+00) (19, -3.71256637573242187500e+00) (20, -1.74124157428741455078e+00) (21, -2.57086968421936035156e+00) (22, -1.00998389720916748047e+00) (23, -1.64821650832891464233e-02) (24, -6.71995505690574645996e-02) (25, -8.80552351474761962891e-01) (26, -2.22383284568786621094e+00) (27, -1.12946367263793945312e+00) (28, -2.30369821190834045410e-01) (29, -2.28440475463867187500e+00) (30, -2.37420022487640380859e-01) (31, -6.56779855489730834961e-04) (32, -4.89758551120758056641e-02) (33, 8.75792682170867919922e-01) (34, 7.93489441275596618652e-02) (35, -1.39848589897155761719e-01) (36, 2.16408228874206542969e+00) (37, 2.11411073803901672363e-01) (38, 1.47288525104522705078e+00) (39, -5.54195530712604522705e-02) (40, 4.94131296873092651367e-02) (41, -9.08539116382598876953e-01) (42, -2.06104874610900878906e+00) (43, -8.10550153255462646484e-01) (44, -1.92081555724143981934e-01) (45, 8.18201005458831787109e-01) (46, 9.61368083953857421875e-01) (47, -5.69350793957710266113e-02) (48, -8.70243310928344726562e-02) (49, 1.31006360054016113281e-01) (50, -7.54554986953735351562e-01) (51, 5.52462816238403320312e-01) (52, -1.97442129254341125488e-01) (53, 6.27253949642181396484e-01) (54, -4.93990421295166015625e-01) (55, -7.87942782044410705566e-02) (56, 7.97960385680198669434e-02) (57, 6.84458255767822265625e-01) (58, 1.28489315509796142578e+00) (59, 7.08434343338012695312e-01) (60, -1.04185128211975097656e+00) (61, -5.99856138229370117188e-01) (62, -1.63095545768737792969e+00) (63, -5.02312839031219482422e-01) (64, 4.83303144574165344238e-02) (0, 8.48152488470077514648e-03) (1, -1.99519485235214233398e-01) (2, -4.47665154933929443359e-01) (3, 7.70897686481475830078e-01) (4, -9.91573154926300048828e-01) (5, -6.75594449043273925781e-01) (6, -2.04346060752868652344e-01) (7, -1.80652379989624023438e-01) (8, 2.59676277637481689453e-01) (9, -4.12250645458698272705e-02) (10, 1.21697224676609039307e-01) (11, 8.25328677892684936523e-02) (12, -2.03749823570251464844e+00) (13, 1.07911497354507446289e-01) (14, -2.07095444202423095703e-01) (15, -2.66539692878723144531e-01) (16, -3.58638465404510498047e-02) (17, 7.15514481067657470703e-01) (18, 2.97209930419921875000e+00) (19, 1.89823949337005615234e+00) (20, -2.69712686538696289062e+00) (21, 3.73164176940917968750e-01) (22, 3.71743589639663696289e-01) (23, -7.78251746669411659241e-03) (24, 2.28382367640733718872e-02) (25, 5.13235867023468017578e-01) (26, 2.37242007255554199219e+00) (27, 1.95872461795806884766e+00) (28, -1.17971098423004150391e+00) (29, 1.17548927664756774902e-01) (30, 5.57547748088836669922e-01) (31, -1.47493639960885047913e-02) (32, 2.95161269605159759521e-02) (33, -3.28464239835739135742e-01) (34, 7.78780937194824218750e-01) (35, 4.33593034744262695312e-01) (36, -1.21633338928222656250e+00) (37, -1.78309535980224609375e+00) (38, -2.60424673557281494141e-01) (39, 4.78592142462730407715e-02) (40, 2.54668500274419784546e-02) (41, 6.83169484138488769531e-01) (42, 6.50149822235107421875e-01) (43, -1.63504755496978759766e+00) (44, -7.00555145740509033203e-01) (45, 6.76551818847656250000e-01) (46, 4.34615433216094970703e-01) (47, -1.63538753986358642578e-02) (48, -6.74857199192047119141e-02) (49, 1.02449618279933929443e-01) (50, 3.13986986875534057617e-01) (51, -6.50727093219757080078e-01) (52, -8.62545907497406005859e-01) (53, -6.24964475631713867188e-01) (54, 1.56008392572402954102e-01) (55, 4.92751449346542358398e-02) (56, 7.05962702631950378418e-02) (57, -4.30225253105163574219e-01) (58, -7.82410740852355957031e-01) (59, 1.91059958934783935547e+00) (60, 1.41605925559997558594e+00) (61, -7.24247634410858154297e-01) (62, -2.85313725471496582031e-01) (63, -1.87871187925338745117e-01) (64, 8.15808176994323730469e-02) (0, -3.60380187630653381348e-02) (1, -4.54110875725746154785e-02) (2, -4.39914941787719726562e-01) (3, -3.43105137348175048828e-01) (4, 8.15212666988372802734e-01) (5, 9.56054091453552246094e-01) (6, 5.90289771556854248047e-01) (7, 5.79755187034606933594e-01) (8, 2.35907793045043945312e-01) (9, -1.13553738594055175781e+00) (10, -2.49906972050666809082e-01) (11, 6.32474899291992187500e-01) (12, -1.63076555728912353516e+00) (13, -3.78640741109848022461e-01) (14, -1.76015460491180419922e+00) (15, 5.52890188992023468018e-02) (16, -8.04711580276489257812e-02) (17, 1.21658480167388916016e+00) (18, 3.41067123413085937500e+00) (19, 8.21148216724395751953e-01) (20, -3.04486608505249023438e+00) (21, -2.29855847358703613281e+00) (22, -1.19014894962310791016e+00) (23, -8.48032981157302856445e-02) (24, 7.94048141688108444214e-03) (25, 8.76875162124633789062e-01) (26, 1.25013422966003417969e+00) (27, 8.42699348926544189453e-01) (28, -1.62978029251098632812e+00) (29, -5.68211615085601806641e-01) (30, -3.10074031352996826172e-01) (31, -8.77144001424312591553e-03) (32, -7.33795985579490661621e-02) (33, -3.21717083454132080078e-01) (34, -1.69305369257926940918e-01) (35, -1.42100796103477478027e-01) (36, -2.04956054687500000000e+00) (37, -2.55992507934570312500e+00) (38, -7.82468259334564208984e-01) (39, -1.06830894947052001953e-03) (40, -7.32868537306785583496e-02) (41, 8.07653248310089111328e-01) (42, 3.61950111389160156250e+00) (43, 2.11672663688659667969e+00) (44, -2.31579852104187011719e+00) (45, -2.74858891963958740234e-01) (46, 9.79198068380355834961e-02) (47, 4.72897812724113464355e-02) (48, 3.39121408760547637939e-02) (49, 8.78125727176666259766e-01) (50, 1.92873430252075195312e+00) (51, 8.74172866344451904297e-01) (52, 1.77806878089904785156e+00) (53, 1.86134946346282958984e+00) (54, 9.06708315014839172363e-02) (55, 1.40794618055224418640e-02) (56, 7.12902098894119262695e-02) (57, -3.15942496061325073242e-01) (58, -8.40251863002777099609e-01) (59, 1.89330375194549560547e+00) (60, 1.56755077838897705078e+00) (61, -8.35470378398895263672e-01) (62, 3.75309586524963378906e-01) (63, 2.36703738570213317871e-01) (64, -4.65497709810733795166e-02) (0, 3.06187346577644348145e-02) (1, 2.24035426974296569824e-01) (2, 3.72239708900451660156e-01) (3, -3.17582562565803527832e-02) (4, 3.63168537616729736328e-01) (5, 4.62203294038772583008e-01) (6, 7.93549060821533203125e-01) (7, -9.95326489210128784180e-02) (8, 1.19032822549343109131e-02) (9, -1.45871192216873168945e-01) (10, -3.58133763074874877930e-01) (11, 4.39670652151107788086e-01) (12, 1.21959269046783447266e+00) (13, -4.50299352407455444336e-01) (14, 1.87627345323562622070e-01) (15, 1.63650035858154296875e-01) (16, -4.94869835674762725830e-02) (17, -1.08587002754211425781e+00) (18, -2.18212246894836425781e+00) (19, 3.03613506257534027100e-02) (20, 1.05161213874816894531e+00) (21, -6.22442543506622314453e-01) (22, 9.26395475864410400391e-01) (23, 1.01147443056106567383e-01) (24, -1.05470716953277587891e-02) (25, -7.11680531501770019531e-01) (26, -7.88348138332366943359e-01) (27, -1.37225759029388427734e+00) (28, 8.73029977083206176758e-02) (29, -7.88402333855628967285e-02) (30, 2.91730701923370361328e-01) (31, -9.17643681168556213379e-02) (32, 1.32757481187582015991e-02) (33, 4.83133196830749511719e-01) (34, -4.49941843748092651367e-01) (35, -8.19080173969268798828e-01) (36, 5.06842195987701416016e-01) (37, 1.86442887783050537109e+00) (38, 4.88592714071273803711e-01) (39, -2.36404687166213989258e-02) (40, -7.28382170200347900391e-02) (41, -1.29648610949516296387e-01) (42, 7.66824960708618164062e-01) (43, 6.94670855998992919922e-01) (44, -8.10849606990814208984e-01) (45, 7.08688020706176757812e-01) (46, 8.70348632335662841797e-01) (47, 5.07653653621673583984e-02) (48, -4.11836877465248107910e-02) (49, -2.00741663575172424316e-01) (50, 5.81320980563759803772e-03) (51, 4.98720705509185791016e-01) (52, 4.58988733589649200439e-03) (53, 6.03254795074462890625e-01) (54, 7.39203035831451416016e-01) (55, 9.39402878284454345703e-02) (56, 6.62123113870620727539e-02) (57, 3.53007167577743530273e-01) (58, 3.02697896957397460938e-01) (59, -1.38142347335815429688e-01) (60, 7.67802059650421142578e-01) (61, 1.40423905849456787109e+00) (62, 9.55033242702484130859e-01) (63, 1.60537138581275939941e-01) (64, 5.64427450299263000488e-02) (0, 2.73780897259712219238e-02) (1, 1.33522704243659973145e-01) (2, 1.42757511138916015625e+00) (3, 1.12273943424224853516e+00) (4, 1.87511169910430908203e+00) (5, 2.18010830879211425781e+00) (6, 1.16821360588073730469e+00) (7, -3.08229237794876098633e-01) (8, -8.93833190202713012695e-02) (9, 1.24012815952301025391e+00) (10, 1.43141305446624755859e+00) (11, 2.00315570831298828125e+00) (12, 1.32398295402526855469e+00) (13, 4.13258969783782958984e-01) (14, -1.23420202732086181641e+00) (15, -1.35797321796417236328e-01) (16, 1.14566665142774581909e-02) (17, -9.30925846099853515625e-01) (18, -1.81365513801574707031e+00) (19, -1.33749079704284667969e+00) (20, 8.75905215740203857422e-01) (21, -8.52704346179962158203e-01) (22, 5.62687218189239501953e-02) (23, 2.20505669713020324707e-01) (24, -9.81726497411727905273e-03) (25, -1.66971766948699951172e+00) (26, 1.05487334728240966797e+00) (27, -7.31641575694084167480e-02) (28, 8.16956698894500732422e-01) (29, 2.93884426355361938477e-01) (30, -1.63813745975494384766e+00) (31, -2.90397182106971740723e-02) (32, -6.86581879854202270508e-02) (33, -1.04570224881172180176e-01) (34, -2.75301724672317504883e-01) (35, 4.68513935804367065430e-01) (36, -4.76536333560943603516e-01) (37, 3.82097214460372924805e-01) (38, 1.56751072406768798828e+00) (39, -3.07643786072731018066e-02) (40, 2.83726174384355545044e-02) (41, -1.42082297801971435547e+00) (42, -6.26335144042968750000e+00) (43, -4.09728097915649414062e+00) (44, -1.50866842269897460938e+00) (45, 5.80220878124237060547e-01) (46, 2.36870527267456054688e+00) (47, 1.85063764452934265137e-01) (48, 2.23730038851499557495e-02) (49, -1.38029015064239501953e+00) (50, -1.04740786552429199219e+00) (51, -4.12268728017807006836e-01) (52, -2.37729477882385253906e+00) (53, -1.79439651966094970703e+00) (54, -5.62389642000198364258e-02) (55, -9.41527858376502990723e-02) (56, -2.81734131276607513428e-02) (57, 2.17147529125213623047e-01) (58, -1.60297036170959472656e-01) (59, 4.66333419084548950195e-01) (60, -1.99447214603424072266e+00) (61, -2.02668571472167968750e+00) (62, -1.97505116462707519531e+00) (63, -1.23028314113616943359e+00) (64, 5.69740906357765197754e-02) (0, 2.31186151504516601562e-02) (1, -5.03130316734313964844e-01) (2, 1.46311298012733459473e-01) (3, -1.28431582450866699219e+00) (4, 5.48305392265319824219e-01) (5, 1.47386860847473144531e+00) (6, 8.14660489559173583984e-01) (7, 1.19739758968353271484e+00) (8, -3.11167031526565551758e-01) (9, -1.90169715881347656250e+00) (10, -1.44582629203796386719e+00) (11, 5.47377824783325195312e-01) (12, 8.97550821304321289062e-01) (13, -3.60458761453628540039e-01) (14, -9.88071382045745849609e-01) (15, 1.04713499546051025391e-01) (16, 1.57878994941711425781e-01) (17, -1.74541100859642028809e-01) (18, 9.96910154819488525391e-01) (19, 3.75282335281372070312e+00) (20, -6.49199187755584716797e-01) (21, -4.58412885665893554688e+00) (22, -3.50989603996276855469e+00) (23, -4.16350156068801879883e-01) (24, -3.15344035625457763672e-02) (25, 1.03967285156250000000e+00) (26, 3.11141490936279296875e+00) (27, 1.40929913520812988281e+00) (28, -2.40813088417053222656e+00) (29, -1.10872852802276611328e+00) (30, 4.43776130676269531250e-01) (31, -1.22649325057864189148e-02) (32, -4.94564473628997802734e-02) (33, 9.52445089817047119141e-01) (34, 1.11610102653503417969e+00) (35, -1.75159251689910888672e+00) (36, -1.66649854183197021484e+00) (37, -1.84955108165740966797e+00) (38, 2.05421566963195800781e+00) (39, 8.12161043286323547363e-02) (40, -8.09786617755889892578e-02) (41, -3.71490538120269775391e-01) (42, 7.36100226640701293945e-02) (43, 3.12564432621002197266e-01) (44, -1.45081371068954467773e-01) (45, -1.98620706796646118164e-01) (46, 1.01880550384521484375e+00) (47, -2.48218122869729995728e-02) (48, -9.84068885445594787598e-02) (49, -3.64147633314132690430e-01) (50, 4.21632438898086547852e-01) (51, 7.74089395999908447266e-01) (52, 7.28156328201293945312e-01) (53, -1.01910084486007690430e-01) (54, -3.81931632757186889648e-01) (55, -6.93423524498939514160e-02) (56, -4.58719320595264434814e-02) (57, -4.30328994989395141602e-02) (58, -4.98542606830596923828e-01) (59, -3.66168737411499023438e-01) (60, -1.40739351511001586914e-01) (61, 6.04470610618591308594e-01) (62, -9.59352791309356689453e-01) (63, -3.72452437877655029297e-02) (64, -2.07723721861839294434e-01) (0, -2.26475968956947326660e-02) (1, -1.54304102063179016113e-01) (2, 3.01750183105468750000e-01) (3, 2.33887329697608947754e-01) (4, -8.66700291633605957031e-01) (5, -9.16490852832794189453e-01) (6, -1.02022483944892883301e-01) (7, -1.71907842159271240234e-02) (8, -1.73730269074440002441e-01) (9, -2.89323031902313232422e-01) (10, -1.03969049453735351562e+00) (11, -3.40961247682571411133e-01) (12, 3.52000445127487182617e-01) (13, -4.02698695659637451172e-01) (14, -4.71945405006408691406e-01) (15, -6.70555513352155685425e-03) (16, 8.14886018633842468262e-02) (17, -2.18477904796600341797e-01) (18, 4.36328321695327758789e-01) (19, 1.19082987308502197266e+00) (20, 1.48143482208251953125e+00) (21, 6.67367815971374511719e-01) (22, -4.92113828659057617188e-02) (23, 9.12754517048597335815e-03) (24, -5.14522790908813476562e-02) (25, -4.81991291046142578125e-01) (26, 7.32749283313751220703e-01) (27, -2.21098974347114562988e-01) (28, -4.14987146854400634766e-01) (29, 9.78984951972961425781e-01) (30, 1.05920588970184326172e+00) (31, -8.43460857868194580078e-02) (32, -4.72260937094688415527e-02) (33, -6.16956613957881927490e-02) (34, 2.00203478336334228516e-01) (35, -6.81248188018798828125e-01) (36, -4.87883448600769042969e-01) (37, 1.00871205329895019531e+00) (38, 1.44679546356201171875e-02) (39, -9.48511734604835510254e-02) (40, -1.65207609534263610840e-02) (41, 4.78041291236877441406e-01) (42, -1.22173237800598144531e+00) (43, 4.21358138322830200195e-01) (44, 1.40288984403014183044e-02) (45, -5.99557101726531982422e-01) (46, -1.10567545890808105469e+00) (47, 1.38968797400593757629e-02) (48, 4.40789721906185150146e-02) (49, 1.44161731004714965820e-01) (50, -8.30457031726837158203e-01) (51, -7.95905649662017822266e-01) (52, -1.24581634998321533203e+00) (53, -2.12864947319030761719e+00) (54, 1.09198048710823059082e-01) (55, -8.00987258553504943848e-02) (56, 8.84890407323837280273e-02) (57, -1.84171080589294433594e-01) (58, -8.82347166538238525391e-01) (59, -1.65211772918701171875e+00) (60, -9.90240454673767089844e-01) (61, -5.65573215484619140625e-01) (62, -1.09590029751416295767e-04) (63, -1.72579020261764526367e-01) (64, -6.36795982718467712402e-02) (65, -1.03684559464454650879e-01) (66, -5.41825532913208007812e-01) (67, 8.10268640518188476562e-01) (68, -1.54650580883026123047e+00) (69, -1.56641995906829833984e+00) (70, 1.81439149379730224609e+00) (71, -7.17232942581176757812e-01) (72, -8.93409371376037597656e-01) (73, 1.17706465721130371094e+00) (74, -9.09049093723297119141e-01) (75, -4.91395890712738037109e-01) (76, -9.59964811801910400391e-01) (77, -1.41266789287328720093e-02) (78, 1.37917566299438476562e+00) (79, 1.16504676640033721924e-01) (80, -3.83519601821899414062e+00) (81, -9.67030823230743408203e-01) (82, -1.20288252830505371094e+00) (83, 4.53888148069381713867e-01) (84, 1.45410025119781494141e+00) (85, 8.66829305887222290039e-02) (86, 1.81532651185989379883e-01) (87, 1.57318913936614990234e+00) (88, -8.55444431304931640625e-01) (89, -4.45528119802474975586e-01) (90, 3.90797257423400878906e-01) (91, -1.32794797420501708984e+00) (92, 1.30589318275451660156e+00) (93, -2.49006599187850952148e-01) (94, 6.46371126174926757812e-01) (95, -2.83419907093048095703e-01) (96, -2.88314127922058105469e+00) (97, -9.92433488368988037109e-01) (98, -4.11186546087265014648e-01) (99, -5.86978793144226074219e-02) (100, 8.33328664302825927734e-01) (101, -1.82812213897705078125e-01) (102, -2.20431184768676757812e+00) (103, 1.19310641288757324219e+00) (104, -3.74810367822647094727e-01) (105, -1.07182478904724121094e+00) (65, -4.97528351843357086182e-03) (66, 1.02412652969360351562e+00) (67, 9.26049530506134033203e-01) (68, 9.77208554744720458984e-01) (69, 2.01336145401000976562e+00) (70, -1.35705852508544921875e+00) (71, 3.04971909523010253906e+00) (72, -1.47221696376800537109e+00) (73, -7.70268857479095458984e-01) (74, -9.29910540580749511719e-01) (75, -3.27402615547180175781e+00) (76, 6.74635469913482666016e-01) (77, -1.15033352375030517578e+00) (78, -3.68551671504974365234e-01) (79, -1.24237918853759765625e+00) (80, 2.40333342552185058594e+00) (81, -9.15163993835449218750e-01) (82, -1.12544238567352294922e+00) (83, -1.85190248489379882812e+00) (84, -6.46523177623748779297e-01) (85, 5.11934570968151092529e-02) (86, -1.08782291412353515625e+00) (87, -1.08085286617279052734e+00) (88, 5.13718247413635253906e-01) (89, -3.43275189399719238281e+00) (90, -3.53354024887084960938e+00) (91, 4.23151850700378417969e-01) (92, 1.79402232170104980469e+00) (93, -1.85968005657196044922e+00) (94, 2.21391916275024414062e+00) (95, 1.70940244197845458984e+00) (96, -2.96631383895874023438e+00) (97, -8.74727606773376464844e-01) (98, -1.40496635437011718750e+00) (99, -9.28424835205078125000e-01) (100, -1.00580132007598876953e+00) (101, 5.64433097839355468750e-01) (102, -1.65274512767791748047e+00) (103, 8.77956628799438476562e-01) (104, 6.37713193893432617188e-01) (105, -1.01971161365509033203e+00) (65, -7.69483566284179687500e-01) (66, 2.92255014181137084961e-01) (67, 1.19181001186370849609e+00) (68, 3.65063458681106567383e-01) (69, -1.32847070693969726562e+00) (70, -1.76026034355163574219e+00) (71, -3.46272754669189453125e+00) (72, -1.06015872955322265625e+00) (73, -2.49279403686523437500e+00) (74, -1.16190636157989501953e+00) (75, 9.82886791229248046875e-01) (76, 6.17796242237091064453e-01) (77, -1.10866808891296386719e+00) (78, 1.66923272609710693359e+00) (79, 1.41516304016113281250e+00) (80, 1.94731259346008300781e+00) (81, -1.34310948848724365234e+00) (82, 1.12867844104766845703e+00) (83, 5.58091044425964355469e-01) (84, 1.22980678081512451172e+00) (85, 5.09530901908874511719e-02) (86, -1.88498187065124511719e+00) (87, -1.52878141403198242188e+00) (88, -1.34473514556884765625e+00) (89, -1.93498384952545166016e+00) (90, 3.04669332504272460938e+00) (91, -4.99524595215916633606e-03) (92, 1.37304976582527160645e-01) (93, -6.56573951244354248047e-01) (94, 7.17909157276153564453e-01) (95, -6.93156063556671142578e-01) (96, -8.05351495742797851562e-01) (97, -1.29103004932403564453e+00) (98, -4.00889843702316284180e-01) (99, -1.23637044429779052734e+00) (100, 5.75361609458923339844e-01) (101, 1.11267030239105224609e+00) (102, -3.06248545646667480469e+00) (103, -1.24651992321014404297e+00) (104, -7.48892962932586669922e-01) (105, -1.24848568439483642578e+00) (65, 1.57267883419990539551e-01) (66, -3.80230277776718139648e-01) (67, -1.62886822223663330078e+00) (68, 9.10561382770538330078e-01) (69, 4.37661617994308471680e-01) (70, -3.00456881523132324219e-01) (71, -7.65551924705505371094e-02) (72, -9.40706551074981689453e-01) (73, -6.01484537124633789062e-01) (74, -8.91387045383453369141e-01) (75, -1.68897247314453125000e+00) (76, -9.35654878616333007812e-01) (77, -6.06212317943572998047e-01) (78, 1.60727286338806152344e+00) (79, -1.48490583896636962891e+00) (80, -6.97314202785491943359e-01) (81, -9.06514108180999755859e-01) (82, 2.41089868545532226562e+00) (83, 1.80111479759216308594e+00) (84, -3.27433466911315917969e+00) (85, -1.71146355569362640381e-02) (86, 8.36700201034545898438e-01) (87, 5.69953441619873046875e-01) (88, 1.08012640476226806641e+00) (89, -1.75706672668457031250e+00) (90, -1.79335248470306396484e+00) (91, 1.20961260795593261719e+00) (92, 9.37722027301788330078e-01) (93, -1.59754216670989990234e+00) (94, -2.33694386482238769531e+00) (95, -3.46449494361877441406e-01) (96, -3.17676097154617309570e-01) (97, -9.36059176921844482422e-01) (98, 2.08219647407531738281e+00) (99, -1.38135695457458496094e+00) (100, -1.52396309375762939453e+00) (101, 6.73082530498504638672e-01) (102, 1.31203508377075195312e+00) (103, 2.13211312890052795410e-01) (104, -1.43411326408386230469e+00) (105, -9.20225918292999267578e-01) (65, -1.27295339107513427734e+00) (66, -7.33240902423858642578e-01) (67, -1.78267145156860351562e+00) (68, -1.93669223785400390625e+00) (69, 1.90821158885955810547e+00) (70, 2.77327418327331542969e+00) (71, -8.10570061206817626953e-01) (72, -6.26805126667022705078e-01) (73, -2.29596868157386779785e-01) (74, -7.89859592914581298828e-01) (75, 1.07612359523773193359e+00) (76, -4.14214819669723510742e-01) (77, -8.93894076347351074219e-01) (78, -4.22574847936630249023e-01) (79, 2.02202737331390380859e-01) (80, -2.30625844001770019531e+00) (81, -6.61487638950347900391e-01) (82, 8.48418772220611572266e-01) (83, -2.12073516845703125000e+00) (84, 7.00479447841644287109e-01) (85, 7.17651844024658203125e-02) (86, 3.78914088010787963867e-01) (87, -2.39828169345855712891e-01) (88, 8.78554284572601318359e-01) (89, 2.75001025199890136719e+00) (90, 1.37069121003150939941e-01) (91, 9.28634405136108398438e-01) (92, -1.95980870723724365234e+00) (93, -1.14044511318206787109e+00) (94, 1.04260516166687011719e+00) (95, 2.78615140914916992188e+00) (96, 3.08381247520446777344e+00) (97, -8.01213741302490234375e-01) (98, -1.26320397853851318359e+00) (99, 3.93995195627212524414e-01) (100, -8.88164281845092773438e-01) (101, -2.28841590881347656250e+00) (102, -1.62581861019134521484e+00) (103, 9.04667973518371582031e-01) (104, -3.05297940969467163086e-01) (105, -7.83538103103637695312e-01) (65, -3.23428481817245483398e-01) (66, 1.66785642504692077637e-02) (67, 2.65345263481140136719e+00) (68, -1.00218617916107177734e+00) (69, -2.09573388099670410156e+00) (70, -1.00472760200500488281e+00) (71, -2.55047023296356201172e-01) (72, -4.19501483440399169922e-01) (73, 3.32517057657241821289e-01) (74, -9.84724879264831542969e-01) (75, 6.41274333000183105469e-01) (76, 7.97249197959899902344e-01) (77, -1.42570078372955322266e+00) (78, -8.28851044178009033203e-01) (79, -1.09319794178009033203e+00) (80, 1.77799820899963378906e+00) (81, -8.59180629253387451172e-01) (82, 1.23235476016998291016e+00) (83, -2.75617182254791259766e-01) (84, -1.56116998195648193359e+00) (85, 5.28806224465370178223e-02) (86, -5.94423413276672363281e-01) (87, -2.28632545471191406250e+00) (88, -1.32857990264892578125e+00) (89, 1.71418535709381103516e+00) (90, -1.70825707912445068359e+00) (91, -2.85594487190246582031e+00) (92, 3.09514164924621582031e-01) (93, -6.93814396858215332031e-01) (94, -1.61658978462219238281e+00) (95, -3.76964032649993896484e-01) (96, 