FANN_FLO_2.1
num_layers=3
learning_rate=0.050000
connection_rate=1.000000
network_type=0
learning_momentum=0.000000
training_algorithm=0
train_error_function=1
train_stop_function=0
cascade_output_change_fraction=0.010000
quickprop_decay=-0.000100
quickprop_mu=1.750000
rprop_increase_factor=1.200000
rprop_decrease_factor=0.500000
rprop_delta_min=0.000000
rprop_delta_max=50.000000
rprop_delta_zero=0.100000
cascade_output_stagnation_epochs=12
cascade_candidate_change_fraction=0.010000
cascade_candidate_stagnation_epochs=12
cascade_max_out_epochs=150
cascade_min_out_epochs=50
cascade_max_cand_epochs=150
cascade_min_cand_epochs=50
cascade_num_candidate_groups=2
bit_fail_limit=3.49999994039535522461e-01
cascade_candidate_limit=1.00000000000000000000e+03
cascade_weight_multiplier=4.00000005960464477539e-01
cascade_activation_functions_count=10
cascade_activation_functions=3 5 7 8 10 11 14 15 16 17 
cascade_activation_steepnesses_count=4
cascade_activation_steepnesses=2.50000000000000000000e-01 5.00000000000000000000e-01 7.50000000000000000000e-01 1.00000000000000000000e+00 
layer_sizes=65 21 11 
scale_included=0
neurons (num_inputs, activation_function, activation_steepness)=(0, 0, 0.00000000000000000000e+00) (0, 0, 0.00000000000000000000e+00) (0, 0, 0.00000000000000000000e+00) (0, 0, 0.00000000000000000000e+00) (0, 0, 0.00000000000000000000e+00) (0, 0, 0.00000000000000000000e+00) (0, 0, 0.00000000000000000000e+00) (0, 0, 0.00000000000000000000e+00) (0, 0, 0.00000000000000000000e+00) (0, 0, 0.00000000000000000000e+00) (0, 0, 0.00000000000000000000e+00) (0, 0, 0.00000000000000000000e+00) (0, 0, 0.00000000000000000000e+00) (0, 0, 0.00000000000000000000e+00) (0, 0, 0.00000000000000000000e+00) (0, 0, 0.00000000000000000000e+00) (0, 0, 0.00000000000000000000e+00) (0, 0, 0.00000000000000000000e+00) (0, 0, 0.00000000000000000000e+00) (0, 0, 0.00000000000000000000e+00) (0, 0, 0.00000000000000000000e+00) (0, 0, 0.00000000000000000000e+00) (0, 0, 0.00000000000000000000e+00) (0, 0, 0.00000000000000000000e+00) (0, 0, 0.00000000000000000000e+00) (0, 0, 0.00000000000000000000e+00) (0, 0, 0.00000000000000000000e+00) (0, 0, 0.00000000000000000000e+00) (0, 0, 0.00000000000000000000e+00) (0, 0, 0.00000000000000000000e+00) (0, 0, 0.00000000000000000000e+00) (0, 0, 0.00000000000000000000e+00) (0, 0, 0.00000000000000000000e+00) (0, 0, 0.00000000000000000000e+00) (0, 0, 0.00000000000000000000e+00) (0, 0, 0.00000000000000000000e+00) (0, 0, 0.00000000000000000000e+00) (0, 0, 0.00000000000000000000e+00) (0, 0, 0.00000000000000000000e+00) (0, 0, 0.00000000000000000000e+00) (0, 0, 0.00000000000000000000e+00) (0, 0, 0.00000000000000000000e+00) (0, 0, 0.00000000000000000000e+00) (0, 0, 0.00000000000000000000e+00) (0, 0, 0.00000000000000000000e+00) (0, 0, 0.00000000000000000000e+00) (0, 0, 0.00000000000000000000e+00) (0, 0, 0.00000000000000000000e+00) (0, 0, 0.00000000000000000000e+00) (0, 0, 0.00000000000000000000e+00) (0, 0, 0.00000000000000000000e+00) (0, 0, 0.00000000000000000000e+00) (0, 0, 0.00000000000000000000e+00) (0, 0, 0.00000000000000000000e+00) (0, 0, 0.00000000000000000000e+00) (0, 0, 0.00000000000000000000e+00) (0, 0, 0.00000000000000000000e+00) (0, 0, 0.00000000000000000000e+00) (0, 0, 0.00000000000000000000e+00) (0, 0, 0.00000000000000000000e+00) (0, 0, 0.00000000000000000000e+00) (0, 0, 0.00000000000000000000e+00) (0, 0, 0.00000000000000000000e+00) (0, 0, 0.00000000000000000000e+00) (0, 0, 0.00000000000000000000e+00) (65, 3, 5.00000000000000000000e-01) (65, 3, 5.00000000000000000000e-01) (65, 3, 5.00000000000000000000e-01) (65, 3, 5.00000000000000000000e-01) (65, 3, 5.00000000000000000000e-01) (65, 3, 5.00000000000000000000e-01) (65, 3, 5.00000000000000000000e-01) (65, 3, 5.00000000000000000000e-01) (65, 3, 5.00000000000000000000e-01) (65, 3, 5.00000000000000000000e-01) (65, 3, 5.00000000000000000000e-01) (65, 3, 5.00000000000000000000e-01) (65, 3, 5.00000000000000000000e-01) (65, 3, 5.00000000000000000000e-01) (65, 3, 5.00000000000000000000e-01) (65, 3, 5.00000000000000000000e-01) (65, 3, 5.00000000000000000000e-01) (65, 3, 5.00000000000000000000e-01) (65, 3, 5.00000000000000000000e-01) (65, 3, 5.00000000000000000000e-01) (0, 3, 0.00000000000000000000e+00) (21, 3, 5.00000000000000000000e-01) (21, 3, 5.00000000000000000000e-01) (21, 3, 5.00000000000000000000e-01) (21, 3, 5.00000000000000000000e-01) (21, 3, 5.00000000000000000000e-01) (21, 3, 5.00000000000000000000e-01) (21, 3, 5.00000000000000000000e-01) (21, 3, 5.00000000000000000000e-01) (21, 3, 5.00000000000000000000e-01) (21, 3, 5.00000000000000000000e-01) (0, 3, 0.00000000000000000000e+00) 
connections (connected_to_neuron, weight)=(0, -7.87878036499023437500e-02) (1, -1.15969860553741455078e+00) (2, -1.51205688714981079102e-01) (3, -3.65459799766540527344e-01) (4, -3.36045408248901367188e+00) (5, -3.56152486801147460938e+00) (6, -7.93387711048126220703e-01) (7, -1.43009454011917114258e-01) (8, -7.88999557495117187500e-01) (9, -3.23479080200195312500e+00) (10, -2.82051610946655273438e+00) (11, -2.75443851947784423828e-01) (12, 2.04682087898254394531e+00) (13, -2.07337707281112670898e-01) (14, -8.14203262329101562500e-01) (15, -2.87758678197860717773e-01) (16, -1.48597195744514465332e-01) (17, 3.01114290952682495117e-01) (18, -5.55471062660217285156e-01) (19, 4.86898422241210937500e+00) (20, 4.67334127426147460938e+00) (21, 1.21638810634613037109e+00) (22, -7.41326034069061279297e-01) (23, -2.98797022551298141479e-02) (24, 1.17673158645629882812e-01) (25, 3.05921316146850585938e-01) (26, -1.25733721256256103516e+00) (27, -1.82591962814331054688e+00) (28, -2.16430568695068359375e+00) (29, 1.28076553344726562500e+00) (30, 1.74265694618225097656e+00) (31, 6.68291822075843811035e-02) (32, -4.98144254088401794434e-02) (33, 1.88095793128013610840e-01) (34, 8.19317519664764404297e-01) (35, -4.56929111480712890625e+00) (36, -6.14408731460571289062e-01) (37, -3.59075367450714111328e-01) (38, -9.32379737496376037598e-02) (39, -6.82583749294281005859e-02) (40, 1.01828768849372863770e-01) (41, -3.25633704662322998047e-01) (42, 1.83856618404388427734e+00) (43, 3.56852746009826660156e+00) (44, -9.18396770954132080078e-01) (45, -3.05234241485595703125e+00) (46, -4.43065595626831054688e+00) (47, -8.08162018656730651855e-02) (48, 4.79573607444763183594e-02) (49, 9.06387567520141601562e-01) (50, -1.01922285556793212891e+00) (51, 2.06507968902587890625e+00) (52, 4.87430524826049804688e+00) (53, 7.83822417259216308594e-01) (54, -1.10644161701202392578e+00) (55, 7.25048959255218505859e-01) (56, 1.04395627975463867188e-01) (57, 2.69632339477539062500e-01) (58, 1.97670850902795791626e-02) (59, -1.19081008434295654297e+00) (60, -1.43699005246162414551e-01) (61, 1.78177869319915771484e+00) (62, 3.51900744438171386719e+00) (63, 2.23059749603271484375e+00) (64, -1.81451439857482910156e-01) (0, 6.88835605978965759277e-02) (1, 2.68327295780181884766e-01) (2, 3.27322810888290405273e-01) (3, -5.47529995441436767578e-01) (4, 1.01809132099151611328e+00) (5, 4.81628328561782836914e-01) (6, -2.59019494056701660156e-01) (7, 5.06288528442382812500e-01) (8, -1.55293315649032592773e-01) (9, -1.01002216339111328125e+00) (10, -2.24530577659606933594e+00) (11, -6.63142055273056030273e-02) (12, 3.70630288124084472656e+00) (13, 1.46616637706756591797e+00) (14, -1.97357103228569030762e-01) (15, 2.44205519556999206543e-01) (16, 3.36506031453609466553e-02) (17, -1.39181232452392578125e+00) (18, -5.10376453399658203125e+00) (19, -2.71346592903137207031e+00) (20, 1.54969167709350585938e+00) (21, 1.05601459741592407227e-01) (22, -7.57541656494140625000e-01) (23, -7.52880349755287170410e-02) (24, 5.50203807651996612549e-02) (25, -1.20605611801147460938e+00) (26, -2.68877744674682617188e+00) (27, -1.14899623394012451172e+00) (28, 8.18430006504058837891e-01) (29, -6.06775760650634765625e-01) (30, 2.45928332209587097168e-01) (31, 4.58123609423637390137e-02) (32, -9.10565927624702453613e-02) (33, 2.65368014574050903320e-01) (34, -2.93555825948715209961e-01) (35, -6.20039761066436767578e-01) (36, 2.11261630058288574219e+00) (37, 3.28079223632812500000e+00) (38, 2.45931172370910644531e+00) (39, 8.95394459366798400879e-02) (40, -1.08119565993547439575e-02) (41, -1.35054481029510498047e+00) (42, -1.07777047157287597656e+00) (43, 1.70253768563270568848e-01) (44, 1.97487306594848632812e+00) (45, 1.49907815456390380859e+00) (46, 2.51237392425537109375e+00) (47, 3.61508131027221679688e-02) (48, -2.33242735266685485840e-02) (49, -3.77152472734451293945e-01) (50, -7.69586801528930664062e-01) (51, 1.32305860519409179688e-01) (52, -1.30277276039123535156e+00) (53, 2.47943654656410217285e-01) (54, -2.83532768487930297852e-01) (55, -2.74215023964643478394e-02) (56, 9.54695045948028564453e-02) (57, 5.76195061206817626953e-01) (58, 1.22916448116302490234e+00) (59, -3.30267977714538574219e+00) (60, -3.10758590698242187500e+00) (61, -4.25654947757720947266e-01) (62, -2.06584382057189941406e+00) (63, -1.83834120631217956543e-01) (64, -1.59102782607078552246e-01) (0, 6.64203688502311706543e-02) (1, 1.45141780376434326172e-01) (2, 1.70314133167266845703e+00) (3, -8.55225741863250732422e-01) (4, 2.62300562858581542969e+00) (5, 8.92182171344757080078e-01) (6, 1.26401555538177490234e+00) (7, 1.01255047321319580078e+00) (8, 1.38458535075187683105e-01) (9, 2.26258635520935058594e+00) (10, 2.20957875251770019531e+00) (11, 2.09818172454833984375e+00) (12, -7.24515244364738464355e-02) (13, -7.55020320415496826172e-01) (14, 1.44192206859588623047e+00) (15, 6.64164125919342041016e-01) (16, 2.23039537668228149414e-02) (17, 7.56804049015045166016e-01) (18, -1.00709617137908935547e+00) (19, -7.08262205123901367188e-01) (20, -1.54864525794982910156e+00) (21, -7.09864795207977294922e-01) (22, -1.03565204143524169922e+00) (23, 5.22552840411663055420e-02) (24, -7.53939971327781677246e-02) (25, 5.62715888023376464844e-01) (26, 5.86422502994537353516e-01) (27, 1.18736572563648223877e-01) (28, -1.69990420341491699219e+00) (29, 6.27195984125137329102e-02) (30, 4.10150146484375000000e+00) (31, -1.12269045785069465637e-02) (32, -2.62195505201816558838e-02) (33, 1.56432318687438964844e+00) (34, 2.87409234046936035156e+00) (35, -8.20462048053741455078e-01) (36, -1.00568628311157226562e+00) (37, 1.95265567302703857422e+00) (38, 6.84663581848144531250e+00) (39, -9.28477346897125244141e-02) (40, 9.41297113895416259766e-02) (41, 3.80177807807922363281e+00) (42, -4.09955596923828125000e+00) (43, -5.71019470691680908203e-01) (44, 2.12327885627746582031e+00) (45, 2.26904582977294921875e+00) (46, 1.80814516544342041016e+00) (47, 2.25684680044651031494e-02) (48, 1.30135282874107360840e-01) (49, 3.22246146202087402344e+00) (50, -2.43525594472885131836e-01) (51, -4.72089424729347229004e-02) (52, -4.11457151174545288086e-01) (53, -1.60737180709838867188e+00) (54, -2.46152353286743164062e+00) (55, -6.57635629177093505859e-01) (56, 4.26566340029239654541e-02) (57, 2.64494031667709350586e-01) (58, 1.47128713130950927734e+00) (59, -2.63602113723754882812e+00) (60, -3.09442353248596191406e+00) (61, -5.71555233001708984375e+00) (62, -4.89284038543701171875e+00) (63, -1.58540391921997070312e+00) (64, 3.66677701473236083984e-01) (0, 5.71627542376518249512e-02) (1, -3.84080618619918823242e-01) (2, -4.97153186798095703125e+00) (3, -4.11881113052368164062e+00) (4, -6.67182254791259765625e+00) (5, -5.28739547729492187500e+00) (6, -5.47909784317016601562e+00) (7, 2.69899725914001464844e-01) (8, 2.19511333853006362915e-02) (9, -3.25019431114196777344e+00) (10, -5.58498001098632812500e+00) (11, -7.26555204391479492188e+00) (12, -7.30502033233642578125e+00) (13, -2.02887988090515136719e+00) (14, -7.38421618938446044922e-01) (15, -4.40055161714553833008e-01) (16, -1.09401330351829528809e-01) (17, 1.78947055339813232422e+00) (18, 3.98692965507507324219e+00) (19, 3.73747992515563964844e+00) (20, -1.47329175472259521484e+00) (21, 1.16514801979064941406e+00) (22, -1.16434001922607421875e+00) (23, -7.77894616127014160156e-01) (24, -8.91615524888038635254e-02) (25, 3.85536479949951171875e+00) (26, 1.05822312831878662109e+00) (27, 6.21736907958984375000e+00) (28, 3.60507750511169433594e+00) (29, -1.91452097892761230469e+00) (30, 3.55698823928833007812e+00) (31, -5.01290522515773773193e-03) (32, 7.53427073359489440918e-02) (33, 2.12543800473213195801e-01) (34, 1.16792798042297363281e+00) (35, 1.73626446723937988281e+00) (36, 2.18772530555725097656e+00) (37, -1.00826728343963623047e+00) (38, -2.29236531257629394531e+00) (39, 9.07397270202636718750e-03) (40, 1.36799991130828857422e-01) (41, 3.51558876037597656250e+00) (42, 1.15033321380615234375e+01) (43, 6.78744697570800781250e+00) (44, 5.35927867889404296875e+00) (45, 8.86365175247192382812e-02) (46, -3.19644212722778320312e+00) (47, -5.14371134340763092041e-02) (48, 2.88039874285459518433e-02) (49, 2.77030587196350097656e+00) (50, 3.03877592086791992188e+00) (51, -4.83395934104919433594e-01) (52, 3.88415455818176269531e+00) (53, 3.66307568550109863281e+00) (54, -2.71671026945114135742e-01) (55, 5.57585895061492919922e-01) (56, 5.21900765597820281982e-02) (57, -8.38017761707305908203e-01) (58, -3.27224969863891601562e+00) (59, -3.02884340286254882812e+00) (60, 1.45552313327789306641e+00) (61, 1.19224727153778076172e+00) (62, 3.00305557250976562500e+00) (63, 2.24554920196533203125e+00) (64, -1.72049030661582946777e-01) (0, -2.20552459359169006348e-02) (1, -6.57928362488746643066e-02) (2, -1.39830067753791809082e-01) (3, -1.39661535620689392090e-01) (4, -1.79818551987409591675e-02) (5, 5.38826435804367065430e-02) (6, 8.44416096806526184082e-02) (7, -3.04676946252584457397e-02) (8, -3.34808155894279479980e-02) (9, -9.34931728988885879517e-03) (10, -4.95848804712295532227e-02) (11, 3.90539616346359252930e-02) (12, -2.61341091245412826538e-02) (13, -5.81406243145465850830e-02) (14, -7.05052018165588378906e-02) (15, -7.66545906662940979004e-02) (16, 2.58465725928544998169e-02) (17, -1.15196228027343750000e-01) (18, -2.13815882802009582520e-01) (19, -9.95652098208665847778e-03) (20, 6.86457380652427673340e-02) (21, -2.39021718502044677734e-01) (22, -1.52664095163345336914e-01) (23, 9.03786160051822662354e-03) (24, 2.32873316854238510132e-02) (25, 1.57572627067565917969e-02) (26, -1.94493710994720458984e-01) (27, -1.37704655528068542480e-01) (28, -5.25350868701934814453e-02) (29, -1.53649941086769104004e-01) (30, -1.86966851353645324707e-01) (31, 9.53746140003204345703e-02) (32, 2.13823784142732620239e-02) (33, -8.82758572697639465332e-02) (34, -7.85932540893554687500e-02) (35, -3.75414378941059112549e-02) (36, -2.18070000410079956055e-02) (37, -1.33143723011016845703e-01) (38, 5.31866736710071563721e-02) (39, 8.45439210534095764160e-02) (40, 4.67712096869945526123e-02) (41, -1.23887978494167327881e-01) (42, -2.42286641150712966919e-03) (43, -1.17599025368690490723e-01) (44, -8.15043076872825622559e-02) (45, -7.24308341741561889648e-02) (46, 5.26166073977947235107e-02) (47, -5.37427254021167755127e-02) (48, -2.29049380868673324585e-02) (49, -1.20469577610492706299e-01) (50, -1.80685278028249740601e-02) (51, -6.57331645488739013672e-02) (52, -1.38994708657264709473e-01) (53, -9.64060649275779724121e-02) (54, 8.49034935235977172852e-02) (55, -8.70067253708839416504e-02) (56, 6.43913820385932922363e-02) (57, 8.01118537783622741699e-02) (58, -8.58930423855781555176e-02) (59, -8.55561047792434692383e-02) (60, -1.28586277365684509277e-01) (61, -3.00649255514144897461e-02) (62, -5.70113584399223327637e-02) (63, 8.19913819432258605957e-02) (64, -5.13035580515861511230e-02) (0, -5.74447214603424072266e-04) (1, -3.38294147513806819916e-03) (2, -5.33605366945266723633e-02) (3, -9.71154719591140747070e-02) (4, 1.65696227550506591797e+00) (5, 9.68398034572601318359e-01) (6, 1.42499670386314392090e-01) (7, 5.05618512630462646484e-01) (8, 6.38376548886299133301e-02) (9, -3.31551060080528259277e-02) (10, 1.98950886726379394531e-01) (11, 3.38446088135242462158e-02) (12, -1.17471978068351745605e-01) (13, 6.17619395256042480469e-01) (14, -3.65174949169158935547e-01) (15, 2.94626623392105102539e-01) (16, 4.49948236346244812012e-02) (17, 5.60938537120819091797e-01) (18, 8.95011365413665771484e-01) (19, 4.73266243934631347656e-01) (20, -1.55767095088958740234e+00) (21, -1.45183014869689941406e+00) (22, -9.38163280487060546875e-01) (23, -1.72768801450729370117e-01) (24, 1.32847474887967109680e-02) (25, 9.81726288795471191406e-01) (26, 1.29329431056976318359e+00) (27, 1.53460776805877685547e+00) (28, -1.57509878277778625488e-01) (29, -1.63019013404846191406e+00) (30, 2.09403902292251586914e-01) (31, 6.88707828521728515625e-02) (32, -6.49101333692669868469e-03) (33, 6.82589709758758544922e-01) (34, 7.83002614974975585938e-01) (35, -4.60855275392532348633e-01) (36, -3.08860987424850463867e-01) (37, -2.35512346029281616211e-01) (38, 1.47883474826812744141e+00) (39, -4.81493249535560607910e-02) (40, 9.55924540758132934570e-02) (41, 4.53949898481369018555e-01) (42, 2.59075021743774414062e+00) (43, -2.90967524051666259766e-01) (44, 9.46682512760162353516e-01) (45, 2.56706690788269042969e+00) (46, 1.42159843444824218750e+00) (47, -1.29248108714818954468e-02) (48, -5.47572411596775054932e-02) (49, 3.28269362449645996094e-01) (50, 1.82738184928894042969e+00) (51, 5.89888930320739746094e-01) (52, 2.95334696769714355469e+00) (53, 4.38707542419433593750e+00) (54, -3.87328684329986572266e-01) (55, -2.55255222320556640625e-01) (56, 2.64777299016714096069e-02) (57, 1.32835268974304199219e-01) (58, 2.96115934848785400391e-01) (59, 1.71849250793457031250e+00) (60, 2.40121865272521972656e+00) (61, -4.83949661254882812500e-01) (62, -1.51874828338623046875e+00) (63, -4.56963568925857543945e-01) (64, 8.74114111065864562988e-02) (0, -6.52884840965270996094e-02) (1, 8.44872772693634033203e-01) (2, 5.68902790546417236328e-01) (3, 1.15435361862182617188e+00) (4, 1.73867249488830566406e+00) (5, 2.46672487258911132812e+00) (6, -2.88885414600372314453e-01) (7, -7.26864695549011230469e-01) (8, 2.76405155658721923828e-01) (9, 1.88209187984466552734e+00) (10, 4.69319772720336914062e+00) (11, -4.41647261381149291992e-01) (12, -1.57010698318481445312e+00) (13, 1.68621075153350830078e+00) (14, -1.98818421363830566406e+00) (15, -9.61355865001678466797e-01) (16, -3.27070727944374084473e-02) (17, 1.79201841354370117188e+00) (18, 4.18067407608032226562e+00) (19, -1.92882251739501953125e+00) (20, -4.51912879943847656250e+00) (21, 1.51628041267395019531e+00) (22, 5.45020699501037597656e-01) (23, -3.08206498622894287109e-01) (24, -7.34490081667900085449e-02) (25, -4.97507452964782714844e-01) (26, 5.69888465106487274170e-02) (27, -2.37456870079040527344e+00) (28, -2.63237071037292480469e+00) (29, -1.68627929687500000000e+00) (30, -5.80119037628173828125e+00) (31, 2.77297757565975189209e-02) (32, -8.69729816913604736328e-02) (33, -1.38770473003387451172e+00) (34, -2.23088026046752929688e+00) (35, -3.83911043405532836914e-01) (36, -3.20012259483337402344e+00) (37, -3.30271768569946289062e+00) (38, -4.67608690261840820312e+00) (39, -2.99105048179626464844e-03) (40, -1.24313414096832275391e-01) (41, -2.81054353713989257812e+00) (42, 3.18016099929809570312e+00) (43, -5.56512832641601562500e+00) (44, -5.64413499832153320312e+00) (45, 2.57936215400695800781e+00) (46, 4.42241573333740234375e+00) (47, 1.10343813896179199219e-01) (48, -1.30940392613410949707e-01) (49, -2.21219325065612792969e+00) (50, 2.58025383949279785156e+00) (51, -1.00699234008789062500e+00) (52, -7.55424320697784423828e-01) (53, 4.93904542922973632812e+00) (54, 4.71789455413818359375e+00) (55, -4.18071933090686798096e-02) (56, -6.61080107092857360840e-02) (57, 1.57090127468109130859e-01) (58, 1.34556925296783447266e+00) (59, 6.51375961303710937500e+00) (60, 2.92733454704284667969e+00) (61, 1.26544666290283203125e+00) (62, 1.15302610397338867188e+00) (63, -1.43340635299682617188e+00) (64, 1.61786660552024841309e-01) (0, 6.95529058575630187988e-02) (1, -6.70060664415359497070e-02) (2, -1.79231011867523193359e+00) (3, -8.65715026855468750000e-01) (4, 7.99783691763877868652e-03) (5, -2.59654593467712402344e+00) (6, -1.85240864753723144531e+00) (7, -4.35885131359100341797e-01) (8, -1.15830123424530029297e-01) (9, -3.88465434312820434570e-01) (10, -1.23766887187957763672e+00) (11, -2.85004067420959472656e+00) (12, 2.22306158393621444702e-02) (13, -9.18578863143920898438e-01) (14, 4.01014655828475952148e-01) (15, 1.24840080738067626953e-01) (16, 8.56553539633750915527e-02) (17, 3.22171866893768310547e-01) (18, -3.81859707832336425781e+00) (19, -2.01255321502685546875e+00) (20, 1.87882709503173828125e+00) (21, -1.07086849212646484375e+00) (22, 1.48528456687927246094e-01) (23, 1.35047063231468200684e-01) (24, -5.55074475705623626709e-02) (25, -7.55849957466125488281e-01) (26, -2.50505161285400390625e+00) (27, -1.53973817825317382812e+00) (28, 2.17769002914428710938e+00) (29, -3.49621295928955078125e+00) (30, -1.54785287380218505859e+00) (31, -3.55042458977550268173e-04) (32, 7.85643905401229858398e-02) (33, 4.00648266077041625977e-01) (34, -5.56901276111602783203e-01) (35, -8.26429605484008789062e-01) (36, 2.55862092971801757812e+00) (37, 2.86422443389892578125e+00) (38, -8.43562304973602294922e-01) (39, -2.22507864236831665039e-02) (40, -3.67529317736625671387e-02) (41, 5.94097524881362915039e-02) (42, 2.13303828239440917969e+00) (43, 2.08301663398742675781e+00) (44, 3.06075978279113769531e+00) (45, 1.14354681968688964844e+00) (46, 1.58526584506034851074e-01) (47, 1.13821995910257101059e-03) (48, -4.53452840447425842285e-02) (49, -8.96257817745208740234e-01) (50, -1.92859697341918945312e+00) (51, 2.51961421966552734375e+00) (52, 1.64654850959777832031e+00) (53, 2.29914045333862304688e+00) (54, -3.46376568078994750977e-01) (55, 1.01906023919582366943e-01) (56, 5.33036962151527404785e-02) (57, 1.69847100973129272461e-01) (58, 2.00286865234375000000e-01) (59, 2.00523659586906433105e-01) (60, 1.47631800174713134766e+00) (61, 1.80296671390533447266e+00) (62, 7.76037871837615966797e-01) (63, 9.71764802932739257812e-01) (64, -3.78255024552345275879e-02) (0, -4.96619902551174163818e-02) (1, 1.57772172242403030396e-02) (2, 1.66629397869110107422e+00) (3, 1.69360899925231933594e+00) (4, 1.79887378215789794922e+00) (5, -1.02873015403747558594e+00) (6, 4.62246477603912353516e-01) (7, 2.57915109395980834961e-01) (8, -7.89785906672477722168e-02) (9, 6.87170982360839843750e-01) (10, 1.61879539489746093750e+00) (11, 8.49405825138092041016e-01) (12, 1.92883801460266113281e+00) (13, 4.70256149768829345703e-01) (14, 8.66015553474426269531e-02) (15, 2.17403471469879150391e-01) (16, 9.17868912220001220703e-02) (17, 3.90310466289520263672e-01) (18, 1.58913254737854003906e+00) (19, 7.17935144901275634766e-01) (20, 2.01079559326171875000e+00) (21, 3.13091039657592773438e-01) (22, -6.90139755606651306152e-02) (23, 6.70470073819160461426e-02) (24, 1.72368958592414855957e-02) (25, 4.76273745298385620117e-01) (26, 1.45934844017028808594e+00) (27, 2.29823917150497436523e-01) (28, 1.79521930217742919922e+00) (29, 6.93377315998077392578e-01) (30, 8.50590467453002929688e-01) (31, 2.19476278871297836304e-02) (32, 7.22946524620056152344e-02) (33, 2.53742963075637817383e-01) (34, -1.77660807967185974121e-01) (35, -1.36404025554656982422e+00) (36, 1.01519298553466796875e+00) (37, 2.40950846672058105469e+00) (38, 1.66342961788177490234e+00) (39, -2.30036675930023193359e-03) (40, -4.14652526378631591797e-02) (41, -2.57839649915695190430e-01) (42, -9.04153585433959960938e-01) (43, -6.22997999191284179688e-01) (44, -4.53534610569477081299e-02) (45, 1.26583397388458251953e+00) (46, 1.33483302593231201172e+00) (47, -1.97952538728713989258e-02) (48, -7.16928616166114807129e-02) (49, -2.61680781841278076172e-01) (50, 5.30529499053955078125e-01) (51, 1.07778930664062500000e+00) (52, 1.53560221195220947266e+00) (53, 2.25761938095092773438e+00) (54, 9.81280684471130371094e-01) (55, -2.38949537277221679688e-01) (56, 1.97705235332250595093e-02) (57, 1.29020094871520996094e-01) (58, 1.78223240375518798828e+00) (59, 1.65999197959899902344e+00) (60, 2.59687995910644531250e+00) (61, 1.92487823963165283203e+00) (62, 1.51070967316627502441e-01) (63, -4.86279577016830444336e-01) (64, 1.00059591233730316162e-01) (0, -4.01135161519050598145e-02) (1, 1.50137171149253845215e-01) (2, 2.26917648315429687500e+00) (3, 8.11169743537902832031e-02) (4, 1.41820561885833740234e+00) (5, -4.98345851898193359375e-01) (6, 2.20580077171325683594e+00) (7, 9.82434093952178955078e-01) (8, 3.95153984427452087402e-02) (9, 9.37941133975982666016e-01) (10, 2.18098473548889160156e+00) (11, 3.83024525642395019531e+00) (12, 3.60975170135498046875e+00) (13, -1.14652371406555175781e+00) (14, -5.79389989376068115234e-01) (15, 3.40265184640884399414e-01) (16, -4.05612140893936157227e-02) (17, -1.30112361907958984375e+00) (18, -4.31930732727050781250e+00) (19, -7.55316209793090820312e+00) (20, -2.15420126914978027344e+00) (21, -2.09443974494934082031e+00) (22, 3.68415474891662597656e-01) (23, 2.14155495166778564453e-01) (24, 8.98707360029220581055e-02) (25, -2.46754318475723266602e-01) (26, -1.61924016475677490234e+00) (27, -4.62779808044433593750e+00) (28, -6.32787108421325683594e-01) (29, 2.80369371175765991211e-01) (30, 3.26662588119506835938e+00) (31, 7.25920647382736206055e-02) (32, 2.06089690327644348145e-02) (33, -1.16010165214538574219e+00) (34, -7.06487596035003662109e-01) (35, -6.41395211219787597656e-01) (36, 1.61549282073974609375e+00) (37, 2.29295969009399414062e+00) (38, 1.21443939208984375000e+00) (39, 9.01780202984809875488e-02) (40, 5.01659139990806579590e-02) (41, -2.14661389589309692383e-01) (42, 1.16742765903472900391e+00) (43, 3.32830691337585449219e+00) (44, -2.21919417381286621094e+00) (45, -6.10909843444824218750e+00) (46, -7.55333757400512695312e+00) (47, -3.61757837235927581787e-02) (48, 7.49904811382293701172e-02) (49, 4.18067365884780883789e-01) (50, -1.73801231384277343750e+00) (51, 3.10266613960266113281e+00) (52, 3.05134028196334838867e-01) (53, -1.70887112617492675781e+00) (54, 8.15001010894775390625e-01) (55, 4.66168254613876342773e-01) (56, 1.17510370910167694092e-01) (57, 3.83444786071777343750e-01) (58, -1.49858081713318824768e-02) (59, -1.18350112438201904297e+00) (60, -3.10171508789062500000e+00) (61, 2.47719120979309082031e+00) (62, 6.82149457931518554688e+00) (63, 2.04069590568542480469e+00) (64, -6.91518634557723999023e-02) (0, 7.72165134549140930176e-02) (1, 3.96973162889480590820e-01) (2, -4.50462281703948974609e-01) (3, -3.17457526922225952148e-01) (4, 2.58399754762649536133e-01) (5, 2.21180152893066406250e+00) (6, -7.47295498847961425781e-01) (7, -7.45071545243263244629e-02) (8, 3.64858321845531463623e-02) (9, -4.84070986509323120117e-01) (10, -2.07181882858276367188e+00) (11, -4.16586875915527343750e-01) (12, -2.32458561658859252930e-02) (13, 4.32003557682037353516e-01) (14, -1.25955510139465332031e+00) (15, -1.77955403923988342285e-01) (16, 2.28681221604347229004e-01) (17, -1.09569668769836425781e+00) (18, 7.97182559967041015625e-01) (19, 1.66106891632080078125e+00) (20, -1.66070950031280517578e+00) (21, -1.05037689208984375000e+00) (22, 2.17531293630599975586e-01) (23, -5.25882802903652191162e-02) (24, -8.48566219210624694824e-02) (25, -7.05310761928558349609e-01) (26, 2.17911314964294433594e+00) (27, 2.56582903861999511719e+00) (28, -6.54536187648773193359e-01) (29, -1.41562438011169433594e+00) (30, -2.28068292140960693359e-01) (31, 4.20731725171208381653e-03) (32, 1.66231058537960052490e-02) (33, 9.40135538578033447266e-01) (34, 2.46279406547546386719e+00) (35, 2.11275720596313476562e+00) (36, -5.05076766014099121094e-01) (37, 9.42095458507537841797e-01) (38, 1.65687358379364013672e+00) (39, 5.03806993365287780762e-02) (40, -2.17945463955402374268e-02) (41, -3.82338523864746093750e-01) (42, 7.03442156314849853516e-01) (43, -1.57543981075286865234e+00) (44, 2.18685674667358398438e+00) (45, 3.38988113403320312500e+00) (46, 4.04765081405639648438e+00) (47, -4.70013432204723358154e-02) (48, -1.81571736931800842285e-01) (49, -1.95204472541809082031e+00) (50, -3.71735125780105590820e-01) (51, -1.77375495433807373047e+00) (52, -2.67697036266326904297e-01) (53, -6.87651753425598144531e-01) (54, -6.13837182521820068359e-01) (55, -1.43702939152717590332e-01) (56, -9.47152227163314819336e-02) (57, 7.51454755663871765137e-02) (58, -4.73777443170547485352e-01) (59, 8.62678945064544677734e-01) (60, 1.62537741661071777344e+00) (61, -9.30178821086883544922e-01) (62, -1.74300467967987060547e+00) (63, 2.96599984169006347656e-01) (64, 3.13888192176818847656e-02) (0, -6.66415542364120483398e-02) (1, -2.02329695224761962891e-01) (2, 1.19204795360565185547e+00) (3, 1.53185546398162841797e+00) (4, 1.28965556621551513672e+00) (5, -5.77745437622070312500e-01) (6, 7.10046827793121337891e-01) (7, 2.30691745877265930176e-01) (8, 7.41414874792098999023e-02) (9, 4.35662955045700073242e-01) (10, 1.49089181423187255859e+00) (11, 1.08523094654083251953e+00) (12, 1.49626064300537109375e+00) (13, 4.79821354150772094727e-01) (14, 2.24788352847099304199e-01) (15, 2.48000279068946838379e-01) (16, 9.26030948758125305176e-02) (17, 7.24498510360717773438e-01) (18, 2.73340058326721191406e+00) (19, 1.21271634101867675781e+00) (20, 1.32743036746978759766e+00) (21, 5.55873274803161621094e-01) (22, 3.78553241491317749023e-01) (23, 1.75858318805694580078e-01) (24, -4.77300323545932769775e-02) (25, 7.63186454772949218750e-01) (26, 2.50849533081054687500e+00) (27, 3.13223034143447875977e-01) (28, 1.49786305427551269531e+00) (29, 1.24235212802886962891e+00) (30, 1.00320863723754882812e+00) (31, 1.02577097713947296143e-01) (32, -2.45939288288354873657e-02) (33, 1.83009490370750427246e-01) (34, 8.26744958758354187012e-02) (35, -1.02560627460479736328e+00) (36, 8.00866484642028808594e-01) (37, 1.49306643009185791016e+00) (38, 1.21412718296051025391e+00) (39, 8.60784873366355895996e-02) (40, -1.53957642614841461182e-02) (41, -4.03325080871582031250e-01) (42, -4.39107179641723632812e-01) (43, 2.52709925174713134766e-01) (44, -5.02133481204509735107e-02) (45, 2.65720248222351074219e-01) (46, 5.65590858459472656250e-01) (47, 1.02891236543655395508e-01) (48, 2.75325011461973190308e-02) (49, -5.41528403759002685547e-01) (50, 3.63545745611190795898e-01) (51, 8.57729434967041015625e-01) (52, 1.02865624427795410156e+00) (53, 1.09488844871520996094e+00) (54, 7.80667960643768310547e-01) (55, -1.02930571883916854858e-02) (56, -8.09783414006233215332e-02) (57, -5.73383048176765441895e-02) (58, 9.92257356643676757812e-01) (59, 1.28022742271423339844e+00) (60, 2.19913625717163085938e+00) (61, 1.85764598846435546875e+00) (62, 5.01560151576995849609e-01) (63, -4.54660326242446899414e-01) (64, 1.67148143053054809570e-01) (0, -3.47818285226821899414e-02) (1, -2.34068706631660461426e-02) (2, -8.72162356972694396973e-02) (3, -1.34375894069671630859e+00) (4, -1.10159918665885925293e-01) (5, -2.97568655014038085938e+00) (6, -1.59223210811614990234e+00) (7, 1.01747341454029083252e-01) (8, -1.21203407645225524902e-01) (9, 1.02899961173534393311e-01) (10, 1.59503352642059326172e+00) (11, -2.86557221412658691406e+00) (12, -1.51148569583892822266e+00) (13, -1.89795166254043579102e-01) (14, 1.16932487487792968750e+00) (15, 1.71568199992179870605e-01) (16, 3.32991802133619785309e-03) (17, -8.55020642280578613281e-01) (18, -5.69791221618652343750e+00) (19, -4.90539121627807617188e+00) (20, 6.04935884475708007812e-02) (21, -1.16951191425323486328e+00) (22, -8.59744787216186523438e-01) (23, -1.12233407795429229736e-01) (24, 2.12216712534427642822e-02) (25, -8.37999641895294189453e-01) (26, -4.63636493682861328125e+00) (27, -7.64402210712432861328e-01) (28, 3.93506765365600585938e-01) (29, -3.92861962318420410156e+00) (30, -1.42149817943572998047e+00) (31, -1.61178093403577804565e-02) (32, 3.17180082201957702637e-02) (33, 3.62802147865295410156e-01) (34, -1.19012343883514404297e+00) (35, -1.10747861862182617188e+00) (36, -9.15526509284973144531e-01) (37, -4.40596491098403930664e-01) (38, 4.49809700250625610352e-01) (39, 2.85440906882286071777e-02) (40, 1.15936405956745147705e-01) (41, 6.88104867935180664062e-01) (42, -1.22450828552246093750e+00) (43, -2.40209269523620605469e+00) (44, -6.81932032108306884766e-01) (45, 5.05273193120956420898e-02) (46, -4.75037544965744018555e-01) (47, -5.82971200346946716309e-02) (48, 1.64314553141593933105e-01) (49, 1.66867876052856445312e+00) (50, 1.18816089630126953125e+00) (51, 2.62017011642456054688e+00) (52, 4.52186203002929687500e+00) (53, 5.80407333374023437500e+00) (54, -5.53226530551910400391e-01) (55, -3.96321296691894531250e-01) (56, 5.50396814942359924316e-02) (57, 1.18843364715576171875e+00) (58, 4.32500028610229492188e+00) (59, 1.69941031932830810547e+00) (60, 2.95933747291564941406e+00) (61, 1.95053613185882568359e+00) (62, 5.47074496746063232422e-01) (63, -3.06848585605621337891e-01) (64, 8.00676941871643066406e-02) (0, -5.16044348478317260742e-02) (1, 1.92540481686592102051e-01) (2, -1.75043606758117675781e+00) (3, 1.02816194295883178711e-01) (4, -1.04577660560607910156e+00) (5, -7.43106007575988769531e-01) (6, -5.49613535404205322266e-01) (7, 7.76972770690917968750e-01) (8, 6.30183517932891845703e-01) (9, -1.66232679039239883423e-02) (10, -3.82517814636230468750e-01) (11, -5.48919975757598876953e-01) (12, -6.91103100776672363281e-01) (13, -1.25891342759132385254e-01) (14, -7.68903493881225585938e-02) (15, 3.17054450511932373047e-01) (16, -9.57601666450500488281e-02) (17, 4.98747915029525756836e-01) (18, 2.13337004184722900391e-01) (19, -4.16037034988403320312e+00) (20, -2.43645167350769042969e+00) (21, 1.14325737953186035156e+00) (22, 7.37551510334014892578e-01) (23, 7.47402235865592956543e-02) (24, -1.02900661528110504150e-01) (25, -4.03723478317260742188e-01) (26, -1.04939138889312744141e+00) (27, 3.40992867946624755859e-01) (28, -7.40883231163024902344e-01) (29, -2.61594343185424804688e+00) (30, 2.41176843643188476562e+00) (31, 1.29777025431394577026e-02) (32, 4.62397411465644836426e-02) (33, -3.12113672494888305664e-01) (34, 9.14326846599578857422e-01) (35, 6.94126367568969726562e-01) (36, 3.79724115133285522461e-01) (37, -2.40063571929931640625e+00) (38, 2.62221276760101318359e-01) (39, -4.09339368343353271484e-03) (40, -7.80571773648262023926e-02) (41, 1.36163365840911865234e+00) (42, 1.11852569580078125000e+01) (43, 6.98201799392700195312e+00) (44, -1.18191456794738769531e+00) (45, 2.12337538599967956543e-01) (46, -8.68794083595275878906e-01) (47, -8.05648714303970336914e-02) (48, 2.30177473276853561401e-02) (49, 3.58978092670440673828e-01) (50, 3.47660565376281738281e+00) (51, 3.45126986503601074219e+00) (52, -1.36435580253601074219e+00) (53, 2.98622101545333862305e-01) (54, -7.61290907859802246094e-01) (55, -1.33534029126167297363e-01) (56, -4.46271374821662902832e-02) (57, -5.37793457508087158203e-01) (58, -2.47317743301391601562e+00) (59, 3.04396241903305053711e-01) (60, -1.26062071323394775391e+00) (61, -1.25506770610809326172e+00) (62, -9.76275876164436340332e-02) (63, -1.32739797234535217285e-01) (64, 8.26475396752357482910e-03) (0, -7.71821364760398864746e-02) (1, -6.53590321540832519531e-01) (2, 7.05929219722747802734e-01) (3, -1.76403522491455078125e+00) (4, -4.60365682840347290039e-01) (5, 2.21596741676330566406e+00) (6, 1.57855236530303955078e+00) (7, 4.41602617502212524414e-01) (8, -1.06625974178314208984e-01) (9, -1.70606696605682373047e+00) (10, -5.53598785400390625000e+00) (11, -2.09605097770690917969e-02) (12, -1.15856659412384033203e+00) (13, -2.47176218032836914062e+00) (14, 3.64022493362426757812e-01) (15, -2.85955937579274177551e-03) (16, 7.18489335849881172180e-03) (17, -8.40150475502014160156e-01) (18, 2.68838095664978027344e+00) (19, 4.07538461685180664062e+00) (20, -1.32876670360565185547e+00) (21, -6.88862895965576171875e+00) (22, -3.78423571586608886719e+00) (23, -2.47436106204986572266e-01) (24, 7.26809054613113403320e-02) (25, 3.67995947599411010742e-01) (26, 3.67925524711608886719e+00) (27, -6.68498352169990539551e-02) (28, 9.64828670024871826172e-01) (29, 1.55714821815490722656e+00) (30, -4.10118043422698974609e-01) (31, 8.28954800963401794434e-02) (32, -9.87811163067817687988e-02) (33, 2.45775413513183593750e+00) (34, 1.59420669078826904297e+00) (35, 1.49843847751617431641e+00) (36, 3.24322247505187988281e+00) (37, 4.97833776473999023438e+00) (38, 2.70893502235412597656e+00) (39, -3.53489071130752563477e-03) (40, 4.02727387845516204834e-02) (41, -6.92655920982360839844e-01) (42, -3.02243447303771972656e+00) (43, 4.58568525314331054688e+00) (44, 3.64787197113037109375e+00) (45, 8.66778969764709472656e-01) (46, 1.54722428321838378906e+00) (47, 9.53717455267906188965e-02) (48, -1.72209721058607101440e-02) (49, -1.45325326919555664062e+00) (50, -2.75347352027893066406e+00) (51, 3.15079122781753540039e-01) (52, -2.78100997209548950195e-01) (53, -4.58367872238159179688e+00) (54, -1.13644517958164215088e-01) (55, 5.17507553100585937500e-01) (56, 3.54738719761371612549e-02) (57, -3.60312730073928833008e-01) (58, 7.50411897897720336914e-02) (59, -4.01090812683105468750e+00) (60, -2.40685299038887023926e-01) (61, 1.99052441120147705078e+00) (62, -2.47630074620246887207e-01) (63, 6.25216603279113769531e-01) (64, -1.99637651443481445312e-01) (0, -1.44671127200126647949e-02) (1, -4.20299440622329711914e-01) (2, 1.26254677772521972656e+00) (3, -2.32721138000488281250e+00) (4, -2.53699570894241333008e-01) (5, 3.46163368225097656250e+00) (6, 4.32870388031005859375e+00) (7, 2.30682682991027832031e+00) (8, -4.87051866948604583740e-02) (9, -1.30243182182312011719e+00) (10, 5.00945985317230224609e-01) (11, 1.46046161651611328125e+00) (12, 8.45520198345184326172e-01) (13, 8.28889131546020507812e-01) (14, -2.06486058235168457031e+00) (15, 5.06391346454620361328e-01) (16, -3.11466213315725326538e-03) (17, -3.56734216213226318359e-01) (18, 3.12928867340087890625e+00) (19, -6.19413554668426513672e-02) (20, -4.41308450698852539062e+00) (21, -6.04423809051513671875e+00) (22, -4.25064086914062500000e+00) (23, -2.25220158696174621582e-01) (24, -4.67497445642948150635e-02) (25, 1.84060251712799072266e+00) (26, 1.86159622669219970703e+00) (27, -4.26003932952880859375e+00) (28, -3.97637200355529785156e+00) (29, -1.77547931671142578125e+00) (30, -3.40235173702239990234e-01) (31, -2.18713264912366867065e-02) (32, -7.39930793642997741699e-02) (33, 1.37895512580871582031e+00) (34, -1.07576584815979003906e+00) (35, -3.57656598091125488281e+00) (36, -3.52273035049438476562e+00) (37, -2.18303346633911132812e+00) (38, 2.19634222984313964844e+00) (39, 7.31922686100006103516e-03) (40, -1.61001697182655334473e-01) (41, -3.17341113090515136719e+00) (42, 1.62142550945281982422e+00) (43, 2.50742053985595703125e+00) (44, -3.64496064186096191406e+00) (45, -3.87617468833923339844e-01) (46, -1.57898351550102233887e-01) (47, 6.15935102105140686035e-02) (48, 5.03377504646778106689e-02) (49, -3.07962608337402343750e+00) (50, 7.54753291606903076172e-01) (51, 4.27948713302612304688e+00) (52, 5.43682050704956054688e+00) (53, 2.11067891120910644531e+00) (54, -5.78139126300811767578e-02) (55, 1.34249448776245117188e-01) (56, 1.07901573181152343750e-01) (57, -1.66033163666725158691e-01) (58, -4.42029759287834167480e-02) (59, 2.80133867263793945312e+00) (60, 8.50577592849731445312e-01) (61, 1.76393926143646240234e+00) (62, 2.55354428291320800781e+00) (63, -4.70021143555641174316e-02) (64, -4.10473048686981201172e-02) (0, -7.08553194999694824219e-02) (1, 7.91859626770019531250e-01) (2, 2.92308759689331054688e+00) (3, 3.32300400733947753906e+00) (4, 2.40318560600280761719e+00) (5, 5.53524494171142578125e+00) (6, 2.12019991874694824219e+00) (7, -5.91854214668273925781e-01) (8, -5.98608590662479400635e-02) (9, 2.86438393592834472656e+00) (10, 2.48691082000732421875e+00) (11, 1.43567812442779541016e+00) (12, 9.45082128047943115234e-01) (13, 2.37335324287414550781e+00) (14, 3.50690156221389770508e-01) (15, -4.18938070535659790039e-01) (16, -3.31182144582271575928e-02) (17, 3.15716266632080078125e+00) (18, 3.47214862704277038574e-02) (19, 2.27219581604003906250e+00) (20, 4.18717336654663085938e+00) (21, 6.21336638927459716797e-01) (22, 1.15428471565246582031e+00) (23, 1.53464838862419128418e-01) (24, -2.77144312858581542969e-02) (25, -2.19676923751831054688e+00) (26, -2.13984847068786621094e+00) (27, 2.73740744590759277344e+00) (28, 3.20865106582641601562e+00) (29, 2.22949862480163574219e+00) (30, -3.31297969818115234375e+00) (31, -6.81489333510398864746e-02) (32, 3.78331984393298625946e-03) (33, -3.42440199851989746094e+00) (34, -3.80226063728332519531e+00) (35, 3.17015933990478515625e+00) (36, 3.28785800933837890625e+00) (37, -2.68349146842956542969e+00) (38, -5.85269021987915039062e+00) (39, 5.85064664483070373535e-02) (40, -7.16476365923881530762e-02) (41, -7.21898734569549560547e-01) (42, -4.72992467880249023438e+00) (43, -1.05650222301483154297e+00) (44, 9.85421985387802124023e-02) (45, -3.68848586082458496094e+00) (46, -2.81712579727172851562e+00) (47, -3.41718606650829315186e-02) (48, -9.53247398138046264648e-03) (49, 1.92805826663970947266e+00) (50, -7.83529877662658691406e-01) (51, -2.96352744102478027344e+00) (52, -1.96823322772979736328e+00) (53, -4.24099445343017578125e+00) (54, 2.53178536891937255859e-01) (55, 1.84324458241462707520e-01) (56, -1.12469689920544624329e-02) (57, 8.96117210388183593750e-01) (58, 1.76696574687957763672e+00) (59, 2.64196276664733886719e+00) (60, -1.59808671474456787109e+00) (61, -1.21093034744262695312e+00) (62, 1.32571423053741455078e+00) (63, 1.02117276191711425781e+00) (64, 2.48209685087203979492e-02) (0, -3.87377142906188964844e-02) (1, -3.52049440145492553711e-01) (2, -8.38374078273773193359e-01) (3, -3.04803514480590820312e+00) (4, 2.04266980290412902832e-01) (5, -4.65177154541015625000e+00) (6, -8.80862236022949218750e-01) (7, 1.05007088184356689453e+00) (8, 2.00903117656707763672e-01) (9, -2.38868668675422668457e-01) (10, -9.62455868721008300781e-01) (11, -2.99303126335144042969e+00) (12, -4.16136264801025390625e+00) (13, -4.00023460388183593750e+00) (14, 2.89019370079040527344e+00) (15, 6.14880979061126708984e-01) (16, 7.94060602784156799316e-02) (17, -1.61803019046783447266e+00) (18, 9.92077410221099853516e-01) (19, -1.69061517715454101562e+00) (20, -3.85760569572448730469e+00) (21, -1.45249772071838378906e+00) (22, -1.04069161415100097656e+00) (23, -2.24829003214836120605e-01) (24, -8.39614644646644592285e-02) (25, 5.70949912071228027344e-01) (26, 1.59243929386138916016e+00) (27, 2.77280569076538085938e+00) (28, 9.64614987373352050781e-01) (29, -1.64572429656982421875e+00) (30, 3.80376720428466796875e+00) (31, 7.63240922242403030396e-03) (32, 5.70662766695022583008e-02) (33, 1.81719779968261718750e+00) (34, 2.99822163581848144531e+00) (35, 9.85704064369201660156e-02) (36, 1.85028314590454101562e+00) (37, 2.46754169464111328125e+00) (38, 4.17201995849609375000e+00) (39, 2.88793668150901794434e-02) (40, 1.14922337234020233154e-01) (41, 3.25461721420288085938e+00) (42, 2.02142357826232910156e+00) (43, 2.51734662055969238281e+00) (44, 4.27813816070556640625e+00) (45, 1.02574646472930908203e+00) (46, 4.81283962726593017578e-01) (47, 6.02801516652107238770e-02) (48, -3.25522315688431262970e-03) (49, 8.08170795440673828125e-01) (50, 4.26860421895980834961e-01) (51, 1.48116564750671386719e+00) (52, -1.66465449333190917969e+00) (53, -2.14498853683471679688e+00) (54, 8.99956881999969482422e-01) (55, -4.17434304952621459961e-01) (56, -6.64104744791984558105e-02) (57, -6.84090793132781982422e-01) (58, 2.67214149236679077148e-01) (59, -4.10966634750366210938e+00) (60, -1.60691463947296142578e+00) (61, 4.81695890426635742188e-01) (62, -2.79919177293777465820e-01) (63, -1.08666813373565673828e+00) (64, 2.27421909570693969727e-01) (0, -2.24543958902359008789e-02) (1, -8.65810453891754150391e-01) (2, -6.03637874126434326172e-01) (3, -3.38576018810272216797e-01) (4, -2.37338137626647949219e+00) (5, -4.62736511230468750000e+00) (6, -2.75557905435562133789e-01) (7, -4.55954313278198242188e-01) (8, 1.68800968676805496216e-02) (9, -1.45450115203857421875e+00) (10, -1.97888839244842529297e+00) (11, -1.77161633968353271484e+00) (12, -8.02880644798278808594e-01) (13, -1.90358534455299377441e-01) (14, 1.98594951629638671875e+00) (15, -3.54323208332061767578e-01) (16, 4.09035431221127510071e-03) (17, -1.76672443747520446777e-01) (18, 3.89716577529907226562e+00) (19, 4.13538694381713867188e+00) (20, 3.26739954948425292969e+00) (21, 5.35761642456054687500e+00) (22, 9.51787710189819335938e-01) (23, -1.03283231146633625031e-03) (24, 6.62298724055290222168e-02) (25, 2.45162439346313476562e+00) (26, 5.23389053344726562500e+00) (27, 6.23007230460643768311e-02) (28, -3.07748532295227050781e+00) (29, 4.05413770675659179688e+00) (30, 2.74679183959960937500e+00) (31, 3.15201953053474426270e-02) (32, -3.15683372318744659424e-02) (33, 1.75167953968048095703e+00) (34, 2.02563571929931640625e+00) (35, -5.19763374328613281250e+00) (36, -2.11643171310424804688e+00) (37, 3.03895640373229980469e+00) (38, 1.51028168201446533203e+00) (39, 1.59897655248641967773e-03) (40, 2.25182235240936279297e-01) (41, 3.29572272300720214844e+00) (42, -5.47494363784790039062e+00) (43, -2.42025947570800781250e+00) (44, -3.77046257257461547852e-01) (45, 4.84424769878387451172e-01) (46, -3.11120176315307617188e+00) (47, -1.25853791832923889160e-01) (48, 1.29108622670173645020e-01) (49, 1.10095965862274169922e+00) (50, -1.09460008144378662109e+00) (51, -7.92679786682128906250e-01) (52, -2.54915446043014526367e-01) (53, -2.63106393814086914062e+00) (54, -1.10100567340850830078e+00) (55, -1.43736183643341064453e-01) (56, -9.54287648200988769531e-02) (57, -7.59081900119781494141e-01) (58, -8.79232585430145263672e-01) (59, -3.34087681770324707031e+00) (60, 9.62671861052513122559e-02) (61, 1.80831372737884521484e+00) (62, 9.56156909465789794922e-01) (63, 3.03646892309188842773e-01) (64, 7.00003504753112792969e-02) (0, -6.52866363525390625000e-02) (1, 4.34151589870452880859e-01) (2, -1.05843436717987060547e+00) (3, 5.69338560104370117188e-01) (4, -1.40019917488098144531e+00) (5, -2.29480171203613281250e+00) (6, -2.30270695686340332031e+00) (7, -1.48527419567108154297e+00) (8, 2.13570192456245422363e-01) (9, 1.49269735813140869141e+00) (10, 2.32323837280273437500e+00) (11, -1.44749295711517333984e+00) (12, 7.94095873832702636719e-01) (13, 2.14033627510070800781e+00) (14, 2.32381701469421386719e+00) (15, -7.49449208378791809082e-02) (16, -9.50367301702499389648e-02) (17, -1.99700653553009033203e-01) (18, -3.91551733016967773438e-01) (19, -2.97177600860595703125e+00) (20, 1.19793927669525146484e+00) (21, 7.48122406005859375000e+00) (22, 6.38229274749755859375e+00) (23, 4.20639693737030029297e-01) (24, -1.35884787887334823608e-02) (25, -1.82523214817047119141e+00) (26, -2.73753762245178222656e+00) (27, -3.81331115961074829102e-01) (28, 2.11881327629089355469e+00) (29, 1.30765545368194580078e+00) (30, 1.40622413158416748047e+00) (31, -1.02486036717891693115e-01) (32, 6.84410855174064636230e-02) (33, -5.63846051692962646484e-01) (34, 1.97807264328002929688e+00) (35, 7.33392059803009033203e-01) (36, 1.41675484180450439453e+00) (37, 2.04307627677917480469e+00) (38, -1.56889450550079345703e+00) (39, 8.80689844489097595215e-02) (40, -1.72342248260974884033e-02) (41, 1.46234142780303955078e+00) (42, 3.94097471237182617188e+00) (43, -9.35122251510620117188e-01) (44, 1.89295485615730285645e-01) (45, 9.21430289745330810547e-01) (46, 7.31037914752960205078e-01) (47, -3.77375911921262741089e-03) (48, -2.31531709432601928711e-02) (49, -7.60433380492031574249e-04) (50, -8.48344087600708007812e-01) (51, -1.59498107433319091797e+00) (52, -2.60152769088745117188e+00) (53, -1.50548875331878662109e+00) (54, 5.26640713214874267578e-02) (55, -1.40894502401351928711e-01) (56, 7.99620989710092544556e-03) (57, -1.69552475214004516602e-01) (58, -1.20228421688079833984e+00) (59, -1.85686814785003662109e+00) (60, -8.09346437454223632812e-01) (61, -2.46152949333190917969e+00) (62, -1.12288606166839599609e+00) (63, -7.88700342178344726562e-01) (64, 8.88103619217872619629e-02) (65, 1.17121922969818115234e+00) (66, -1.85881599783897399902e-01) (67, 6.28841757774353027344e-01) (68, -1.13935291767120361328e+00) (69, 6.79847300052642822266e-02) (70, -1.01046338677406311035e-01) (71, 1.08841991424560546875e+00) (72, -9.84134256839752197266e-01) (73, -1.43469452857971191406e+00) (74, -9.42674338817596435547e-01) (75, -3.42875838279724121094e-01) (76, -1.19294977188110351562e+00) (77, -7.05148756504058837891e-01) (78, 2.82267618179321289062e+00) (79, -2.68385553359985351562e+00) (80, 1.28984367847442626953e+00) (81, -6.08209800720214843750e+00) (82, -3.73083543777465820312e+00) (83, 2.00319862365722656250e+00) (84, 1.79857385158538818359e+00) (85, -1.31301546096801757812e+00) (65, 3.50050759315490722656e+00) (66, 1.80290639400482177734e+00) (67, -3.40162467956542968750e+00) (68, 1.92271602153778076172e+00) (69, 8.09533670544624328613e-02) (70, -1.98636782169342041016e+00) (71, -1.79284512996673583984e+00) (72, 9.42289650440216064453e-01) (73, -2.49269890785217285156e+00) (74, -3.55145144462585449219e+00) (75, 1.46002030372619628906e+00) (76, -2.34465813636779785156e+00) (77, -1.51201856136322021484e+00) (78, -1.78157746791839599609e+00) (79, 3.08630824089050292969e+00) (80, -1.70594528317451477051e-01) (81, 3.79715514183044433594e+00) (82, -3.59196829795837402344e+00) (83, -3.75203341245651245117e-01) (84, -1.49685811996459960938e+00) (85, -2.59304165840148925781e+00) (65, 2.22606325149536132812e+00) (66, -2.63049244880676269531e+00) (67, -3.86229681968688964844e+00) (68, -8.33802044391632080078e-01) (69, 1.12563986331224441528e-02) (70, -1.45951735973358154297e+00) (71, 1.40356540679931640625e+00) (72, 1.98806092143058776855e-01) (73, -1.44846546649932861328e+00) (74, 3.67145204544067382812e+00) (75, -3.38473677635192871094e+00) (76, -1.49371373653411865234e+00) (77, 2.33812260627746582031e+00) (78, 1.33300757408142089844e+00) (79, -2.34409999847412109375e+00) (80, 1.59780561923980712891e+00) (81, 2.48474287986755371094e+00) (82, -1.35326492786407470703e+00) (83, -1.94056481122970581055e-01) (84, -1.20058095455169677734e+00) (85, -1.47085058689117431641e+00) (65, -2.95688319206237792969e+00) (66, 2.25232315063476562500e+00) (67, -4.18920278549194335938e-01) (68, -2.40516328811645507812e+00) (69, 9.85670760273933410645e-02) (70, -4.94430780410766601562e-01) (71, 2.59915494918823242188e+00) (72, 1.59970641136169433594e+00) (73, -1.09514820575714111328e+00) (74, -2.95399260520935058594e+00) (75, 1.25350940227508544922e+00) (76, -1.98806858062744140625e+00) (77, 2.57802939414978027344e+00) (78, -3.14584159851074218750e+00) (79, -1.03759062290191650391e+00) (80, -2.17135214805603027344e+00) (81, -4.93540614843368530273e-01) (82, -8.40799152851104736328e-01) (83, -3.13839244842529296875e+00) (84, 2.48962923884391784668e-01) (85, -1.20635795593261718750e+00) (65, 4.97774660587310791016e-01) (66, -8.82907807826995849609e-01) (67, 2.75359821319580078125e+00) (68, 3.66690897941589355469e+00) (69, 1.92149879876524209976e-03) (70, -6.06379270553588867188e-01) (71, -4.24446964263916015625e+00) (72, -1.53422760963439941406e+00) (73, -1.02316141128540039062e+00) (74, -1.79883098602294921875e+00) (75, -2.30618548393249511719e+00) (76, -9.34809207916259765625e-01) (77, 8.89829695224761962891e-01) (78, 2.15015307068824768066e-01) (79, 8.17400693893432617188e-01) (80, -2.09999561309814453125e+00) (81, -3.22333574295043945312e+00) (82, 4.40364694595336914062e+00) (83, 3.04836916923522949219e+00) (84, -5.97102701663970947266e-01) (85, -1.14887475967407226562e+00) (65, -1.31131613254547119141e+00) (66, -1.66292476654052734375e+00) (67, 1.85028040409088134766e+00) (68, -3.91023349761962890625e+00) (69, 8.68519395589828491211e-02) (70, -9.45784375071525573730e-02) (71, 2.78871893882751464844e-01) (72, -2.45344781875610351562e+00) (73, -1.28939461708068847656e+00) (74, -9.75108444690704345703e-01) (75, 8.50377500057220458984e-01) (76, -1.08682489395141601562e+00) (77, -1.85327982902526855469e+00) (78, -2.03328227996826171875e+00) (79, 1.02008414268493652344e+00) (80, 3.44894623756408691406e+00) (81, 2.47292232513427734375e+00) (82, -1.22435343265533447266e+00) (83, -1.86115872859954833984e+00) (84, -4.82923984527587890625e+00) (85, -1.29493618011474609375e+00) (65, -1.74777269363403320312e+00) (66, -2.00479716062545776367e-01) (67, -3.18676781654357910156e+00) (68, 1.70702040195465087891e+00) (69, 9.75122600793838500977e-02) (70, -1.35855937004089355469e+00) (71, 2.58045840263366699219e+00) (72, 1.20637619495391845703e+00) (73, -1.74719262123107910156e+00) (74, -6.59746289253234863281e-01) (75, -5.04604220390319824219e-01) (76, -1.49755501747131347656e+00) (77, -5.64893305301666259766e-01) (78, 1.00109219551086425781e+00) (79, 1.93607270717620849609e+00) (80, 1.97628545761108398438e+00) (81, -4.83303356170654296875e+00) (82, 1.68447363376617431641e+00) (83, -3.03965282440185546875e+00) (84, -7.54338920116424560547e-01) (85, -1.62767243385314941406e+00) (65, -2.02792310714721679688e+00) (66, 3.28758573532104492188e+00) (67, 2.39590287208557128906e+00) (68, -3.04642748832702636719e+00) (69, 7.68227055668830871582e-02) (70, -1.77314364910125732422e+00) (71, -2.91644477844238281250e+00) (72, 4.59050327539443969727e-01) (73, -1.70032417774200439453e+00) (74, 3.48410964012145996094e+00) (75, -5.32574832439422607422e-01) (76, -1.79219114780426025391e+00) (77, -3.21113300323486328125e+00) (78, 1.84781384468078613281e+00) (79, 5.26804745197296142578e-01) (80, -1.47746455669403076172e+00) (81, 9.34704303741455078125e-01) (82, -3.68652850389480590820e-01) (83, -1.85757863521575927734e+00) (84, 1.85100460052490234375e+00) (85, -1.69956910610198974609e+00) (65, -2.66723918914794921875e+00) (66, -1.44903469085693359375e+00) (67, -1.35617494583129882812e+00) (68, 4.33261728286743164062e+00) (69, -2.63670063577592372894e-03) (70, -1.25884139537811279297e+00) (71, 2.41722059249877929688e+00) (72, -5.63123285770416259766e-01) (73, -3.59083175659179687500e+00) (74, -2.22856044769287109375e+00) (75, 2.63823914527893066406e+00) (76, -3.21711921691894531250e+00) (77, -2.84395742416381835938e+00) (78, 3.01498842239379882812e+00) (79, -2.15093398094177246094e+00) (80, -1.82932877540588378906e+00) (81, 4.47365140914916992188e+00) (82, -7.04915344715118408203e-01) (83, -1.88762080669403076172e+00) (84, 1.20988225936889648438e+00) (85, -3.65179443359375000000e+00) (65, -9.74023807793855667114e-03) (66, -2.05450701713562011719e+00) (67, 6.11315190792083740234e-01) (68, -3.63679814338684082031e+00) (69, -1.40159418806433677673e-02) (70, -1.95349919795989990234e+00) (71, 9.04866635799407958984e-01) (72, -2.17438745498657226562e+00) (73, -1.08655393123626708984e+00) (74, -3.15583586692810058594e+00) (75, -1.20007169246673583984e+00) (76, -6.92360043525695800781e-01) (77, -2.64855313301086425781e+00) (78, -2.91048383712768554688e+00) (79, -1.37947690486907958984e+00) (80, -3.88305258750915527344e+00) (81, 3.06184339523315429688e+00) (82, -3.21096229553222656250e+00) (83, 3.60999226570129394531e+00) (84, 3.43610429763793945312e+00) (85, -1.01549279689788818359e+00) 
