FANN_FLO_2.1
num_layers=3
learning_rate=0.050000
connection_rate=1.000000
network_type=0
learning_momentum=0.000000
training_algorithm=0
train_error_function=1
train_stop_function=0
cascade_output_change_fraction=0.010000
quickprop_decay=-0.000100
quickprop_mu=1.750000
rprop_increase_factor=1.200000
rprop_decrease_factor=0.500000
rprop_delta_min=0.000000
rprop_delta_max=50.000000
rprop_delta_zero=0.100000
cascade_output_stagnation_epochs=12
cascade_candidate_change_fraction=0.010000
cascade_candidate_stagnation_epochs=12
cascade_max_out_epochs=150
cascade_min_out_epochs=50
cascade_max_cand_epochs=150
cascade_min_cand_epochs=50
cascade_num_candidate_groups=2
bit_fail_limit=3.49999994039535522461e-01
cascade_candidate_limit=1.00000000000000000000e+03
cascade_weight_multiplier=4.00000005960464477539e-01
cascade_activation_functions_count=10
cascade_activation_functions=3 5 7 8 10 11 14 15 16 17 
cascade_activation_steepnesses_count=4
cascade_activation_steepnesses=2.50000000000000000000e-01 5.00000000000000000000e-01 7.50000000000000000000e-01 1.00000000000000000000e+00 
layer_sizes=65 51 11 
scale_included=0
neurons (num_inputs, activation_function, activation_steepness)=(0, 0, 0.00000000000000000000e+00) (0, 0, 0.00000000000000000000e+00) (0, 0, 0.00000000000000000000e+00) (0, 0, 0.00000000000000000000e+00) (0, 0, 0.00000000000000000000e+00) (0, 0, 0.00000000000000000000e+00) (0, 0, 0.00000000000000000000e+00) (0, 0, 0.00000000000000000000e+00) (0, 0, 0.00000000000000000000e+00) (0, 0, 0.00000000000000000000e+00) (0, 0, 0.00000000000000000000e+00) (0, 0, 0.00000000000000000000e+00) (0, 0, 0.00000000000000000000e+00) (0, 0, 0.00000000000000000000e+00) (0, 0, 0.00000000000000000000e+00) (0, 0, 0.00000000000000000000e+00) (0, 0, 0.00000000000000000000e+00) (0, 0, 0.00000000000000000000e+00) (0, 0, 0.00000000000000000000e+00) (0, 0, 0.00000000000000000000e+00) (0, 0, 0.00000000000000000000e+00) (0, 0, 0.00000000000000000000e+00) (0, 0, 0.00000000000000000000e+00) (0, 0, 0.00000000000000000000e+00) (0, 0, 0.00000000000000000000e+00) (0, 0, 0.00000000000000000000e+00) (0, 0, 0.00000000000000000000e+00) (0, 0, 0.00000000000000000000e+00) (0, 0, 0.00000000000000000000e+00) (0, 0, 0.00000000000000000000e+00) (0, 0, 0.00000000000000000000e+00) (0, 0, 0.00000000000000000000e+00) (0, 0, 0.00000000000000000000e+00) (0, 0, 0.00000000000000000000e+00) (0, 0, 0.00000000000000000000e+00) (0, 0, 0.00000000000000000000e+00) (0, 0, 0.00000000000000000000e+00) (0, 0, 0.00000000000000000000e+00) (0, 0, 0.00000000000000000000e+00) (0, 0, 0.00000000000000000000e+00) (0, 0, 0.00000000000000000000e+00) (0, 0, 0.00000000000000000000e+00) (0, 0, 0.00000000000000000000e+00) (0, 0, 0.00000000000000000000e+00) (0, 0, 0.00000000000000000000e+00) (0, 0, 0.00000000000000000000e+00) (0, 0, 0.00000000000000000000e+00) (0, 0, 0.00000000000000000000e+00) (0, 0, 0.00000000000000000000e+00) (0, 0, 0.00000000000000000000e+00) (0, 0, 0.00000000000000000000e+00) (0, 0, 0.00000000000000000000e+00) (0, 0, 0.00000000000000000000e+00) (0, 0, 0.00000000000000000000e+00) (0, 0, 0.00000000000000000000e+00) (0, 0, 0.00000000000000000000e+00) (0, 0, 0.00000000000000000000e+00) (0, 0, 0.00000000000000000000e+00) (0, 0, 0.00000000000000000000e+00) (0, 0, 0.00000000000000000000e+00) (0, 0, 0.00000000000000000000e+00) (0, 0, 0.00000000000000000000e+00) (0, 0, 0.00000000000000000000e+00) (0, 0, 0.00000000000000000000e+00) (0, 0, 0.00000000000000000000e+00) (65, 3, 5.00000000000000000000e-01) (65, 3, 5.00000000000000000000e-01) (65, 3, 5.00000000000000000000e-01) (65, 3, 5.00000000000000000000e-01) (65, 3, 5.00000000000000000000e-01) (65, 3, 5.00000000000000000000e-01) (65, 3, 5.00000000000000000000e-01) (65, 3, 5.00000000000000000000e-01) (65, 3, 5.00000000000000000000e-01) (65, 3, 5.00000000000000000000e-01) (65, 3, 5.00000000000000000000e-01) (65, 3, 5.00000000000000000000e-01) (65, 3, 5.00000000000000000000e-01) (65, 3, 5.00000000000000000000e-01) (65, 3, 5.00000000000000000000e-01) (65, 3, 5.00000000000000000000e-01) (65, 3, 5.00000000000000000000e-01) (65, 3, 5.00000000000000000000e-01) (65, 3, 5.00000000000000000000e-01) (65, 3, 5.00000000000000000000e-01) (65, 3, 5.00000000000000000000e-01) (65, 3, 5.00000000000000000000e-01) (65, 3, 5.00000000000000000000e-01) (65, 3, 5.00000000000000000000e-01) (65, 3, 5.00000000000000000000e-01) (65, 3, 5.00000000000000000000e-01) (65, 3, 5.00000000000000000000e-01) (65, 3, 5.00000000000000000000e-01) (65, 3, 5.00000000000000000000e-01) (65, 3, 5.00000000000000000000e-01) (65, 3, 5.00000000000000000000e-01) (65, 3, 5.00000000000000000000e-01) (65, 3, 5.00000000000000000000e-01) (65, 3, 5.00000000000000000000e-01) (65, 3, 5.00000000000000000000e-01) (65, 3, 5.00000000000000000000e-01) (65, 3, 5.00000000000000000000e-01) (65, 3, 5.00000000000000000000e-01) (65, 3, 5.00000000000000000000e-01) (65, 3, 5.00000000000000000000e-01) (65, 3, 5.00000000000000000000e-01) (65, 3, 5.00000000000000000000e-01) (65, 3, 5.00000000000000000000e-01) (65, 3, 5.00000000000000000000e-01) (65, 3, 5.00000000000000000000e-01) (65, 3, 5.00000000000000000000e-01) (65, 3, 5.00000000000000000000e-01) (65, 3, 5.00000000000000000000e-01) (65, 3, 5.00000000000000000000e-01) (65, 3, 5.00000000000000000000e-01) (0, 3, 0.00000000000000000000e+00) (51, 3, 5.00000000000000000000e-01) (51, 3, 5.00000000000000000000e-01) (51, 3, 5.00000000000000000000e-01) (51, 3, 5.00000000000000000000e-01) (51, 3, 5.00000000000000000000e-01) (51, 3, 5.00000000000000000000e-01) (51, 3, 5.00000000000000000000e-01) (51, 3, 5.00000000000000000000e-01) (51, 3, 5.00000000000000000000e-01) (51, 3, 5.00000000000000000000e-01) (0, 3, 0.00000000000000000000e+00) 
connections (connected_to_neuron, weight)=(0, -6.08251653611660003662e-02) (1, 2.83707641065120697021e-02) (2, 1.33984065055847167969e+00) (3, 2.79457002878189086914e-01) (4, 8.96798849105834960938e-01) (5, 2.78409528732299804688e+00) (6, 2.14086627960205078125e+00) (7, 8.93032610416412353516e-01) (8, -5.44145610183477401733e-03) (9, -1.92775819450616836548e-02) (10, 7.37922430038452148438e-01) (11, 1.60599696636199951172e+00) (12, 1.45572924613952636719e+00) (13, 9.54352855682373046875e-01) (14, -5.73240578174591064453e-01) (15, 2.41528004407882690430e-01) (16, -8.41521695256233215332e-02) (17, -2.31749132275581359863e-01) (18, -3.18205624818801879883e-01) (19, -6.87294423580169677734e-01) (20, -7.25605368614196777344e-01) (21, -2.63678908348083496094e+00) (22, -1.61089015007019042969e+00) (23, 7.74017646908760070801e-02) (24, -9.55483689904212951660e-02) (25, 2.71076232194900512695e-01) (26, 1.32045996189117431641e+00) (27, -5.08323498070240020752e-02) (28, 2.21673458814620971680e-01) (29, 4.42834794521331787109e-01) (30, 3.48453730344772338867e-01) (31, -2.57805828005075454712e-02) (32, -6.62036687135696411133e-02) (33, 2.03332245349884033203e-01) (34, 2.58184075355529785156e-01) (35, 1.11705876886844635010e-01) (36, 3.05266976356506347656e-01) (37, 1.69137522578239440918e-01) (38, 1.13605856895446777344e+00) (39, -8.91492888331413269043e-02) (40, 3.57471108436584472656e-02) (41, -6.67227685451507568359e-01) (42, -1.25303721427917480469e+00) (43, 6.30456626415252685547e-01) (44, -8.34407448768615722656e-01) (45, 1.44368156790733337402e-01) (46, 3.71513754129409790039e-01) (47, -1.87864322215318679810e-02) (48, 8.36375579237937927246e-02) (49, -2.70192414522171020508e-01) (50, -1.06862179934978485107e-01) (51, -7.64162987470626831055e-02) (52, -4.02626901865005493164e-01) (53, -2.29933917522430419922e-01) (54, 9.17304083704948425293e-02) (55, 7.22692385315895080566e-02) (56, 4.16145920753479003906e-02) (57, -2.82693803310394287109e-02) (58, 2.75784105062484741211e-01) (59, 2.69414424896240234375e-01) (60, -8.05589616298675537109e-01) (61, 2.55279242992401123047e-01) (62, -2.80596874654293060303e-02) (63, -1.12133309245109558105e-01) (64, 1.50888741016387939453e-01) (0, 1.91260352730751037598e-02) (1, -1.53953954577445983887e-01) (2, -3.91605794429779052734e-02) (3, 5.75259685516357421875e-01) (4, 4.61921125650405883789e-01) (5, -2.68047563731670379639e-02) (6, 7.45071545243263244629e-02) (7, -2.23891646601259708405e-03) (8, 3.81321310997009277344e-02) (9, 1.14250734448432922363e-01) (10, 5.04299737513065338135e-02) (11, -8.93569439649581909180e-02) (12, 5.15814423561096191406e-02) (13, -7.04313740134239196777e-02) (14, -4.67701405286788940430e-02) (15, 1.43333598971366882324e-01) (16, -9.06055048108100891113e-02) (17, -2.08463922142982482910e-01) (18, -1.47481977939605712891e-01) (19, 2.05434933304786682129e-02) (20, 1.41232848167419433594e-01) (21, -1.32938921451568603516e-01) (22, -1.28577783703804016113e-01) (23, 1.22167438268661499023e-01) (24, -2.80061969533562660217e-03) (25, 2.82427966594696044922e-02) (26, 3.33959370851516723633e-01) (27, 3.07007074356079101562e-01) (28, 2.81560242176055908203e-01) (29, -2.19679236412048339844e-01) (30, 6.68649747967720031738e-02) (31, -4.29207012057304382324e-02) (32, 3.93469594419002532959e-02) (33, 1.05448722839355468750e-01) (34, 3.70173573493957519531e-01) (35, -2.32574880123138427734e-01) (36, 3.18483829498291015625e-01) (37, 1.04993112385272979736e-01) (38, 7.79055804014205932617e-02) (39, -1.81573480367660522461e-02) (40, -6.50174319744110107422e-02) (41, 6.59142658114433288574e-02) (42, 2.55522400140762329102e-01) (43, 5.26863075792789459229e-02) (44, -1.53994977474212646484e-01) (45, -3.66784512996673583984e-01) (46, -3.50923031568527221680e-01) (47, 9.03621688485145568848e-02) (48, -7.10082948207855224609e-02) (49, -2.39323601126670837402e-01) (50, 1.44828557968139648438e-01) (51, 2.15993188321590423584e-02) (52, -1.30483368411660194397e-02) (53, -2.85214185714721679688e-01) (54, -2.60369092226028442383e-01) (55, -5.22447861731052398682e-02) (56, 5.89187778532505035400e-02) (57, -5.34566491842269897461e-02) (58, 5.19284605979919433594e-02) (59, 1.17160059511661529541e-01) (60, 1.08115188777446746826e-01) (61, -2.18585729598999023438e-02) (62, 1.03683970868587493896e-01) (63, -1.06497325003147125244e-01) (64, -7.65078365802764892578e-02) (0, 7.66502693295478820801e-02) (1, 4.75706726312637329102e-01) (2, 4.04835194349288940430e-01) (3, 1.72718822956085205078e+00) (4, 1.49598157405853271484e+00) (5, 4.27080631256103515625e-01) (6, 1.24787116050720214844e+00) (7, 6.65795132517814636230e-02) (8, 3.10146063566207885742e-01) (9, 1.29522228240966796875e+00) (10, 3.67347788810729980469e+00) (11, 2.75611996650695800781e+00) (12, 6.31910681724548339844e-01) (13, 2.49533629417419433594e+00) (14, 6.85300707817077636719e-01) (15, 1.84157580137252807617e-01) (16, -4.25753295421600341797e-02) (17, -4.63509738445281982422e-01) (18, 5.04853129386901855469e-01) (19, -4.79894924163818359375e+00) (20, -1.65200281143188476562e+00) (21, 2.35349059104919433594e+00) (22, 1.02684557437896728516e+00) (23, 9.61277410387992858887e-02) (24, -5.14602884650230407715e-02) (25, -2.82202094793319702148e-01) (26, -3.50808769464492797852e-01) (27, -8.34630429744720458984e-01) (28, 4.44485813379287719727e-01) (29, 6.21443867683410644531e-01) (30, 1.16868507862091064453e+00) (31, 8.87893140316009521484e-02) (32, 4.75822389125823974609e-02) (33, -5.61318278312683105469e-01) (34, 7.35792994499206542969e-01) (35, 6.01523578166961669922e-01) (36, -1.64632701873779296875e+00) (37, -1.19137275218963623047e+00) (38, -5.29510259628295898438e-01) (39, -8.22462365031242370605e-02) (40, 6.37812241911888122559e-02) (41, 1.71909540891647338867e-01) (42, -1.68621408939361572266e+00) (43, -2.89115381240844726562e+00) (44, -2.02883839607238769531e+00) (45, -4.33389276266098022461e-01) (46, -1.18469607830047607422e+00) (47, -4.78796362876892089844e-02) (48, -5.51356375217437744141e-02) (49, 2.42098256945610046387e-01) (50, 2.80578374862670898438e-01) (51, -1.32800090312957763672e+00) (52, -7.43352651596069335938e-01) (53, -3.38460862636566162109e-01) (54, 9.31286394596099853516e-01) (55, 5.44091351330280303955e-02) (56, -1.08034703880548477173e-02) (57, -2.66472220420837402344e-01) (58, -8.71775090694427490234e-01) (59, 1.86023616790771484375e+00) (60, -6.36771142482757568359e-01) (61, -2.31484580039978027344e+00) (62, 4.71852332353591918945e-01) (63, -1.23673029243946075439e-01) (64, 1.47244751453399658203e-01) (0, -8.93111899495124816895e-02) (1, 1.20981991291046142578e-01) (2, 1.89579808712005615234e+00) (3, 6.04515612125396728516e-01) (4, 9.27071452140808105469e-01) (5, 8.17343533039093017578e-01) (6, 9.62321281433105468750e-01) (7, -1.23333279043436050415e-02) (8, -6.88929855823516845703e-02) (9, 4.40022051334381103516e-01) (10, 1.22384774684906005859e+00) (11, 1.87269437313079833984e+00) (12, 1.77228581905364990234e+00) (13, 4.45380300283432006836e-01) (14, -6.09486782923340797424e-03) (15, 2.74937599897384643555e-01) (16, -5.39890378713607788086e-02) (17, -1.30648446083068847656e+00) (18, -1.48351335525512695312e+00) (19, -9.81002449989318847656e-01) (20, -2.00659185647964477539e-01) (21, 1.00025296211242675781e+00) (22, -3.41700106859207153320e-01) (23, 7.26482421159744262695e-02) (24, -8.55754539370536804199e-02) (25, 2.37002566456794738770e-01) (26, 6.62136018276214599609e-01) (27, -7.22509205341339111328e-01) (28, -1.09755849838256835938e+00) (29, -4.08270396292209625244e-03) (30, 1.29418349266052246094e+00) (31, 6.36362731456756591797e-02) (32, 3.84046137332916259766e-02) (33, 1.35754632949829101562e+00) (34, 2.37270966172218322754e-01) (35, 1.33022636175155639648e-01) (36, -7.87733018398284912109e-01) (37, 1.20730423927307128906e+00) (38, 2.65125107765197753906e+00) (39, -9.67554375529289245605e-02) (40, -3.40604819357395172119e-02) (41, -9.18784067034721374512e-02) (42, -3.97480368614196777344e+00) (43, -2.36991810798645019531e+00) (44, -5.18345057964324951172e-01) (45, 1.65198290348052978516e+00) (46, 1.37613868713378906250e+00) (47, -3.57085838913917541504e-02) (48, 1.13765321671962738037e-01) (49, -2.76655480265617370605e-02) (50, -9.90270495414733886719e-01) (51, -2.99297302961349487305e-01) (52, -3.58058810234069824219e-01) (53, -1.25697267055511474609e+00) (54, -3.13621647655963897705e-02) (55, -6.16419427096843719482e-02) (56, 6.99500739574432373047e-03) (57, 3.62909317016601562500e-01) (58, 9.74813997745513916016e-01) (59, -1.15814451128244400024e-02) (60, -9.67977344989776611328e-01) (61, -1.53062713146209716797e+00) (62, -5.19956886768341064453e-01) (63, -2.46784791350364685059e-01) (64, 8.48250091075897216797e-02) (0, -2.74993330240249633789e-02) (1, 3.31577628850936889648e-01) (2, -1.35704267024993896484e+00) (3, 4.25987362861633300781e-01) (4, 1.02937030792236328125e+00) (5, 6.05242848396301269531e-01) (6, -2.06616848707199096680e-01) (7, -7.51379281282424926758e-02) (8, 4.38071370124816894531e-01) (9, 1.20367348194122314453e+00) (10, 7.51413643360137939453e-01) (11, 1.11255154013633728027e-01) (12, 6.29308581352233886719e-01) (13, 6.61603629589080810547e-01) (14, -9.25582349300384521484e-01) (15, -7.30697344988584518433e-03) (16, 3.01917623728513717651e-02) (17, -8.66730749607086181641e-01) (18, -6.15538775920867919922e-01) (19, -3.60600113868713378906e+00) (20, -2.64624762535095214844e+00) (21, 7.73544013500213623047e-01) (22, 1.26219367980957031250e+00) (23, 1.80084571242332458496e-01) (24, -8.07809829711914062500e-02) (25, -4.79897260665893554688e-01) (26, -1.41736209392547607422e+00) (27, -1.47347486019134521484e+00) (28, 8.62882018089294433594e-01) (29, -1.25855433940887451172e+00) (30, 2.51080125570297241211e-01) (31, -3.13731841742992401123e-02) (32, -6.58737942576408386230e-02) (33, -7.59975761175155639648e-02) (34, 1.38804584741592407227e-01) (35, 2.45217156410217285156e+00) (36, 1.41469073295593261719e+00) (37, -7.70834147930145263672e-01) (38, -3.81869077682495117188e-01) (39, -2.86966115236282348633e-02) (40, 2.32251379638910293579e-02) (41, -6.72599971294403076172e-01) (42, 2.23784995079040527344e+00) (43, -9.30258214473724365234e-01) (44, -1.05687117576599121094e+00) (45, 8.29775691032409667969e-01) (46, 1.63636982440948486328e+00) (47, 1.26483514904975891113e-02) (48, -1.40477240085601806641e-01) (49, -1.51253879070281982422e+00) (50, 6.19086325168609619141e-01) (51, -8.47843050956726074219e-01) (52, -1.52602720260620117188e+00) (53, 1.41797339916229248047e+00) (54, 3.32199364900588989258e-01) (55, -3.03895082324743270874e-02) (56, 2.57123894989490509033e-02) (57, -4.59054410457611083984e-01) (58, -1.15067696571350097656e+00) (59, 1.83179497718811035156e+00) (60, 7.21549630165100097656e-01) (61, 1.80733546614646911621e-01) (62, -6.55783772468566894531e-01) (63, -5.23940086364746093750e-01) (64, 1.46184337791055440903e-03) (0, -9.47194248437881469727e-02) (1, 3.50973188877105712891e-01) (2, 2.61100083589553833008e-01) (3, 2.25559756159782409668e-01) (4, 2.21822112798690795898e-01) (5, -1.58603012561798095703e+00) (6, -8.07686328887939453125e-01) (7, -7.31080234050750732422e-01) (8, -4.27326783537864685059e-02) (9, 2.89584189653396606445e-01) (10, 1.56945919990539550781e+00) (11, -6.38434588909149169922e-01) (12, -7.83103108406066894531e-01) (13, -6.82781100273132324219e-01) (14, 1.79694712162017822266e-01) (15, -1.56948849558830261230e-01) (16, 7.32648745179176330566e-02) (17, 2.72156208753585815430e-01) (18, -1.59299278259277343750e+00) (19, -1.59770476818084716797e+00) (20, 6.07626080513000488281e-01) (21, 2.03044012188911437988e-01) (22, -2.17523593455553054810e-02) (23, 4.66052554547786712646e-02) (24, 5.82984946668148040771e-02) (25, -5.35755634307861328125e-01) (26, -1.70689654350280761719e+00) (27, -3.23103696107864379883e-01) (28, 2.04190641641616821289e-01) (29, -1.88466048240661621094e+00) (30, -1.41544318199157714844e+00) (31, -9.00444537401199340820e-02) (32, 3.78574687056243419647e-03) (33, -5.42114496231079101562e-01) (34, -5.66915988922119140625e-01) (35, 2.01041057705879211426e-01) (36, -3.03130686283111572266e-01) (37, -4.40774351358413696289e-01) (38, -2.50398695468902587891e-01) (39, -9.72468405961990356445e-03) (40, -9.34916269034147262573e-03) (41, 2.78042972087860107422e-01) (42, 8.23074802756309509277e-02) (43, -9.08757030963897705078e-01) (44, -7.99095153808593750000e-01) (45, 3.98458570241928100586e-01) (46, 6.21680378913879394531e-01) (47, 2.67791631631553173065e-03) (48, 3.20887230336666107178e-02) (49, 7.86194920539855957031e-01) (50, 1.08998382091522216797e+00) (51, 1.24878549575805664062e+00) (52, 5.65846860408782958984e-01) (53, 2.09676456451416015625e+00) (54, 2.67963200807571411133e-01) (55, 6.80018663406372070312e-02) (56, 7.28572532534599304199e-02) (57, 5.22571504116058349609e-01) (58, 1.55646717548370361328e+00) (59, 1.14221560955047607422e+00) (60, 7.06047296524047851562e-01) (61, 1.00634920597076416016e+00) (62, 4.76446188986301422119e-02) (63, -5.82264177501201629639e-02) (64, 1.77982244640588760376e-02) (0, 8.11220034956932067871e-02) (1, -5.43874762952327728271e-02) (2, 9.50552523136138916016e-01) (3, -1.76865744590759277344e+00) (4, 6.02389276027679443359e-01) (5, 1.53067660331726074219e+00) (6, 2.02089834213256835938e+00) (7, 7.92401373386383056641e-01) (8, 6.57482147216796875000e-02) (9, -2.77487516403198242188e-01) (10, 1.36585921049118041992e-01) (11, 4.60388332605361938477e-01) (12, 5.29407799243927001953e-01) (13, -6.24459385871887207031e-01) (14, 4.23384606838226318359e-01) (15, 8.35332632064819335938e-01) (16, 1.20161306113004684448e-02) (17, -3.63728731870651245117e-01) (18, -1.24251270294189453125e+00) (19, -1.28801822662353515625e+00) (20, -1.14073991775512695312e+00) (21, -3.35240316390991210938e+00) (22, -2.12380504608154296875e+00) (23, -1.10177204012870788574e-01) (24, 5.40229380130767822266e-02) (25, 7.99671292304992675781e-01) (26, -1.33770704269409179688e-01) (27, -6.95254683494567871094e-01) (28, -1.04149270057678222656e+00) (29, -2.33349251747131347656e+00) (30, -1.13854444026947021484e+00) (31, 8.24851542711257934570e-02) (32, -5.55089376866817474365e-02) (33, 8.86726796627044677734e-01) (34, 2.02178582549095153809e-01) (35, -1.63833391666412353516e+00) (36, -8.81688475608825683594e-01) (37, -2.12538857012987136841e-02) (38, 9.21397149562835693359e-01) (39, 5.62844499945640563965e-02) (40, 1.14557318389415740967e-01) (41, -5.92296682298183441162e-02) (42, 1.22698955237865447998e-01) (43, -8.46354484558105468750e-01) (44, -1.05977189540863037109e+00) (45, 1.22037875652313232422e+00) (46, 2.34472703933715820312e+00) (47, -1.20363021269440650940e-02) (48, 1.39160722494125366211e-01) (49, -1.83757975697517395020e-01) (50, 1.37565016746520996094e+00) (51, 6.74816131591796875000e-01) (52, 2.21573543548583984375e+00) (53, 2.55746889114379882812e+00) (54, 6.59429747611284255981e-03) (55, -4.80950735509395599365e-02) (56, -7.19298198819160461426e-02) (57, 1.48928329348564147949e-01) (58, 1.47467327117919921875e+00) (59, -5.65847270190715789795e-02) (60, 7.29083657264709472656e-01) (61, 4.80790078639984130859e-01) (62, -5.90721726417541503906e-01) (63, -3.89876127243041992188e-01) (64, 6.06488063931465148926e-03) (0, 3.30054387450218200684e-02) (1, -1.86034485697746276855e-01) (2, 7.84427046775817871094e-01) (3, -9.40653145313262939453e-01) (4, -7.76008605957031250000e-01) (5, -1.21482110023498535156e+00) (6, 1.48696944117546081543e-01) (7, 3.71570855379104614258e-01) (8, -3.44046860933303833008e-01) (9, -1.35751295089721679688e+00) (10, -1.36613810062408447266e+00) (11, 7.21416175365447998047e-01) (12, 2.02896237373352050781e-01) (13, -2.34478545188903808594e+00) (14, 1.64275109767913818359e-01) (15, -1.52887880802154541016e-01) (16, 1.17860548198223114014e-01) (17, -9.03846442699432373047e-01) (18, -1.79251849651336669922e+00) (19, -3.00287038087844848633e-01) (20, 1.87293261289596557617e-01) (21, -9.67552125453948974609e-01) (22, -8.18459212779998779297e-01) (23, -9.88327488303184509277e-02) (24, 7.90821611881256103516e-02) (25, 9.90332588553428649902e-02) (26, -7.50309824943542480469e-01) (27, 6.46632015705108642578e-01) (28, 5.07658660411834716797e-01) (29, -2.15078845620155334473e-01) (30, 2.25918459892272949219e+00) (31, 4.74047139286994934082e-02) (32, -6.84865638613700866699e-02) (33, 8.29699456691741943359e-01) (34, 2.49612639890983700752e-04) (35, 6.42274618148803710938e-01) (36, 2.31736326217651367188e+00) (37, 7.22710728645324707031e-01) (38, 1.69082868099212646484e+00) (39, 8.00253227353096008301e-02) (40, 6.81099221110343933105e-02) (41, 1.99030470848083496094e+00) (42, 4.87628221511840820312e-01) (43, 2.76010847091674804688e+00) (44, 1.72786796092987060547e+00) (45, -1.80368649959564208984e+00) (46, -2.73659324645996093750e+00) (47, -1.62072747480124235153e-03) (48, 8.40030610561370849609e-02) (49, 1.40798211097717285156e+00) (50, -1.56493946909904479980e-01) (51, 1.15834534168243408203e+00) (52, 8.42865943908691406250e-01) (53, -1.52037167549133300781e+00) (54, -6.42706036567687988281e-01) (55, 1.21890097856521606445e-01) (56, -1.02018918842077255249e-02) (57, 2.51657903194427490234e-01) (58, 4.33635681867599487305e-01) (59, -2.92551541328430175781e+00) (60, -1.41407096385955810547e+00) (61, 7.09917247295379638672e-01) (62, 1.72171759605407714844e+00) (63, 1.11632239818572998047e+00) (64, -5.73451146483421325684e-02) (0, -5.86048178374767303467e-02) (1, 1.58300369977951049805e-01) (2, -1.22935509681701660156e+00) (3, -8.08847486972808837891e-01) (4, -1.48278176784515380859e+00) (5, -1.46195566654205322266e+00) (6, -1.38011884689331054688e+00) (7, 3.32484990358352661133e-02) (8, -2.15317904949188232422e-02) (9, -6.28190934658050537109e-01) (10, -1.46464836597442626953e+00) (11, -1.41257083415985107422e+00) (12, -2.39837199449539184570e-01) (13, -4.26794826984405517578e-01) (14, 1.25691756606101989746e-01) (15, -3.90988230705261230469e-01) (16, -5.17315343022346496582e-02) (17, -5.37695959210395812988e-02) (18, 5.57159543037414550781e-01) (19, -5.60591518878936767578e-01) (20, -6.44196271896362304688e-01) (21, 1.13479590415954589844e+00) (22, 9.52551543712615966797e-01) (23, -4.04009044170379638672e-01) (24, -4.75947447121143341064e-02) (25, 1.00873017311096191406e+00) (26, -5.52604973316192626953e-01) (27, 1.79037779569625854492e-01) (28, -7.50917732715606689453e-01) (29, -1.31326839327812194824e-01) (30, 2.82981538772583007812e+00) (31, 1.03089250624179840088e-01) (32, 6.68688938021659851074e-02) (33, 3.93885612487792968750e-01) (34, 7.41253852844238281250e-01) (35, -1.32331466674804687500e+00) (36, 9.10634398460388183594e-01) (37, -9.02881264686584472656e-01) (38, -2.15519890189170837402e-01) (39, -9.83468294143676757812e-02) (40, 4.31845970451831817627e-02) (41, 1.85542404651641845703e+00) (42, 6.73353195190429687500e+00) (43, 3.85385107994079589844e+00) (44, 2.00862479209899902344e+00) (45, -4.02370214462280273438e-01) (46, -1.82792329788208007812e+00) (47, -2.01804682612419128418e-01) (48, 6.23799674212932586670e-02) (49, 9.14909124374389648438e-01) (50, 1.84369459748268127441e-01) (51, 1.57088816165924072266e-01) (52, 1.74568605422973632812e+00) (53, 1.69217920303344726562e+00) (54, 7.16822266578674316406e-01) (55, 6.05304241180419921875e-01) (56, 4.50949855148792266846e-02) (57, -2.09007963538169860840e-01) (58, -4.55822683870792388916e-02) (59, -1.39476525783538818359e+00) (60, -3.15258741378784179688e-01) (61, 2.02671790122985839844e+00) (62, 2.00271534919738769531e+00) (63, 1.60847377777099609375e+00) (64, -4.91244941949844360352e-02) (0, 8.43224301934242248535e-02) (1, -1.19949117302894592285e-01) (2, 5.71402385830879211426e-02) (3, 4.29492443799972534180e-01) (4, -1.02328789234161376953e+00) (5, -1.27628111839294433594e+00) (6, -3.88213485479354858398e-01) (7, -1.61167353391647338867e-01) (8, -6.90277218818664550781e-02) (9, -1.38294890522956848145e-01) (10, -3.41911643743515014648e-01) (11, 4.48692619800567626953e-01) (12, 9.92562115192413330078e-01) (13, -6.23408377170562744141e-01) (14, -4.46482509374618530273e-01) (15, -1.52594149112701416016e-01) (16, -2.88639254868030548096e-02) (17, 1.23617216944694519043e-01) (18, 1.44052654504776000977e-01) (19, 2.34545897692441940308e-02) (20, 7.65560030937194824219e-01) (21, 1.19666111469268798828e+00) (22, 5.02833664417266845703e-01) (23, 1.17517128586769104004e-01) (24, -6.11477605998516082764e-02) (25, -8.25199633836746215820e-02) (26, -6.36146403849124908447e-03) (27, -1.26275229454040527344e+00) (28, -9.66896355152130126953e-01) (29, 1.10132467746734619141e+00) (30, 1.25030291080474853516e+00) (31, 8.78341645002365112305e-02) (32, -3.34446020424365997314e-02) (33, -4.93937451392412185669e-03) (34, -1.55644759535789489746e-01) (35, -1.04924905300140380859e+00) (36, 6.75014778971672058105e-02) (37, -3.62281918525695800781e-01) (38, -5.50226151943206787109e-01) (39, -9.47470813989639282227e-02) (40, -2.72429231554269790649e-02) (41, 2.67685353755950927734e-01) (42, -4.81093496084213256836e-01) (43, 8.09900462627410888672e-01) (44, -6.35075867176055908203e-01) (45, -2.02649402618408203125e+00) (46, -2.83665227890014648438e+00) (47, 1.32058653980493545532e-02) (48, -5.74619770050048828125e-02) (49, 3.91700297594070434570e-01) (50, -8.64597856998443603516e-01) (51, 1.21432371437549591064e-01) (52, 2.72009283304214477539e-01) (53, -1.42363917827606201172e+00) (54, -5.58230996131896972656e-01) (55, 1.28323078155517578125e-01) (56, -8.63621830940246582031e-02) (57, -2.14968733489513397217e-02) (58, -3.50545972585678100586e-01) (59, -1.05632436275482177734e+00) (60, -5.22016823291778564453e-01) (61, 1.95624250918626785278e-02) (62, 6.62608921527862548828e-01) (63, 5.04520058631896972656e-01) (64, -9.91359129548072814941e-02) (0, 2.44786888360977172852e-02) (1, 2.07453176379203796387e-01) (2, 3.27459275722503662109e-01) (3, -6.40866458415985107422e-01) (4, 4.12936598062515258789e-01) (5, -1.24696004390716552734e+00) (6, -2.55717784166336059570e-01) (7, -2.43887931108474731445e-01) (8, 9.97389294207096099854e-03) (9, 5.49843549728393554688e-01) (10, 9.99487161636352539062e-01) (11, -2.55194127559661865234e-01) (12, -4.07502084970474243164e-01) (13, -6.15663468837738037109e-01) (14, 6.41441941261291503906e-01) (15, 5.18667837604880332947e-03) (16, -1.35178919881582260132e-02) (17, 3.26034337282180786133e-01) (18, -2.82974600791931152344e+00) (19, -2.52672123908996582031e+00) (20, -2.35885148867964744568e-03) (21, 6.76347315311431884766e-01) (22, 1.68410748243331909180e-01) (23, -1.80054336786270141602e-01) (24, 5.31328804790973663330e-02) (25, -4.77403879165649414062e-01) (26, -2.13711237907409667969e+00) (27, -7.52778828144073486328e-01) (28, 2.44874298572540283203e-01) (29, -1.91204226016998291016e+00) (30, -1.18551695346832275391e+00) (31, 7.31396377086639404297e-02) (32, 8.26005712151527404785e-02) (33, -3.15043218433856964111e-02) (34, -7.14373469352722167969e-01) (35, 2.36364547163248062134e-02) (36, 3.87267619371414184570e-01) (37, -8.68735551834106445312e-01) (38, -3.77755939960479736328e-01) (39, -8.97507071495056152344e-02) (40, 5.96158653497695922852e-02) (41, 2.49499723315238952637e-01) (42, -1.45063197612762451172e+00) (43, -1.23707842826843261719e+00) (44, -8.36628079414367675781e-01) (45, -4.62408781051635742188e-01) (46, -4.59922462701797485352e-01) (47, 1.98815166950225830078e-02) (48, 5.29656708240509033203e-02) (49, 9.75510179996490478516e-01) (50, 1.58966466784477233887e-01) (51, 1.58067548274993896484e+00) (52, 9.93555963039398193359e-01) (53, 1.65311479568481445312e+00) (54, -6.04536235332489013672e-01) (55, -6.56954422593116760254e-02) (56, -3.77163253724575042725e-02) (57, 8.71167659759521484375e-01) (58, 1.51930367946624755859e+00) (59, 1.14539325237274169922e+00) (60, 1.09876096248626708984e+00) (61, 1.23908793926239013672e+00) (62, -1.33030250668525695801e-01) (63, -3.80032539367675781250e-01) (64, -5.71059472858905792236e-02) (0, 5.73502555489540100098e-02) (1, 4.09461148083209991455e-02) (2, -1.73610615730285644531e+00) (3, 2.34302636235952377319e-02) (4, -2.71088123321533203125e-01) (5, -1.36371672153472900391e+00) (6, -2.65232086181640625000e+00) (7, -1.28728353977203369141e+00) (8, 2.40466780960559844971e-02) (9, -8.84411454200744628906e-01) (10, -1.27165746688842773438e+00) (11, -2.75335812568664550781e+00) (12, -1.67682826519012451172e-01) (13, 1.76474601030349731445e-02) (14, -5.10575711727142333984e-01) (15, -6.19410097599029541016e-01) (16, 7.91135430335998535156e-02) (17, 8.54125440120697021484e-01) (18, -1.33750975131988525391e+00) (19, 2.43755176663398742676e-01) (20, 2.29228258132934570312e+00) (21, 7.55160450935363769531e-01) (22, 9.20318901538848876953e-01) (23, -4.89806616678833961487e-03) (24, 3.08935586363077163696e-02) (25, -3.71137678623199462891e-01) (26, -1.17275571823120117188e+00) (27, 2.33609452843666076660e-01) (28, 1.67369580268859863281e+00) (29, -1.52457177639007568359e+00) (30, -2.66827917098999023438e+00) (31, -5.20454645156860351562e-02) (32, 8.73967483639717102051e-02) (33, -1.20179891586303710938e+00) (34, -1.60576209425926208496e-01) (35, 6.08100712299346923828e-01) (36, 3.98878931999206542969e-01) (37, -9.71492409706115722656e-01) (38, -2.60864448547363281250e+00) (39, 3.08642014861106872559e-02) (40, -4.74129021167755126953e-02) (41, -5.05700886249542236328e-01) (42, 3.04103422164916992188e+00) (43, 6.01045846939086914062e-01) (44, 7.69640386104583740234e-01) (45, 4.02241572737693786621e-02) (46, 1.06036269664764404297e+00) (47, -2.07788194529712200165e-03) (48, -1.22134134173393249512e-01) (49, 1.71764381229877471924e-02) (50, -1.20288372039794921875e-01) (51, 1.04650104045867919922e+00) (52, 2.11027070879936218262e-01) (53, 1.89245784282684326172e+00) (54, 8.55782032012939453125e-01) (55, 1.72340169548988342285e-01) (56, 4.94335442781448364258e-02) (57, 1.65445625782012939453e-01) (58, 6.32410421967506408691e-02) (59, 5.18490374088287353516e-01) (60, 6.30374550819396972656e-01) (61, 8.24053049087524414062e-01) (62, -3.81029307842254638672e-01) (63, 9.71147604286670684814e-03) (64, -5.17252348363399505615e-02) (0, 8.37705656886100769043e-02) (1, 1.47946134209632873535e-01) (2, 5.43466985225677490234e-01) (3, 2.62322407215833663940e-02) (4, 7.66294717788696289062e-01) (5, 1.25600850582122802734e+00) (6, 8.83323132991790771484e-01) (7, 4.00407105684280395508e-01) (8, -1.95118412375450134277e-02) (9, 3.31272155046463012695e-01) (10, 6.53697252273559570312e-01) (11, 3.01423430442810058594e-01) (12, 5.80775618553161621094e-01) (13, 5.40090680122375488281e-01) (14, 1.64258897304534912109e-01) (15, 3.69434803724288940430e-01) (16, 2.94043254107236862183e-02) (17, -2.21459791064262390137e-01) (18, -8.26555669307708740234e-01) (19, -1.07535564899444580078e+00) (20, -3.53332012891769409180e-01) (21, -7.32234418392181396484e-01) (22, -4.72823113203048706055e-01) (23, -1.84822101145982742310e-02) (24, -4.35685925185680389404e-02) (25, -9.30995419621467590332e-02) (26, -4.37013566493988037109e-01) (27, 1.00501918792724609375e+00) (28, 7.34887123107910156250e-01) (29, -1.06885588169097900391e+00) (30, -1.08906878158450126648e-02) (31, 2.91587151587009429932e-02) (32, 9.56405624747276306152e-02) (33, 1.93981260061264038086e-01) (34, 5.05614876747131347656e-01) (35, 5.48375844955444335938e-01) (36, 6.92871451377868652344e-01) (37, 5.20787715911865234375e-01) (38, 6.38013303279876708984e-01) (39, 7.42378905415534973145e-02) (40, 3.13092842698097229004e-02) (41, 7.22871571779251098633e-02) (42, 5.69897174835205078125e-01) (43, -5.58822989463806152344e-01) (44, 4.44824427366256713867e-01) (45, 1.03186714649200439453e+00) (46, 1.29781150817871093750e+00) (47, 2.52355523407459259033e-02) (48, 1.21254648547619581223e-03) (49, -9.46904197335243225098e-02) (50, 2.71709680557250976562e-01) (51, -3.83958876132965087891e-01) (52, -3.79759632050991058350e-02) (53, 7.13069319725036621094e-01) (54, 4.89276707172393798828e-01) (55, -5.27670457959175109863e-02) (56, -6.26088976860046386719e-02) (57, 7.19103515148162841797e-02) (58, 7.02937126159667968750e-01) (59, 6.69431567192077636719e-01) (60, -7.48954772949218750000e-01) (61, -6.42241477966308593750e-01) (62, -5.65041363239288330078e-01) (63, -2.68916606903076171875e-01) (64, -4.48779389262199401855e-03) (0, 4.13641333580017089844e-04) (1, 3.81259992718696594238e-02) (2, 4.49623286724090576172e-01) (3, 6.58160865306854248047e-01) (4, 3.10155391693115234375e-01) (5, -1.51409283280372619629e-01) (6, -2.49705269932746887207e-01) (7, -1.95393219590187072754e-01) (8, 3.56459361501038074493e-03) (9, 3.41347940266132354736e-02) (10, 4.61780458688735961914e-01) (11, 9.05396938323974609375e-01) (12, 1.79449176788330078125e+00) (13, 6.37785017490386962891e-01) (14, -8.96208062767982482910e-02) (15, -8.56864005327224731445e-02) (16, 6.67317584156990051270e-02) (17, -2.15641617774963378906e-01) (18, -5.65966486930847167969e-01) (19, 1.30357131361961364746e-01) (20, 1.50881278514862060547e+00) (21, 1.42051625251770019531e+00) (22, 4.65056687593460083008e-01) (23, 1.48797601461410522461e-01) (24, -8.90144780278205871582e-02) (25, -6.08241669833660125732e-02) (26, -1.52465980499982833862e-02) (27, -7.18443751335144042969e-01) (28, 3.57516407966613769531e-01) (29, 4.53820496797561645508e-01) (30, 2.95473605394363403320e-01) (31, 8.09874832630157470703e-02) (32, -5.51889613270759582520e-02) (33, 1.52592748403549194336e-01) (34, 5.39411842823028564453e-01) (35, -3.91947418451309204102e-01) (36, 5.62376141548156738281e-01) (37, 5.42036950588226318359e-01) (38, 1.79328247904777526855e-01) (39, -8.38074684143066406250e-02) (40, 4.31589446961879730225e-02) (41, -2.57918357849121093750e-01) (42, 2.12799999862909317017e-02) (43, 3.10640633106231689453e-01) (44, 3.66384312510490417480e-02) (45, -1.61410689353942871094e-01) (46, -4.52992826700210571289e-01) (47, -1.06783397495746612549e-01) (48, -7.87221565842628479004e-02) (49, -2.93711066246032714844e-01) (50, -3.67983356118202209473e-02) (51, 1.17492187023162841797e+00) (52, 7.63863921165466308594e-01) (53, 2.85418242216110229492e-01) (54, -3.16882163286209106445e-01) (55, 1.07782324776053428650e-02) (56, 2.90401615202426910400e-02) (57, 2.48835191130638122559e-01) (58, 2.87713259458541870117e-01) (59, 1.35698094964027404785e-01) (60, 3.37221831083297729492e-01) (61, 5.46804845333099365234e-01) (62, 3.12032729387283325195e-01) (63, 1.68504431843757629395e-01) (64, -1.21391322463750839233e-02) (0, -5.96000365912914276123e-02) (1, -6.10792972147464752197e-02) (2, 1.96601772308349609375e+00) (3, 1.08875501155853271484e+00) (4, 9.16880488395690917969e-01) (5, 1.51623153686523437500e+00) (6, 1.45716893672943115234e+00) (7, 1.46350204944610595703e-01) (8, -4.38921034336090087891e-01) (9, -6.97909295558929443359e-01) (10, 7.93718039989471435547e-01) (11, 1.98765933513641357422e+00) (12, 3.06827974319458007812e+00) (13, 1.36330842971801757812e+00) (14, -2.97083497047424316406e-01) (15, -1.17184417322278022766e-02) (16, 6.39653727412223815918e-02) (17, -6.12133741378784179688e-01) (18, -1.86486208438873291016e+00) (19, 9.06447529792785644531e-01) (20, 2.76778554916381835938e+00) (21, -2.21342062950134277344e+00) (22, -1.45322322845458984375e+00) (23, 9.26629006862640380859e-02) (24, 3.61757464706897735596e-02) (25, -4.32902336120605468750e-01) (26, -1.23464286327362060547e+00) (27, -1.82199323177337646484e+00) (28, -5.74016571044921875000e-01) (29, -7.00836330652236938477e-02) (30, -1.86220681667327880859e+00) (31, -3.03939934819936752319e-02) (32, 6.80857077240943908691e-02) (33, -6.28518536686897277832e-02) (34, -5.86831748485565185547e-01) (35, -9.07285869121551513672e-01) (36, -7.71297633647918701172e-01) (37, -7.40123391151428222656e-01) (38, -4.69732969999313354492e-01) (39, -6.17301501333713531494e-02) (40, -1.49938523769378662109e-01) (41, -1.72998893260955810547e+00) (42, -2.43532156944274902344e+00) (43, -1.44776821136474609375e-01) (44, 6.16362214088439941406e-01) (45, -2.20594668388366699219e+00) (46, -1.02798438072204589844e+00) (47, 1.52291927952319383621e-03) (48, -2.06948467530310153961e-03) (49, -2.32501685619354248047e-01) (50, -1.23764932155609130859e+00) (51, -1.85982987284660339355e-01) (52, 1.80918848514556884766e+00) (53, -1.15978336334228515625e+00) (54, -5.85622668266296386719e-01) (55, 1.97930380702018737793e-01) (56, -8.22320301085710525513e-03) (57, 4.32099372148513793945e-01) (58, 1.90052223205566406250e+00) (59, 6.38538718223571777344e-01) (60, -9.40237939357757568359e-01) (61, 8.18929672241210937500e-01) (62, 1.41047322750091552734e+00) (63, 3.69597971439361572266e-01) (64, -1.20825275778770446777e-01) (0, 5.01974001526832580566e-02) (1, 2.37007113173604011536e-03) (2, 5.21164536476135253906e-02) (3, 2.19444841146469116211e-01) (4, 1.30451291799545288086e-01) (5, 6.49003386497497558594e-02) (6, 1.71555459499359130859e-01) (7, -9.67149622738361358643e-03) (8, 2.00450643897056579590e-02) (9, 5.98515570163726806641e-02) (10, -4.87307496368885040283e-02) (11, 7.37937763333320617676e-02) (12, 6.29253685474395751953e-02) (13, -1.36588126420974731445e-01) (14, 2.19195745885372161865e-02) (15, -5.07732741534709930420e-02) (16, 2.48022861778736114502e-02) (17, -3.83429266512393951416e-02) (18, 2.05480620265007019043e-01) (19, 1.72182053327560424805e-01) (20, 2.57154982537031173706e-02) (21, 5.25869466364383697510e-02) (22, -3.12516577541828155518e-02) (23, 1.08073040843009948730e-01) (24, -2.52794139087200164795e-02) (25, 1.78110703825950622559e-01) (26, 4.15020734071731567383e-01) (27, -4.16859015822410583496e-02) (28, 1.45992159843444824219e-01) (29, -9.74223539233207702637e-02) (30, 4.80417534708976745605e-03) (31, 8.52086301892995834351e-03) (32, -4.29798336699604988098e-03) (33, -2.44894698262214660645e-02) (34, 3.98774564266204833984e-01) (35, -1.34806454181671142578e-01) (36, 2.74794876575469970703e-01) (37, -8.49336907267570495605e-02) (38, -1.32426351308822631836e-01) (39, 6.29492104053497314453e-03) (40, 8.83676409721374511719e-02) (41, 1.65800296235829591751e-03) (42, 2.09987089037895202637e-01) (43, 1.84579531196504831314e-03) (44, 8.85267928242683410645e-02) (45, -1.33925229310989379883e-01) (46, -2.82539337873458862305e-01) (47, -3.51904076524078845978e-03) (48, -2.62629725039005279541e-02) (49, -1.25845164060592651367e-01) (50, 2.02916283160448074341e-03) (51, -7.02081099152565002441e-02) (52, 3.76486212015151977539e-01) (53, 6.83066397905349731445e-02) (54, -1.86009198427200317383e-01) (55, -3.42748947441577911377e-02) (56, 1.14120375365018844604e-02) (57, -2.79624573886394500732e-02) (58, 8.69331657886505126953e-02) (59, 6.98034390807151794434e-02) (60, 1.83235570788383483887e-01) (61, 1.54737502336502075195e-01) (62, 6.61396607756614685059e-02) (63, 9.37943607568740844727e-02) (64, -6.96648135781288146973e-02) (0, -3.20589840412139892578e-02) (1, -5.50427854061126708984e-01) (2, -7.84090638160705566406e-01) (3, 2.76498049497604370117e-01) (4, -2.29436683654785156250e+00) (5, -1.73333120346069335938e+00) (6, -2.33359718322753906250e+00) (7, -8.74277472496032714844e-01) (8, -1.78798422217369079590e-01) (9, -6.18098974227905273438e-01) (10, -1.41433298587799072266e+00) (11, -2.04922056198120117188e+00) (12, -1.59376001358032226562e+00) (13, -2.43346944451332092285e-01) (14, 5.00893950462341308594e-01) (15, -6.30043566226959228516e-01) (16, -4.76868785917758941650e-02) (17, 9.45427656173706054688e-01) (18, 1.64751172065734863281e+00) (19, 2.73503494262695312500e+00) (20, 2.05500006675720214844e+00) (21, 4.06291055679321289062e+00) (22, 1.59751975536346435547e+00) (23, -6.33106902241706848145e-02) (24, -3.16436626017093658447e-02) (25, 6.11161410808563232422e-01) (26, 1.27773213386535644531e+00) (27, 7.86543965339660644531e-01) (28, 6.24290466308593750000e-01) (29, 1.99702811241149902344e+00) (30, 4.52482879161834716797e-01) (31, 9.23966765403747558594e-02) (32, 2.33669895678758621216e-02) (33, 4.34606783092021942139e-02) (34, 6.72535598278045654297e-01) (35, -3.10023855417966842651e-02) (36, -3.62290143966674804688e-01) (37, 6.13112226128578186035e-02) (38, -7.64917492866516113281e-01) (39, -8.27471688389778137207e-02) (40, 7.79874399304389953613e-02) (41, 1.04817485809326171875e+00) (42, 8.21568608283996582031e-01) (43, 3.62130999565124511719e-01) (44, 1.72705110162496566772e-02) (45, -5.29384136199951171875e-01) (46, -9.74435150623321533203e-01) (47, -1.30993798375129699707e-01) (48, -2.72105000913143157959e-02) (49, -2.27534249424934387207e-01) (50, 6.51718556880950927734e-01) (51, -5.49689352512359619141e-01) (52, -4.87218230962753295898e-01) (53, -1.40970456600189208984e+00) (54, -1.11108068376779556274e-02) (55, -7.17259421944618225098e-02) (56, -2.17639431357383728027e-02) (57, -6.07978343963623046875e-01) (58, -1.45748817920684814453e+00) (59, -9.52231585979461669922e-01) (60, 1.45717382431030273438e+00) (61, -3.82514357566833496094e-01) (62, -5.54943799972534179688e-01) (63, 4.02197957038879394531e-01) (64, -1.59836456179618835449e-01) (0, 5.99557235836982727051e-02) (1, 3.44916552305221557617e-01) (2, -1.93171754479408264160e-01) (3, 5.18212795257568359375e-01) (4, -2.25600481033325195312e-01) (5, -1.20607674121856689453e+00) (6, -1.13084232807159423828e+00) (7, -4.72259193658828735352e-01) (8, 1.35193392634391784668e-01) (9, 1.06324505805969238281e+00) (10, 8.06846797466278076172e-01) (11, -7.52174913883209228516e-01) (12, -2.62864917516708374023e-01) (13, 5.29233813285827636719e-01) (14, 1.07883429527282714844e+00) (15, -5.36492988467216491699e-02) (16, -1.62151157855987548828e-02) (17, 2.90705829858779907227e-01) (18, -8.03409993648529052734e-01) (19, -1.49089741706848144531e+00) (20, -2.01322391629219055176e-01) (21, 2.75965261459350585938e+00) (22, 2.17060017585754394531e+00) (23, 1.51413932442665100098e-01) (24, 1.02109342813491821289e-01) (25, -3.03682148456573486328e-01) (26, -1.49307405948638916016e+00) (27, 2.38082587718963623047e-01) (28, 4.77503657341003417969e-01) (29, 2.49176993966102600098e-01) (30, 9.29034292697906494141e-01) (31, 3.75577411614358425140e-03) (32, 4.33782562613487243652e-02) (33, 1.77376165986061096191e-01) (34, 3.41939836740493774414e-01) (35, 3.82427901029586791992e-01) (36, 1.28278613090515136719e-01) (37, 8.89557182788848876953e-01) (38, -3.77557605504989624023e-01) (39, -1.51009112596511840820e-03) (40, 3.74258942902088165283e-02) (41, 1.26150083541870117188e+00) (42, 1.37382709980010986328e+00) (43, -3.51586490869522094727e-01) (44, 2.63795495033264160156e-01) (45, 3.14203411340713500977e-01) (46, -4.54233825206756591797e-01) (47, -9.18622389435768127441e-02) (48, 1.10015265643596649170e-01) (49, 4.56266433000564575195e-01) (50, 3.77679198980331420898e-01) (51, -2.77356326580047607422e-01) (52, -4.72813248634338378906e-01) (53, 2.20550864934921264648e-01) (54, 2.69071049988269805908e-02) (55, -1.28775566816329956055e-01) (56, 2.56595830433070659637e-03) (57, 2.15621545910835266113e-01) (58, 2.45775654911994934082e-01) (59, -3.00997316837310791016e-01) (60, 7.96728804707527160645e-02) (61, -7.88967072963714599609e-01) (62, 5.25408126413822174072e-02) (63, 1.28945475444197654724e-02) (64, 5.12073896825313568115e-02) (0, 3.69455665349960327148e-03) (1, -1.52727931737899780273e-01) (2, -4.29538577795028686523e-01) (3, 8.88655856251716613770e-02) (4, -7.37422943115234375000e-01) (5, -4.98467385768890380859e-01) (6, 3.01006764173507690430e-01) (7, 2.22464829683303833008e-01) (8, 1.57330751419067382812e-01) (9, 2.51978993415832519531e-01) (10, -1.53777385130524635315e-02) (11, -7.54286229610443115234e-01) (12, -2.52250456809997558594e+00) (13, -6.31157040596008300781e-01) (14, 1.82474955916404724121e-01) (15, 1.11818596720695495605e-01) (16, -1.13754808902740478516e-01) (17, 2.94731050729751586914e-01) (18, 2.20954489707946777344e+00) (19, 7.60271787643432617188e-01) (20, -2.46512198448181152344e+00) (21, -2.46835537254810333252e-02) (22, 1.43873438239097595215e-01) (23, 1.13477282226085662842e-01) (24, 9.04588401317596435547e-02) (25, 1.12767726182937622070e-01) (26, 9.81374323368072509766e-01) (27, 3.22316944599151611328e-01) (28, -1.17218625545501708984e+00) (29, 3.10334324836730957031e-01) (30, 1.41337573528289794922e-01) (31, 8.06768834590911865234e-02) (32, -2.49870736151933670044e-02) (33, 5.84467165172100067139e-02) (34, 2.07789048552513122559e-01) (35, -1.96148812770843505859e-01) (36, -1.24414408206939697266e+00) (37, -1.37406921386718750000e+00) (38, -1.21864907443523406982e-01) (39, 8.71345475316047668457e-02) (40, 5.77220842242240905762e-02) (41, 6.35645806789398193359e-01) (42, -1.29888504743576049805e-01) (43, -1.31714725494384765625e+00) (44, -6.19779706001281738281e-01) (45, -4.36102867126464843750e-01) (46, -1.49093478918075561523e-01) (47, 2.59464029222726821899e-02) (48, -6.85115456581115722656e-02) (49, 2.15951681137084960938e-01) (50, -9.89515855908393859863e-02) (51, -1.50058436393737792969e+00) (52, -8.94885778427124023438e-01) (53, -1.27848935127258300781e+00) (54, -4.29836660623550415039e-02) (55, 3.72583717107772827148e-02) (56, -1.31926322355866432190e-02) (57, -3.75566989183425903320e-01) (58, -5.91931641101837158203e-01) (59, 4.96837943792343139648e-01) (60, -8.77289623022079467773e-02) (61, -1.39305818080902099609e+00) (62, -4.51505005359649658203e-01) (63, -3.27676385641098022461e-01) (64, 4.78205829858779907227e-02) (0, 8.73431041836738586426e-02) (1, 2.06355005502700805664e-02) (2, -1.39019703492522239685e-02) (3, 1.16859591007232666016e+00) (4, 1.18528997898101806641e+00) (5, 1.05611908435821533203e+00) (6, 1.20020704343914985657e-02) (7, -2.44526267051696777344e-01) (8, -3.96952703595161437988e-02) (9, 2.67677038908004760742e-01) (10, 2.93331205844879150391e-01) (11, 4.49528813362121582031e-01) (12, 1.51791608333587646484e+00) (13, 5.40254831314086914062e-01) (14, -5.52393913269042968750e-01) (15, -1.23207129538059234619e-01) (16, 6.37220740318298339844e-02) (17, -3.35801422595977783203e-01) (18, -8.40515196323394775391e-01) (19, 1.83154806494712829590e-01) (20, 7.19221532344818115234e-01) (21, -1.17636516690254211426e-01) (22, 3.00392985343933105469e-01) (23, 1.63244426250457763672e-01) (24, 2.88740359246730804443e-02) (25, -6.48365616798400878906e-01) (26, -2.09576532244682312012e-01) (27, -2.50070661306381225586e-01) (28, 2.09213942289352416992e-01) (29, 9.65962484478950500488e-02) (30, -7.79016017913818359375e-01) (31, 1.37147624045610427856e-02) (32, 6.60867691040039062500e-02) (33, -4.04765218496322631836e-01) (34, 3.16850364208221435547e-01) (35, 2.77693688869476318359e-01) (36, 1.65819525718688964844e-01) (37, -2.53173679113388061523e-01) (38, -6.08956456184387207031e-01) (39, 6.97364285588264465332e-02) (40, 3.76441068947315216064e-02) (41, -4.66853171586990356445e-01) (42, 6.56964004039764404297e-01) (43, 1.15860849618911743164e-02) (44, -3.58316123485565185547e-01) (45, 7.43087649345397949219e-01) (46, 4.79904443025588989258e-01) (47, 1.41698140650987625122e-02) (48, -7.77194127440452575684e-02) (49, -3.37625861167907714844e-01) (50, 5.10990798473358154297e-01) (51, 2.73245304822921752930e-01) (52, 3.04666012525558471680e-01) (53, 5.61337530612945556641e-01) (54, 8.01584601402282714844e-01) (55, 3.62870991230010986328e-02) (56, -9.90510135889053344727e-02) (57, -4.51456047594547271729e-02) (58, -1.96042716503143310547e-01) (59, 1.27718782424926757812e+00) (60, 5.39415895938873291016e-01) (61, 3.35261762142181396484e-01) (62, 4.10881251096725463867e-01) (63, -1.05046607553958892822e-01) (64, 9.06828120350837707520e-02) (0, 5.78912273049354553223e-02) (1, 2.20422334969043731689e-02) (2, 1.91862694919109344482e-02) (3, 8.43161582946777343750e-01) (4, 3.86964499950408935547e-01) (5, 1.40710309147834777832e-01) (6, -2.82352417707443237305e-01) (7, -9.30846184492111206055e-02) (8, -4.99465577304363250732e-02) (9, -2.88185067474842071533e-02) (10, -4.84635174274444580078e-01) (11, -2.64946311712265014648e-01) (12, 3.31807523965835571289e-01) (13, 2.45295509696006774902e-01) (14, 1.25280231237411499023e-01) (15, -8.16970225423574447632e-03) (16, -7.61008588597178459167e-04) (17, -3.14755648374557495117e-01) (18, 4.19024266302585601807e-02) (19, 1.19386267662048339844e+00) (20, 1.83471786975860595703e+00) (21, 3.53831589221954345703e-01) (22, 4.91591431200504302979e-02) (23, 1.92021229304373264313e-03) (24, 7.83662497997283935547e-03) (25, -9.86366748809814453125e-01) (26, 3.62643152475357055664e-01) (27, 2.45002865791320800781e+00) (28, 2.22651457786560058594e+00) (29, 7.95905351638793945312e-01) (30, -4.09894324839115142822e-02) (31, -5.05674928426742553711e-02) (32, -1.56266782432794570923e-02) (33, -1.43137380480766296387e-01) (34, -1.12509079277515411377e-01) (35, 1.76186192035675048828e+00) (36, 3.34433436393737792969e-01) (37, 7.83201992511749267578e-01) (38, -8.46043303608894348145e-02) (39, 2.61077359318733215332e-02) (40, 1.37140810489654541016e-01) (41, 1.25998103618621826172e+00) (42, -2.95540213584899902344e+00) (43, -1.64397478103637695312e+00) (44, 1.45279335975646972656e+00) (45, 1.27469325065612792969e+00) (46, 1.45436167716979980469e+00) (47, -9.92104038596153259277e-02) (48, -8.54938104748725891113e-02) (49, 9.41787421703338623047e-01) (50, -3.91187399625778198242e-01) (51, -2.11721277236938476562e+00) (52, -1.13974809646606445312e+00) (53, -1.36800706386566162109e+00) (54, -1.68104559183120727539e-01) (55, -4.67243582010269165039e-01) (56, -1.51671785861253738403e-02) (57, -7.12399631738662719727e-02) (58, -3.21433782577514648438e-01) (59, -5.04592061042785644531e-01) (60, -9.60672736167907714844e-01) (61, -2.17302966117858886719e+00) (62, -1.79854881763458251953e+00) (63, -5.63587963581085205078e-01) (64, -2.15130392462015151978e-02) (0, -3.80178876221179962158e-02) (1, 4.02902930974960327148e-01) (2, 6.18051230907440185547e-01) (3, 1.34613644331693649292e-02) (4, 6.94323003292083740234e-01) (5, 1.49116694927215576172e+00) (6, 1.06593465805053710938e+00) (7, 5.21428048610687255859e-01) (8, 1.09095409512519836426e-01) (9, 8.10614585876464843750e-01) (10, 2.23273500800132751465e-01) (11, 1.95735287666320800781e+00) (12, 2.31896877288818359375e+00) (13, -2.52596616744995117188e-01) (14, -1.12871038913726806641e+00) (15, 2.22286000847816467285e-01) (16, 4.08884808421134948730e-02) (17, -1.01490449905395507812e+00) (18, -1.83320081233978271484e+00) (19, -3.25634837150573730469e+00) (20, -1.73306658864021301270e-01) (21, -2.05434858798980712891e-01) (22, -1.41583546996116638184e-01) (23, 1.37195885181427001953e-01) (24, -2.76851113885641098022e-02) (25, -8.60066294670104980469e-01) (26, -7.17912852764129638672e-01) (27, -1.42164576053619384766e+00) (28, 8.23325812816619873047e-02) (29, 5.33882796764373779297e-01) (30, 1.65366184711456298828e+00) (31, 7.18947649002075195312e-02) (32, -4.87061664462089538574e-02) (33, -2.77882009744644165039e-01) (34, -9.08634439110755920410e-02) (35, 2.55310148000717163086e-01) (36, 1.74535870552062988281e+00) (37, 3.22708904743194580078e-01) (38, 1.10715103149414062500e+00) (39, 1.34485140442848205566e-02) (40, 8.03976692259311676025e-03) (41, -1.78790777921676635742e-01) (42, 4.69401001930236816406e-01) (43, 1.46196830272674560547e+00) (44, 1.16554811596870422363e-01) (45, -9.26437377929687500000e-01) (46, 3.89262251555919647217e-02) (47, 5.82156563177704811096e-03) (48, -1.14289149641990661621e-01) (49, -7.91840553283691406250e-01) (50, -1.72706019878387451172e+00) (51, -1.00517594814300537109e+00) (52, -1.56812191009521484375e+00) (53, -2.20554041862487792969e+00) (54, -3.83689075708389282227e-01) (55, -2.30641420930624008179e-02) (56, -1.21282795444130897522e-02) (57, -3.36390048265457153320e-01) (58, -9.71443653106689453125e-01) (59, -2.05436372756958007812e+00) (60, -2.83313298225402832031e+00) (61, -9.05277311801910400391e-01) (62, -3.62498089671134948730e-02) (63, 1.21940962970256805420e-01) (64, -1.59323234111070632935e-02) (0, 8.76500681042671203613e-02) (1, 5.14707505702972412109e-01) (2, -3.97650063037872314453e-01) (3, 1.17539167404174804688e+00) (4, 8.13484549522399902344e-01) (5, 4.18745934963226318359e-01) (6, -2.75696754455566406250e-01) (7, -6.20148062705993652344e-01) (8, 3.90098810195922851562e-01) (9, 8.86288285255432128906e-01) (10, 2.08876085281372070312e+00) (11, -6.94099605083465576172e-01) (12, -7.66015112400054931641e-01) (13, 1.47163248062133789062e+00) (14, -9.14634704589843750000e-01) (15, -1.80766537785530090332e-01) (16, 8.12029466032981872559e-02) (17, 4.66533094644546508789e-01) (18, 4.73998337984085083008e-02) (19, -1.95001745223999023438e+00) (20, -3.02658867835998535156e+00) (21, 2.11707711219787597656e+00) (22, 1.03476762771606445312e+00) (23, 9.78627577424049377441e-02) (24, -7.36252069473266601562e-02) (25, -7.27277457714080810547e-01) (26, 1.82673171162605285645e-01) (27, 1.63142669200897216797e+00) (28, -4.28836226463317871094e-01) (29, -5.98539054393768310547e-01) (30, -2.60205119848251342773e-01) (31, -9.71923843026161193848e-02) (32, 1.82156506925821304321e-02) (33, -1.89768075942993164062e-01) (34, 2.03675031661987304688e-01) (35, 3.52083349227905273438e+00) (36, -6.20177626609802246094e-01) (37, -1.35336005687713623047e+00) (38, -9.24749076366424560547e-02) (39, -3.97429168224334716797e-02) (40, -8.38457122445106506348e-02) (41, -1.53452306985855102539e-01) (42, 1.11808013916015625000e+00) (43, -2.58160591125488281250e+00) (44, -1.59676206111907958984e+00) (45, 1.70255815982818603516e+00) (46, 1.76530504226684570312e+00) (47, -2.57169790565967559814e-02) (48, -8.38250443339347839355e-02) (49, -6.37431144714355468750e-01) (50, 1.38063919544219970703e+00) (51, -1.51437973976135253906e+00) (52, -2.62102484703063964844e+00) (53, 1.05257546901702880859e+00) (54, -5.88907003402709960938e-01) (55, -3.85896325111389160156e-01) (56, 2.31442544609308242798e-02) (57, -2.15310245752334594727e-01) (58, -8.76954644918441772461e-02) (59, 2.43765020370483398438e+00) (60, 1.11166387796401977539e-01) (61, -2.31303024291992187500e+00) (62, -2.35375189781188964844e+00) (63, -1.06219232082366943359e+00) (64, 1.89723819494247436523e-01) (0, -7.50188082456588745117e-02) (1, -2.78998643159866333008e-01) (2, 1.42332494258880615234e-01) (3, -7.65656530857086181641e-01) (4, 2.17330202460289001465e-01) (5, -2.05845069885253906250e+00) (6, -1.45804435014724731445e-01) (7, 1.05083191394805908203e+00) (8, -5.56074641644954681396e-03) (9, -7.87125825881958007812e-01) (10, -4.20302063226699829102e-01) (11, -4.72647190093994140625e-01) (12, -1.27262735366821289062e+00) (13, -1.40314638614654541016e+00) (14, 1.72095572948455810547e+00) (15, 8.52236568927764892578e-01) (16, -6.74165412783622741699e-02) (17, -9.49733853340148925781e-01) (18, -9.49991941452026367188e-02) (19, -1.02778387069702148438e+00) (20, -6.47372066974639892578e-01) (21, 5.49369812011718750000e-01) (22, -4.65447902679443359375e-02) (23, -6.13288693130016326904e-02) (24, 7.25674256682395935059e-02) (25, 3.91402602195739746094e-01) (26, 7.33488678932189941406e-01) (27, -3.27428728342056274414e-01) (28, -1.18780338764190673828e+00) (29, -1.80190548300743103027e-01) (30, 2.01739025115966796875e+00) (31, -6.32976591587066650391e-02) (32, 8.55614095926284790039e-02) (33, 1.40663027763366699219e+00) (34, 1.61578869819641113281e+00) (35, -1.47331690788269042969e+00) (36, 5.02019226551055908203e-01) (37, 1.05647015571594238281e+00) (38, 3.08737707138061523438e+00) (39, -5.58278225362300872803e-02) (40, 1.03521496057510375977e-02) (41, 1.55739569664001464844e+00) (42, 1.76452159881591796875e+00) (43, 8.79312396049499511719e-01) (44, 9.58448886871337890625e-01) (45, 2.31885492801666259766e-01) (46, 8.98960649967193603516e-01) (47, -9.00115445256233215332e-02) (48, 9.21487156301736831665e-03) (49, -5.29255509376525878906e-01) (50, -2.53457054495811462402e-02) (51, 1.74767911434173583984e+00) (52, -5.55141091346740722656e-01) (53, -3.00166100263595581055e-01) (54, -4.75146412849426269531e-01) (55, -1.50427684187889099121e-01) (56, -3.49792577326297760010e-02) (57, -4.27770733833312988281e-01) (58, 5.94584494829177856445e-02) (59, -1.16681218147277832031e+00) (60, -5.91048061847686767578e-01) (61, -5.30326783657073974609e-01) (62, -7.70343005657196044922e-01) (63, -2.50994831323623657227e-01) (64, 2.15071812272071838379e-01) (0, -6.68110996484756469727e-02) (1, 4.58946049213409423828e-01) (2, -1.77879527211189270020e-01) (3, 1.57455897331237792969e+00) (4, 1.10124540328979492188e+00) (5, 2.26253211498260498047e-01) (6, -2.34215959906578063965e-01) (7, -1.94023046642541885376e-02) (8, 2.91121810674667358398e-01) (9, 1.67912459373474121094e+00) (10, 2.81116271018981933594e+00) (11, 5.66743969917297363281e-01) (12, 8.84441971778869628906e-01) (13, 2.03194475173950195312e+00) (14, -9.78316187858581542969e-01) (15, 1.11701954156160354614e-02) (16, -1.95506602525711059570e-01) (17, 4.65030580759048461914e-01) (18, -2.71093100309371948242e-01) (19, -2.60964870452880859375e+00) (20, -4.26736980676651000977e-01) (21, 2.11909031867980957031e+00) (22, 6.68511211872100830078e-01) (23, 1.65940791368484497070e-01) (24, -1.21933549642562866211e-01) (25, -6.61817550659179687500e-01) (26, -1.39606285095214843750e+00) (27, 3.77339646220207214355e-02) (28, -1.43413209915161132812e+00) (29, -4.58213537931442260742e-01) (30, 2.90185902267694473267e-02) (31, 5.61026185750961303711e-02) (32, -4.07246798276901245117e-02) (33, -9.12653446197509765625e-01) (34, -5.48224985599517822266e-01) (35, 7.92290270328521728516e-03) (36, -1.83576476573944091797e+00) (37, -2.29355692863464355469e+00) (38, -1.53888750076293945312e+00) (39, 2.00668945908546447754e-02) (40, 2.64213439077138900757e-02) (41, 6.29932954907417297363e-02) (42, -2.01940298080444335938e-01) (43, -2.60950946807861328125e+00) (44, -1.57705354690551757812e+00) (45, 5.26572167873382568359e-01) (46, -7.43972122669219970703e-01) (47, -6.31622821092605590820e-02) (48, 3.69588062167167663574e-02) (49, 1.02500128746032714844e+00) (50, 9.34433162212371826172e-01) (51, -1.11509656906127929688e+00) (52, 1.55458837747573852539e-01) (53, 1.57868742942810058594e+00) (54, 2.40741789340972900391e-01) (55, -1.42361596226692199707e-01) (56, 8.50833207368850708008e-03) (57, 1.06011226773262023926e-01) (58, -7.45810493826866149902e-02) (59, 2.39872264862060546875e+00) (60, 1.34937748312950134277e-01) (61, -9.96839582920074462891e-01) (62, 2.74300843477249145508e-01) (63, -3.85937660932540893555e-01) (64, -3.27624715864658355713e-02) (0, -6.74599260091781616211e-02) (1, -4.21946555376052856445e-01) (2, -3.90372127294540405273e-01) (3, -1.40525475144386291504e-01) (4, -7.85609483718872070312e-02) (5, 7.17684507369995117188e-01) (6, 1.13824047148227691650e-01) (7, -2.01259613037109375000e-01) (8, 3.64193506538867950439e-02) (9, -5.69261670112609863281e-01) (10, -1.08889734745025634766e+00) (11, 1.25460994243621826172e+00) (12, 6.27617299556732177734e-01) (13, -3.74336987733840942383e-02) (14, -9.37588691711425781250e-01) (15, -1.96325331926345825195e-01) (16, -4.80789132416248321533e-02) (17, -1.58859074115753173828e+00) (18, 4.76310789585113525391e-01) (19, -7.56428241729736328125e-01) (20, -1.60439491271972656250e+00) (21, -1.76648330688476562500e+00) (22, -6.13713443279266357422e-01) (23, 2.66122575849294662476e-02) (24, -3.35137099027633666992e-02) (25, 5.44662714004516601562e-01) (26, 8.32251071929931640625e-01) (27, -1.22869825363159179688e+00) (28, -1.81710350513458251953e+00) (29, 1.67486801743507385254e-01) (30, 2.48905792832374572754e-02) (31, -1.24739448074251413345e-03) (32, -4.32383734732866287231e-03) (33, 1.35025835037231445312e+00) (34, 1.23984479904174804688e+00) (35, 1.14747369289398193359e+00) (36, -1.25072574615478515625e+00) (37, -4.44642633199691772461e-01) (38, 1.03178524971008300781e+00) (39, 7.78289660811424255371e-02) (40, -9.41593423485755920410e-02) (41, -8.98572683334350585938e-01) (42, -3.25417220592498779297e-01) (43, -2.29831323027610778809e-01) (44, -1.76482069492340087891e+00) (45, 4.92986559867858886719e-01) (46, 1.32969617843627929688e+00) (47, 3.21594066917896270752e-02) (48, -1.23349027708172798157e-02) (49, -1.36410760879516601562e+00) (50, 5.19732594490051269531e-01) (51, 1.17742069065570831299e-01) (52, 6.93337172269821166992e-02) (53, -2.34364226460456848145e-01) (54, -4.08511012792587280273e-01) (55, 1.52456775307655334473e-01) (56, 1.07665453106164932251e-02) (57, -4.55461680889129638672e-01) (58, -1.28648424148559570312e+00) (59, 6.15892350673675537109e-01) (60, 1.79690361022949218750e+00) (61, 3.56673151254653930664e-01) (62, -7.20163941383361816406e-01) (63, -6.72708630561828613281e-01) (64, 2.60123461484909057617e-02) (0, -9.91127565503120422363e-02) (1, 2.08474293351173400879e-01) (2, 1.60176470875740051270e-01) (3, -1.36436438560485839844e+00) (4, -2.09300711750984191895e-01) (5, -1.58408057689666748047e+00) (6, -3.61654907464981079102e-02) (7, -2.17218101024627685547e-02) (8, -3.04702166467905044556e-02) (9, 1.02514550089836120605e-01) (10, 5.22046089172363281250e-01) (11, 1.42922759056091308594e+00) (12, 1.21788418292999267578e+00) (13, -1.03141570091247558594e+00) (14, -4.57119286060333251953e-01) (15, 1.36030286550521850586e-01) (16, -1.34721055626869201660e-01) (17, -1.90069949626922607422e+00) (18, -3.80574673414230346680e-01) (19, -2.66487169265747070312e+00) (20, -1.11252295970916748047e+00) (21, 2.41624176502227783203e-01) (22, 6.57986640930175781250e-01) (23, -1.00185638293623924255e-02) (24, -5.98924979567527770996e-02) (25, 2.15073097497224807739e-02) (26, -5.86786389350891113281e-01) (27, -3.57332015037536621094e+00) (28, -1.35328590869903564453e+00) (29, -9.47625398635864257812e-01) (30, -9.05862152576446533203e-02) (31, -6.68970793485641479492e-02) (32, -5.15147969126701354980e-02) (33, -1.01806484162807464600e-01) (34, -2.50696569681167602539e-01) (35, -9.93563652038574218750e-01) (36, -7.67403304576873779297e-01) (37, -5.93087732791900634766e-01) (38, 3.35175156593322753906e-01) (39, -6.81688785552978515625e-02) (40, -1.40594035387039184570e-01) (41, -1.70015609264373779297e+00) (42, 3.06254220008850097656e+00) (43, 4.02841091156005859375e-01) (44, -2.09719157218933105469e+00) (45, -6.46011829376220703125e-01) (46, 8.51625382900238037109e-01) (47, 1.09374180436134338379e-01) (48, 1.40439733862876892090e-01) (49, -7.85231530666351318359e-01) (50, -8.56778770685195922852e-02) (51, 2.40952539443969726562e+00) (52, 1.24630200862884521484e+00) (53, 1.46513497829437255859e+00) (54, 3.94517779350280761719e-01) (55, -7.44048552587628364563e-03) (56, 4.48764450848102569580e-02) (57, 1.44638076424598693848e-01) (58, -8.39237421751022338867e-02) (59, 3.00584852695465087891e-01) (60, 7.64151990413665771484e-01) (61, 1.87098348140716552734e+00) (62, 7.18010902404785156250e-01) (63, -1.11990749835968017578e+00) (64, -9.40923988819122314453e-02) (0, -1.12766847014427185059e-02) (1, -2.28718549013137817383e-01) (2, -1.89768955111503601074e-01) (3, -2.26777887344360351562e+00) (4, -5.78810684382915496826e-02) (5, 1.24529266357421875000e+00) (6, 1.29643595218658447266e+00) (7, 5.07036924362182617188e-01) (8, 5.44142983853816986084e-02) (9, -6.78653657436370849609e-01) (10, -1.36753797531127929688e+00) (11, -4.17573064565658569336e-01) (12, -2.31400147080421447754e-01) (13, -4.92267906665802001953e-01) (14, -8.49347710609436035156e-02) (15, 1.59034788608551025391e-01) (16, 6.35784259065985679626e-03) (17, -6.12331867218017578125e-01) (18, 2.89726853370666503906e-01) (19, 1.16038648411631584167e-02) (20, -1.47464895248413085938e+00) (21, -2.90753030776977539062e+00) (22, -1.81266546249389648438e+00) (23, -2.03733876347541809082e-01) (24, -7.14539587497711181641e-02) (25, 1.08419895172119140625e+00) (26, 1.18586480617523193359e+00) (27, -5.26076778769493103027e-02) (28, -1.21272599697113037109e+00) (29, -9.90540504455566406250e-01) (30, 3.76558095216751098633e-01) (31, -7.82630220055580139160e-02) (32, -6.13638348877429962158e-02) (33, 9.24907565116882324219e-01) (34, 6.18358433246612548828e-01) (35, -1.57887482643127441406e+00) (36, -1.43402302265167236328e+00) (37, -2.92891323566436767578e-01) (38, 1.50462365150451660156e+00) (39, 9.56705734133720397949e-02) (40, -3.44435661099851131439e-03) (41, 2.16063603758811950684e-01) (42, 7.13286325335502624512e-02) (43, -6.91816687583923339844e-01) (44, -3.56510013341903686523e-01) (45, 2.82143592834472656250e-01) (46, 7.98126399517059326172e-01) (47, 4.71890941262245178223e-02) (48, 1.86136458069086074829e-02) (49, -1.15820497274398803711e-01) (50, 5.02542890608310699463e-02) (51, -4.21503186225891113281e-01) (52, 9.24821853637695312500e-01) (53, -1.15134425461292266846e-01) (54, -5.52725315093994140625e-01) (55, -1.23139865696430206299e-01) (56, 2.21628341823816299438e-02) (57, -8.97709876298904418945e-02) (58, -3.21255058050155639648e-01) (59, -1.45585584640502929688e+00) (60, -2.01879277825355529785e-01) (61, -4.42367017269134521484e-01) (62, -1.09547472000122070312e+00) (63, -3.06186556816101074219e-01) (64, 6.93677887320518493652e-02) (0, 6.62373378872871398926e-02) (1, -5.23200571537017822266e-01) (2, 1.33166992664337158203e+00) (3, -4.91899758577346801758e-01) (4, -1.34432172775268554688e+00) (5, -1.64421319961547851562e+00) (6, -6.41645252704620361328e-01) (7, -3.57924371957778930664e-01) (8, -1.01573348045349121094e-01) (9, -5.04762589931488037109e-01) (10, -3.94193261861801147461e-01) (11, 5.47752063721418380737e-03) (12, -6.12640917301177978516e-01) (13, 1.12558379769325256348e-01) (14, 2.38014459609985351562e-01) (15, -1.60020709037780761719e-01) (16, 9.31155607104301452637e-02) (17, 6.17306113243103027344e-01) (18, 3.47989749908447265625e+00) (19, 2.72772216796875000000e+00) (20, 5.97723662853240966797e-01) (21, 1.99050068855285644531e+00) (22, 5.60740306973457336426e-02) (23, -5.78756108880043029785e-02) (24, 8.56031775474548339844e-02) (25, 1.32473337650299072266e+00) (26, 2.51013445854187011719e+00) (27, -5.85984885692596435547e-01) (28, -1.93668162822723388672e+00) (29, 2.42169713973999023438e+00) (30, 9.98897373676300048828e-01) (31, 6.85978457331657409668e-02) (32, -3.19251008331775665283e-02) (33, 8.79866719245910644531e-01) (34, 5.14794707298278808594e-01) (35, -2.97547364234924316406e+00) (36, -1.40950524806976318359e+00) (37, 7.50563263893127441406e-01) (38, 5.40735304355621337891e-01) (39, -6.21719509363174438477e-02) (40, 2.57845949381589889526e-02) (41, 1.35726380348205566406e+00) (42, -2.72702836990356445312e+00) (43, -2.12778496742248535156e+00) (44, -4.69213038682937622070e-01) (45, -1.14236377179622650146e-01) (46, -2.12854099273681640625e+00) (47, -1.34509384632110595703e-01) (48, 2.30124294757843017578e-02) (49, 1.09271860122680664062e+00) (50, -1.41560614109039306641e-01) (51, -1.96960851550102233887e-01) (52, 6.98383271694183349609e-01) (53, -1.01896357536315917969e+00) (54, -3.15887033939361572266e-02) (55, -6.38979896903038024902e-02) (56, 1.00918933749198913574e-01) (57, -2.18797743320465087891e-01) (58, 5.36033101379871368408e-02) (59, -1.34129345417022705078e+00) (60, -2.66424208879470825195e-01) (61, 6.50935888290405273438e-01) (62, 1.06633853912353515625e+00) (63, 4.90594655275344848633e-01) (64, 4.06907871365547180176e-02) (0, 1.19207054376602172852e-03) (1, 3.96377146244049072266e-02) (2, -4.01754140853881835938e-01) (3, -2.88191378116607666016e-01) (4, 6.37905597686767578125e-01) (5, -1.70921838283538818359e+00) (6, -1.44499933719635009766e+00) (7, -3.91742557287216186523e-01) (8, -2.36595630645751953125e-01) (9, 4.16879653930664062500e-01) (10, 1.65064295288175344467e-04) (11, 4.71491634845733642578e-01) (12, 1.21848893165588378906e+00) (13, 1.01026065647602081299e-01) (14, 1.21869526803493499756e-01) (15, 1.89760610461235046387e-01) (16, 7.25066885352134704590e-02) (17, -1.09953653812408447266e+00) (18, -2.03215742111206054688e+00) (19, -2.68818527460098266602e-01) (20, 2.13025665283203125000e+00) (21, 2.95191931724548339844e+00) (22, 7.71540582180023193359e-01) (23, 1.41782417893409729004e-01) (24, -3.17880846560001373291e-02) (25, -3.41536372900009155273e-01) (26, -5.04478931427001953125e-01) (27, -5.68927407264709472656e-01) (28, -4.85815376043319702148e-01) (29, -6.23843312263488769531e-01) (30, 8.88949334621429443359e-01) (31, 7.39108351990580558777e-03) (32, -2.36052181571722030640e-02) (33, 1.00797712802886962891e+00) (34, 7.42888331413269042969e-01) (35, -9.04174149036407470703e-01) (36, -1.80661678314208984375e-01) (37, 2.03182554244995117188e+00) (38, 1.33880841732025146484e+00) (39, -1.70123726129531860352e-02) (40, -1.80784650146961212158e-02) (41, 1.59165060520172119141e+00) (42, -1.39765274524688720703e+00) (43, -1.75253927707672119141e+00) (44, 1.07510137557983398438e+00) (45, 1.51728987693786621094e+00) (46, 7.96356558799743652344e-01) (47, -1.48278236389160156250e-01) (48, 3.55446115136146545410e-02) (49, 8.11972975730895996094e-01) (50, -7.15519845485687255859e-01) (51, -1.21235668659210205078e+00) (52, -3.93146961927413940430e-01) (53, 3.52141082286834716797e-01) (54, -8.17974507808685302734e-01) (55, -5.14880299568176269531e-01) (56, 1.13486563786864280701e-02) (57, 3.46445411443710327148e-01) (58, -7.97040536999702453613e-02) (59, -1.24783623218536376953e+00) (60, 9.41563844680786132812e-01) (61, 5.10937757790088653564e-02) (62, -2.35448551177978515625e+00) (63, -8.13709974288940429688e-01) (64, -5.19620180130004882812e-02) (0, 9.16364118456840515137e-02) (1, -8.45969915390014648438e-02) (2, 1.33006557822227478027e-01) (3, -1.68656960129737854004e-01) (4, 2.56220549345016479492e-01) (5, 6.45929753780364990234e-01) (6, 4.09105837345123291016e-01) (7, 1.99392616748809814453e-01) (8, -1.28372445702552795410e-01) (9, -3.28107684850692749023e-01) (10, -4.60327416658401489258e-01) (11, 1.50722190737724304199e-01) (12, 2.00196787714958190918e-01) (13, -2.35397830605506896973e-01) (14, 1.96141079068183898926e-01) (15, 3.05076409131288528442e-02) (16, 1.83736793696880340576e-02) (17, -1.37380689382553100586e-01) (18, 9.89698544144630432129e-02) (19, 9.02038991451263427734e-01) (20, 2.06718116998672485352e-01) (21, -1.02947604656219482422e+00) (22, -5.84499239921569824219e-01) (23, -8.02087113261222839355e-02) (24, 2.64764595776796340942e-02) (25, 3.77193212509155273438e-01) (26, 8.37467372417449951172e-01) (27, 2.34365522861480712891e-01) (28, 3.24113667011260986328e-01) (29, -3.13101828098297119141e-01) (30, -3.34612816572189331055e-01) (31, -3.58392633497714996338e-02) (32, 9.32448580861091613770e-02) (33, 3.41437011957168579102e-01) (34, 4.99419808387756347656e-01) (35, -1.81087195873260498047e-01) (36, 5.32818794250488281250e-01) (37, 2.17494085431098937988e-01) (38, -2.98452600836753845215e-02) (39, 8.67856815457344055176e-02) (40, -5.51352351903915405273e-02) (41, -2.36600294709205627441e-01) (42, -1.19824469089508056641e-01) (43, 5.92515230178833007812e-01) (44, 4.31142598390579223633e-01) (45, 1.36462002992630004883e-01) (46, -1.76585242152214050293e-01) (47, 9.02906954288482666016e-02) (48, -4.11501564085483551025e-02) (49, -2.31404915452003479004e-01) (50, 5.98719716072082519531e-02) (51, 2.77987927198410034180e-01) (52, 8.39441776275634765625e-01) (53, 1.97555184364318847656e-01) (54, -1.68171077966690063477e-01) (55, -4.24762256443500518799e-02) (56, 2.80501302331686019897e-02) (57, 2.03004721552133560181e-02) (58, 2.67211914062500000000e-01) (59, 1.47979363799095153809e-01) (60, 3.43017607927322387695e-01) (61, 6.67326033115386962891e-01) (62, 2.64975279569625854492e-02) (63, -6.32676184177398681641e-02) (64, 1.10629230737686157227e-01) (0, 8.36384817957878112793e-02) (1, 4.27692681550979614258e-02) (2, 4.44610863924026489258e-01) (3, -1.14112997055053710938e+00) (4, -1.04740597307682037354e-01) (5, -1.53102982044219970703e+00) (6, 3.04665058851242065430e-01) (7, 8.82289946079254150391e-01) (8, 1.95601815357804298401e-03) (9, -4.35247756540775299072e-02) (10, 2.86965221166610717773e-02) (11, -1.02480840682983398438e+00) (12, -1.65648579597473144531e+00) (13, -1.98610532283782958984e+00) (14, 1.20310473442077636719e+00) (15, 7.26928830146789550781e-01) (16, 4.23222826793789863586e-03) (17, -7.32709467411041259766e-01) (18, -1.59296679496765136719e+00) (19, -1.41331374645233154297e+00) (20, -9.67684626579284667969e-01) (21, -3.32764051854610443115e-02) (22, -1.78702577948570251465e-01) (23, -9.91373285651206970215e-02) (24, 7.38211646676063537598e-02) (25, -2.51841574907302856445e-01) (26, -3.86845618486404418945e-01) (27, 7.16763615608215332031e-01) (28, -1.38998436927795410156e+00) (29, -5.35158514976501464844e-01) (30, 2.73645162582397460938e+00) (31, 9.54468101263046264648e-02) (32, 3.12134493142366409302e-02) (33, 1.23909795284271240234e+00) (34, 9.49659228324890136719e-01) (35, 2.46095329523086547852e-01) (36, 1.46586227416992187500e+00) (37, 1.26055121421813964844e+00) (38, 2.90283989906311035156e+00) (39, -2.67803817987442016602e-02) (40, 1.81281305849552154541e-02) (41, 1.98100733757019042969e+00) (42, 1.46629655361175537109e+00) (43, 1.41391241550445556641e+00) (44, 1.81184101104736328125e+00) (45, 3.42140197753906250000e-01) (46, 1.95387080311775207520e-01) (47, 1.69903170317411422729e-02) (48, 1.75292100757360458374e-02) (49, 8.69307458400726318359e-01) (50, 5.33272251486778259277e-02) (51, 7.63143181800842285156e-01) (52, -8.85645866394042968750e-01) (53, -5.84826231002807617188e-01) (54, -8.43985557556152343750e-01) (55, -2.30724871158599853516e-01) (56, -5.12167289853096008301e-02) (57, -1.08519054949283599854e-01) (58, 2.82722830772399902344e-01) (59, -1.67459166049957275391e+00) (60, -1.26225578784942626953e+00) (61, -7.63250172138214111328e-01) (62, -1.14610970020294189453e+00) (63, -6.25735819339752197266e-02) (64, 1.67919456958770751953e-01) (0, -6.74612373113632202148e-02) (1, -3.38425189256668090820e-01) (2, -1.52403116226196289062e+00) (3, -2.14478993415832519531e+00) (4, 5.78624844551086425781e-01) (5, -1.18310010433197021484e+00) (6, -4.85157191753387451172e-01) (7, 3.62255543470382690430e-01) (8, 1.34773343801498413086e-01) (9, -7.74374961853027343750e-01) (10, -1.89783000946044921875e+00) (11, -9.03195381164550781250e-01) (12, -2.35257744789123535156e+00) (13, -1.83003139495849609375e+00) (14, -2.83168941736221313477e-01) (15, 1.50911778211593627930e-01) (16, 5.37627488374710083008e-02) (17, -7.96110689640045166016e-01) (18, 1.77514636516571044922e+00) (19, -1.46214351058006286621e-01) (20, -2.99756312370300292969e+00) (21, -1.54949939250946044922e+00) (22, -1.39591741561889648438e+00) (23, -2.94727504253387451172e-01) (24, -6.64203986525535583496e-02) (25, 1.39859962463378906250e+00) (26, 1.55107533931732177734e+00) (27, 2.16858935356140136719e+00) (28, 9.23817157745361328125e-01) (29, -1.75044119358062744141e+00) (30, 8.35198462009429931641e-01) (31, -2.50007677823305130005e-02) (32, -8.40134322643280029297e-02) (33, 1.02569019794464111328e+00) (34, 1.08475124835968017578e+00) (35, -2.38588795065879821777e-01) (36, 1.29733547568321228027e-01) (37, 1.87659609317779541016e+00) (38, 2.07200026512145996094e+00) (39, 3.18882241845130920410e-02) (40, -2.28908956050872802734e-02) (41, 1.70810997486114501953e+00) (42, 1.70532131195068359375e+00) (43, 3.93081188201904296875e-01) (44, 1.57833266258239746094e+00) (45, 1.17166340351104736328e+00) (46, 4.59027677774429321289e-01) (47, 9.33332294225692749023e-02) (48, 6.73757717013359069824e-02) (49, 2.58666664361953735352e-01) (50, 5.26470065116882324219e-01) (51, -6.74404427409172058105e-02) (52, -1.15450716018676757812e+00) (53, -1.14292347431182861328e+00) (54, -2.25854262709617614746e-01) (55, -1.19475066661834716797e-01) (56, -8.84038880467414855957e-02) (57, -3.23120921850204467773e-01) (58, -8.92994701862335205078e-01) (59, -2.31369400024414062500e+00) (60, -1.41864016652107238770e-01) (61, 5.64940810203552246094e-01) (62, -9.33931052684783935547e-01) (63, -6.54980659484863281250e-01) (64, 1.49968728423118591309e-01) (0, -2.69592031836509704590e-02) (1, -2.03421443700790405273e-01) (2, 1.16217903792858123779e-01) (3, 5.38378059864044189453e-02) (4, 1.11460976302623748779e-01) (5, 1.67420417070388793945e-01) (6, 7.25135207176208496094e-02) (7, 2.09145069122314453125e-01) (8, -8.59642624855041503906e-02) (9, -7.51415863633155822754e-02) (10, -2.28545397520065307617e-01) (11, -3.19897770881652832031e-01) (12, -1.03558719158172607422e+00) (13, -4.21498537063598632812e-01) (14, 4.38688188791275024414e-01) (15, -1.06075927615165710449e-01) (16, -1.65738202631473541260e-02) (17, 5.51880180835723876953e-01) (18, 1.17520916461944580078e+00) (19, 5.96449971199035644531e-01) (20, -5.87555825710296630859e-01) (21, -4.20858830213546752930e-01) (22, -2.67712950706481933594e-01) (23, 1.70216728001832962036e-02) (24, -4.12791082635521888733e-03) (25, 8.03009331226348876953e-01) (26, 6.63907706737518310547e-01) (27, 3.50801587104797363281e-01) (28, 2.94705539941787719727e-01) (29, 1.07332400977611541748e-01) (30, 3.29726375639438629150e-02) (31, 5.01667708158493041992e-02) (32, 7.75940343737602233887e-02) (33, -3.04901897907257080078e-02) (34, -2.54234135150909423828e-01) (35, -3.67559045553207397461e-01) (36, 6.54865980148315429688e-01) (37, -1.83152854442596435547e-01) (38, -3.34426641464233398438e-01) (39, -7.91326165199279785156e-02) (40, 7.68035128712654113770e-02) (41, 4.17437821626663208008e-01) (42, 5.61758279800415039062e-01) (43, 1.31390094757080078125e+00) (44, 8.62020075321197509766e-01) (45, -5.09833395481109619141e-01) (46, -1.07357788085937500000e+00) (47, -4.48169670999050140381e-02) (48, -3.02631105296313762665e-03) (49, 4.82449054718017578125e-01) (50, 4.74027693271636962891e-01) (51, 2.84123033285140991211e-01) (52, 1.13105702400207519531e+00) (53, 2.13785588741302490234e-01) (54, 2.06865027546882629395e-01) (55, 4.74772341549396514893e-02) (56, -7.75034725666046142578e-02) (57, -9.34130102396011352539e-02) (58, 2.77973443269729614258e-01) (59, 2.18776032328605651855e-01) (60, 5.44615030288696289062e-01) (61, 9.82527971267700195312e-01) (62, 8.96630287170410156250e-01) (63, 3.65290731191635131836e-01) (64, -4.62204851210117340088e-02) (0, 7.40204080939292907715e-02) (1, -2.35173422843217849731e-02) (2, -4.87481206655502319336e-01) (3, -1.37111157178878784180e-01) (4, -1.09160661697387695312e-01) (5, -2.45763193815946578979e-02) (6, -1.57382562756538391113e-01) (7, 3.66343706846237182617e-02) (8, 2.93545946478843688965e-02) (9, -3.17591041326522827148e-01) (10, -5.30703902244567871094e-01) (11, -3.90730142593383789062e-01) (12, 1.33953422307968139648e-01) (13, 4.64130714535713195801e-02) (14, -1.23709537088871002197e-01) (15, -4.83167991042137145996e-02) (16, -4.41874973475933074951e-02) (17, -1.96487847715616226196e-02) (18, 1.18995197117328643799e-01) (19, 2.85351365804672241211e-01) (20, 1.72555953264236450195e-01) (21, 5.78727543354034423828e-01) (22, 2.09825336933135986328e-01) (23, -4.77941893041133880615e-03) (24, -4.73966710269451141357e-02) (25, 2.79487431049346923828e-01) (26, 4.91626173257827758789e-01) (27, 3.79055768251419067383e-01) (28, 1.24081820249557495117e-01) (29, -7.35553801059722900391e-02) (30, 6.82322978973388671875e-01) (31, -5.14340326189994812012e-02) (32, 8.04487764835357666016e-02) (33, 3.31559628248214721680e-01) (34, 7.36767590045928955078e-01) (35, 2.47707962989807128906e-02) (36, 6.78540527820587158203e-01) (37, 1.11239001154899597168e-01) (38, 3.13405334949493408203e-01) (39, 8.71758162975311279297e-03) (40, -1.40840588137507438660e-02) (41, 2.86409050226211547852e-01) (42, 1.87588965892791748047e+00) (43, 1.02249836921691894531e+00) (44, 5.78295826911926269531e-01) (45, 5.20310938358306884766e-01) (46, 1.20563201606273651123e-01) (47, -8.67285579442977905273e-02) (48, 6.59619271755218505859e-02) (49, -3.22766482830047607422e-01) (50, 3.53953659534454345703e-01) (51, 2.65726465731859207153e-02) (52, 7.77997151017189025879e-02) (53, 5.40354549884796142578e-01) (54, -5.65649382770061492920e-02) (55, 8.96182283759117126465e-02) (56, -7.98478536307811737061e-03) (57, -1.89883098006248474121e-01) (58, -3.33084881305694580078e-01) (59, -3.86630803346633911133e-01) (60, 8.33867341279983520508e-02) (61, 3.09647113084793090820e-01) (62, -7.47119411826133728027e-02) (63, 1.75706818699836730957e-01) (64, 1.17567077279090881348e-01) (0, 6.84656724333763122559e-02) (1, 2.32488051056861877441e-01) (2, -3.73498648405075073242e-01) (3, 5.19321739673614501953e-01) (4, -5.58264434337615966797e-01) (5, -1.48795735836029052734e+00) (6, -1.80160510540008544922e+00) (7, -9.64475095272064208984e-01) (8, 1.51997968554496765137e-01) (9, 6.54068589210510253906e-01) (10, 4.09382209181785583496e-02) (11, -1.45096552371978759766e+00) (12, -1.02135562896728515625e+00) (13, -1.43827989697456359863e-01) (14, 1.08589585870504379272e-02) (15, -3.25819522142410278320e-01) (16, -5.19989542663097381592e-02) (17, -2.58350878953933715820e-01) (18, -1.24165868759155273438e+00) (19, -6.47370040416717529297e-01) (20, 8.89987707138061523438e-01) (21, 2.27462410926818847656e+00) (22, 1.58418655395507812500e+00) (23, 4.68371175229549407959e-02) (24, -6.09825327992439270020e-02) (25, -9.86118137836456298828e-01) (26, -1.42690420150756835938e+00) (27, 4.63903635740280151367e-01) (28, 7.24025726318359375000e-01) (29, 6.87035024166107177734e-02) (30, 1.14600643515586853027e-01) (31, 4.53114062547683715820e-02) (32, -2.48274225741624832153e-02) (33, -4.31412875652313232422e-01) (34, 6.26223087310791015625e-02) (35, 1.30146276950836181641e+00) (36, 3.56898784637451171875e-01) (37, 1.99857074767351150513e-02) (38, -7.42997050285339355469e-01) (39, 3.03736403584480285645e-02) (40, 1.26559017226099967957e-02) (41, 4.95387554168701171875e-01) (42, -5.12045860290527343750e-01) (43, -9.14733529090881347656e-01) (44, -1.64904162287712097168e-01) (45, -3.80969084799289703369e-02) (46, -6.03570826351642608643e-02) (47, -7.11721852421760559082e-02) (48, -8.13578516244888305664e-02) (49, 1.57932862639427185059e-01) (50, -1.25407531857490539551e-01) (51, -1.69160509109497070312e+00) (52, -2.58706212043762207031e+00) (53, -1.26049172878265380859e+00) (54, -1.78231552243232727051e-01) (55, -2.26803407073020935059e-01) (56, 1.56391058117151260376e-02) (57, -3.00554335117340087891e-02) (58, -2.16341301798820495605e-01) (59, -7.76463627815246582031e-01) (60, -5.86279690265655517578e-01) (61, -1.13685059547424316406e+00) (62, -9.82131958007812500000e-01) (63, -3.77826124429702758789e-01) (64, 2.74895969778299331665e-03) (0, 8.59850123524665832520e-02) (1, -2.02898174524307250977e-01) (2, -3.20437550544738769531e-01) (3, -1.10579705238342285156e+00) (4, -1.61493110656738281250e+00) (5, 6.22159659862518310547e-01) (6, 3.36703866720199584961e-01) (7, -7.91971534490585327148e-02) (8, -1.25252544879913330078e-01) (9, -9.30443763732910156250e-01) (10, -1.33899450302124023438e+00) (11, -1.31563329696655273438e+00) (12, -1.53052154928445816040e-02) (13, 1.07930338382720947266e+00) (14, 2.09715776145458221436e-02) (15, -2.11160123348236083984e-01) (16, 5.37817366421222686768e-02) (17, -1.33125290274620056152e-01) (18, -5.08610904216766357422e-01) (19, 1.45305585861206054688e+00) (20, 9.36466217041015625000e-01) (21, -2.34305334091186523438e+00) (22, -9.54583287239074707031e-01) (23, 5.56253753602504730225e-02) (24, 1.00968498736619949341e-02) (25, 5.01373223960399627686e-02) (26, -5.41202008724212646484e-01) (27, -2.26680099964141845703e-01) (28, -2.94607374817132949829e-02) (29, -1.32021999359130859375e+00) (30, -2.17882323265075683594e+00) (31, 3.58549058437347412109e-02) (32, 8.88492017984390258789e-02) (33, -5.23549795150756835938e-01) (34, -1.10657393932342529297e+00) (35, 1.27537012100219726562e-01) (36, -9.80611518025398254395e-02) (37, -2.94227510690689086914e-01) (38, -1.46213603019714355469e+00) (39, 9.23304259777069091797e-03) (40, -1.55636845156550407410e-02) (41, -1.59773850440979003906e+00) (42, -1.02133560180664062500e+00) (43, -7.36114382743835449219e-01) (44, -6.20356202125549316406e-01) (45, 1.61960378289222717285e-01) (46, 5.15613555908203125000e-01) (47, 3.50912362337112426758e-02) (48, -9.84053239226341247559e-02) (49, -8.66950571537017822266e-01) (50, -7.12634846568107604980e-02) (51, -4.44483906030654907227e-01) (52, 2.15176716446876525879e-01) (53, 7.64821112155914306641e-01) (54, 4.49560642242431640625e-01) (55, -4.79814875870943069458e-03) (56, -1.37459570541977882385e-02) (57, 1.62073969841003417969e-01) (58, -1.38890266418457031250e-01) (59, 4.86030280590057373047e-01) (60, 8.76406788825988769531e-01) (61, 1.51588094234466552734e+00) (62, 2.67944633960723876953e-01) (63, -1.76769733428955078125e-01) (64, -5.38882985711097717285e-02) (0, 2.05122679471969604492e-02) (1, -1.08666300773620605469e-01) (2, 1.11012585461139678955e-01) (3, -2.10907861590385437012e-01) (4, 3.25164169073104858398e-01) (5, 9.14848029613494873047e-01) (6, 1.09271705150604248047e+00) (7, 6.62298083305358886719e-01) (8, -6.93549513816833496094e-02) (9, -4.35642898082733154297e-01) (10, -5.34963160753250122070e-02) (11, 6.13755822181701660156e-01) (12, 2.34276384115219116211e-01) (13, -6.44074141979217529297e-01) (14, 9.31959748268127441406e-02) (15, 1.68200150132179260254e-01) (16, 8.27682167291641235352e-02) (17, -2.08754837512969970703e-01) (18, 5.44384777545928955078e-01) (19, -1.60516183823347091675e-02) (20, -9.46957528591156005859e-01) (21, -1.86448550224304199219e+00) (22, -8.37097883224487304688e-01) (23, 6.62843436002731323242e-02) (24, -9.30349454283714294434e-02) (25, 4.82600063085556030273e-01) (26, 2.20992654561996459961e-01) (27, -8.28538060188293457031e-01) (28, -9.77855443954467773438e-01) (29, -5.21870255470275878906e-01) (30, 5.38748860359191894531e-01) (31, 8.27000886201858520508e-02) (32, -7.66211599111557006836e-02) (33, 2.70568192005157470703e-01) (34, -5.87312243878841400146e-02) (35, -1.03597497940063476562e+00) (36, -5.26800453662872314453e-01) (37, -9.51843321323394775391e-01) (38, 2.51228302717208862305e-01) (39, -6.82127028703689575195e-02) (40, -2.29147877544164657593e-02) (41, 6.31044954061508178711e-02) (42, 2.45020180940628051758e-01) (43, 1.45688521862030029297e+00) (44, 8.47371071577072143555e-02) (45, -1.55554485321044921875e+00) (46, -1.33564591407775878906e+00) (47, 2.41562034934759140015e-02) (48, -2.25013773888349533081e-03) (49, 8.17067995667457580566e-02) (50, -6.45339965820312500000e-01) (51, 6.80714130401611328125e-01) (52, 7.40261316299438476562e-01) (53, -1.29793632030487060547e+00) (54, -3.60857307910919189453e-01) (55, 1.81538611650466918945e-01) (56, -7.18630999326705932617e-02) (57, -1.05893582105636596680e-01) (58, -5.19583933055400848389e-02) (59, -1.45797580480575561523e-01) (60, -5.01625418663024902344e-01) (61, 6.60668238997459411621e-02) (62, 6.13283455371856689453e-01) (63, 3.13113033771514892578e-01) (64, 4.54665981233119964600e-02) (0, -7.55684375762939453125e-02) (1, -8.59189219772815704346e-03) (2, 1.01279076188802719116e-02) (3, 8.50361704826354980469e-01) (4, 9.17855679988861083984e-01) (5, 1.00639688968658447266e+00) (6, 7.62438893318176269531e-01) (7, 5.50805814564228057861e-02) (8, -1.01327210664749145508e-01) (9, 1.37068107724189758301e-01) (10, 2.40156263113021850586e-01) (11, 1.09380924701690673828e+00) (12, 6.65938675403594970703e-01) (13, -1.62347704172134399414e-02) (14, -1.52354901656508445740e-02) (15, -6.99333325028419494629e-02) (16, -4.20654378831386566162e-02) (17, 6.60049319267272949219e-02) (18, 9.05747652053833007812e-01) (19, 6.34763479232788085938e-01) (20, -3.02966415882110595703e-01) (21, -1.48530197143554687500e+00) (22, -3.83656732738018035889e-02) (23, -3.04247159510850906372e-02) (24, -6.94726873189210891724e-03) (25, -1.12692296504974365234e-01) (26, 4.84116584062576293945e-01) (27, -2.89877295494079589844e-01) (28, 3.86379957199096679688e-01) (29, -5.34081578254699707031e-01) (30, -9.76303696632385253906e-01) (31, 8.00675824284553527832e-02) (32, 4.53592091798782348633e-02) (33, -1.23752668499946594238e-01) (34, 2.59304463863372802734e-01) (35, 4.92550224065780639648e-01) (36, 7.68725812435150146484e-01) (37, -4.31846320629119873047e-01) (38, -1.26454222202301025391e+00) (39, -9.61420759558677673340e-02) (40, -6.67274296283721923828e-02) (41, -5.16926467418670654297e-01) (42, -3.49368840456008911133e-01) (43, 7.72745728492736816406e-01) (44, -1.24916300177574157715e-01) (45, -7.03093886375427246094e-01) (46, -4.61256027221679687500e-01) (47, 8.99726338684558868408e-03) (48, 6.64760470390319824219e-02) (49, -4.85597968101501464844e-01) (50, -5.78677766025066375732e-02) (51, 5.49079537391662597656e-01) (52, 4.68194961547851562500e-01) (53, -7.24952399730682373047e-01) (54, 3.54662179946899414062e-01) (55, 2.08649873733520507812e-01) (56, 7.09715709090232849121e-02) (57, -1.56644299626350402832e-01) (58, 3.78639735281467437744e-02) (59, 9.17964994907379150391e-01) (60, 4.88421827554702758789e-01) (61, 3.30308139324188232422e-01) (62, 4.84948724508285522461e-01) (63, -8.39751884341239929199e-02) (64, 6.63911923766136169434e-02) (0, -9.35688465833663940430e-02) (1, -9.07581225037574768066e-02) (2, -4.09690797328948974609e-01) (3, -7.80943110585212707520e-02) (4, -2.63276904821395874023e-01) (5, -1.25484496355056762695e-01) (6, 1.93050518631935119629e-01) (7, -2.32301224023103713989e-02) (8, 4.68012429773807525635e-02) (9, -1.18507869541645050049e-01) (10, -3.06580632925033569336e-01) (11, 2.85759657621383666992e-01) (12, 3.36312144994735717773e-01) (13, -4.04324680566787719727e-01) (14, -2.20929071307182312012e-01) (15, -9.01862829923629760742e-02) (16, -5.71739673614501953125e-02) (17, -4.80156019330024719238e-02) (18, 3.11193913221359252930e-01) (19, -1.56865969300270080566e-01) (20, -4.81952786445617675781e-01) (21, -3.93454618752002716064e-02) (22, -8.95957369357347488403e-03) (23, 1.53568824753165245056e-02) (24, -2.20679193735122680664e-02) (25, -1.67749300599098205566e-01) (26, 2.65982836484909057617e-01) (27, -1.05855154991149902344e+00) (28, -3.32433849573135375977e-01) (29, 1.61552324891090393066e-01) (30, 1.30998760461807250977e-01) (31, 2.08026152104139328003e-02) (32, -1.85364745557308197021e-02) (33, -4.07075881958007812500e-02) (34, -3.30671250820159912109e-01) (35, -4.14092242717742919922e-01) (36, 3.83097261190414428711e-01) (37, -9.22726541757583618164e-02) (38, -3.40511620044708251953e-01) (39, 8.71139764785766601562e-03) (40, -1.00691445171833038330e-01) (41, -4.39499139785766601562e-01) (42, -6.57352566719055175781e-01) (43, 3.55762362480163574219e-01) (44, -3.59645724296569824219e-01) (45, -5.50729393959045410156e-01) (46, -4.94499683380126953125e-01) (47, -7.83072859048843383789e-02) (48, 8.58142450451850891113e-02) (49, -5.92750787734985351562e-01) (50, -6.94364070892333984375e-01) (51, 2.10625287145376205444e-02) (52, -3.01517218351364135742e-01) (53, -3.73728990554809570312e-01) (54, -9.29642319679260253906e-02) (55, 2.05211758613586425781e-01) (56, -8.63664969801902770996e-02) (57, 7.94598739594221115112e-03) (58, -5.08409917354583740234e-01) (59, -5.55928684771060943604e-02) (60, 5.06855547428131103516e-01) (61, 4.84266072511672973633e-01) (62, 1.27655655145645141602e-01) (63, -2.65528485178947448730e-02) (64, -1.54533116146922111511e-02) (0, -2.88876518607139587402e-02) (1, -2.77301579713821411133e-01) (2, 5.45362412929534912109e-01) (3, 9.80087276548147201538e-03) (4, 7.19159007072448730469e-01) (5, 3.90215098857879638672e-01) (6, 7.33798146247863769531e-01) (7, 1.11141823232173919678e-01) (8, 1.47724291309714317322e-03) (9, 4.29813474416732788086e-01) (10, 4.47228670120239257812e-01) (11, 2.00673431158065795898e-01) (12, -7.10549592971801757812e-01) (13, -8.51573288440704345703e-01) (14, 2.40203440189361572266e-01) (15, -1.53377398848533630371e-01) (16, -1.86585448682308197021e-02) (17, 1.86665415763854980469e-01) (18, 3.09035271406173706055e-01) (19, 6.41045629978179931641e-01) (20, 4.39104318618774414062e-01) (21, -2.96525502204895019531e+00) (22, -1.25375151634216308594e+00) (23, -2.75658573955297470093e-02) (24, -9.58195626735687255859e-02) (25, 2.44484737515449523926e-01) (26, 6.80889844894409179688e-01) (27, -1.56257957220077514648e-01) (28, 1.80968129634857177734e+00) (29, 1.56233785673975944519e-02) (30, 2.42039170116186141968e-02) (31, 4.96052689850330352783e-02) (32, 8.12166035175323486328e-02) (33, 8.16031396389007568359e-01) (34, -1.17260921001434326172e+00) (35, 2.45135679841041564941e-01) (36, 9.87144827842712402344e-01) (37, 1.40490055084228515625e+00) (38, 3.11027139425277709961e-01) (39, 2.51499563455581665039e-03) (40, -4.62542986497282981873e-03) (41, 5.95793426036834716797e-01) (42, -2.72088694572448730469e+00) (43, 1.72513067722320556641e+00) (44, 2.63250172138214111328e-01) (45, -3.85233551263809204102e-01) (46, -3.11704695224761962891e-01) (47, 3.48065719008445739746e-02) (48, 1.30645548924803733826e-02) (49, 6.22712552547454833984e-01) (50, -4.18731391429901123047e-01) (51, 3.82000654935836791992e-01) (52, -1.01126217842102050781e+00) (53, -7.77417480945587158203e-01) (54, 1.39454853534698486328e+00) (55, 4.39679995179176330566e-02) (56, 2.45822481811046600342e-02) (57, 2.61452402919530868530e-02) (58, -1.77379950881004333496e-01) (59, -3.15111309289932250977e-01) (60, 1.20282828807830810547e+00) (61, 2.47723293304443359375e+00) (62, 1.26252806186676025391e+00) (63, 1.41573846340179443359e-01) (64, 7.61460065841674804688e-02) (0, 1.00878253579139709473e-02) (1, -3.05456846952438354492e-01) (2, 1.67147934436798095703e-01) (3, 5.34223206341266632080e-02) (4, -2.63033092021942138672e-01) (5, 9.80063021183013916016e-01) (6, 1.65775454044342041016e+00) (7, 1.10488915443420410156e+00) (8, -5.52492216229438781738e-02) (9, -1.01666307449340820312e+00) (10, -6.34826362133026123047e-01) (11, 1.15780222415924072266e+00) (12, -1.54247626662254333496e-01) (13, 6.78040444850921630859e-01) (14, -5.78410029411315917969e-01) (15, 1.01312883198261260986e-01) (16, 4.12484519183635711670e-02) (17, -1.26938492059707641602e-01) (18, 1.29885411262512207031e+00) (19, 9.37075138092041015625e-01) (20, -1.19655287265777587891e+00) (21, -2.93675184249877929688e+00) (22, -1.84364628791809082031e+00) (23, -2.37280070781707763672e-01) (24, -4.31865453720092773438e-02) (25, 3.72921764850616455078e-01) (26, 1.23379993438720703125e+00) (27, 2.57187545299530029297e-01) (28, -1.47621381282806396484e+00) (29, -1.19290769100189208984e+00) (30, -2.81703829765319824219e-01) (31, 5.39385303854942321777e-02) (32, 3.91377657651901245117e-02) (33, 4.89399999380111694336e-01) (34, 5.84829449653625488281e-01) (35, -5.86227297782897949219e-01) (36, -2.02505898475646972656e+00) (37, -1.88126921653747558594e+00) (38, 5.38948655128479003906e-01) (39, 4.02947291731834411621e-02) (40, -7.69390910863876342773e-02) (41, -7.65807569026947021484e-01) (42, 6.31162822246551513672e-01) (43, -1.93930804729461669922e-01) (44, -1.47392845153808593750e+00) (45, -1.08271181583404541016e-01) (46, 7.25269973278045654297e-01) (47, 4.92211766541004180908e-02) (48, 6.18842020630836486816e-02) (49, -6.53250694274902343750e-01) (50, 7.03456223011016845703e-01) (51, 5.29474318027496337891e-01) (52, 1.06311464309692382812e+00) (53, -4.60814148187637329102e-01) (54, -1.48967653512954711914e-01) (55, 2.10926085710525512695e-01) (56, -3.00437072291970252991e-03) (57, -1.60847872495651245117e-01) (58, -1.03319562971591949463e-01) (59, 1.30670881271362304688e+00) (60, 5.94020068645477294922e-01) (61, -1.81932434439659118652e-01) (62, 3.13811361789703369141e-01) (63, 3.36236506700515747070e-02) (64, -1.15775294601917266846e-01) (0, 8.81092771887779235840e-02) (1, -4.01227533817291259766e-01) (2, -1.27211821079254150391e+00) (3, -1.32239416241645812988e-01) (4, 5.01717567443847656250e-01) (5, 2.20953226089477539062e+00) (6, 9.83958169817924499512e-02) (7, 1.66603580117225646973e-01) (8, -1.19127199053764343262e-01) (9, -9.40282881259918212891e-01) (10, -2.05856084823608398438e+00) (11, -1.61853790283203125000e+00) (12, -6.58025741577148437500e-01) (13, 6.51373922824859619141e-01) (14, 1.98294624686241149902e-01) (15, 3.05179685354232788086e-01) (16, 2.94379163533449172974e-02) (17, 1.05657659471035003662e-01) (18, -6.03924572467803955078e-01) (19, 8.85650157928466796875e-01) (20, -1.21930754184722900391e+00) (21, -1.48832869529724121094e+00) (22, -2.63779401779174804688e-01) (23, 3.79789099097251892090e-02) (24, 5.45946732163429260254e-02) (25, -5.50016999244689941406e-01) (26, 4.19528514146804809570e-01) (27, 2.19386148452758789062e+00) (28, 1.90650075674057006836e-01) (29, -1.12562024593353271484e+00) (30, -1.16822445392608642578e+00) (31, 8.09142738580703735352e-02) (32, 8.40325951576232910156e-02) (33, 1.61935701966285705566e-01) (34, 6.66950047016143798828e-01) (35, 3.52584815025329589844e+00) (36, 1.28197681903839111328e+00) (37, 1.81169307231903076172e+00) (38, 5.41051864624023437500e-01) (39, 8.66087451577186584473e-02) (40, 1.87549889087677001953e-02) (41, 2.48217061161994934082e-01) (42, 2.37139180302619934082e-01) (43, 1.53966888785362243652e-01) (44, 2.97693228721618652344e+00) (45, 1.07576274871826171875e+00) (46, 1.95177364349365234375e+00) (47, -2.01318189501762390137e-02) (48, -1.42456954345107078552e-02) (49, -1.03386855125427246094e+00) (50, -2.60095447301864624023e-01) (51, -2.17100811004638671875e+00) (52, 2.46077775955200195312e-01) (53, 1.42417758703231811523e-01) (54, 4.76662725210189819336e-01) (55, -2.36959934234619140625e-01) (56, 2.84394547343254089355e-02) (57, -7.61460900306701660156e-01) (58, -1.07977437973022460938e+00) (59, -1.50464200973510742188e+00) (60, 7.86405086517333984375e-01) (61, 1.76442379597574472427e-03) (62, -1.64887443184852600098e-01) (63, 3.94433103501796722412e-02) (64, -5.95754086971282958984e-02) (0, 7.10490420460700988770e-02) (1, -1.21504105627536773682e-01) (2, -1.40453755855560302734e+00) (3, -1.59274429082870483398e-01) (4, -3.79737526178359985352e-01) (5, -5.24769723415374755859e-01) (6, -5.57788968086242675781e-01) (7, 6.48835301399230957031e-02) (8, 7.56668597459793090820e-02) (9, -5.68338274955749511719e-01) (10, -1.11155617237091064453e+00) (11, -9.38293218612670898438e-01) (12, -6.49241387844085693359e-01) (13, -3.89485538005828857422e-01) (14, -1.88016042113304138184e-01) (15, -8.75193923711776733398e-02) (16, -4.33097407221794128418e-02) (17, 2.82681971788406372070e-01) (18, -2.27140728384256362915e-02) (19, 1.67395011521875858307e-03) (20, -7.85523593425750732422e-01) (21, 2.08627223968505859375e-01) (22, 2.95154809951782226562e-01) (23, -6.17697229608893394470e-03) (24, 4.08332012593746185303e-02) (25, 5.22502064704895019531e-01) (26, -3.31039160490036010742e-01) (27, -3.50508570671081542969e-01) (28, -4.80635702610015869141e-01) (29, -4.87518996000289916992e-01) (30, -7.60357305407524108887e-02) (31, -3.84820662438869476318e-02) (32, 